-0.22499283386264254 -0.539619699024404 -1.052278602091879 0.07682325967261504 -0.009426886320618414 0.09909770955819064 0.775888519338161 0.12610086393308503 0.092312912249955 0.3544040268339078 1.7676476693893945 -0.338056242722609 -0.5136467781716767 -0.31364631013219 -1.4877257612926216 0.05242657917409994 -0.05998223430986282 -0.6039662118462891 0.29432874413459204 -1.0324215313117606 -1.070855428346325 -0.33115109517909846 0.3057097525753162 -0.6547651634683124 -0.8735184266773974 -1.3122779648240828 -0.6830721767645979 -1.3357393861618114 0.0603608112832793 0.03496306516073715 -0.6073963101386504 -0.16572882093363014 0.03626248247552596 -1.2402070845944866 -0.7609945266098203 -0.5499926743399952 -0.9973348448997729 -0.7073720590786503 0.27530017284380465 -0.9069344082326186 -0.9902212601643033 0.2788814451295795 -1.0610039089034322 -0.20761199173060743
-0.07820133707628357 -0.994123140453595 0.5958395201234983 -0.5185506615291914 1.9595133921213999 -0.5485666835453167 0.23179486397525564 -0.8217654108075092 -0.5666113588979883 -0.07564150679012671 -0.456332633953244 0.6571365977150404 0.0951764708979141 -0.17806663695602515 0.5227523877507895 -0.9703291505247894 -0.6531247215670799 -0.20727808439871326 -0.14586080205430016 -0.7421824559712291 -0.3366657223776333 -0.42140611947420237 0.8499974582503895 -0.5671010386799801 0.25003544797662647 0.7100581102415444 0.7247838553609282 -0.09995736422250621 0.23245248352616837 0.17050365181866003 2.5926385591667827 0.5658020925749027 0.5706860576995614 -0.34275218772492333 0.5573347341185921 0.7523036387804362 -1.0025431364759099 0.36778232360765917 0.09446253433682816 0.6392213329905609 0.04091866095156123 -0.03711056462819476 -1.0186405279595572 0.12756498403135508
-2.1551257424029626 1.7206925657563705 -1.8719177688503799 -1.8404878768790958 -1.7927652620297927 -2.196282047972376 -2.437539278642663 -2.05275135472618 -2.1069799735681394 -1.3527257830231418 -0.35279540303045803 -1.8831714332101548 -1.8199682387521965 -1.3762019853159648 -1.6117006956069182 -1.6641825967234942 -1.741661280237444 -1.90581864049966 -1.7889518938190512 -2.159903059589858 -1.5317704299030885 -2.0923138394832055 -2.1918761909609374 -1.4817574898962962 -1.5196303828865552 -0.28842805234937696 -2.122621282856294 -1.9261614325537977 -2.6878970457581794 -1.4116722804220798 -1.4503841680381135 -1.8678823729687408 -2.159906175002458 -1.37562581703236 -1.4064836299034127 -1.2267318291122011 -1.973356229325342 -2.5739567555954626 -1.4785464083312907 -1.737761879278294 -1.7481098237159485 -1.7103184842198649 -1.2201572272830195 -1.312574028388393
-0.9599941665884495 -0.9945448433287599 -0.9911191746529461 0.49822331231287537 -0.36064546305437045 0.2557827709627995 0.3537968561205777 0.623398575602469 -0.7738732219397226 -0.9586220971663229 -0.02379326210079972 0.3411042059750678 -0.4704764161900651 -0.18498732919883634 0.05844088919594827 -0.11666266629456037 -0.19076075327386863 1.4170328298107384 0.6881535670157151 -0.6351758496157157 0.017886024453702982 -0.550193503800474 -1.119840416782553 -0.47150925715441816 0.4235174775927241 -0.47711864162603457 0.10300653705561297 -0.5961308101187002 -0.8186586913780091 -0.062301211688372805 0.2999980131865196 0.6132241874973915 -1.1113276152876563 -0.8172962024734391 -0.9097214262691062 0.3239523520681511 0.3049647704004796 -0.9326623024022983 -0.8433489103208461 -0.3044296904850063 -0.9509962478902474 0.2631214495894768 -0.7241468239644405 -0.5138458329044355
-1.2170828743655921 -1.4064297837741064 -1.2202508475315736 -1.0548285073528 -1.087265396181618 -0.7599561020724477 -1.0379319579030803 -1.6399310111001189 -0.5526731356483038 -2.008984464202579 -0.4640041592807402 -0.7355807054400805 -1.4986187800626227 -0.42991420708445555 -0.5352698726465811 0.15503441987732425 -1.2966405628676894 -1.6226889159555031 -0.3604824620716146 -0.7570298352870732 -1.3029510082032252 -1.4906949773430807 -1.9300992968622184 -1.1293371619012111 -0.36920281482082745 -0.05519837770782766 -0.712933395408424 -0.8753863367115715 -0.5967198049112792 -0.7322494429688567 -1.5473826247244549 -0.4952167764383792 -1.300777796014185 -1.06293041284822 0.13291398399649634 -0.8643545922441924 -1.590162329712155 -1.2163370703984688 -0.3310156067263922 -1.103161799297058 -0.6636574280965618 -1.686996717591126 -1.7058861360741422 -0.8556359365942053
0.30071777657840293 -1.2794973105273904 0.5260295803062689 0.43596036846625097 0.6149263731452358 -0.09585914845255646 -0.1140505514807009 -0.2317436834085219 -0.09769784413580598 -0.8549254981399517 -0.5604542197438437 0.603605507682956 -0.30833240505092724 -0.6996141169719697 -0.4789793033378611 -1.2413729881131006 -0.9036852064535437 -1.3753011998030482 -0.4115833725808488 0.3634399722596836 -0.6004588593659136 -1.1634410647460633 -0.010675837957229524 -0.5856445632029379 0.8084626045504616 -0.8416778870674496 -0.5471437305352314 -1.153225850535198 -0.4674603270499317 -0.7203302033303685 -0.40881782712888753 0.00855539356356327 -0.557810244308516 0.44272430970608023 -1.2870609499982524 -1.0574180777367097 -0.8750201821561284 -1.031866183841818 -1.0902261590858537 -0.48237129982682686 0.9019406704821502 -0.5195097144594144 -1.0806856015238309 0.41728854038181024
-0.3127742532652358 0.06439327943773092 0.11627552227397088 -1.023369964955813 0.7508205905100825 -0.1797857402125317 0.5447801031091012 0.8306523752260431 -0.7352767345830925 0.15930494399476547 -0.5991990824769912 2.2593360977173393 0.46518817919201816 0.5928681516221476 -0.06117616370648711 -0.029421125273835 -0.9751821242944466 0.5257948578486913 0.4811259040631052 0.3987418459733806 0.46940927514646585 0.42623802039407316 -0.30616901010914555 0.5035465653678705 -0.9630705536104542 -1.0066823172395998 0.5945516047437028 0.8301293116598191 -0.6589231526688492 0.7361572704529379 0.1778546728193927 -0.9619842049193772 -0.5273826997952501 0.8857784973550799 0.4951314648666895 -1.0332856427053072 -0.3301395296078509 -0.6694995276066605 -0.9935188856065688 1.9524938206057085 0.62903885171608 0.37255773271398557 -1.1003629634747922 -0.6789869540834202
-0.8769785145191721 0.1884590289223248 0.19050773920749933 -1.2135512389574037 -0.34302600032606206 0.10566109922875945 -1.0807980469391012 -0.9285262695517353 0.4009850045912177 -0.4241529042271477 -1.3617205583562624 -0.9501470612174787 2.731025461403588 -0.20673819039187066 0.17460077105055472 -0.4833047205052845 -0.14116600111630703 -0.4694974128892048 -0.6171790890847991 -0.760268907170621 -0.5233667591783576 -0.25430073445289564 -0.7940114574026359 -0.6393509505336108 0.06844840534339645 -1.8239776008228916 0.42347911072081695 -1.2025289941322033 -1.0261787764232848 -0.38238886841692366 -0.3194643801973674 -0.7120994738098609 0.1301838479868511 -0.5095270248161041 -0.11065755206034229 -0.7061274552468514 -0.5999259703942323 -0.9389319052881316 0.49619082969214334 -0.6289723456314581 -1.1613684910373685 -0.20001954172769276 -0.6013472415500505 -0.49996046306686576
0.4028965966068773 -0.7242087852605501 -0.9957551290238476 0.4626549297439275 0.2987478327411389 0.12338868906812052 0.20617361991331706 -0.7146636395502627 0.8202284423691641 0.34157789676726263 -0.4711908077944305 0.5546509636943421 -0.11972199284486236 -0.9787084042081372 -0.0460800687749589 0.6729745663926942 -0.08913173726678779 0.3682520310809101 -0.3366749069345214 1.2358316540564573 -0.9354735791843027 0.33328275588195083 0.432700741927603 -1.0082626276319202 -1.0487214870594486 -0.3368641364112599 -0.010204315684407625 0.6207764571857378 0.13422097317260706 -0.7940762000915527 -0.8157490996491483 -0.8579305647102763 -0.8392175891414796 -0.08234278616324829 -0.5256266770704572 -0.15655972005302582 -0.9413367869941459 0.18706593985020434 -1.162998169608591 0.18840351092057459 -0.09032224576245118 -0.9046784298103342 -0.3072661095938109 0.7909305559766162
0.1968281490305568 -0.5384600473884339 0.2049515643054899 0.28284495906752416 -0.18212651505298455 -0.42985860115276436 -0.40054773820513445 -0.8929503369519215 -0.11920759060542066 0.6619087832058977 0.3507584942051252 -0.7717106576975864 -0.8621809421842503 0.226658028810875 0.16854456842777224 0.48491019587430667 0.11637429002800236 0.7414506094411956 -1.158304840614685 -0.7063006056156822 0.13191196156052135 -0.1301367353847575 0.05715248151848886 0.1048592273379396 0.004161914304203319 2.4729242618133274 0.9077593188815862 -0.44330722878686046 0.3415902747921907 0.344545595303926 0.23610046495493658 0.472928987568035 -0.7806721265575212 0.5796845215754645 -0.6480036422898632 0.44497698606156794 0.5651024910222312 -0.029421618576156567 0.6895303926643696 -0.9873810871114475 -0.3742202994920328 -0.6786096022789393 0.4803582544140824 0.22925980125715079
0.3181478081834776 -1.5455621320306505 0.3001717206995122 -0.021929306429592888 -1.3913918779404897 0.25914567053351906 -0.7894553764779639 -1.153994373267439 -0.15246960923923905 0.25516062496724884 0.06605172202564567 -0.8459423186850434 -0.5494239696138091 -0.1339799923873188 -1.3493357543972548 -0.7336078248652271 -0.39984897602048736 0.5188380686171866 -1.0251892905030815 -0.9976560430547112 -1.3245226312419156 -0.6068238666419863 -0.21031885746510087 -1.4042553811020024 -1.094906157711961 -1.1156663595004206 -0.8639249517002979 -0.513337660708008 1.310690103187352 -0.7768018306692855 -0.6367240935580013 0.11160294854717873 -1.978681710400721 -1.4575530274408186 -0.6249841881409053 0.09174320077192537 -1.4520375692765957 -0.07249467202454797 -0.8102162192345419 0.2695716921058827 -0.8936204308078581 -0.3509963536558568 0.8384287413556911 -1.1144058862450075
-0.22160807734448845 0.6606850920455843 -0.48848566735450283 -0.3141443549356033 -0.9792815996262916 1.7921057282882247 0.14486483668054378 -0.07568357224271012 -0.1667613718737726 -0.8076443353097611 0.12502584788505663 0.28894167186566627 0.3500119838575473 0.532715232319628 0.45329197015529 -0.6959978517801624 -0.6833229682162918 0.6487928833324688 0.47848203701183395 -0.6542799199331508 -0.19577881074188344 0.6459362365656324 -0.44919490778517357 -0.456551287519551 0.23509417224272944 0.8538759581722639 -0.37284998012771425 -0.16228483497572924 0.03172605845783592 -0.5955610834599391 -0.2950704011279752 0.38635319244192334 0.012469630394384357 0.5592755157620632 0.19587930019738173 0.5200946428204812 -0.08854589486520863 -0.043645729170401854 -0.8280688246346077 -0.15826662459514743 -0.5609509616554125 -0.7603078691082128 0.21591745077641156 0.9217546999519551
-0.36636390609275543 0.4622066337720386 -0.16138219124105838 0.28503354948653864 -0.6880269182964355 -1.0093749027530803 -0.27985273883028927 0.6648996171610022 -0.5352704176708992 -0.3084890662227766 -0.547730119009783 -1.0321119111688979 -0.34288453610637465 -0.04334532620855895 0.5731751736632978 -0.7477642950449647 0.328101316652346 -0.3303998044278222 -0.26162955080546674 -0.9980755003693684 0.1647551345410076 0.7248572072313787 0.29585304305698246 -0.47104691853535996 -1.1408486949778893 0.05317541624697095 0.7695042709867745 -0.24744096921048692 -0.5896274803251526 0.10332465226600543 0.649982361659741 -0.6500906095002028 -0.17130197019955484 -0.1373170361742186 2.3190375748566994 0.18379331731521964 -0.8045936082857459 -0.4828924576245571 -0.8026238588316704 0.516654772341115 -0.47213042493855834 -0.37110096720181757 -0.772499512738324 -0.05503830320487029
0.05674320490343164 -0.813576524680192 -0.8282924254231695 0.867795769553004 0.7667507718480221 0.2685245274353019 -0.7296331411212179 0.562687602791824 0.41899659303814335 -0.7290216670478176 0.13707567746275476 -1.076324099529688 -0.5553004568719664 -0.7578598824100378 -0.01952421451052195 -0.11549504217997986 -0.8536971005502167 -0.5775683559124456 -0.5557646312667268 0.00041253620076062375 0.7974302025754486 -0.7869347887258599 0.3559698315019585 0.4911932798543558 0.8558400021140958 -0.006311604157480183 0.5266295981836796 -0.6615302152459451 0.47309357028535326 0.3917526919978298 -0.7742546308800918 0.639073105468286 0.4786794938088385 -0.13367790420073886 0.5132195295705126 -0.8444702990638308 -0.4775490731144599 -0.2585760869302907 -0.8393668945028507 -0.7947422567813847 0.3062237001819511 0.02316423981092483 0.19784073803992278 0.6333575471425547
-1.433025907355116 -0.5679480603593346 -1.6021203710624476 -0.9842185289376244 -0.22360249175241975 -0.11306775989341661 -0.18294602606714971 -0.6219715874526536 -0.023916612822364156 0.18476866343298073 -0.32758973511144135 -0.44834774540402295 -1.1377753176537642 -0.43357166317034523 -0.14279165190778084 -0.2743647623253083 0.8427408173343269 -0.7866939969225402 -0.4319116459432173 -0.03274297197714749 -0.14575689616977958 -0.8108503669791312 -0.7904659484849196 -1.010944748801779 0.27405713183968655 -1.3265392327337602 0.22609843921877115 0.5150202647177985 -0.22420098602196534 -0.610276420181334 1.1592740351213728 -0.9925773806063259 -1.0916699592431909 0.2151856755588256 -1.2633450975080278 -0.0004506834576079743 -0.916670056885082 0.0349311966132055 -0.950743387826162 -0.2453743693381293 -1.0211804316759565 -0.4842439473052645 -1.7131791216992893 -0.9102389699048613
0.7235490557658799 -0.830903729047509 -0.11193627179261802 -0.2843027652930776 0.46019793885484733 -0.7400415648219626 -1.0295813113840324 -0.10310815164546767 -0.2296608380281438 0.9644664716792745 -0.21962399865753485 0.782561706483604 0.7539590108188826 -0.8844153537362766 0.10182772460757289 0.9616733155581868 -0.44491198590146164 -0.46596881222933556 0.23568089003591708 -0.8824784432830535 0.6564743284083194 -0.8730000876111684 -0.041273195466277425 0.15485343784305744 0.41674652809100443 -0.4854323387129861 0.009860550813022267 0.070553261820325 -0.3350404158051443 0.7255924427077631 0.42608390078952696 -0.8576577682217784 -0.230028404623111 0.5547208699482321 0.6972373404455513 -0.5387573711287733 -0.7333131201979625 0.5686884772789795 0.13907951009977657 0.1665408893957524 0.7053196237289374 -0.3990639296332747 0.6119976951647396 0.5155099940237655
-0.9110399708249444 -0.5426303238108641 0.05222559311150369 0.25638600964820873 0.4631467366137182 -0.09909516381058435 0.23628239239352014 -0.5616018606689474 0.880130856433238 1.8541578640418055 0.6690999493223112 0.3182208161302033 -0.2460123611078656 -0.5379196706172998 -0.9459083076593443 -0.4044655515344789 -0.2712608564844492 0.10839936986331512 0.9017354509017347 -0.13350805458086298 0.22292515926745368 0.7732666190249519 0.3974282692271865 -0.8827810498541373 -0.4747148140999692 0.8033537006123185 -0.8526640343421216 -0.6560554149365657 0.4129820573867782 -0.655790803679853 -0.6972102587571726 0.13924143488381568 0.5728527071800917 0.6161913553688224 -0.3896956986737639 -0.6470850855367581 -0.088837491286039 -0.10503664667458051 -0.5251763997377977 0.8157705856700644 0.4661300669565368 0.1624253430994739 -0.11684504015915763 -0.11723812870286725
-1.6357327463270617 -0.5133919208393375 -1.0920024502346686 -0.9558510629998995 -1.2209033134889204 -0.38304248119812273 -0.16134136038371877 -1.347649494045413 -0.7565423414223411 -1.1083109208345865 -1.241308352971293 -0.20224674121643021 0.7131720855564297 -0.32127892683465703 -1.1145753529845088 -0.019438393856101435 0.9888061436284044 -0.14801929708152115 -0.550420845788478 -0.5888384170476454 -0.3373881704486432 -0.7511880194499421 -0.27717177711353663 0.03926446767284055 -1.2199336436870445 -1.2051427671366541 -1.4626254696659984 -0.5776455834650732 -0.5504264196543818 0.19342187249372234 0.1932975660964692 -0.48870181276710856 0.15832990046219875 -0.7348167032915335 -1.1313194525554442 -0.23257162583544877 -0.9007494123504564 -1.2978783761365142 -1.109937065879974 -0.8632847977872431 -0.7183854722589565 -1.3510208519214228 0.1684547497549212 -0.9719580607936446
-0.15807167753248355 0.5001855898191426 0.12448720744093285 -1.026255321368254 -0.8764432000881573 -0.24323594939370738 0.5766056886500514 -0.6989968825618691 -0.471912713981659 -0.03847950331086468 0.06871152397400086 0.3194939262906697 -0.8672370551411152 -0.3532430669191776 -0.6136681853693592 -0.38323767272642245 0.4868621735075398 -0.23149579726603592 0.1672661478685813 -0.8045909939694665 0.4437593238732664 -0.34300736901153456 -1.0030700943504154 -0.9703465049493689 -1.6665411768390153 -1.2831750183252164 0.0918864713843833 -1.2838959262288376 -0.8572987610330172 0.6887597710333242 -1.3071823545730612 -1.1500385914336853 -0.40331628563430494 0.17702648614872538 -0.05665106585165983 0.5592912735391942 -0.1040406090694028 -0.6097312969904808 0.4088173579209828 0.272531013902629 0.7274741966188396 1.5896559767687877 -0.4725799882051121 -0.8333462339779449
-1.0472672560671996 -0.12201629856564085 -0.5342418376546978 -0.24139574578945233 -0.5046299139381101 -1.1054536629447362 -0.3878462342159543 -1.5552132311868643 -0.3708690303408392 -0.6900482683030056 -0.8625605614609666 -0.6368214459384598 -1.1835874170615102 -1.4484743195089886 0.06930364416172444 -1.2266014056946484 -0.8481754582540115 -0.2587014824678823 1.4558430268570808 0.21021972439618267 -0.7709573354560536 0.2891938729765589 0.11568567995799196 -0.09104639271520698 -1.086827387935554 -0.37346471670585457 0.6309118327474019 -0.8206467554090854 -1.2857962297645316 -0.04648082630446977 -0.009138713032614978 -1.2185976502484752 -0.2997155398017845 -0.7481264761865237 -0.9231184972937784 -0.8673626917453022 -0.27450356979009083 -0.6295072912049335 -0.8745768972735781 -1.2555260393146115 0.18515599548743158 -0.3259472543762026 -0.885031873488123 0.16110182047979907
-1.4685293839304685 -1.542467009261139 -0.9434113664055753 -0.06198504274885565 -1.2050517278797281 -1.871920825846376 -0.7153682949075749 -1.2202463039533826 -2.236183144120255 -0.3588486086235935 -1.0844028781258206 -1.6792544761009023 -0.45285343536366923 -1.7873541489326168 -1.6073356481460328 -1.8916987178874152 -1.680121848925822 -2.402906811524777 -0.6763417828242695 -1.0480726099229436 -1.7821794370125832 -2.286605385842298 -1.307820848970757 1.194414777690458 -2.140497986918739 -0.5204506508236727 -2.085157821794337 -1.1686206522144245 -2.0062114923395544 -1.9560466544491708 -2.2017954489316423 -2.3225776398328293 -1.098297146131117 -1.87514600037495 -2.2345552806334137 -1.1893714284879344 -2.149474960974021 -1.7761184771227672 -1.6815315917943696 -1.3540885951467814 -1.2027020838444231 -2.064749845500294 -2.903210157894817 -1.5713396194261724
-1.9193260984820608 -0.8652584662935965 -1.5485539063105642 -1.785183659240742 0.23504384261678954 -1.3657895889848435 -1.9829231888485852 -1.4965491432596605 -0.9871902347279949 0.030686575334088535 -1.5368665957306795 -1.0835414211054895 -1.4370352421666372 -1.703693661325472 -2.106890691149599 -1.3587022220064244 -1.4553880036154911 -1.4519675083981223 -1.593496990277442 -1.0521376130678004 -1.7588627173646842 -1.4079993343520416 -2.1353127523194 -1.6992068254384554 -1.408485711167901 -1.1618301426457252 -1.2728807319577982 -0.9241510299615036 -1.889063018479384 0.9258163001798576 0.41777247920094834 -2.3703099605719924 -1.5673381691308594 -1.391013072499201 -2.0055164863411554 -1.4471151294470155 -1.2001508529437248 -1.768081154674055 -2.4692318279263947 -1.9851470744735888 -1.7097920637089148 -1.3300771669671028 -1.6222393499586363 -2.121433256811095
-0.8766801175288331 -0.036654587252051514 -1.4708562893588126 -0.7571135792350737 0.23544036164667595 -0.43660844397736975 -0.36960261332424416 -0.6786497953789667 -0.8415473171391253 0.8563617734798522 -1.2978571270499435 -0.5269022815836363 -0.5565220192394252 -0.04775780052009456 -0.998404682824645 -1.2231099297082704 -0.658432922545186 -1.0562604842717251 0.20097896133561735 0.18829614528637437 -1.0128354739173655 -2.3225482136668716 -0.41040346830079955 1.524446493746141 -0.4492824699093879 -0.5084383196654941 -0.12362951232477909 -0.19527119625556036 -0.3114257424956715 -0.17534295969427702 -0.22707827190824464 -0.37719910065521656 1.5049223958248947 -0.5712166281616698 0.20768206571844136 -1.0590985127294845 -0.38202595167197156 -0.21410005051786832 0.14360720934483892 -1.012687345121066 1.7760913695347857 -1.0176169282687797 1.857453827482129 0.27723131663027895
-1.5788327650745433 -0.8007121237373531 -1.4761824461751023 -0.7735714188965693 -1.338299549285349 0.23205471104767939 -1.1860112624078152 -0.611365510104214 -0.8451158072443022 -1.7559994649379922 -1.1725389397582644 -0.011891615193566876 -1.0455971404358846 -0.13030575178364281 -0.6101384542640967 -0.7490217368275258 -1.27126082571243 -1.4138503408890246 -1.5101785270031267 0.03586749222896844 -0.8138178138008961 -1.102759096599102 0.328083600294907 -1.6880178648788804 -2.2923011673345144 -0.4418128674901944 -0.30097338933121803 0.20393004783517543 1.071423062576484 -1.036254307728111 -1.1231379987282848 -1.3476940168738394 -1.6898199469332806 -0.7259289757217431 1.0837719015624394 0.10600337934575065 -1.5312875841165465 -1.272046351497108 0.8353387311282456 -0.03646071305063596 -1.1493894295596692 -0.7719182845759996 -0.7412804195165038 -0.8058428390786556
-0.5348813720730884 -0.7758234270147553 -0.2976727408919613 -1.0120734129769045 -0.6355596490278783 0.2947670546617286 1.6692096542053032 -0.8152388987609955 -0.36803546386765557 -0.44838700954833705 -0.9790084921076276 0.7689146724322834 -0.5725657838815478 0.7617589514956814 -0.015581657574451508 -0.491639476656818 0.02246955558502928 0.3524450651079214 0.04450441906938141 -0.08619702422637161 -0.00344722344793994 -0.40020158456040467 0.5228939685273951 0.21268598929180516 -0.8189243255431721 -0.3784494265434746 0.7419415376450467 -0.5132739747720308 0.026988237620294366 0.059092789096808304 -0.7952950893350894 -0.8367884728103001 0.273276555221302 0.17212795916849943 0.8399365141185064 -0.10822781442721138 0.37446991225337106 -0.6776344218561733 0.4034061291061175 -0.4104746948618825 -0.35466764503201004 0.5964779431764912 0.7700808133960189 0.33775471557902803
0.10907921291406658 -0.6664625068309444 0.6875619243214622 0.35590794149983035 -0.5975878136208609 -0.6244077444961432 -0.6035680952986175 -0.29258977933556973 -0.024387855151169396 -0.34315353740575133 -0.019107231746960947 -0.8439530085436713 0.18840825533291203 -0.4948648548495889 0.07101100304465302 -0.04158172656395837 -0.9797209753273635 -0.13620834865370637 0.966882567259037 -1.1275862860247383 -0.425753104085964 -0.80945908036394 -0.3175448357207525 -0.6900566234697342 0.4979213149995317 -0.8420223334781303 -0.24247736212278326 -0.23974447792006412 -0.7684333725480127 0.34764673371598775 0.9186837738630604 0.18758546444885807 -0.5220475111282126 -0.6023111111714042 0.6360990520500368 0.5544485784636836 -1.0449413963927097 -1.2329922110813056 -0.3183587237710603 -0.07994906571134419 -0.5328694276735013 0.03841836711831348 -0.5687395137541622 -0.7284732076436256
0.6121190519493048 0.30375634429761333 0.33152602160349076 0.3824821406539825 -0.2320132209163704 -0.09283175548142827 -0.8584702454210479 0.25729397999797754 -0.7524886896178791 -0.05293422281987327 -0.7980758611311345 0.09466055640005826 0.8559539932925281 0.5725026654516051 -0.7307798898637208 -0.5462600230167454 -0.8708857243530376 -0.12840679158536064 -0.8739817427265371 0.37354528706139317 -1.04222084099845 -0.8175348953236493 -0.14101232276091255 -0.9780739847893563 -0.6623678244735602 -1.0732643244157594 0.26557859931160605 -0.4547296292110203 -0.9335730545830785 -0.23291385012583873 -0.4344777735543754 0.31028855472223527 0.06015411453182128 -1.0256162827470023 -0.3261167986512873 -0.45463758908616403 0.16402683470705395 -0.2903662825767502 -0.27961643294566785 -0.9001346367769991 0.17009996421943052 -0.4421388899880552 -0.958981822938312 -0.8069876999218054
-0.041487158337548014 0.509576697202113 0.09018984989365529 -0.5800465116159872 0.5987153996728126 0.2144691939383307 -0.5730498471772983 -0.18351048873251474 -0.37518867177740267 0.4026826302921188 -0.5009868290685164 -1.1926008016150575 0.3294405048855077 -0.8502828158177665 -0.8844342441172787 -0.03527077792756882 0.7846783720574098 -1.1850171341120597 0.21934091790648624 0.22504024694322064 -0.07867757633842755 -0.009403515470714562 0.6474394115942704 -0.2696685546235409 0.018409046874513904 1.0607854187859749 -0.10729760378693054 -1.040333516255192 0.14401773809520813 -0.01902816220212216 0.16924258453919655 0.04650073656299128 -0.07585460728965569 -0.8765925290197086 0.4585170286849131 0.34144650640129254 -0.6836477947510446 0.49356501918427637 -0.5964953731737367 -0.6200363116331563 -0.22640280689395964 -0.20234756536985907 0.128402715183226 -0.33078316930250795
-0.32208235531736623 -0.6945369601578206 -0.6983174561902448 0.2928206717901696 -0.48328580222695827 -0.4371087107663783 -0.16341101978639733 -0.37947495795913333 -1.077567725009658 0.043284324626926676 -0.48752996648365987 0.4471661971359073 -1.203439262150062 0.083522764175961 -0.9830012353611262 -0.8064501753012332 -0.05015316497110589 -0.20367040699838063 -1.0278281136137155 -0.10255514281754757 -0.10995312732366333 -0.2725822294149901 -0.5975873219887468 -0.3143054042738802 -0.13584592999226108 -0.23930962028324634 0.07282223594483585 0.24140179277443535 -0.5122396494811672 -1.2955464855098444 0.7358668282309969 -0.5062536811488184 -0.2858978094268812 -1.5914481976487693 0.4941977300770618 -0.08478358628557733 -0.8211721047616133 -0.9428975673944029 -0.010956153027776243 -1.3128461682241805 -0.3983612149628723 0.2163219373205345 -0.4192137747903506 -0.01360334384705767
-0.044183369013894906 -0.694188900689663 -0.3691178510231923 -0.601009436966343 2.897877641484778 0.1967272934597138 0.7359538801646375 -0.9024718443952922 -0.9052581256340964 -0.7556504075350856 0.47339889959108084 -0.5489533637518831 0.28457298546042487 0.10818350945488289 0.7724069471809987 0.274607179289269 0.09193073100638793 0.2636878440800003 0.11627232942641862 -1.0802064640548592 -0.9821137715603072 -0.06517070363120783 -0.019566724425159835 -0.8866906639480424 -1.1660559946305669 0.6708684169839924 -0.10112147919934834 -0.3169313525408549 -0.3347378841570586 -0.3745040744942124 2.4011949778717825 0.0007957616868397401 -0.17875146214666246 -0.6412332112690481 -0.9127819725866724 0.09877862492238368 -0.867830420732952 -0.39656524105109175 -0.6489018045839654 -0.05178878369497497 0.04641885913751082 -1.2041554178162508 0.7194670984294577 0.10720594638286184
-0.2520440590773931 0.032278519754059286 -0.8725759295114662 -0.046415512873153854 -0.793593631949606 0.14546779636454593 -1.086346996326043 -0.8728342122022751 -0.4496424413055461 -0.1320461861218949 0.4163916971027996 -0.8262079694949352 -0.730612021909002 -0.24263773336319153 0.0841323704611705 0.3630699582889183 0.0007190432462032209 1.6915291430270327 -0.8720913244333128 -0.5677414450135135 -0.7846522677604263 -0.4039705713732224 -0.34588605055828253 -0.5982848935318996 -0.861511663065757 0.7559197796100914 -0.7967953172319041 -0.05564919939600578 -0.07105860769194725 -0.7047516602112139 -0.23021331359223232 -0.88570477384533 -0.354767440831166 -0.19975204998224155 0.40743068656619363 -0.6421209106901204 -0.14342343098119453 -0.7644488858286543 -0.7013741540398005 -0.6674610919067235 -0.6363975618072084 0.48184862264968986 -0.32523644643611327 0.34403338067440636
-1.0693390707844186 -2.017916407062062 -1.5284991029491297 -2.3362945666867683 -2.0880472308594564 -1.9489739804618431 -1.260733270541532 -1.4721483290873738 -1.652451762143905 -2.066838058960896 -0.7289697002347959 -2.345959960706104 -2.4023676307068875 -1.407536465905365 -1.9663822680605645 -1.5322547413970475 -1.4077003154287664 -1.6286075309011259 -1.97363476358566 -1.5664257523304428 -1.7612417638983582 -2.2458291517458164 -1.7832035378615676 -1.7812440648328316 -1.0679165699929596 -1.7738727282092428 -1.3717976776543073 -1.681267747212795 -1.9570221183157723 -2.0761150234004635 -2.1556033180169667 -2.0654374640284643 -2.982729616092101 -1.2065375629283428 -1.438781357208107 -1.6483471871822668 -1.627278952714965 0.13262194437746586 -1.3072735357198881 -1.1778092333133883 -1.37101534343443 -2.369641261512336 -1.7608076604352365 -1.4009802584211808
-0.5544517317229976 0.22821468433453687 -0.15501768790265436 -1.2765429173786966 -0.7619593256345275 -1.0319279232345322 -0.46543790888064124 -1.326796881484237 -0.4876876636611924 -0.05898464022075358 0.158477903844809 -0.4688397418626446 -1.100759433860409 0.23150399912766956 -0.3153138139187325 -0.0009309115893416188 0.2828067085255611 -1.2310905609512828 0.4130608768836388 -0.9844752089810106 0.46892697921043897 0.1384500478292696 -1.5658841987345633 -0.8198474440954998 -0.346739081623207 -0.27684093855407826 -1.0141609686748279 -0.8158737839568039 -0.7632294996555201 -0.8823715020592675 0.4241745515749152 -0.20948466929939938 -0.970194680658303 -0.9446835123903105 0.037399348411792405 0.1740608609001366 -1.067371972848251 -0.3524091727288879 0.6385943619010178 0.2233751131913493 -1.0185924442403274 -0.10397897277279196 -0.1498697636049483 0.06673247092072312
-1.1751821260287638 -0.6249974053618607 -0.43586290383521126 -1.2801616041646104 -1.249777799186622 -0.9100419613362822 -0.27112079784988263 -1.1557882484290343 -1.1316745114566418 0.16590986731426935 -0.7587388943920883 -1.4581338206493772 -1.6720089031903134 -0.5494107467154451 1.329086154075802 -1.2825680073932788 -1.1345698730149099 -1.2426743860703329 -0.9430788051431571 -0.29344887068950143 -1.2651688146823006 -0.34397676081519907 -0.05073245487005852 -1.1060893702558638 -1.1254139890174732 -1.1268949112554252 -1.6440460867643474 -0.891296690338936 -0.32547951262073943 -0.6853221921407333 -1.160795711476644 -0.9393014420782958 -0.890863296892031 0.05071464451419044 -0.23755350356804117 -1.2113656914596238 -1.1899297421537083 -0.9457041538201515 -1.1520182988113878 -0.5488255810761241 -0.9410115372984031 -1.2912204294818201 -0.7095315682229161 -0.9404795393930498
-0.6906516941308608 -0.8264927704173859 -0.026053403899230606 -0.27982451606229763 -0.3514669091420631 -0.8936570687386538 0.17953843402970823 0.12403913898778507 -0.516064853531706 0.12922234269856162 -0.06252534088753274 -0.36695102468683666 -0.2728099430950755 0.1229944529075162 -0.19072333923556173 -1.013616800149218 -0.5400719927348718 -0.21780499323795383 -0.08002823276343612 -0.2712158828334253 -0.850579860256305 -0.9566284266836509 0.10137921574237217 0.49722682295979087 -0.6159506421588412 -0.0953975764004076 0.6149608694932285 -0.4568097042290006 -0.7535734849264245 0.5244997523888495 -0.5147178658582643 -0.4014869010264525 -0.9065629082304356 0.017217186566716974 -1.3751714384026008 0.8297547625459947 -0.9352406489878081 -0.4155843914618523 -0.5697244164556566 -0.8622270479740822 -0.7599542497419755 -0.9107618347838783 -0.128689873716958 0.026995140945603433
-0.8260709369669064 0.6870809205833264 0.030247842085370263 0.7071357326657681 0.3334711498262205 0.5494599554196542 -0.5234113071227358 -0.4570791791541688 -1.0189232054923094 0.6998415105616522 -0.05666449216911831 -0.6254208908886078 -0.9964083405992918 0.550319945373789 -0.36811995549419835 -0.5489182295721141 -0.3750278708076726 0.6739522684745238 -0.19231908722786176 0.3750436796641721 0.6463483592052292 -0.7207652972222898 0.07044557075194118 -0.9944796023941116 -0.016180991913332877 -0.980355881458887 -0.24358292666609282 0.18919745453892745 0.05989283788398174 -0.024083739835410713 -0.31231018817710954 0.314293887183842 -0.8316001543424131 -0.7281322812247534 -0.1755600210354964 0.24930073245552758 0.6252469942205665 0.6803297726542012 1.2272236651468096 -0.7827636265184799 -0.9958782186229832 0.4824847237756967 0.13545437019338546 0.4183377849507889
-0.9022594787281705 -0.3190624609499935 -0.9656783187071365 -0.4585513346075865 -0.44109929859597297 -0.8402015379322271 0.2704949730406169 0.38294518247873693 0.23692648573971953 -1.4388562466036499 -1.1001714437721375 -1.2844577257396936 -0.646530778718484 0.18054925453503692 -0.7948562085109121 -0.2773231763079586 -0.35337134363394074 -1.0396043804321822 -0.2568056322034877 -0.6046736788360186 -1.1795390769966516 0.5329763815787216 -0.31940272935976616 -1.3058259627819657 -0.5300865172293563 0.019874476131808948 -0.16572630971396554 0.5350268041770055 -0.5729304925816162 0.04191022429786759 -0.3599539620052749 -0.27605896376650024 -0.04623939977376239 -0.9971572053989991 -0.044118457767617886 -0.468309761633244 0.46125313541259483 -1.3136439308065173 -1.0715931400391785 -0.3324639856732678 -0.7639081476787812 -0.11091487006514937 0.49471000955091154 1.2261984874508225
-0.05245558734615712 -0.26083000026076114 -0.07800547285295024 0.457541068201786 -0.5396221903329085 0.4591223795057786 -0.6770031164741397 0.7708757439227817 -1.03939810701678 -0.18845887114199125 -0.5392170527088771 -0.44939245779728776 -0.7222446988887746 0.3221601943611979 0.20219199922234504 0.3522943101452417 -1.0770459540465867 0.22723077722643886 0.4074957734000142 -0.7997045944550216 -0.856150915844028 -0.5651690694870833 -0.12469606135792487 -0.38315332228654525 -1.2263602536778224 0.4535710442067055 0.5222438478880058 0.3833935468142251 -0.285961976631338 -0.25864675821427274 -0.1054015273787129 -0.53729167944729 0.1936251564328566 0.17159444763780676 -0.6314600427740706 0.2169053397678697 -0.6954737422146237 0.48259491829346823 0.12228543571412363 -0.07801126802256608 -0.19433701789149493 1.771545264832326 0.27605628652785724 0.1694457420731938
0.07673359320414765 -0.07685170918075263 -1.3503217822544262 -1.217348586151398 -0.9521820635692211 -1.327939633222717 -1.170520602754761 -0.19999263885175864 -1.411964215504899 -1.608957594769915 -0.46854536798492324 -1.0568846476433507 -0.20045506733192772 -0.844054002992243 1.250414726853002 -1.135602644233598 -1.1860236400983069 -0.5675835612921396 -1.4510556681098685 -1.1923891716842159 -0.8068708229784508 -0.9018155356909219 -0.019961179885840532 0.4115477912857737 -0.991198629824935 -0.8692343007631975 0.004888659777291358 -0.2793923347671453 -0.9256587259544831 -0.6762274727108343 -0.7055876966524163 -0.7030487875299125 -1.32833195258549 -1.0089773643964934 -1.55211000842076 -1.867196214251744 0.23144632886371933 -1.3320577294274158 -0.5154887834553014 -0.3855594552079746 -1.4450702176789387 -0.5322960296528769 -0.4383265907963031 -1.3450143278132867
-0.8328814292332141 -1.5585082305599907 -1.5695171197634354 1.8564121145082804 -1.5896741369604297 -1.0093470292643716 -1.6173573467321118 -1.9944586035104668 -0.836446611999748 -1.7484023604075383 -1.2330373667904688 -0.8026226058180116 -2.3037947469520277 -1.2035861754009416 -0.8248601287840922 -0.9334700749380257 -0.9201764064626688 -0.3826885424789804 -1.6236485816641175 -1.232412551749217 -0.6655446979931652 -1.5475301266962902 -1.1215357069434333 -1.823042518714053 -0.40007283094119095 -1.7470091688737128 -0.40422455930298923 -1.8116221155903467 -0.6486588240802285 -0.6190403339425122 -1.066963706682244 -1.3064913496349275 -1.341691761326668 -1.0247191894189775 -0.05659126545816857 -0.8594356429056815 -0.4674724922240381 -1.0705016410175818 -0.5752590426146982 -0.29608125149800074 -1.31008137716624 -1.0284476862849632 -0.4273521810880632 -0.8909201233696212
-1.0144098471508154 -0.17958045826007157 -0.7242282172178071 0.5062736040493174 0.15945489719578493 -1.025143728169103 -0.8684994898611869 -1.2578032946018936 -0.6435972131237317 -0.5183215539094561 -1.0521294246859831 0.05567218180948588 0.3894917648139665 -0.8045380931896031 0.39129661553487993 0.06153131899455127 0.19602850205285574 -0.09024503184725052 1.5029029793348205 0.13832342061178063 -0.16216660786057743 -0.31352066455008737 -0.8023121633009365 0.058271743246962215 0.5650445782468865 0.24322981113018874 -1.1170112242067776 -0.7335103800816157 -0.17197430169736264 -0.6060633616853415 1.735570504741354 0.1750531829156652 -1.0409235068893727 -0.9271126006841591 -0.9606203586992729 -0.680092947342187 -0.5273495868213764 0.005641077718356636 0.22678911325646303 -0.1908944810612278 -0.3931136006796091 0.07151778127055806 -1.0633009181926667 -0.9958565111205855
-0.544945986858526 -1.0908840190736364 -1.41789501259272 -0.4199887526786381 -0.50664512634458 -0.852505916466649 -0.8222613630908638 0.3418150788530188 -0.44569161137935337 -0.6529165868520864 -0.19671903109536804 -1.0867921623678778 -1.074423777639823 -1.2136726289497164 -1.6505901698167904 -1.2620275540314467 -0.7875311559323486 -0.15093283674161373 -0.4983349012804781 -0.7908224997552254 1.029064446127165 0.021758378704844327 -1.3787214315699907 -1.7175408600109596 -0.9108592510733927 -0.8191835608695056 -0.33432710566754487 -0.20195609043331947 -0.6098353150308087 -0.09958702095577833 -1.01030773085049 -1.201709848676024 -0.09551567056393782 -0.3377301922829688 -0.9570688176778366 -1.1965462703052663 -0.8167698625157924 -0.5951382937284596 -1.0604088593960888 0.1755832003096402 -0.18323911838120116 -0.21817603929290344 -0.9389636364464791 -1.5736721399990423
0.5122821590096068 -0.7020891368221324 0.9723989419371645 -0.938287872248463 -0.4397899707016654 -0.3105952885385483 -0.027456584118430064 -0.9262052547598979 0.3499350988662394 0.1572890439101465 -1.0731482540114359 -0.6060215098422568 -0.6065524957919634 -0.4825838368528672 0.5668662686259264 -1.070056331635943 -0.33028002710251686 -0.1604693389775248 -0.26681478001280284 -0.0726835243145789 -0.26994338606502805 0.8146412396112661 1.6479866171672082 0.6975382931564157 -0.2840620679594083 0.0777473646676412 -0.7453416048168097 0.48055453971096457 0.1975536423369557 0.5254534227580863 -0.12003719432630651 -0.8895105838957915 0.5628084803022204 -0.6262490418858132 -0.6833066733998258 -1.0548634639724794 0.6820431251956546 -0.658561753215691 0.5224249742935461 0.7488790839414796 0.827525860046427 -0.5085697128332347 -0.7727805600412703 -0.9459794636029222
-1.4322406900400837 -0.6374904233292641 -1.2391038821193041 1.8265434696765857 -1.07493655538817 -0.8588132124906422 -1.4382593982987697 -0.5294211505041763 -0.6793621390428899 -1.651416220493164 -1.4683923067593763 -1.2646172487514833 -0.7236403836541034 -0.9351238645241416 -1.3522166719833075 -0.9218858812736237 -1.3238693104306964 -0.9492397329953828 -1.4747394462805619 -1.4855071567176925 -1.2821051315894965 -0.3920028490206573 -1.3681259193970388 -2.593528182972374 -1.2184359674610117 -1.3583297062217738 -1.293401460878317 -0.7502317655012486 -1.072356143961116 -1.179751215571365 -0.5748918572170475 -0.36429565552615734 -1.2974745274865234 -0.8493685327777722 -1.5135305755587825 -1.7263165579253872 -1.1667310859842261 -0.8977885415465741 -1.5101332961619276 -2.1062736569792095 -1.2873469906409056 -0.880470302310407 -0.5122495046959157 -1.3108771327525606
0.1098352825279595 -0.1985526617873174 0.7466786551988569 0.6371601753334908 -0.0007192162645857091 1.2088356350539202 -0.4600498061924259 -0.9145176886395415 -0.7925946968763368 0.8391306074296803 -0.1284088928360342 -0.49596778821654036 -0.1518054522287867 0.667528286053795 -0.7261129701228453 -0.8233991002834182 -0.9161393614392785 0.7596841974311161 -0.6369645407333399 -0.5703099139395038 0.43052185197535753 0.17270049030947102 -0.979200235071218 0.6701832744461259 -0.8665110703209222 0.6807862376610356 0.9592145433972308 0.7442987676965743 -0.824846062915475 -0.9771209999128233 0.4661585083565114 0.7696223948389953 0.6013946320719108 0.7337306074616221 -0.23505543271431764 0.33981004300145845 -0.7294034558674265 -0.2574696710611545 -0.9251571608808351 -0.22992576656804123 0.8986470504345816 -0.41167510919991135 0.3834281376030994 0.6892260451315882
-0.3212671892494525 0.17275117184716113 -0.40545870887233 -1.4238015315825385 0.03574101256433489 0.29225042727072076 -0.5280647335008247 0.23273777057678638 -0.7310775907680811 0.4678053983642196 0.3883335497075113 -1.05188671499498 -0.7595802452878639 0.30529035103611224 -0.7635043800618927 0.0270222717870881 0.3624307762131058 -0.9002883389194853 0.6936565142515971 -1.1469045487551792 -0.30456798793601475 -1.314512900598153 -0.9878914276660571 -1.3318152889048371 -0.9357388968932507 -1.304077758047529 -0.4600150762941223 -0.9906689979480802 0.16600703561028174 -1.0391344188242477 0.6603149532951282 -1.0100171106865639 0.4431231519775914 -0.5828931206927268 -0.07413731376079104 -0.43170523129229815 -1.2259081008007924 0.19965275278914 -0.4064593177351736 -0.2520000790255875 -0.9600547696319837 -1.762175445416078 0.08929891425769473 0.21711786058135718
1.8743199302293532 -0.8851686852087636 -1.2978079033881642 -0.23128293603897246 0.8236657198565588 -1.0232852925663791 -0.9091348545658674 -1.2850384741370162 -1.2408642438464628 -0.9515996807151167 -1.1366464057437617 -1.388812493983335 -0.4611814857458337 -0.27904220326550583 -0.6903784973213792 -1.1566314943791605 -0.813103711766972 -0.42505959883883615 -0.12095790827420418 -0.5217336383367073 -1.4890599632862112 -0.543815546869734 -1.0747077538923557 -0.7585805950676957 -1.2957476198843019 -1.271319363952907 -0.20047311924264083 -0.12133102675880723 -0.36921459379381055 -0.47517672452620463 1.0351613316780528 -1.1041029947417877 -0.9509055903720044 -1.1938709252974136 0.33877028035411033 -0.6918858913281398 -1.2280321697459577 -1.5908821506350437 -0.7144055091538679 -0.8956785731835962 -0.6971765245406412 -0.7488230629807404 -0.5050033695643626 -0.3033581423566572
0.7884366209871757 -0.6038875977503407 -0.19640557762020994 -0.7469179010117916 -0.4675460444598545 -0.7135836611446447 0.15678221552580246 -0.5127294594289135 0.8550642427869395 -0.07339982690610111 -0.48810278228046483 0.6753841658620784 -0.7550491192225517 -0.5408150095591998 0.06902358514456904 0.49860259563616105 -0.3045021425406151 0.42470824640885524 0.38014667376978767 0.7399289312358079 -0.04929384407015516 -0.18338754330492674 -0.9664237227144525 0.07170347438150358 -0.5098682870846859 0.910750948852006 -0.11970289843010698 -0.27537371195571314 0.15940814946447143 -0.11495256205222835 0.4860625902894943 0.15891998931011195 -0.061846572384587725 0.49481641958112726 -0.8229256995758709 0.6039635990891671 0.6809646115275066 0.6569172077612928 -0.5393074740861711 -0.6373213504020285 -0.9868447264078251 -0.11682729007867691 -0.7605321916795631 -1.0155098190543097
-1.7676804806223236 -1.6981662530691153 -1.023396735645928 -2.429895227958936 -1.7935440426301759 -1.7151013483141286 -1.462491181734151 -2.030173921833406 -1.5005590446426194 -0.9102782192169231 -1.4159482219667654 -1.0792359077360503 -1.6501767015924658 -1.754797115108883 -0.9448664689083109 -1.096673868399184 -1.5947439968326833 -1.90637547521972 -1.4868120943064733 -1.6338653944342614 -1.363349584835718 -1.4574300348979523 -1.989069181094572 -1.2250023438775188 -1.8946235337444302 -2.315184747397393 -0.88207807690886 -2.074180860189215 -1.7764192071883387 -2.1896880164030392 -2.1788224064690938 -2.1526014991112765 -0.87378363742181 1.730714823315296 -1.6402337681540406 -1.712755887694739 -2.3407466674733177 -2.3398682901165 -1.400087725210255 -1.9222491740981862 -1.2522953544007094 -1.8349632497788662 -1.340148679314563 -1.1071972727045505
-0.6588882389696508 -0.45072091110447493 0.4987791659017526 0.48655216670759494 -0.3122933074024307 0.405431478451991 0.42483950133373766 -0.6566010830942449 -0.5419709121306543 -0.8632784225132452 0.42747034193984934 -0.5037183999656782 -0.04803986791783004 -1.182730653160783 0.1410648442936068 -0.24364729021173906 -0.7769035369982349 -0.7841048482537124 -0.8091193026198492 -0.783593409841427 -0.2034557944100757 0.0901321422164232 -0.8963691985383366 -0.9037226145580846 -0.991610111269453 -0.1961655029661073 0.4939114838525544 1.2200520393083363 0.2973244964299489 -0.5613182086444867 -0.41560496715785755 -0.8514168884285589 0.4011520859083572 -0.4516635900941495 -1.2701164249504822 -1.6933629993953552 -0.9994120856412717 0.10847032331856771 -0.17935822538942595 -0.8651390285363814 -0.40247219067930096 0.13280503558866044 -0.6009989639355665 0.3641940603092866
-1.7639239782011764 -1.6926472975862046 -1.8363138272074473 -0.33278460755762235 -1.2673222591283173 -1.0843261450538462 -0.7626229101199503 -0.9936356405355343 -1.3600717788342904 -0.9754198313774762 -1.4562200493774915 -0.808134756893443 -1.5138626508342197 -1.4992476198856728 -0.6929099273643113 -0.9851044850630107 -1.0374356701591227 -1.1440730257301497 -0.9708552021277433 -1.2963230468717755 -1.8058286457549282 -0.26191106397274894 -1.7605325495023347 -0.8920432621902002 -1.365544046562445 -0.4420655015570832 -1.5635936202897298 -1.046969476481732 -1.723667189797836 -1.2932099332679199 -1.477497884150874 -1.2957660288001136 1.533731032353853 -1.2166892361969794 -1.749872219844274 -1.0288841621526301 -1.2665609880003001 0.870060650851041 -1.725613781389024 -1.5713300809093729 -1.348886448388223 -1.0317391115650223 -0.7768943966620769 -1.3682874365201776
-1.765104252479094 -1.803068857464014 -1.2191381285248863 -1.6062689218628212 -1.6495929427448097 -1.5320739042029063 -2.31871624784885 -1.6482224667042022 -1.1276557332927943 -1.745472131046805 -1.7945974746452826 -0.42338724468245326 -1.418209027133133 -2.397110038469916 0.12426740246063549 -1.4452822587940526 -0.6028031282170011 -1.803124492523898 -0.8303230695504822 -2.1247375173194483 -0.36677828816812663 -2.0732590059968707 -2.5070654208958816 -2.1444856763731677 -1.4241881366406037 -1.418235652925407 -2.267645421536318 -2.4708767724143605 -2.513406263565579 -2.0080285209015623 -1.8101540548549708 -1.8598954679145119 -1.5024230437881734 -1.6156774490618269 -1.9125648253606857 -0.18238689473797645 -1.5570590374723365 -1.3965013616936728 -2.4451049635012994 -2.291733167346287 -1.4480233511377585 -2.2956628568504263 -1.6182234496781365 -1.959380163035264
-0.3619205470052205 -0.8590493356502631 0.06085748867331673 0.07469047378576454 -0.1691368067774522 -0.11403647851508512 0.46282291779133716 0.12817513857892276 -0.8676724313306416 0.6164130602766758 0.7506373562583765 -0.8327212837944195 0.571784710180651 0.4338879685243207 0.20760075897854458 -0.4835615060483912 -0.6504109955420957 0.24087305844586238 -0.03386855895542742 1.0941632760846958 -0.7390853052886384 -0.3145527781003797 -0.0044765084907635545 0.730094261797516 -1.0138629935473094 0.280143279841101 0.8566555810448344 0.9392715989620476 -0.9671923816170958 -0.9981692667080093 -0.29552883825253323 -0.8515881568611304 -0.4356440209771047 -1.0205133489117661 -0.9227516171632886 0.0420891093861957 0.8758721965139028 0.5428935161783296 0.324803847899144 0.78359517182728 -0.6526972298050062 -0.8161967889957699 0.6090695409781061 0.010837158855915999
0.020798075656108236 -0.27924098719675267 0.4681347236101648 0.3769456949519008 -0.2663475491207993 1.678162730041058 -0.09922392774114441 -1.0817238154999536 -0.2880973669118633 -0.5962285528709099 0.6106490031483383 1.9027589143129813 -0.6075826056809317 -0.0715073043072539 -0.5916519385353836 -0.817085021637959 -0.837846518264264 -0.5843972668579429 0.5030679668222392 -1.0521879360354047 -0.022633158867631786 -0.02128585013500676 -0.03959068012335937 0.3150038806290947 -0.5976138145776058 0.20192853206614778 -1.012367920308871 -0.1871399052068603 -1.0990292432549793 -0.8609806906328008 0.09942661893711421 -0.9058597534859458 -0.8566781864947346 -0.13507822095830538 2.6822824901440785 0.09094485021173428 -0.1920705735116226 0.5788188319841777 0.2163736388652215 -0.3729019707516818 -0.8147022718355457 0.05555540620042518 0.14158523019010377 -0.08404288492932376
-0.8622445703155281 -0.3543647746683295 -0.48650544623362074 -1.2432677413738786 -0.6110397092341147 -0.8066120763539573 -1.560544189395996 -1.4143331728937507 -1.060487338536605 -0.9374919266215458 -1.483593212199959 -0.7470759776093295 0.07196066019528924 -1.1750926685174126 -1.197525175954671 -1.3601550568722178 -1.4772655617783916 -1.2314104428632568 -0.9272855832149818 -1.059493395484214 -0.307190786618187 -1.3904098057328047 -0.32349734375052375 -1.5269586447202315 -1.6803432161246499 -1.6852235757880702 -1.0014710793278137 -1.1585097881614341 -0.19471475067762886 -0.6331262626331343 -0.5036910541964211 -0.6023518297071643 -1.847844749552689 -1.505121535548664 -0.7237555922339177 -1.2020500739961142 -0.9844991713300842 2.4379291217843266 -0.8563935042809754 -0.9998396203754467 -1.22858970597454 -0.39380705947934336 -1.4858483370563746 -0.9567243213869724
-0.06032627094907026 0.4255917111699046 -0.5719065183128924 0.12476353754013227 -0.4154538291474976 0.19469970579734833 0.24220724306020633 -0.22903529754658705 0.3723500367430477 0.519793543517473 0.44376041046312126 -0.9804813809610141 -0.7983954892742369 0.024198584206867144 -0.1425748594582335 -0.5565484085621959 0.09416327406840302 -1.00212952216983 -0.9165433210209428 -0.551041132011167 0.450020578594333 -0.41401490501522553 0.7508358184910439 -0.03065617617108467 0.489831769753909 0.3657509742731581 0.2714914931986646 -0.7596507202410898 0.25460126815556533 0.23461228934399986 2.0765506396846405 -0.2943405481096538 0.8802207455175424 -0.19151783243765258 -0.18157213920478193 -0.8677228261736373 -0.16401587369333084 -0.34836644552737916 0.6588714769746462 0.77140651675909 0.6164898754543395 -0.7015691167312121 0.38859048136154595 0.6023764305637606
0.1816261362394282 -0.4487143220968339 -0.442507176067826 -0.8535912995050845 0.22476142342918726 -0.31811099611686555 -0.2313471359461254 0.060258522154308054 0.6052126803548065 0.5911072975496223 -0.10785959716150448 0.6857759943405554 -0.030718395041922877 -0.025730111557325346 -0.5439655956106337 -0.6401665636563825 -0.9443446962064999 0.4454350766408587 0.03992010714411791 -0.029921452316500008 0.49429699645522096 0.1687409753784153 -0.32927822102735155 0.5994564476489402 0.7440289976120029 0.753452872904158 -0.9615877624716838 -0.003364526970317669 0.32852453085688493 0.4812768754971814 -0.9979719295162452 -0.14528902623367218 -0.7899175720676924 -0.6178591266094461 -0.8596782417157512 -0.004999621086048714 0.6169760496116785 -0.33307070312257064 0.5697176285291512 -0.5552628569192455 -0.7453323393638119 -0.22076125789925052 -0.5427616053759128 -0.7345176397247927
-0.4555555033649682 -0.3595443103730845 -0.9288661677606445 -0.5707458775312896 -0.13165384731164376 -0.6794245131491977 -0.6299205028763059 -1.1056082092799606 -1.1624288287020912 0.29305877409623 -0.3586165323147488 -0.9672702750516705 0.022594247785270707 -0.6833132382998272 -0.18636752124904246 0.1592547059376538 0.005310087421232744 -0.9529547903232058 -0.6468463818320607 0.3263807280500057 -0.6286066432006966 -0.787561571067168 -0.1444369969976415 0.6518968049160326 -0.7844950056940304 -0.940816427093146 -0.6511242184557521 -0.9638360357311849 0.48326739882772196 -1.0767866631356715 -1.048822557822435 -1.286617502600231 -1.1371166492817397 -0.3459796195976477 -0.5095117071571637 -1.0812542722370344 -0.596223214487554 0.2208498718834946 0.4508774415352513 -0.23075283152498693 -0.9351737146724164 -0.5821709894696784 -1.062165497611684 0.3231421490580791
-0.020429983998043855 -0.3843211142870017 -0.9327546911044454 -0.928275047445588 0.2727531570776436 -0.5423523835607742 0.22849798119884365 -0.2917221858170063 0.23173698494678446 0.1364054902791275 0.3193973800672896 -0.32343493894450626 0.7100762663829743 -0.4947210264474735 0.07593220011474035 0.5227808383632387 -0.9187778825338323 -0.5492737885944672 0.20761410775056638 0.13507119252548566 0.21043186300359634 -0.9491625898744489 0.336364976983126 -0.5501083765153651 -0.22995042617426437 -0.055247979108186886 -0.6315061366358606 0.34346047600845014 -0.6282842915184392 -0.17526242672943185 0.3798835762587731 -0.7545545133060383 0.4762324334312086 0.7448774858683493 0.11124295977561194 0.639458092846045 -0.5194199004650406 0.9943264908357029 -0.34639317850288975 2.313023541872938 -0.6590950145507697 0.04537478434567439 -0.7840920401930578 0.16577095774938244
-0.9883134851204218 -0.252584908627195 0.4890398636798057 0.17282909314795275 -0.3618240604665372 0.945690768209166 0.9796862906733791 -0.2151864210557095 0.07757599373406972 -0.2681425663221796 -0.8871721220013199 -0.5270131002774113 -0.5852106724681365 -0.6714113071358587 -0.9270417447480579 -0.1985221561936235 0.8101670031510357 -1.0695842976309624 0.756518464424791 -0.30110277873813834 -0.328507876152643 0.6652077673944207 0.5557749218212898 0.5089526974247046 0.8577593361542053 0.673961609385948 -0.24395094204398654 0.46611974073254697 0.4108893594688948 -0.005535198371810636 -0.5627001214055587 0.36457059326219865 -0.07852992115825537 0.027337684830320445 0.18633726935875314 -0.6319767810059228 0.6081708421484984 -0.7071387724481671 -0.38685620438325996 0.17310496606523348 -0.20272227270761053 -0.35185841307830157 -0.19402559560300958 -0.2727214125424545
0.048089485795494005 -1.087911859800371 -0.280537602950823 -0.17415144331449994 -0.7799751367700638 -0.9171830046708971 -0.8387799234697516 -0.24182089498356474 -0.762995688924316 0.2080875258445277 0.4989534071199635 -0.8886286499616828 -0.5832087312814328 -0.04596946930765994 -0.3240576102471641 -0.0358344289995829 -1.0046301179431307 0.09381246832406079 -0.641749786838134 -1.210595270558385 -0.7667076349926886 3.2095950188212106 -1.211889214380412 1.459386974294955 -1.1471460068114945 0.008139808303918535 -0.24400025447342397 -0.07401892711516389 -1.0659291196102627 -0.33256813289676695 1.0837387606270665 -0.7286225045166528 -0.56398076161357 0.1971031332217196 -0.055757217801908725 -0.3668034500660993 0.31818205280937883 0.06328074882758017 -0.3111779666936893 0.15224219098134015 1.1763161513174158 -0.2097433017199691 -0.4484765136724356 -0.1600125579923975
0.16650166897115043 -0.8984922554750655 -0.7333349441818687 -0.8346741983464495 0.03328816516424242 0.40000242157262006 -0.30224764017232375 0.34029279553268876 0.09568396865624325 0.21997044016255513 0.4304904247610638 -0.8249783734307713 0.3208465372001934 -0.46026149674570765 0.5529223583884358 -0.9545565091184195 0.2391985380313109 -0.2467687940438919 -0.32245434143014745 0.20926821678944113 -0.13130151923133007 -0.2841870461213243 0.9922434202443795 -1.0956499829488893 -0.6090564223796615 0.5805605811405788 -0.504949371191132 -0.9674830400564329 -0.0711392088423256 -0.3024783707861395 -0.8200340221278163 0.26887490546574877 -0.7124180782628573 0.4930598108173262 -0.6035639862345549 0.23963326436911284 -0.4093847870507477 -0.33380517693991807 -0.20915252364107936 -0.8807411126746016 -0.036277094248831104 0.4419964701565069 -0.4418483965235637 -0.35424456933342013
-0.04693207419027823 -0.6645364215452542 0.22884518932955578 -1.2005832340622395 0.25241319001868096 -0.679594798977175 0.21387582573954883 -0.5337962246727229 -0.1423724447952919 -1.207813709461761 -1.0817846586574285 -1.1275798156274468 -0.9579348513365781 -0.22935777631132784 -0.9385300740210596 -0.016883993691781563 -0.39654267311906716 -0.21132770298004266 0.37496642819505255 -0.5671015843488446 -0.31722670023218724 0.22815131832377095 -0.7017375073003101 -0.9479830477982977 -0.9042475600906552 -0.17593188465491802 0.11072724382527152 -1.0023923059217994 -0.06449114568282976 -0.24295754061476577 1.1747945974337788 -0.3492199247582819 -0.528788086366115 -1.1031719698631761 0.03668380739347258 -0.869559000618216 -1.0505507826430196 0.1296267654946826 -0.7184804218241798 -0.2935754550460464 0.04164916198293336 -0.19507299017158453 -0.634872788470921 -0.6030961610273329
-0.6430501711753295 -0.12654500801945437 0.06180635666030548 -0.4711866827055611 -0.861969874854798 0.45211199670850555 0.2867511212515524 -0.5850057463757184 0.8814495498578275 -0.1417127616752569 0.2587141212405356 0.3083571440904318 -0.8651150261228474 -1.033637114968697 0.7464206549327644 -0.9053597193032106 -0.8112043517428805 -0.10332356289637677 0.0689034710745056 0.376681089730968 0.5051248719007361 -0.6044588024102827 0.3170664679733451 0.16225579548715857 -0.6461000571829357 0.01630142802874547 -0.45015205711220285 0.6093249652377452 -0.20504872960952336 -0.8655158933899041 -0.486172808812861 0.057467540969318845 -0.5844681588624943 -0.08925060121645051 0.13938941302018704 -0.2689108196645989 -0.5246497237105613 -0.4053373566753438 -1.0588418655235323 -0.45271128673348543 -1.035048549285223 2.891220747015731 0.5353727481795709 0.20387228425319529
-1.577397788226773 0.3028540574762872 -0.8831622781996951 -0.3883583123047572 -0.7746665586234437 -0.6423703073306648 -0.8328068003853829 -0.8188324650129977 -0.27535455749680576 -0.08285628269367266 -1.2576089847305607 -0.9474441259150029 -0.20072754850135252 -0.6365052370911964 -1.2146882965665062 0.6175706093798412 -0.8517945838483609 -0.28986862179794154 -0.907269684412105 -1.1037142886142273 -0.8379482226878993 -1.348053886003285 -0.283532634555145 -0.10479793165412236 -0.39514951710736645 -0.9956575505473209 -0.7838800897191843 0.17437629984607314 -1.4305713904966793 -0.42338376227655233 -0.7520127699907371 -0.5167478795560542 -1.2500331357623977 -1.0131299393983864 0.6122401262948972 -0.8778266821398866 -1.3520654780295782 0.18871664137478403 -0.28634306952528826 -0.2880678335349002 -0.03363012793719277 -0.39664084941485467 0.32905897151224806 -0.6190599070572489
-0.5698670206380414 -0.040899476862491936 -0.16403474890373862 -0.9164200290940817 -0.12455533959933128 -0.2010687937846614 -0.26586427685385045 0.5178843734214792 0.019761622156215873 0.819309385393047 0.7153210396655417 0.6217502382646988 0.7382003292796518 -0.8471889748789992 -0.8335306809913771 0.6860318062607708 0.7947370242973302 0.8061777250646891 -0.5359109776457865 0.40905035069521667 -0.7925205344082558 0.512422595159192 0.6345186863148731 -0.826202495624262 -0.9169201126933475 0.052242844369197745 -0.7484125991217264 0.02290524459718279 0.22638355982601813 0.4997660880273454 0.8111697161308781 0.1515913543883639 -0.5025815160205556 0.3079981911130429 -0.6412544626025437 -0.23160944771521288 0.7824915658783477 0.4527155789622567 0.6331866216278147 0.791546157079937 -0.46663954142237085 -0.11403454674738854 0.6512415992204214 -0.30540004015676836
0.060328808232096395 -0.7081934917294526 -0.14504272437286067 -0.35646421222697056 0.4268585641196504 -0.03859710860568895 0.052320712744146756 0.2657110885142883 -0.2199721581801796 0.872760723183664 0.6657682530381008 0.0802486336888667 -0.967920922811391 0.4743391602633629 0.9738983995638467 -0.40524823042822555 -0.5256073368106624 0.707546340674907 0.5925110921008816 -0.9484201425684247 -0.13824425482023991 -0.25948806630734333 0.6807001538731009 0.4989702711608571 -0.3665406614712919 -0.6180959312485711 0.36401947038002985 -0.7717140274493762 -0.37723373176056374 -0.11954842374998259 0.6758891873915914 -0.6931331929153212 0.7079317446712718 0.17717335780569057 -0.3431907467599355 -0.9219135044129957 0.040785204458703254 0.7456465217775116 -0.0480116671162777 -0.38230809155237844 0.2040060650362011 0.1546143081296952 0.05091916441610662 -0.5525637209297775
-0.42252895190573814 -0.5874393962243626 -0.5662023651837516 0.45671141904272305 -0.36435309722869064 -0.0670092209031467 -0.17359030867619 -0.27142127588979453 0.6534275699650045 0.2611488023879182 -1.0470649411713835 -0.08081164369899888 0.5086036452266174 -0.24069350489021954 0.3475926378336212 -0.37588344093229803 -0.4913571316303034 -0.12624009472773345 -0.11974330898459902 -0.7638594077474199 -0.7837391631488211 0.6839176286369644 0.7238024172103941 0.3140656956210952 0.7275635281895343 -1.0007682897108001 0.3145666074778326 0.20835258466318154 0.5990683205714201 -0.3403272424472037 0.6233502317660857 0.36607334919146767 -0.23723068157495872 -0.7699079493149958 -0.008024100454778907 2.418491639244682 0.22554598502306478 -0.45962700108192306 -0.1014193050354313 0.4772904932991188 0.7909137389239519 -0.8786800778186491 -0.12423279213781796 -0.33527164791330916
-0.8956850884359416 -0.042592236499641195 0.1421090395694664 -0.8575441192245036 -0.7844812241102038 -0.08727655515695414 -0.9923930417465747 -0.8733326926148361 -0.25653582293573124 0.07677295559913778 0.004852837060514494 -0.6400732828727761 -0.3886461120532076 0.30228817842937483 -0.31285579288718607 -0.7955410046084532 0.5013522496906346 0.6072509097776781 -0.9582699760455083 -0.073963642434102 -0.7143253301925129 -1.2794395521165496 -1.0473901809052872 0.22099054009798016 -1.0824273508718567 -1.0159001538578905 0.29612284623966845 -0.706390731904668 -1.0292201109034729 0.38980931923690826 -0.8285220387466774 -1.3298001441949063 0.17495988494250642 -1.0279758907429883 -0.1996696930841432 0.027562846303440667 -1.0214367416687198 -0.48612091966855914 -0.695159279020343 -0.05385678178658793 0.9189308626113775 -0.1523923506814178 0.5437368953444494 1.5450610999033878
-0.3498926687814893 -1.0262406452212207 -0.5989681093852656 -1.1230320416548447 -0.7395229187710852 -0.07664138043264859 -1.2473725486141498 0.15135097119344307 -0.3389866227605834 -1.3849044388817016 -0.17208815202351413 -1.1314478685444118 -0.11167268864530154 -1.3779146662896358 0.15211382102007245 -0.7397011592666478 0.6266480912109014 -1.8277301217723687 -1.0399241221533426 -1.0195927211959859 -0.7365946303238254 -0.19455280426582125 -0.24486182645124463 0.1500825651967169 0.5044707589463822 0.5195315430458651 -0.9182490946019279 -1.1735692158993785 -1.212480234408028 -0.41980293270967317 -0.1599334403385696 -0.016071241167066094 -0.9022808145791443 -0.3180106249726584 -0.42809387870653964 -0.7367861298285404 -0.25775688216137926 -1.5168980907918135 -0.9766982983123492 -0.7354944675357216 -1.009396452163504 -1.2016527850286454 -0.3904813060773692 -0.4450160055712805
0.2766551918188835 -0.13407240835872358 -0.7212482826836885 0.4149806692687673 -0.4766565061056069 0.08598420599392692 0.69511269347149 -1.1832095104394993 -0.08763729723658263 0.21254943104378235 0.6451357398724468 -0.01120182368110479 -0.6164554098447584 -0.8603008879586508 0.920424316975955 -0.7527587671548052 0.5810202837437779 -0.7202173503824153 -0.9444147450495651 0.47164688621442435 0.14377028335323555 0.2726175208807822 -0.8264860293370181 -0.3993659828906951 -0.6440501102577402 0.2728793835924002 -0.9689166517597116 -0.6735080589133872 -0.8280751454598215 0.031526306444299185 -0.8858025304313553 -0.6840667885662083 0.30690724680420095 -0.8940207139042795 0.19303550494755042 -0.9320113201313164 0.8241323528965084 0.34646928455232584 0.676491415864633 -0.36931091557663054 0.27340268357511355 0.029173989034065474 -0.08655004550883257 -0.49134511511676265
-0.29047616446324737 -0.9829869565745495 0.5444976046097072 0.08716241612581042 0.002407472499456405 -0.14754007508071146 -0.46040922768455866 -0.005728761417201617 -0.020240010972552888 -0.6656525114444245 -0.6266907680974766 -1.170190441764216 -0.6520297572603162 -0.49599289333987756 0.1391667349941052 -0.49733875049997955 0.3392683035972488 -1.6840322931682035 -0.03708574895237257 -0.8777682607141108 0.09617919705706389 -1.3982543408927635 0.1491801332179149 3.125961080593187 -0.2052106542501549 -0.2989813546903624 -0.7302289749553498 -0.902572895109459 -0.7500229701231212 -0.7141005487768157 -0.672774893934278 -0.2518802496840157 2.080382178153876 -0.3235629230479144 -0.03695086622499387 -0.5851053138957973 -0.9712806381136238 -0.5470589650174308 -0.6133751263347351 -0.9899974133062798 -1.147189836643078 -0.7637140850850348 0.9164869316734182 0.10846378199378452
-0.20887536501278828 0.8687536566150188 -0.29121434989335304 -0.31644011954295337 -0.26179609068888915 -0.23767829918376893 -0.1648763410204505 -0.6128162544806351 0.8866378852553418 0.7390994871532192 0.6179450929675747 -0.27608207729370915 -0.006702042741433842 -0.7298744244054641 0.006100190884656562 -0.44208810773930174 0.39781911399735526 0.32547967649470405 -0.5004579503417879 0.1483644743525361 -0.884173669310414 -0.5638599907153939 0.48976879807883994 -0.43269208339017484 0.40842976747072685 0.9128383251570077 -0.15422603338005164 0.8623688268386535 0.20150042803093116 -0.15802492593587084 -0.29647089474650695 0.6699595721426224 0.13953930938091147 -0.3424961068861927 0.5019982765700265 0.5139702925780082 -0.8436007451341399 -0.4504912837546334 -0.3105853444190978 0.1630237898335734 2.292992324297028 -0.5002416863330653 -0.8519374697421578 -0.3954706895226749
0.6111279697539077 0.427280582816099 -0.5754978223157531 -0.14439372245391127 -0.8932599939539042 0.7887425217373051 0.3307813386042037 -0.7061663893017666 -0.16900024146140685 0.05214170076179797 -0.9267377996167346 -0.8538102823704992 -0.21399954393566153 -0.8258360318270549 -0.07067582382519558 -0.0031983861398215156 -0.2254961813668965 0.21030709778589685 0.706872784770085 -0.5921372340192229 0.6325839627259177 -0.25236659483026036 2.192350935241945 -0.17843333244269385 -0.8715733330537813 0.05664637160437019 0.6654102468311606 -0.9206862769148548 -0.09318242954902024 0.5782685098625464 -0.11522286474335793 -0.4142389678185241 0.5551635599295881 0.8273833135795207 0.5316693785342624 0.669749758453947 -0.9588423969295446 -0.8180030633172425 -0.7949327172458296 -0.7785421753714468 -0.658214384441228 -0.3539474170512433 -0.41448481999480613 -0.13735231751780883
0.3370734949340754 -0.3035566423484689 -1.0244172129841693 0.6198982991524032 -0.7013737629760324 -0.9522449502301198 -0.809132464504541 0.11625525748686823 0.46825175235830396 -0.18815219827570082 -0.6711300866790108 -0.6741239421969203 0.5277358988787554 -0.5307877115600926 -0.29629273659776256 0.7310216668867257 -0.6130170809266957 -0.9749436734827163 -0.7501383264291671 -0.7480236290510099 -0.0859721408036822 -1.1374612502624082 0.603314792995462 -0.6480394481297422 -0.3164701088762206 -0.837477244536876 0.05125567273634159 -0.6099757885713005 0.10383084312666649 -0.277917773161018 -0.5657378555003939 -0.32042761558800303 -1.0387267470766262 0.7659438607998537 -0.7222219574663036 -0.1041684019299414 1.1795335359903933 -0.7770491094169523 0.7139497931496924 -0.9927852578085476 -0.8260930237328732 -0.27193615734162824 -0.18975004392840314 0.3097220516339692
-0.8426616796422292 0.17633123629833972 2.212984251785786 0.43507459562673745 0.28179975829514176 0.056772271778033234 -1.0171198247077413 -0.8002422742750178 -1.0685354333736958 0.5624437697245679 -1.0221785062895066 -0.26093670461826957 -0.9536748710396058 -0.278329334832384 -0.6777676006699578 0.48052141670219484 -0.2011836459162362 -0.3007451934850259 0.14371628908753484 -0.042517955254432804 0.5816428156781486 0.200493185279276 0.5308972159396351 -1.074791264441785 0.16055949063406302 0.0482043072846955 0.651291536875069 0.11778759146767533 -0.7164165663499819 0.745935426874334 -0.7952391289714531 -0.02513444110483034 -1.1832111450862264 0.7601025624000513 0.14113175423111157 -0.18888315758354893 -0.1755912294603299 -0.4829749236871314 0.445184985620114 -0.2609261623324125 -1.0947371862199606 0.817890310015606 -0.4085709444230834 -0.51490182173829
-0.8114253634913393 -0.7285810731487458 -1.4420169617971097 -0.9088653098392719 -1.8413564080928926 -1.7838233844785238 -1.5598346078874916 -1.4112049604977523 -1.7950119718105102 -1.419710840218789 -1.2559868169411286 -0.5950143756295891 -1.2069839403664009 -1.921078883108235 -0.5869609510078104 -1.4597214682968422 -1.4703333448168139 -0.9405709001641918 -1.0789776244442115 -1.5954401884463658 -0.5832806848244472 -1.8352313877652915 -0.4050538754178041 -0.9342892288958352 -0.3976420084009727 -1.5706390226267843 -1.3059002467078273 -1.3735074299287593 -0.5817783813598678 1.71413314130164 -1.6921461259986947 -1.555673763074726 -1.0382872788771254 -1.715455668416091 -1.1370223808878777 -1.5664677630398567 -1.9664605324399875 -1.2083622458292396 -0.9104687640336714 -0.47322302462632737 -1.5562314750755704 -1.1714783498381047 -0.6791064144358727 -1.0030661981254045
-0.5759836010973195 -0.14685702464394623 -0.2825589834921339 -0.6273289279705256 0.21642327228753444 0.32108986347313084 0.2997760581043401 0.4866924308979348 -0.311775985710989 0.04939289472085525 -0.4668358162338309 0.6052444093645631 -0.6501740678824255 0.09103936347894308 -0.9835533412411112 -0.015928615204143973 0.23368798987555753 0.6410942698578992 -0.8946034642564242 0.82900039592198 0.27988752721057086 -0.04872481362889127 0.07998105946577073 -0.9258816849095836 0.29825066669645744 0.20722375010333732 -0.9222453954672365 -0.8472652981079656 0.15373073062468756 0.39169707967102313 -0.42131516055117957 -0.33690176619459095 -0.6000365695478567 -0.19992926434503663 0.180749225667164 0.6694529366689888 -0.3665873226791202 -0.1358719698707185 0.06754987969073033 -0.8026623791017614 -0.8289134474201799 -0.7301927139189038 0.35656719092595124 0.45531071737150747
0.16515296712828778 -0.2809448698044766 -0.35604034167627513 -0.5362901228770786 0.30641582097511205 0.18086018188552835 0.2696065792122833 -0.7612054439785992 0.7759957148815945 0.6338410923066305 0.31852149920514367 0.33984454683399234 0.1532183209675139 -0.40359885587785826 -0.10530150238330271 0.663051800930128 0.6349273642787095 -0.6879566133175405 -0.11367188533222465 -0.3372255702956949 -0.9582008427999337 -0.6917804739787599 0.6136099610175993 0.3208297514072827 0.6697390851797022 -0.8734148905343084 0.6201645954072003 0.7465846254266345 0.6084643846284385 0.38645821945411823 -0.7817535265517414 -0.7977676462979442 0.0889771067913903 -0.22262193519170032 -0.2505509436651017 0.4997948264459169 0.3630997608826012 0.4800056576216 -0.7058518785066288 -0.9101679814496686 -0.9854272745996051 0.23443145794616752 0.7492125365613418 -0.27398373299110973
-0.3500620488530709 0.06787082591746546 0.5295291273101536 0.5759664241532044 -0.05754719763175204 0.0441067083203727 -0.6833471659048944 0.5092834137431507 -0.4050359724856044 -0.78363731147148 -0.20497848672055302 -0.20705812123941214 0.708008203270404 -0.16902834567504638 0.15816531360220057 -0.6206782711142785 0.6258276019038733 0.47354588152884053 0.7848363778565229 -0.23528561519592725 -0.7138001544017165 -0.5347723670454378 0.5287315660604368 0.44014995639788723 -0.4029972906374216 1.2957406934368314 -0.705933174254656 -0.3489454581031728 0.635089962933271 0.027753038485351836 0.39061547866690605 0.508669048308427 0.3702689242943636 -0.15937981192466386 -0.5841196992111601 0.5495546294617838 -0.49965185066492196 -0.06960205468835912 -0.993184165049564 0.10099641179702319 -0.9801733053802422 -0.7894504647854858 0.2171039251739195 0.7167958719415662
-1.063522540639302 -2.1962903549660506 -0.7270205678541835 -1.070234780672969 -1.8963269026613714 -0.6373889355410389 -0.26046685390888374 -0.856073914990985 -0.974905710568634 -2.1647427096811955 -0.9810059053299618 -1.7654052739344708 -1.0881607310752772 -0.13022613989134252 -1.0596313133847686 -0.96574224201107 -0.8008308668149058 -1.3558966264560628 -1.0794343731710285 -1.0009011446309515 -1.3852316404817435 -0.5364035041826735 -1.2501685908828135 -1.0840871192676949 -2.0047902428583804 -0.999583405683328 -1.173994273155824 -1.2449052797180338 -1.3079011308438218 0.9833553181087759 -2.134786768986374 0.04983779046060047 -1.151821481353687 -0.6500808468729865 -0.6885031751957703 -0.8479641586349713 -0.5602968365069747 -0.7833646853078854 -0.3867006129859517 -1.1456442039477095 -0.49405001365805173 -1.2583924595897076 -1.4288828656763777 -0.6438928217104568
-1.0608623484786828 -1.2520507735740192 -1.0816208996483958 -1.5278503972225284 -1.3517189336390736 -1.4808714963336753 -1.2329833171400277 -0.29523635870177484 -1.7182580521040105 -0.47968199086890595 -2.018557054167489 -1.3956672001290715 -1.5692240343923025 -0.29886993133531176 -1.2797585878676336 0.06145505140737052 -0.3292851517742436 -0.13561093684290437 -0.8730618821013449 -1.2127641001254499 -0.9049905746916255 -0.6173632633639867 -0.4943744899718581 -0.9600618623225793 -1.5908826452019273 -2.0373051061642053 -1.4538390672332555 -1.541641440143487 -0.701049284634702 -1.8084901647081946 -0.9304001021959364 -1.7499306569818232 -0.8241616667070042 -0.12991029066711812 -0.8773186865789043 -1.4978020909044212 -0.3545901532205005 -0.5789600352677113 -1.4558766957323683 -1.2004232298183057 -1.0818882059837927 -0.7944329644706901 -0.7980147826668522 -0.8372678410555755
-1.0350415756149849 -1.3194002818801083 0.8110393955984144 -0.9734810920702233 -0.5566314495719703 -1.1887733074914413 -0.433139153650714 -1.2314834801329178 -0.33760911167396546 0.46557729968357225 -0.07362304115991462 -0.21592589506887502 -1.0693458922322456 -0.8767819250930425 0.008521366629703415 -0.41766137026534994 -1.420903924811218 0.6750134642864355 -0.8017783494978252 -0.5553630226576759 -0.5365852519264539 -0.9616708587761905 -1.1531430387965012 -1.8185085099458604 -1.888613447502206 0.17545902115101958 -0.47696912870248215 -0.7435801967109376 -1.9683707361547327 0.10329647188900533 -1.0737855892197632 -1.369800434526397 1.6217336064625567 0.2499014810365969 -0.6493212633605824 -0.7642276017384094 -1.3566479039936803 -0.9524416115672601 -0.9044147521547243 0.1452282362792616 0.03675742436185194 -1.6505276287682396 -0.4509323651588007 0.062123571679792676
0.47386010233027703 0.2566182502134394 -0.8213391947101021 0.7561123323694017 -0.02331932808434458 -1.135916927894477 -0.29662541232506895 -0.14818844439415585 0.22959979150371573 -0.6530329760216151 -0.4786147691977945 -0.7331071817627507 -0.45481473763728886 0.09604079487321517 0.1591575429024426 -0.43193922564059883 -0.20123311443872363 0.39956573140414964 -0.8339438330490971 0.3179352148773679 0.7198961387661986 -0.5980963843516538 -0.27990065299230504 0.6507513253576883 -0.06826060817485514 -0.8911367451734392 -0.8859416115732939 -0.12169322192833022 0.2477631820420066 0.7587779553742564 -1.0189891877227446 0.8745853493726633 0.36859073854272134 0.4639465469849371 0.8484141051622673 -0.6564511145406353 0.5368842380732198 -0.8378757950829209 0.8279431167548539 0.589505193462889 -0.8410819423292937 0.15951632494744505 0.00022972112594769095 -0.08908704605282021
-1.4944802425942552 -1.8546354106303555 -2.017301704098557 -1.6951287027014865 -0.8413723330300782 -1.530663182389068 -1.2343797195136825 -0.9796880509878662 -1.6735313685403588 -1.0967008195484271 -0.8846201536489379 -2.603305778329488 -1.0484406095419696 -1.6764908909680034 -1.1551520880779658 -1.8792420015853395 -1.072030125029024 -1.8610192947047661 -1.564075096149092 -1.4811076365118807 -1.8067688225565246 -3.390650310780403 -1.2515024072329803 -2.398590770189564 -0.9965532438899827 -2.663354596878014 -0.9581148787387906 -1.5492410094984945 -0.8650663163166411 -1.401888494864884 -1.4763879081398141 -0.8611625116688332 -1.380346110239089 -1.8188359496934556 -1.666219242659478 -0.7541994036045115 -0.43572450712743604 -1.6668358040793767 -2.460827322525867 -1.6905180481631874 -0.7185244799909312 -1.4175287425562368 -0.9599568740489183 -2.014189649625261
0.056345576302659246 0.6990247702585606 0.9301074567690939 -1.0123269367493826 0.7908377941038226 -0.19642336524758952 -0.4725983499018936 0.3833888657879018 -0.08574477367662359 0.8065134858222878 -0.26063168450341473 0.5744640603693866 0.07018277086546958 -0.2536800074302136 0.11184030857987735 0.717313520709966 0.09693102093497664 0.5431709433816422 0.6514333184537526 0.8956750215925113 0.736558546668024 0.725654272747553 0.01731103997221282 0.3729133296053871 -0.36331960580285044 0.37188736239192877 -0.35405747049822883 0.377058522485681 -0.8509974919088472 0.01707084252222296 0.8501954648001542 -0.78464372776794 0.9867549448621907 0.3253089288448836 -0.7112598800737797 -0.7047744352608978 -0.712704698476616 -0.8394353495258274 0.09275896590691889 0.697034906093271 -0.6346238805451658 -0.7650589766234069 0.1830752515044388 0.762951865839397
-0.1358439573405225 -0.664578075728821 -0.014650545994012493 -0.6798058770595898 -0.479895155937189 -0.2115912184059754 -0.1131226744961817 -0.39893960960362523 -0.7328326094396158 -0.34961731090502207 -0.17874371090959235 -0.6564319935866518 -0.6874375801159457 -1.4057730917028082 -0.7155718714771632 2.2904115150852977 -0.1920962686599978 -0.49494040765778613 -0.24818285461595183 -0.5832563046225877 -0.3680054554085076 -1.1028979467962325 0.04535617093398668 -1.1601842949775516 -1.6099079873228312 -0.6171302928950139 -0.7737603055212288 -1.1802385848899284 -0.037607074996243946 -0.4975204691347174 -0.7108863141871089 -0.3820028967567272 -0.5118240353154923 -0.9784322201454523 -3.2320238911115617 -0.3466357636754107 -0.29842182876510737 -0.884735899161643 -1.3071548538060438 -1.3293333168170742 -1.0892220427867525 -0.6209322576007392 -1.2271535815342518 -0.5628355281134494
0.06381512704537586 -0.6573386240534108 -0.984127141574656 -0.24286116398686192 0.14502917515893113 0.8988487544279407 0.38391867584215683 -0.7088804625043313 -0.5442322284346163 0.3706651020595141 -0.6712729995858507 -0.4896388488938553 -0.3423968772326902 -0.09204209127258223 0.11459588599126092 0.11993986233328027 0.8966626200429966 0.29878273915810083 0.4465152719942172 0.6422824779716427 0.0823404887446389 0.34504846538905415 0.5090203729377937 0.7922521218810822 0.858322881571491 -0.3232966523612769 0.7801592337894017 0.9893870631765816 0.7527877554764186 -0.7891242808008546 0.26251907563680743 -0.5309224210715267 0.44155444908477465 0.26034489833197194 -0.2228316654366306 -0.5879543524272403 -0.26752061214068423 -0.6986722497371475 -0.63123551206073 -0.4275638765507208 0.36752700777779024 0.6203937227445793 0.2943787052098383 0.054909064292552046
0.36825825468920786 0.6136499156705097 -0.82373888555779 -0.6196253324759987 -0.5486832838815596 0.04356370363066676 -0.4097996858308193 -0.3774650978446908 0.7184968798502984 -0.69670370862376 -1.1048806966565181 -0.4432347254270869 -0.9901441921266873 -0.7444859682595061 0.5174977994814194 0.1611870264384187 -0.5860247712248485 0.4413947328448516 -0.9542923284897006 -0.5816455262172674 0.8185634354075346 0.31249994042415213 0.2936345452774875 -0.7138310057398365 0.5523736851152931 -0.02959738614411163 0.1482462132733576 0.0408006825238337 -0.497495448136 -0.6710808378607288 0.46913939622175155 -0.8175847757016773 -0.2617436518375019 -0.885996710262124 0.6951821319456468 0.5716901060469918 1.204418581340875 0.21902569793281232 -0.8067528497193263 -0.9831394413917529 0.5299872724005619 -0.7807943042832612 0.032460036593611845 -0.8052748575413285
0.9003837680618137 -0.13700231937001284 -0.42244936433783553 0.302814891623165 0.2499706431480063 0.2796241455325547 0.16159941982449771 -0.09653189784253095 -0.847463527640065 0.7080472081060832 -0.9804592112815691 0.945999296681803 0.24027456705184946 0.5209412397388379 -0.9038823805586129 0.7361537606192445 0.9431375117980302 0.3292323659805602 0.08643729231886396 0.5329687861353215 -0.8029066891640083 -0.19999561707197214 0.8856868643202527 0.19921176348998004 0.6599395247127838 0.7578960089678609 -0.11960081230222941 0.27943265826638897 -0.9548338679724628 0.5262947349921205 -0.25311936150530806 0.006069422564753398 -0.5233767779283471 -0.6486540235697327 0.6153027151530756 -0.08406582162164698 0.715398958267546 0.16854665641640074 -0.7748864459372399 -0.8704535300882141 3.656038986959203 -0.7828265371397394 0.6449424909517634 -0.46575424684028904
-0.2846987688070148 -1.4113695512837023 0.14741467708783998 0.14437369833889133 -0.7199588963474985 -0.423832608100803 0.12966689538295398 -1.1796808066442512 0.19817684780268582 -0.6951467223748425 2.051961978290251 -0.060233151155235684 0.6106483953760927 -0.8660845376762732 0.4461895385085924 -0.8546185863406605 0.2771257870492071 -0.22374306585006853 -0.028183681086646855 -0.6663917672898484 -0.2609062647047531 -0.13462003299806374 -1.176250060195031 -0.4714523479085735 -0.23856004908892298 -0.8103641116802991 0.5549021000511066 -0.260625780559892 -0.07793166505203566 -0.12788050663605333 -0.36357740576172365 -0.8181799383087971 -0.12804824364648804 -0.49884636099287993 -0.5493001783022323 -1.0629835977804352 0.01649029441235676 -0.5719092005887202 -1.249985940434997 -0.2595133556146043 -0.36359355572667423 -0.6147096551845092 -0.8964659707903205 -1.2269321998548142
0.5422723536854084 -0.6158509624982736 -0.10672193949203572 0.26080597246117004 -0.6077040409039081 0.840896736141405 0.7114942755023254 0.3540387621667338 0.40720131366051476 -0.9754437252756754 -0.600820655149196 0.6587170391573248 0.3749533369499898 -0.9185714595186585 -0.021667073868320993 0.22926202278953917 0.13966262817771005 0.44946579173328094 0.19393974433926445 -0.437322318812904 -1.1000089364047116 -0.9301431560346619 -0.20082494249868013 -0.14484906040168435 -0.8419609125791059 -0.7768259990780544 0.8927158954278238 0.8849883913574713 0.7156973840211525 0.05094590669725905 -0.8804068362801929 0.597976240628272 -0.27179341225184867 0.7877736019022488 -0.042935967903638315 -0.4870824667819632 -0.10366226339378552 0.11788994274342901 -0.9313495212964291 -0.057315133458147136 0.11327239146728642 0.18126150491930348 0.46771117641515086 -0.17416910913971387
-0.13951533050003057 0.23866196758589994 -0.741124824572159 0.518523451842151 0.7044693612320191 0.03114436056023318 0.6544605836411864 0.2827652854758064 -0.3982487665687287 -0.050089679814571644 -0.5688078210719493 0.7644281277968011 0.5695192042819415 -0.18120752289792902 -0.39864742469975195 -0.06798017512097476 -0.03712319800643511 0.2929595440965027 0.7790435661529742 -0.9437267548632318 -0.17146447756927294 0.9893811961773286 -0.8837503784868982 0.025161140310646674 -0.7888688361400021 0.7751503553545703 -0.6116030922636014 -0.762971703772599 -0.7327187176687042 -0.2625792951395498 0.5926839105364138 0.08065105394505913 -0.49632674616500455 0.31367588135771746 0.31651925838677847 0.10765497336141557 0.7939432489963468 -0.5643857765145434 -0.1084798794076351 0.7813466819319805 -0.730932983900691 -0.2947504573403982 -0.4288614240233679 0.7015201920795983
-0.895042445050322 0.25018876564780684 -0.17516859406737842 0.41143907778878736 -0.4826782721782864 -0.3734924488802065 -0.3503091841220252 0.40274608772116066 -0.8983586522904474 1.7779129095707815 0.03036395084281524 -0.3455288584756296 -0.3837047012338866 0.1332733810240601 0.47379153803707685 -0.5151164115792742 0.7915625856365931 -0.28231476865693855 -0.7090168766446282 -0.1641000439088592 -0.4013622082367156 -0.7123870187225091 -0.6839906922516599 0.4393542522072605 -0.011544169871230168 0.05314170321979423 -0.04767430501277034 -0.46624152750941056 0.718182891233436 0.3258756261858211 0.6398254303923797 0.15980387446394106 -0.6471066756898154 -0.23041706092949574 -0.8153202945065835 0.9385995982268939 0.5880133788205283 0.1617745294340495 -0.7461488652988947 -0.2216608029163848 -0.3411192204645811 0.45240535391447484 -0.852062218462878 0.4680260927662122
-2.0640835181767727 -1.7751437798532583 -1.2192824596238143 -1.8689919304602656 -2.6673839956697 -1.7470449421166765 -2.3248958457004596 -2.533256388413849 -1.8351961802226266 -2.454723077411376 -2.6218196888864846 -0.7270684496950193 -2.4721807866683725 -1.6649501578701105 -2.358307876181125 -1.6658955334068821 -2.437104226868723 -1.7142212016927212 -1.9720653632901264 -2.039713781943656 -1.7247318890862542 0.205253250838844 -2.119461430627979 -1.121349536945485 -2.792804571964505 -0.6503841713166149 -2.5692044658616457 -1.9749456575202216 -2.7933970285530947 -2.124874794151598 -2.0745337064092415 -2.6780192859065517 -2.238844472343767 -1.6879317595802188 -1.910930723040007 -2.7871913871530385 -2.918419730480167 -1.8797385584195545 -0.8389110671204617 -1.77118042479768 -2.3216132795444056 -2.141533372613143 -2.633930804946379 -1.5088857558343065
-0.38735307192698365 -0.18969825562434234 -0.3407567281479542 -0.8984886113249945 0.4163327526474299 -0.5887458019671618 -1.084372097090542 0.5967155952695776 -0.0866258629716614 -1.127412227397863 -0.4855828914766762 0.13079667695265426 -0.6825865480189576 0.08624978867858205 -0.9511114722249625 0.6045949595968361 -0.041299995889156074 -0.841177987425863 -0.09465649449190203 -0.6836959310667583 0.6505048516864149 0.5623078812909467 0.04305803850189034 -1.2143807478095767 -0.7366765100618959 -1.0028811723570425 -0.9946182650479487 -0.6509110831389872 -1.0491521463863833 -0.5821960826846649 -0.639178711462851 -0.11492199185394994 -2.359424207861711 0.22097067285287444 -0.4340881116308759 -0.6278252988793385 -0.1301936116057567 -1.0077901354794419 0.5582136419937995 -0.06943852909584931 -1.3278853173244856 0.42914789645614826 0.9050141895259803 -1.0293931185885434
0.6248516039623634 -0.32806208130302467 0.502306798826766 -0.6073801704740442 -0.3945905350929482 -0.29608278190903914 0.1619298762046858 0.5909336335817115 0.028332349842250935 -0.8792631442440424 -0.1903694287922124 -0.2388462269855434 -0.9614598058169066 -0.5743906564365575 -0.7093279044306524 -1.3284422175128168 -0.6311800652092466 0.10441124869331483 -1.3608688680492276 0.22734971854598077 0.07881365098521437 0.33057594889021086 0.22439056395399368 0.32781804758522193 -1.1214632861976612 0.09362665045010682 -0.7412633172736909 -0.47489945650786236 0.1800354168173442 0.8010847347781094 0.35790327396755744 -0.4566156488978277 -0.7191453015854198 0.27479978220386914 -0.6752474180290078 0.6519331495305715 -0.9401864530759719 -0.1547920381057855 0.2200053032944683 -0.79863863698989 -0.6605101528487081 0.09726659626166471 -0.3902513464117473 -0.11111659256144031
-1.6042958632127495 -0.6903755880395683 -0.06560752643141644 -1.3287580867205584 -1.152751346325229 -0.5211280840470366 0.7133300894918878 -0.9196005199816747 -1.1745426823648928 -0.017622329846748053 -0.8968278933175278 -0.7219701268037695 -1.4935730979535329 -1.5272020792324077 -0.7495896763996899 -0.6629447070029006 -1.2967000157625999 -0.7002909548199603 -1.0614918359239387 -0.38653692705948356 -0.4195267386116221 -0.5394337638415236 -1.2540192484448514 -0.6900232287398982 -0.13210964183232696 -1.50092699589423 -1.0588963435834742 -2.0428894344297333 -0.7929669214733593 -1.4825798569137687 -2.1374286822383217 1.5451533919209397 -1.2313035342299015 -1.1574682005088541 -1.0607013259827227 -1.4541965146652929 -1.5334207530370696 -0.4931852789340552 -0.8725941353708827 -0.8574813404867134 -1.098610672757978 -1.5059277115987033 -0.8957698906293576 -0.771026660865485
-0.5327504462989081 -1.0649672370871168 -0.004273953942400339 -0.5918777156130457 0.49125928168674615 0.12753449681433868 -0.9630487657715241 0.7009767599833939 0.2388082126817323 -0.9176436137420712 0.10606386525426448 -0.8162093399148987 0.5683216223421135 -0.36903044042053584 0.7304417955130043 -0.16724920815650854 -0.11201218252557554 0.33212261291053846 -0.07394026908940689 -0.7538372609462971 -0.3347303704329047 -0.10952321997314661 -0.33617401324518686 0.005262929901006266 -1.1822268130866578 0.491329489908902 -0.28605540239276955 0.2815275229691832 0.022071822667381478 -0.47251492870702866 -0.5175225096743661 -0.18318993987215634 0.02543570381307546 -0.6847680441250196 -0.6250574469846644 -0.9107225322341788 0.334323328306916 -0.33441403834062133 2.423271470157379 0.035377136981010485 0.5934231639968918 -0.06870225683159481 0.12762090657880698 -0.05240360529942953
-0.2846827644104503 -0.3890263604058934 -0.7114230763288468 -1.1729707091761912 -0.196027166716643 -0.1781688358487816 0.7860010733101679 -1.3320238588891837 -0.10132481018550117 -0.3100248554507274 0.2472462618493742 -0.0038690775831967334 -0.3306918815599023 -0.4034939477406095 -0.18796634732039078 -0.8391702734230311 -1.0718304566232681 -0.778311876401169 1.001650139524172 -0.4483917751530795 0.027915330452661563 -0.12177075329048956 -0.44549507720713893 0.03168571961061016 -0.6445149166023026 -0.43916124528826134 -0.953507191986992 -0.5859827996639876 -0.7547944924446773 -0.5795473207422274 1.8043477106496857 0.21182979303522254 0.3922821074812378 0.19235829956898537 -0.5418701600772164 -0.13282931793137573 0.1395351605192011 -0.15401621695733486 -1.232256543415573 -0.8379481371835805 -0.8601118877180922 -0.031045503930928628 -0.301093294875336 -1.168218856836437
0.33434239047170605 0.475416118108252 0.5752378325799185 -0.5081892698263172 -0.7633118013244196 0.3120909760132478 0.4036044701430019 -0.7566956860419343 0.37960569563348917 -0.3929148362472367 -0.7168363198316836 -0.9594468568581362 0.22299205787726448 0.7939803929171975 0.7879759200886887 0.43161041331844063 0.48524865651149873 -0.5235574888734361 -0.8288728588934444 0.19184921278407405 0.21342546301674528 -0.31620803914924 -0.9366582090296555 -0.055420363436710966 -0.2671112001318254 0.5070221342455508 -0.17727148540696372 0.21100992780676622 -0.6422315380251384 0.2697532778905182 -0.2517166535238947 0.26755940401827083 -0.32516776922098034 -0.5578957593775534 -0.19246361794178715 0.8329138066421096 0.01852052976380805 -0.6187175812289135 0.5415693406334191 -0.5583679155270402 -0.01384763943892813 0.16063672812950397 -0.8773602946326706 -0.46360458058772247
-0.4342641371888901 -0.35251987570147225 -0.7877308302331811 -1.0674775388620834 -1.1171638134158526 -0.8923856770004446 -0.5064413739800768 -1.4142318348804142 -1.2553079252333772 -0.756244416157284 -0.32336734651130994 -0.35562859866435115 -0.6901500769724397 -0.3009741310380949 -1.38451100259277 -0.5849224729707593 -1.4443713287106077 -1.13288146061518 -1.5526890605785453 -0.21916011906496477 1.3428605422215092 -0.9298366529119032 0.10438805698524171 -0.024978030752418452 -0.8851948895140318 -1.2144702000522887 -0.9040117661433169 -0.7606125497023305 -0.7004844727657383 -0.23443649165245356 0.04264281595905855 -0.8934965575051862 -1.1997867692111706 -1.5805643535847023 -0.6416504377958228 -1.0906880336492872 -0.16217480477789795 -0.7513293969883992 -0.3986676004186216 -0.4510983320998503 -1.625052641793819 -1.6511055550271119 -0.8156229261083527 -0.07539787489402958
-0.5595717910961244 -0.23564243443533936 -0.14770935664250318 -1.216003365561351 -1.181707077165166 0.035866668408181195 -0.5971929771637767 0.4980123779851947 -0.21500974611976073 0.1884390474131914 -0.3128896154113036 -0.5902667271299858 0.47714870418429345 0.11781279536825918 -0.3420272988890003 0.1201300432023262 -1.4891426636468312 0.4902666658233078 -0.6970331913343364 -0.41155621030700923 -0.7687924035074564 -0.553940252212689 0.33327969142010644 -0.8738786368106263 -0.41698396277618 -1.2602444284249077 -0.8647518203950408 -0.3205651482593222 -0.19474629627978501 -0.5414834745835064 0.35918563922804864 -0.31326305503486773 -0.9374971962265894 -0.3939696819226458 0.29345697499946094 -0.4553769500015957 0.6669674449485216 -0.9630167630770822 -0.29631255278603724 -0.7262827669161068 -0.2171641696757017 -0.2564740401191732 -1.2850538585795557 0.19869561214733178
0.2303879010524415 -0.7489148391093275 -0.6220390516858622 -0.46388255108604515 -0.049348501519068416 0.7944225702527913 0.7162122214774275 0.41734554772541893 0.12558985240590984 0.47530636844282786 -0.3342633189828676 1.327325357048924 0.7079005123313058 0.6401743013721232 -0.0733822560851215 -0.5478502121110779 0.4041043127911434 0.6901024971985996 0.24926167421043047 -1.1505428364787553 -0.10379010750184925 0.764239982222805 0.16729685009995096 -0.4292985985909662 -0.32624092372573793 -0.7588471632984939 0.8012670970680763 0.2601961660660892 -0.7568038478029598 -0.36938030149337187 0.11767479434421525 -0.1663829144600019 0.16877356540813349 -0.799182637230288 0.12835378569048056 0.3111475761563795 0.2939080407807743 -0.056631215697894 0.28612331902143234 1.3315371339790656 0.43512757677793507 -0.6829012142836078 -0.10187093203589094 0.1169634419422999
0.014409543666389548 -0.8422715791273978 0.5647924324572017 -0.5377828516196136 0.7038906837953878 0.05983248482914442 0.7162204123282897 0.005697523005591861 -0.22415032556408093 -0.10490985089720394 -0.60245269643203 -0.3149580435642042 -0.07816226166951842 1.884451910678911 -0.4701762598492544 0.12213411219648791 -0.17756851080321073 0.5398583729524008 0.5115135820338752 -0.45864280742554814 -0.5517837213855645 0.3887759534538272 -0.7229000706059142 -0.3996820082004126 0.7216494941293108 -0.10916074508934158 0.012056279660541614 0.25863783519207356 0.29424562101192886 -0.2728206896534585 0.4428784324443456 0.2426408475026401 -0.0008695757458144704 -0.026916626530743667 -0.4985665030677223 0.4466574127661014 -0.06544057929807298 0.7803499320844843 -1.0032519668709345 0.8808725779650302 -0.9729105242023866 -0.5301020491967406 -0.8232935180866454 -0.6520716711191076
-0.5691466866016641 -0.7508150871452 -1.5195060289061977 -1.215115952895007 -1.6343305245677084 -1.3128576826721792 -1.9474070664642058 -1.441511516670235 -0.7037903582770072 -1.3834869804013745 -1.6429949990149746 -1.2275002915075517 -1.7516292037880583 -1.0275259449624812 -1.1544299349155365 -1.2790059135869056 -0.5729374797989284 -1.0742863797077176 -0.4292231985093213 -2.048144787886031 -0.940740938263741 -1.2263034677056361 -1.6834419568832206 -0.8573774287703668 -1.3609925281835606 -1.4803736096198392 -1.0712256498414774 0.06173682449129332 -1.4815014605325931 -0.6776504656459958 -1.0255880933837827 1.539091997721216 -0.6288323478668791 -0.6784427827842066 -1.3815455398553729 -0.32081280715659855 -1.7419325811792101 -1.5735229562963726 -0.9089487335822388 -1.6427011158806855 -0.6795487176612888 -1.9640534182563962 -0.7663504641350071 -1.3150859822615897
-0.948402945123466 -1.2991688338519818 -1.9042991942502754 -1.27410075514655 -1.642836686377251 -0.8824154866122846 -0.22431441658422308 -0.8712193045134532 -0.8397051811906726 -1.4718688203581984 -0.39275542412435466 0.10277114974788201 1.4185824882833127 -0.9718989268230713 -0.742585167348196 -0.5582233691197693 -0.41491818850374396 -0.08882285600413978 -0.8360195329016574 -1.221326488983562 -0.3253061572102934 -0.8642688908224696 -1.4070586743291373 -1.5724096380297248 -0.01853004182964162 -0.7907108000905934 -0.5949340882713806 -0.9809827452135861 -0.6508780895555634 -0.5260865562071779 -0.9836169889599015 -1.104157270636993 -2.9894742677447064 -0.21970815883635672 -0.39654434404799305 -0.13754341259437888 -1.1145031126098583 -0.2108777813332922 -1.2141315540933697 -1.2745927774858692 -0.7660481165472293 -1.4738319817861534 1.7875809445040562 -0.6088335084633524
0.6892759591947579 -0.13066468209710133 0.41379159337002247 -1.3867958576077004 -0.8200131153725608 0.15618276570236528 -0.8370778595502275 0.24063652888620504 0.09790178585690754 -0.42635889958087303 -1.5865920624289784 0.23838663550095812 0.12910718420274728 -0.6212513446383551 -0.29677237915881965 0.22376562103885655 -0.5710490511279924 -0.6425783726187618 -0.6689141135240525 -0.9293009976368121 -1.051059089696492 -0.31937067849286577 0.15313690200139907 -0.04305648921534108 -0.4481039332589126 -0.7090506064275857 -1.1877429730389373 -1.1777349648220732 -1.2152494747261005 -0.045119761953586274 -0.4036645869664243 0.0914788937585186 -0.16509529403426249 -0.1450565653223462 -0.6036454404028649 -0.03225940248866937 -0.6905630650655551 -0.7534995133483774 -1.4663222207837499 -1.025539046574987 -1.065319149702131 -0.9568330450479021 -0.3576139603562333 -0.11134958644800147
-0.2791044583392975 -0.043889405784532314 -0.28565622782056793 -0.04679808791933945 -0.07243464387622915 -1.1772146968308024 -1.137278789452163 -0.5234173634704258 -0.20081781731842568 -0.4343303973597534 -0.60196737621349 -0.6899685467894352 -0.5684928093177604 -0.23281494745932418 -0.8484077348405673 -1.0079213235973525 0.1988505194826084 -0.12087739237118617 0.3483584243046617 -0.9320625233369046 -1.6786074750673934 -0.6371720960419611 -0.4199399454034572 -0.27459995460791375 -0.369613086164575 -1.0115989532923668 -0.8293843039272574 -1.22148295286401 -0.9243787500471795 -1.3734096695084659 1.037117604059867 -0.5618624729883387 -0.06544422707822113 0.06139096866385783 -0.9736810185988228 -1.0218731469746822 -0.5927245118393076 -0.3872951590044317 0.18269117864529247 -0.2140284703132198 -0.07785310899546209 -0.9648450356244582 0.0967346760034682 -0.032589263418927025
-1.9244141042217584 -2.07654271040561 -2.0895913388791563 -2.14486722154659 -2.0217877066255796 -1.6019613105691546 -2.2392992267101874 0.9670120163666318 -1.6883642085122659 -1.9469974424062588 -2.3984764095372646 -1.9388742243624673 -2.3397343415963148 -2.0789673431734594 -2.6989369986007623 -2.3923130233678087 -2.3806223372553967 -1.7096568857510253 -1.6694878736521108 -1.7709446944693226 -2.1411628333934583 -2.0658530214115087 -1.935914136746985 -2.220615953144795 -2.276835026604979 -1.4633831216804918 -1.430077971169761 -1.7283280940145225 -1.4620788404386575 -2.087200522339254 -1.1038808727133713 -1.9953496628312917 -2.769855903824695 -2.00862190668524 -1.8244718213946498 -2.6675792978267943 -1.799076249030687 -2.313059683299849 -1.8734461916017358 -1.8404636531759142 -2.3522426470028948 -1.959647992143845 -2.1396147173048834 -2.568429448722509
0.9362363193215915 0.3249611678768429 0.006239594255841804 0.15545429473529992 -0.038795428449922974 -0.363602872382233 0.9625076722748322 -0.5870802289131233 0.03639374618768881 0.5207974003590805 -0.11317535512593113 -0.47801743859067036 0.7357240057420251 -0.8196476571576894 0.04198000048514537 0.3937870652074997 -0.3915876134489275 -0.8205364992087836 0.0013500803836692702 -0.3577498883894025 -0.4311283314844769 0.43415864258397974 0.4829166442370124 -0.6463732666302575 0.012971258888690263 0.13401010458252904 -0.35606051657393617 -0.388614610224486 0.42865829164566416 0.829190391483386 -0.2748032695438399 0.2957288445616947 0.043006803126243096 -0.45158567867389365 0.5106984013983662 -0.3499211845174254 0.31619320003611673 0.19399877311648298 2.584583731589237 0.6957535174512008 0.24435208861233712 -0.2317422440574059 -0.3979001920163766 -0.6048463670632749
0.4258905609137139 -0.9466902587530501 -0.2949187755413166 0.43637558504904406 -0.8824688703645075 -0.7616523153973497 -0.15682627928191872 -0.46573421883358496 0.19412920681700976 0.15732783362048097 0.1692433104185333 -0.6182999459866819 0.09930387491714814 -0.8723279369752869 0.2427813268984324 -0.10588743323820668 0.03135233553176181 -0.29567943654543144 0.4331564136564421 -1.017493778752969 0.11103106040175816 -1.0477772603850073 -0.49049757376499514 -1.1454497820486242 -0.17082083921755517 0.195748718854085 0.16524784716992721 0.4907928867438785 -0.9333971204806321 -0.6323994697278891 -0.6676513763605345 0.4665235980379306 -0.3332523342446907 -0.05944736649229704 0.14040025983033486 -0.5833298459192112 0.08628707088530557 0.2859127158185915 0.1073473637508633 -0.0608756124709856 -1.0131726799048548 -0.7271799754926512 -1.2939774605810277 0.748913704032246
0.5207163750932201 -0.09213213183369792 -0.33935211542083726 0.2980650553446591 -0.10304223881743006 -0.20458502335195264 -0.05048168378771797 -1.17868638905436 -0.5082293037712611 0.004841166846214821 0.3384042882110642 -0.9926542667348607 0.022467989776224863 -0.16468447528406102 -0.9676984331781172 -0.002396754788589009 0.48190967577043126 -0.9491039614872767 -0.1971595759674807 -0.8983594555751302 -0.032190315600508355 -0.5272124460473075 -1.2069493353534608 0.6540962693643589 0.1767191671422964 -0.232837662756389 0.15069957670517356 -0.6191017052753485 0.531340198403588 0.061685711899347434 0.07200749595646944 -0.9128766981968541 0.26463604977290606 -0.3998131828510689 -0.1377802289050483 0.7693852084232201 0.1949755671101293 0.4744016260560997 -0.8765473341761677 -0.9359952345280943 -0.44100780947210033 0.18706171101554472 -0.41446792612797234 -0.5799933763498111
-0.023219928948640424 -0.9946876409999433 -0.8483310624002437 -0.3598307863202305 -0.3170550802932539 -0.986798537475932 -0.8073655667534835 -0.861614576876638 -0.7122997727297888 -1.1249007056638103 -0.09197389062546199 -0.32849366140564484 -0.03974931332060984 -0.9833279580153269 -0.3284170503229523 0.5849141364694538 -1.3669898526979776 -1.2922360654110232 -1.6214717342899094 -0.22602897898666968 -0.5866577730299773 0.4462992436221602 -1.3682451359832293 -0.7004026028813526 -0.3752448523116958 -0.09374466348751545 -0.27433965374273545 -0.6834696460063302 -1.294484520582385 -0.5305283513577231 -0.4480796508851078 -0.8595471503839692 -0.15824714883801433 -0.886652686893541 0.13663507012112566 -0.42438683967107943 -0.45219863190765036 -1.5181664624375453 -0.6836142466208917 -0.1355569169965678 -1.1332296632544199 -0.5301900379322809 -0.6891001461505146 -1.180295506571055
