0.8720398721547191 -0.663469085870775 -0.7036475403266406 0.0008662536496398351 -0.02400026908443778 0.558278567840999 0.6856806437750292 0.3664112471037527 0.005175952455277945 -0.47330086293622325 -0.26725030434606317 0.8771572126716229 0.4788808490454509 0.6225979585762004 -0.15724867099323062 0.5374923781871845 -0.4755608872326145 0.5562495360956571 -0.1708030387092292 0.8239569490941543 0.37849619584705724 -0.8937126603168817 0.343699966142526 0.6284219021373586 -0.8369225471561087 -0.39598112438723815 0.1826714249743691 -0.8013050476388299 -0.38783182498102003 0.2729757328778374 -0.36097664149577147 0.08579067265705251 0.44739713294287003 -0.2208019771312295 0.890636652318892 0.9494390569416209 0.8654427893555806 -0.9479717903464862 -0.811693094341833 0.5515261226018654 0.9079154768604615 -0.4143067819947911 -0.22530089324231214 -0.17455231651503958 -0.896170852783497 -0.10635301005115137 0.5487456510576807 0.8306507373494513 -0.2498671361551668 0.3957024708729937 -0.48073104524982885 0.4715648088692714 0.7831487760558552 1.02171421209411 0.10009410206498848 0.8049139753787196 -0.8638517985284382 0.7793355878401816 -0.01583792465528861 -0.5148746085419903 -0.021000804311978958 -0.8318623692047918 -0.42930817157583095 0.15665226493031742 -1.0175443365860648 0.042461392870448984 0.5803494755332468 0.4161186693050232 0.5228436960166605 0.23128014012911383 -0.5329335566876899 0.658266562456369 0.08163107145502294 -0.7311077220147002 -0.6315709207575637 -0.5462223442403422 0.7327103148196954 -0.7459512287659346 0.4800928406442617 0.6639393423346844 -0.09786901444257026 -0.939572910439559 -0.2258981902376628 -0.3932812281460921 -0.8952546531808218 0.5139316461068193 0.1489035798402032 0.3015604789145201 0.09783994168539274 0.2612733800798735 0.5173031260996268 0.041764517969048454 -0.49956900071431554 0.14589542371438186 0.8314771317641662 0.5799130517187185 0.5572597226870779 0.8166127216865879 0.3103207002234188 -0.4024851395633325 -0.20790690432512793 0.7531179849623391 -0.4096054963198878 -0.6271288154834854 0.04957304582404923 0.1763137756195626 -0.23796095003543896 -0.6524555703938582 -0.9865268644037746 0.29493910445036203 -0.5730094589129953 -0.17831218967464232 0.2802006565127112 -0.9207928990939895 0.7897152560394868 0.8202664025896902 -0.8984226660096167 -0.9433985313102974 -0.6271370589777957 -0.22455823823302304
-0.1259966169125284 0.4930366810012845 0.800867877055672 0.635320784872343 0.16089195972451187 -0.9655154407921667 0.33019708601967174 -0.9564426253829164 0.9836337153628151 0.3647583562934734 0.4646744919879019 0.2795499366288224 0.29301326763749264 0.2570178698296485 -0.9483556249603888 0.31634794110395437 -0.3238433764285767 -0.6394395527204835 0.06052087168059218 -0.3748791046812481 -0.19955121045619317 0.8923406326496592 -0.33345072634398976 -0.35437317956071274 0.4805870409898333 0.6951188959287371 0.6543824663354483 -0.8692697976675217 -0.40351810108640296 0.006645406209494024 -0.8911080073311275 -0.20417791397380622 -0.1410755978686386 -0.0874406024562797 -0.0684749478060781 0.9036101971830797 -0.5391787464195149 -0.48604780858257013 -0.1471558789866653 0.97003144698253 0.6360442615853914 -0.8175094676863659 0.023320812822332324 0.9624132841628691 0.9251306895043047 0.08802021254642595 -0.4906593672779363 0.3796028822275796 0.6227902049292185 0.41433017814209816 -0.7865332164906226 0.6579271646350499 0.4590106776409742 0.10094635620847209 -0.03741841256828302 -0.4350670413536001 0.14457985542328045 0.5051822066343289 0.20077376742364947 -0.4738765921329821 -0.7329906070973424 -0.631160109579276 -1.0254596277910941 0.2499172388350997 -0.6431327294118407 -0.48441745376139966 0.19131252220961875 0.11784285536107163 -0.6037528779805477 -0.9473115559281526 0.12041779939039941 0.8942412146403523 0.08761026327404407 -0.18369093936314695 0.37263725970654893 -0.46834886006872334 0.26578020496920746 0.4347840730793092 -0.3854168612553308 0.07826403326828096 0.8529513644814108 0.25755157998292266 0.31032269533479767 0.2638094115414935 0.22893734430120613 -0.5373082102751977 -0.5816701511677006 0.09246626205583158 0.9661148907553527 -0.472809226688085 -0.8693395734572796 -0.34140836847392353 0.5658409192327103 -0.8214945805072433 -0.6309494017872777 0.5889886842792238 1.049936148553084 0.7327233536150799 0.3527948027304312 0.863614703571378 -0.28455885860595903 -0.8825911814393222 -0.7271490247683183 -0.8371534501954461 -0.2201349791290181 -0.4606494907765523 -0.866140882793996 0.6239638849303533 0.47946283552084984 0.4955090101862444 0.8814046515012426 0.5581416787690792 0.603777541917453 0.3272295245180086 0.39572935124209435 -1.040400897384546 -0.7501820522612054 0.39173229882380267 -0.2468972753540433 -0.907692317414937
0.5346407055970517 0.6917737747152012 0.24910653664248852 -0.10670036168876082 0.936981365703352 -0.7396491535683505 0.34518394052026136 -0.21290109279286892 0.23734076340627933 0.8214149756081773 -1.0124089447122664 0.9305733825988608 -0.7142596595795112 -0.2772503586313867 -0.7356808648151809 0.2936913000629331 -0.25087500309206384 0.6130777856919944 -0.34847912717215535 -0.6632508963953458 -0.5224414985925361 0.8865735415821855 -0.6536707476067792 -0.755630673173829 -0.4343506617756872 -0.37881584605902596 0.8675854157195146 -0.6225109946206538 0.583426962554932 0.4650629690673615 0.41080088368352224 0.7016446406322394 0.6374466977065673 0.9429230683022819 -0.013207445889091434 0.714981010206214 -0.758844680933527 0.9142162512792944 0.07092708903264192 0.1893575047660311 0.5551388971579083 -0.8693873904206126 0.41872039269583744 -1.0111776501101375 -0.940768760209455 -0.4270060669022338 -0.5751519658015348 0.3626240307851865 0.3073058351759226 0.4928056824688313 0.78433645215512 -0.5046051596252575 -0.8663864664260882 0.3404659095630771 0.8007317637681586 -0.6050220541363627 -0.6374708763961049 -0.3159383230053001 0.4733009106008227 -0.5298789398285669 0.8273607756669483 -0.7746743482505764 0.15876861439347079 0.19301889721864796 0.8496250976796627 -0.45727314477576897 -0.201565846225842 -0.3281235736910796 -0.16626647464511732 0.2260422767995573 0.5467211905940205 0.8934858111711534 -0.8183671354758397 -0.045872240725941926 -0.49382775421684255 -0.766365689717169 -0.4296085359655465 0.2991255054666364 -0.5032186758321444 -0.4843757340757633 0.771648274113624 -1.0340449725072725 0.36490002869339916 0.5397821739297134 0.7032386472302115 0.8681265404180397 0.9013121750467988 -0.7900402373025491 -1.041112270129721 -0.45201491081936496 0.7001642805676951 -0.3552266050126519 -0.766395128202286 -0.12263079794857823 -1.0366172367549236 -0.5602899700124935 -0.9533579778583344 -1.0013131984092734 0.24094164167322044 0.020183220168548264 1.0228243194571236 0.1274598746068905 0.4241039312022907 -0.606414672065544 -0.9173676619007364 0.22095079640746476 0.22771166737054616 0.38583539210269485 0.5247795633318383 0.5097262449257058 0.09362180849877612 0.29191217339213893 -1.0254508258127166 -0.42072140553982923 0.003853127614284405 -0.6440002542937879 0.8351152411351919 0.6220054156426471 -0.216908125466442 0.8247858399294891
-0.6218245362472274 0.6011861607662904 -0.11385820713520088 -0.5775369638526251 -0.8114146950482862 0.3144815237240327 0.10920627615845428 0.6022959005841934 0.07050575242591631 0.4190987745960035 0.07132621239161907 0.6299508832024007 -0.8968205802703896 0.6593625388007602 0.9634106350575125 -0.144359427931641 -0.3886792747462717 0.8163136390844616 -0.5157199602029086 0.22485689838146855 -0.5972798470278843 -0.2651625186604055 -0.06159383161464065 -0.11277806120723265 0.7311773159402792 -0.41389516435167284 -0.4591877715565832 0.5669881618547119 0.5505431221472313 0.6346965651707337 0.31483333673591724 0.2695450133481338 0.3084013661540404 -0.19969559859515812 -0.8580343660747847 -0.8290136950323089 -0.0245627522815834 0.43713689175650533 -0.8925510934241617 -0.35115919389691713 -0.30259384099527825 -0.9163318931561092 0.10931700108433313 0.05951554421965674 -0.9034085534492661 -0.6875226946440898 0.02196229776768659 0.4096120522552569 0.5996453703304432 -0.6321760071131336 -0.7120770218128801 0.012738793226201871 -0.20501817938873768 -0.1274092428585604 0.7228398490543108 1.0630908267756873 -0.32425924385994653 0.43129972931317906 0.35065670487694983 -0.42323012476862415 0.0133535219218451 0.8587835818069258 0.29210575208435285 -0.7142690423835797 -1.0094257304525989 -0.06883156716366269 0.5788437496671854 -0.6247280119675569 -0.1131811729698492 -0.5380390933965292 0.6740593580505666 -0.7492081128775824 0.4839517648568372 0.5739882403724278 0.2702446555559639 0.2404604461790068 -0.4639522041104053 -0.29468734725754436 0.6353523011100426 -0.7882871426886454 0.862290492646577 -0.5955947305115628 0.5676066474337039 0.1993036565867945 0.05216526311089373 -0.4650482991146008 0.48730851987459595 0.8096451836864598 -0.47000785401653583 -0.5191328182360528 -0.77560891201464 0.7874295147029501 0.7770149076678474 0.6122821601316418 0.5553754704449902 -0.0419026156743061 -0.8881963779412806 0.1324342489626415 -0.7950143520229639 0.052725364259572395 -0.8823479871909498 -0.7547192185553294 0.1327318881227856 0.9962542552869029 0.3280316683988715 -0.7426839688892526 -0.02037299176748505 0.6697110735645408 -0.7152934520024131 -0.4187100395792901 0.8136664478540729 0.7064414069973685 -1.0258628101651772 0.6993856232984701 0.3030931510977011 -0.955212613885625 0.3800348841168153 -0.7652269671391435 0.3168099552433276 -0.17455966484662452
-0.6965970799513947 -0.9822803970200091 -0.6025813427521655 0.8413959707442867 0.03093200099984351 -0.2828041483963101 -1.0897839574794166 -0.40987651158420557 0.14435716608608595 0.22117173819796615 1.0058111736295998 0.6427923656550808 0.5722177437267713 0.654273197478297 -0.21375391418258355 -0.6030536492176278 0.38935329827883325 -0.6664648254453265 0.7010785291988502 -0.03690105415400009 -0.06566556967426282 0.3168774679207742 0.45985597046960736 0.5570215997971155 -0.693086936907923 -0.14254982205319428 -0.6656402398113949 -0.896968185667365 -0.30314694657419683 -0.8688932819977431 -1.0196815390536373 1.0883107434824688 0.8656544484739451 -0.4854677970673913 -0.4327732712563045 0.8203961184875952 0.7529452818530795 0.7679485573156587 0.4825483799586787 -0.3231913830630221 0.5229761852045536 0.9024394151159941 -0.22141672407657365 0.8544355589556346 -0.5235580486298779 1.093767743807847 -0.5236452835065795 0.1409550400925787 0.5214924010116267 -0.015645102944970075 1.029355520505249 -0.3507564055211031 0.4593055749819922 -0.4826825692195483 -0.0450331728628127 0.47645913806768153 0.14096683111965372 -0.21055539644633597 0.33046459700340625 -0.06974333942436761 -0.18646931497842456 0.8665244428053452 0.5555344327721384 0.6724633039177452 -0.3995529223210856 0.13419197747987163 -0.6359526168359673 -0.1264467512932399 0.09386121714018765 -1.0479147168090148 0.5368623793251587 0.5124131133271798 0.9842026600267904 0.6646092932785073 0.03690913587352082 0.6365765402518907 0.5624725211417083 -0.5469982134656051 -0.9489908220593465 -0.7335110621177198 0.2912020805772255 0.8835258310108071 -0.710793936389435 -0.35363281417249043 0.46104445831847973 0.6121758129148704 0.4195012935553559 -0.2538886131117729 0.8918098025067978 0.7750233840002371 0.7896603076878432 -0.375247586680425 -0.6166828969359212 -0.06490036305843874 0.21678438096584662 0.0632883919333804 -0.8686432302805922 -0.2659994673618768 0.3144573130359266 0.9075422785250947 0.7814267357996405 -0.014927550870809674 0.8314759967833159 0.05216004319922343 0.15714904054612147 0.9336685990481313 -0.023401946744055744 0.025084112787804518 0.3264095741269406 0.20541359053458988 -0.6708886255514229 0.6074498484745563 0.7168704060507612 0.6199508501078514 0.20350591218660224 0.10635903503911551 0.11373911173798547 -0.12295963730434122 -0.2964589400053193 -0.5561432950218241
0.4364476274994131 0.1326246513106407 -0.7673535188277028 0.4918702610061947 0.3188370815006378 -0.008434442283941121 -0.9458533422276995 0.4790699472679494 -0.2984447817418384 -0.11821574994933232 -0.20512755356769166 -0.720427219329368 -0.607341025636548 0.9579748403459049 -0.5224379418839599 0.4648933794752023 0.8543321868286647 -0.18105454648883032 -0.8466783886340612 -0.016501480086757368 0.14972603493147785 -0.22167464636248752 0.8863736653183631 0.7323784074014908 0.7091097753220086 -0.4740129019326107 -0.21545893031028437 0.3599407512694873 0.334191259926714 -1.1310566609179113 0.6714111689831974 0.32850568206180697 0.46697894883017094 0.4657449212936537 -0.17475065631287506 0.6982405603890289 -0.48463232862579847 -0.47310289325791005 -0.5931771050979403 0.6091990510012185 0.7602072033235293 -0.3285726821854734 0.5602376966036354 -0.6144184577982861 -0.9230557728914021 0.05029343610695688 0.0687279776755231 -0.6768447377423779 0.8424716413895219 0.17229236905162218 -0.5354212124608139 -0.3265112339731333 0.05111292945471763 -0.5728811064331527 -0.5650452200796523 0.49204526238479945 0.5677310763228041 -0.011639491093416958 0.4552887161830071 0.3459514976018225 0.8722356604631294 0.3666334629210066 -0.7879851420758697 -0.4076993689956211 -0.261805840587239 -0.8379779354307056 -0.33739013571029863 -0.09744228415679482 -0.9587518604933738 -0.11026234923488533 0.6850677532471736 0.023347960851264806 -0.7180767405729792 0.985161728962738 -0.845299202548904 -0.04494531243343514 0.19981837424618892 -0.4179641052816003 0.3484325827136501 -0.8595773244380991 0.6396424652960454 -0.5016385666337692 -0.7589422661891193 0.053939390004765046 -0.09880024535234963 0.21569833372998548 0.4636760676441188 0.6950742462502362 0.6168110777710429 -0.5530100447645295 0.7343349593208301 -0.8434224653479295 -1.0529108779622123 -0.5354981108598832 -0.5897472332490356 -0.3270846029226021 0.6109430144968179 -0.6400688063400866 -0.534810687579879 -0.5921248714005206 -0.3654625366777766 -0.561630070400369 -0.3170318541221691 0.6389834207631866 0.5107968096930791 -0.3993439430691017 -0.7946845377094598 0.5838953182056109 0.5391477370199451 0.1988266219392783 0.2926844434541853 -0.1113247389629632 -0.6257394851998881 -0.17597148304371718 0.39254843686259566 0.9671353301435806 -0.7834953363150644 0.674619736318149 -0.7927629255869983 0.7191355296445141
0.24978512954704524 -0.4134736937089232 -0.18598545127633084 0.406639310682723 -0.042994111269783586 -0.11221543252313725 -0.8047924613759101 0.5874251293069357 -0.8241515498802923 0.6723014641962723 0.8062358430694244 -0.31006728996916677 -0.6084120333265736 0.583572066584218 -0.8229183416348513 0.004458046228703868 -0.6020890162678683 0.791819634026754 0.08373162493912434 -0.29220120995316823 -0.892052352227953 -0.5787767059264995 0.019707016678868892 0.5570985289944875 -0.4492441852611889 -0.5268575828576592 -0.4915612623909708 0.9405709386875487 0.6338197297266633 0.47718902327642054 -0.7163865713527099 -0.8011907479964085 0.46595881221631325 0.34367202091334476 -0.13401149758164727 -0.933790245960533 0.6317065054808363 -0.5919912069133866 -0.30553496059806773 -0.005217127953911962 -0.0363097064104237 0.2899317055122967 0.35192316527684747 -0.878269240602185 0.35792360938412415 -0.4239985052867598 0.061963942332500375 -0.2322347247938336 -0.9683004214197344 0.9742403749202737 -0.6185132131822191 -0.22012791102217286 -0.6592357779097179 0.3565433870797091 0.9555532775379227 -0.3301075355770577 -0.6095306542820778 -0.99873495530503 0.10195996336290622 -0.7827773699859938 -0.5709754474693068 0.5998762165950117 0.10595193218719759 -0.7881412230350983 0.7257063543062627 -0.05876488041316227 0.8939939360449801 0.273740751727713 -0.13379915109290977 0.8459688435398736 -0.5057283386479329 -0.440480383264068 0.4434909792857712 -0.13232801493510657 0.8869227198298912 -0.541047479974405 0.2675064640012622 0.35597980364249304 0.40708513251344947 -0.64416608340722 0.9544255922925352 -0.8104016566229366 -0.013804353478044262 -0.74523454531511 -0.7257857929186758 -0.47208478256243036 -0.7354932691841003 0.8033873092675097 0.26596071430470003 0.5998757177457466 0.5957452534137451 -0.1840198588982925 -0.8611982835642578 0.628824673316709 0.8984717879099594 -0.7628713698241347 0.3699748049250763 -0.4450021127937946 -0.3610751456852456 -0.9260236703812249 -0.6869444221375156 0.4137609786350233 0.02170881952830822 -0.5800116995177956 -0.4028357397927582 -0.029393238102035736 -0.8163545886678909 0.23249333874323325 -0.8125068503398127 -0.8000758850915334 0.6401639600660651 0.33030605596849516 -0.8189123239971259 0.1433476793895259 0.39997475792062853 0.8866244850994413 -0.576491278107974 0.7158952581673302 -0.34978513991932764 -0.17076461309817417
0.7237709645515686 -0.5175554428558462 -0.26299811358183867 0.7044333718486854 0.6955377363390636 0.2686426352468249 0.616105505526128 -0.14717574882372805 0.3586101269719684 -0.25969961333994074 -0.5757236714241792 0.15419116478869793 -0.33692510523943686 1.0250067503813032 -0.7725202529738493 0.8971074723316059 -0.3341281087069787 -0.04817777908147618 0.27495383745573193 -0.8586990347125961 0.6461053446634366 -0.1616837403162917 0.19465558232698943 -0.12400529759041033 0.7890060307767024 0.2580204807964251 -0.9670833743721916 0.6938453279915313 0.562830648064265 -0.009007879176862096 -0.8730905011277416 -0.4695211219590038 0.6200842710894879 0.7695606786638837 0.5756430930985581 -0.6928152060659541 -0.4413818646617268 -0.7453716515356285 0.45413729632488037 -0.8036351875264163 -0.823886707164082 -0.6819900111386371 0.25110665486381994 0.7007390467727405 -0.9455585054729942 1.0615215373058247 -0.01971042079988426 0.7860269180845888 0.7716246960363383 0.9379671956303606 -0.4676398539106751 0.1121491045497269 -0.24724809135584114 -0.21801703386983737 0.4626200069066767 -0.44024496169537264 -0.41799835718315104 -0.00016212767276994208 0.2468967808876941 0.7503172937934264 -0.9880502107552136 0.7247219438184641 0.3685585162236209 0.9382168231599576 0.384467903784939 0.8105859040417076 -0.19570956625969446 0.8864541388357922 0.5874477571657594 0.6581143976317158 0.33526699472337734 0.37777614314212454 0.8455626765860303 -0.8370243782466665 -0.8695107325009553 -0.03018677223339982 0.6372482068909162 0.5444615375415126 -0.6748673333980304 0.8858112508013571 0.6264526114851863 -0.7991692557169937 0.349809055314239 0.1147720533175985 0.07585176117981927 -0.1428969846222266 0.21376463787801625 0.5765852643701378 -1.0144653989456252 0.8034851162314869 0.7657232264224789 -0.5582599889227974 0.6398416312642996 0.11831557980710337 0.24811830311743083 -0.24607856509337067 -0.5625621697594873 0.22851137430499158 0.35125791924655975 0.47992942933661004 -0.2678858021624516 0.28947435592029264 0.5134660938239729 -0.16289565175403736 0.8024464989885344 0.8054190006811385 0.646877957142457 -0.6371633872697977 0.020481993419009917 0.886162407096499 0.6883410544444025 0.5973276710465114 0.42320210039485145 -0.4735004485471814 -0.4165348960381127 -0.037452365246072115 -0.7221191675197448 0.7458672782266148 -0.7580622981419949 -0.5314948901894941
-0.0067561717973780855 0.08170733228508542 -0.1518553141155444 -0.9111593537128657 -0.8018329493646671 -0.9443504139862036 0.5934408137518326 -0.5485350453696909 -0.5939271423639345 0.23142503210470103 -0.2445018576852022 0.3381539828945707 -0.2716810706430957 0.05568110419601741 0.36247948344898756 0.3696242353534097 0.8386804813044146 0.21841910955406363 0.0358375853254239 -0.5254654425982481 0.20758876371915438 0.3193823979775561 -0.8648390917784989 0.11893406770840635 0.8460739726932046 -0.9882647599669857 -0.42479310680114246 -0.9016747520079903 -0.9405973406878676 -0.7669380028723577 0.7145612077853594 -0.9538244506590742 -0.6736382523065628 -0.38611257255116954 -1.0002142910162044 0.4522996536480728 -0.8623045060846614 -0.4808643195387775 0.23871710979635263 1.0605703359887357 0.6293549409960785 -0.6995869083875751 0.8611159051332159 -0.6915674130158667 -0.5996911695216982 -0.4250097209376558 -0.4264325058184665 -1.0249598951853172 0.9632541811974025 0.1872451990820806 0.7506078842327849 0.4349282650926203 0.002519765812812714 0.2558932379239361 0.17653669640583028 0.30647293912799467 0.7408626965872783 1.0899422575464952 -0.6549502790798922 0.783301247232613 -0.553904174401387 -0.7839770340610587 0.32699564199340125 0.48124545710742894 0.4619052956253293 -0.6417308824197698 0.821919825854378 0.912993073875513 -0.5273156342611491 -0.7466613498508629 -0.7115872859768785 -0.29481582259288164 -0.3286125233095879 -0.9072250846622196 0.01808470375272565 -0.9401846266949885 -0.027213590975446074 0.4452809758547848 -0.9950202641813073 -0.373109488740475 -0.4657075381580997 -0.05865888803962792 0.6200303610333027 0.04656899411365269 -0.8113153100959636 -0.34318544965455156 0.3600930753958446 0.6409424627634686 -0.6070233636150513 0.7732477992763928 0.5459601417590485 -0.059634969039001354 -0.2631886125919 -0.4844825485590134 -0.6836395875467655 0.5985063510463583 0.46705478219069496 0.0034926020381204725 0.07505608992952373 -0.5714121333227966 -0.552575671006079 -1.0403675911608536 0.336650218072452 0.8477746904958452 0.613827966330207 0.4413111920458961 -0.3242685482321282 -0.9734784198183823 -0.43577107397287146 -0.9677866396373571 0.6875044833652643 0.9351364396510069 0.13215446831029926 -0.1161536975599181 0.9563300621789892 0.7605597326526914 0.787269512977596 -0.849644879795558 0.6227487187593173 0.2405088477353695
0.49627138143791094 -0.8247342449388159 -0.9073620603479163 -0.43722708909126246 -0.9332804409632222 -0.6456511401410232 -0.1850478245068633 -0.6237484702786363 -0.7683044025620474 0.8042230590186968 -0.39914553073832504 -0.044270752003199965 0.8069693946492686 0.22353643383064462 -0.2010179224108026 0.3510685313409347 0.18464447497346084 -0.7622412194459706 -0.7563805662534042 0.17730968292909627 0.28667874936769416 -0.15567551856498874 0.7882387198164573 -0.18828110956404912 -0.6894352848509924 0.028461145279539624 -0.023705775461563588 -0.10790447523193157 0.8000560607602605 -0.46652778842787535 0.7415212560979607 0.3438929912537324 -1.0007978012512462 0.6897230508368238 -1.0271848474337966 0.30898957460872434 0.769753637571546 -0.8704730687917513 0.8981696782412932 -0.22725968101074642 -0.49754105023214373 0.7500450435904301 0.012941336332117043 -0.556600337674382 -0.5313519209798532 -0.2236569640608538 0.18672712690295123 -0.7109144594507664 0.09628349616251577 -0.043700266378661534 -0.891908421811049 -0.571320467729998 -0.5592988748004596 -0.37795601665103984 0.529641807484362 0.9334573599691727 1.1974386255804927 0.13200248408075163 0.08609388244697298 -0.6957768571452514 0.4081299551076033 0.9126226571557874 0.34889538667971276 0.6497608196039408 0.1969049572869715 0.35149469320902293 -0.5322567740142209 -0.5503142410700982 -0.6952022389605048 0.03547678853603924 0.12429807712539263 0.11221165909009516 -0.28743614716530835 0.3260615950628446 -0.5461237118673847 -0.5126580906215049 -0.33554910843921076 0.8413663182247899 -0.02373775006168744 1.0247359441946513 0.8187661060735038 0.9027407709057298 0.31640608692688466 -0.7817618365068634 0.1863931821341019 -0.5268721616513384 -0.9138422798024692 0.005068778289360985 0.8416923592594031 0.09589745808366601 -0.6888280847990554 0.2183872717633811 -0.4957628511997754 -0.802270566544866 -1.0097462104187918 -0.9167693018340319 -0.8730534899852652 -0.09983156694242148 0.979380305381173 -0.6735442233306992 0.4626037946802978 0.5312693511949299 -0.8664736983324275 -0.6514958173771557 0.5476601457942004 0.6482759136161318 0.6698172648634919 0.8160078852665992 -0.530766191549504 -0.4153927288174467 0.31537694259984905 -0.3788968916453774 -0.10650325818411151 0.718734836843767 -0.9378605252188863 -0.5778830068932708 0.2444738483143963 -0.8502216048590869 0.3788116760923148 0.8550783972804914
-0.7154254452025179 0.470020173390955 -0.19239150538433655 0.4004553059131494 0.6404418384107389 0.6847377148337179 0.8501459435985053 0.761998020104798 0.7314331571978646 -0.72674431225616 -0.434924020138355 0.488508846409619 0.5870335590264866 -0.06915493702402045 -1.0205466357554551 -0.4456163381038197 0.3128306042613643 -0.6655320830248788 -0.04889222519579635 0.26702334401589256 -0.7143903228408365 -0.8314637657429893 1.085924654091886 -0.679577496544506 0.13696372562112907 0.013711195773529921 0.35166393131600837 0.4224431893351146 -0.9280833677358833 -0.0888844429982323 0.397752241926358 0.3924813068102898 -0.7743614082803284 0.2519458385391333 -0.39306808091515627 0.26736298495866107 0.6947565233718638 -0.7335681013349723 0.15830681823242937 -0.21813001965990478 0.6671837631355481 -0.16104808216620936 -1.0785050256288238 0.8126763330558794 -0.0012506722013201383 0.19361412680801773 -0.8189684396456548 0.5255315728208211 -0.9070387744623856 0.04588077451649173 0.8276238824400021 -0.3181450474866416 -0.16431425012592457 -0.01406989799024428 1.020536461926532 -0.12639219460659867 0.19925522841308077 -0.7174504448713258 -1.0934644053842222 -0.7075889585579294 -1.048070947653326 0.09941343815260247 0.008827089004623808 0.6206955608287856 0.6140255540400653 0.7225823408562502 -0.5751649006863399 -0.7308880687958442 0.011053180869619102 -0.1821136763927077 0.5053501063345595 0.34669205833032124 0.10366608244251528 -0.4197937410179714 -0.6130911498636052 -0.03052253766185173 -0.8271717465036652 0.5971908703756229 0.424623711553338 -0.4638015519448344 0.4829122782908236 0.539340530452884 -0.08882950562972597 0.9052050045204622 0.30750778349254027 0.7622909809409126 -0.4436641758093265 0.8146162341633404 -0.02818100010928173 -0.7800698944512913 -0.004665855513682358 0.8206780407011123 -0.16053301713310184 0.007064145870748377 0.7471494297643207 0.6741451489173688 0.22867364799107756 0.7259651829868646 -0.7772928926780159 0.12906462892727086 -0.5340405417608871 0.673335977980622 -0.08371848099446812 -0.4105411480177003 0.1732896263941273 -0.21839572202686489 -0.23396311722669297 0.4938387278191857 -0.38439710297553153 -0.38339865086517766 -0.47677665048442536 -0.7935239779005446 -0.1868351355136163 -0.7825252154082193 0.3350917935568662 -0.7142541264664773 1.0290329589018425 0.24151916828934866 -0.8626062181833979 0.9956144477564141
-0.40364260204121205 -0.2984213109589791 0.7036645888257811 -0.1729225922318808 -0.9038705924724052 0.16097952826221898 -0.19194023938480004 -0.2178996271843536 0.6638540812872891 0.29985389331168777 0.29169023100502967 -0.16694927032493487 0.7765754889925658 0.8174721844806005 -0.5120598490494305 -0.2791233791380457 -0.6569628266877635 0.41765618833870044 0.21712990523892448 -0.3286032914584572 -0.16458366710251893 -0.6076187486907676 -1.0753340165194694 0.8940492196513043 0.27189569968600547 0.6794712187651599 -0.904453476367263 -0.46944262907274464 -0.035860946436722434 1.182977093411089 0.9199726311640652 0.32070372148889764 0.899512150480567 -0.9064615152318075 -0.73393956208334 0.6324786947526301 0.7112932978730836 0.37841261651600666 0.7404544356253149 -0.6161527669110065 -0.1735863574495376 0.47143718669165213 -0.35073632947755906 -0.04006612052730934 0.5848835413246078 -0.03551775933861164 0.24544889944412301 -0.8726270261927777 -0.9114010197357013 0.6951678099631714 1.0308301843387087 0.01758785659116777 0.9602811521097457 -0.3481660551293358 0.9628667966659062 -0.5441682398113767 -0.10520449293075139 -0.7005046167883493 -0.18299360447954274 -0.6986658609115085 -0.12507213392364394 -0.15378353011125248 0.3606284640875346 -0.14072155879532924 -0.14424626462746148 0.9215390255934839 0.5384916054157957 -0.2139717170266833 0.6303558697143796 0.9169031200460661 -0.4263907708129011 -0.17671800712962124 -0.7855723905019216 0.6766623256972442 0.6088668578813659 -0.066730500504612 0.6194991180144471 0.3201686926509065 -0.7506015302792501 -0.763999185503396 0.8727583729451623 -0.9460940734416381 0.501886262606052 -0.6579054413868815 -0.7935220874749942 -0.11504790210248256 0.5361416727758527 0.9424140542387116 -0.6332643656046246 -0.4375136186298418 -0.7504536891381461 0.5189503098967774 0.3117448359768064 -0.18998131584598685 -0.4413547840231288 0.9863338900898397 0.2437928484600913 0.4848711446605701 -0.6478088076227613 0.8120693598970354 0.4968212587244325 -0.23948325214440436 0.8142732536213965 0.3621045400482283 -0.15871240793089594 -0.3214716839600754 -0.9075916828580695 0.34268164964547837 0.5193415314568792 -0.8542603111150989 -0.1285118704129937 0.5195189211073246 0.5712218096274472 -0.12967669488872763 0.26679499334950346 0.6375528350785339 -0.16591124722101436 -0.035519888487798544 -0.2133406810009881 0.038109286015465475
-0.9089464725063121 -0.09418550776214896 -1.0191261796896438 -0.90532967148349 -0.3409653176315378 0.13332162805630568 0.7422811463085854 0.7573942516886465 0.831311695519012 -0.10409778444776706 -0.9464114761519288 -0.2630723553800322 0.25071426144630055 -0.6260557337084486 -0.4583542785130597 0.26301156892296407 -1.005697148755759 -0.26106288665845295 -0.6440936712728877 -0.45056441783020434 0.20921236067354002 -0.21159456055907447 -0.3147116305462742 0.02533767770861062 -1.00973168202016 0.8512114333295143 -0.2774735658523262 0.2855297643591747 0.01412948247386277 -0.9052136464659976 -0.40427383941465256 -0.4347915752464606 -0.642235624669889 -0.48681611286477905 0.2557372180572448 0.08381203533017188 0.056907096566782965 0.5143860572102715 -0.5385152148294556 -0.2626739123971675 -0.2998243467136423 0.9187847782893774 -0.0663081061537931 0.44147393584981115 -0.49129141683341887 -0.3004458322166143 -0.5687577580343808 -0.5583233715192645 -0.2627665006047981 -0.8170906327609793 0.20087863233993733 0.5020004192260923 -0.3567767356739596 -0.9275878613060687 -0.8752334728069707 0.7991799300003689 -0.33033877139028733 0.9458846510365282 -0.765370612867205 -0.13944769254804287 0.7012993813063422 0.22816594629637751 0.7887768872723236 0.6285340271434687 0.055915004389192745 0.6734887529581566 -0.5427922509777282 0.7439624126103103 -0.29461588872746797 0.47179371124149466 0.8744569401062204 0.9222641794984203 0.1422462519246946 0.14322503024865432 -0.2381836934799588 -0.8506821641769885 -0.1704546465288244 0.03086802635979893 -0.015529519015467522 -0.6972656032815218 0.3110055326533784 0.6353093662261156 0.5519311832528169 0.3653528959157834 0.5792224668895901 0.03732351267506925 0.6885510404522442 0.2320661977876686 -0.5444888102030049 0.7953047799154216 -0.9761220574396293 1.010975413696418 0.4557190667627497 0.04865852106774201 -0.778361459163051 -0.5954146448571396 -0.9604115154809807 -0.44715246220817934 0.8903190739194194 -0.9340932765043561 -0.032858596758376414 0.4947404929297195 0.8354378453890305 -0.5635204231589455 0.11819481796433139 0.4497227833797054 0.9385059806047413 0.09402828654355423 0.6311971924530172 0.6738068509502705 -0.2878862930455268 0.5941094430356614 -0.5523871677947341 0.0550875330398785 0.14282491102029304 -0.5187696430107872 -0.5858231163266797 0.33625495305028397 -0.6855099721059351 -0.929606774517174
-0.4833213403575116 -0.12305327645298393 -0.2267585544850722 0.930970533959943 -0.4511017491248275 -0.8490792531859427 -0.614055948487417 -0.6457398789962463 0.8207149049857366 0.3225033631529741 0.560181426269157 -0.5575891208143298 0.4263729409184223 0.6600471137896874 0.4986849356268172 -0.011192691105070278 -0.5709357665828522 -0.7793471841464596 0.5961524419962508 -0.17883769627796758 1.036367175818543 -0.48280337875526574 -0.8533525085939082 0.6589088776739807 -0.7772668970894656 -0.6197611337888607 0.2981282252408354 0.8494184065866801 0.6060262780961537 -0.1931703104254299 -0.9234651742316937 0.8059599419846512 -0.1584180279007784 0.8012293180763217 -0.6818249290948057 1.003757558065074 0.18439002904028803 -0.3582938822002648 -0.6213039304075961 0.5427401527456583 -0.10679816657008497 0.00047965409062130027 -0.18769244909557523 0.2994628737591578 0.7957782070383856 -0.8346489591167822 -0.3138145719367012 0.4893340891640449 -0.35568714310671407 -0.8034367775347631 0.07423278010016682 -0.2574285452844775 -0.8182847189863955 -0.5783378800717266 -0.7224435761847948 -0.839593916378011 0.4578825547853096 0.49699014031046684 -0.9431479848367476 -0.03506745396085213 0.16320951126826502 -0.185554200934791 -0.2781193372972885 -0.7303931891677087 0.66889070505664 -1.0006646169387177 -0.3117577365606557 0.0882006522191002 -0.9497578550614137 0.6520414855157877 -0.4987513951668518 0.15688950046874636 -0.327197916290884 -0.061804949079429926 0.008697099967332566 0.06843922324500185 0.19663909885544112 -0.20538022903119288 -0.48883685334876537 -0.1433115206547583 0.5207763913650596 -0.9106766297575535 -0.27618236298036425 -0.05928319680552752 0.4963783859479477 -0.10004559589013855 0.2382047109563717 0.08180368371888729 -0.6673781203593707 -0.8989964893398155 -0.2642384780929506 0.4581135911904898 0.45183933297465334 0.08714685789512504 0.7646395304184352 0.41517259235932275 -1.0319309852999414 0.37932186089418374 -0.519018471882021 0.5395754287903465 -0.8849060114784927 0.3859960543745467 0.9340683039565949 -1.0265845353987098 -0.4008465590830052 -0.43297615905803155 -0.1010982638118363 0.213703759581574 1.0530324901074168 0.9003350588423289 -0.9228767881068657 -0.8393548494386804 -0.4761219876565785 -0.3658767999187386 0.3166852422157859 -0.06537219104311946 0.2678061872184876 0.2240714965110637 -0.8953709835075906 0.952597989458564
-0.7398009584608367 0.6667920093236446 -0.03000597037000905 0.23261511310273333 -0.7250281803892219 -0.19843450879460187 -0.5358004982714218 0.13354015005626566 -0.20652964389702555 -0.5629031531603889 0.37502805677447315 -0.10053168057131132 0.6999656999562583 -0.43919299893161473 0.7852070601028548 0.901745467192769 -0.6285695512331416 0.5745894451335053 0.9268875621927474 -0.3431928718498221 -0.1301228616585229 0.1864249108592023 0.8231531289366605 0.6366298041450518 -0.5932318075060928 -0.5264422509940158 -1.0140719054230791 -0.5073616551990567 -0.6905258778382278 -0.6072287453197232 -0.51528135302623 -0.0119323629847073 -0.09824679307492279 0.5040201537788697 0.731955459087449 -0.6334174059108978 -0.9644658809898258 0.3714967909833513 -0.20133461259346397 -0.7415050646816143 0.8049004495719666 0.13174462040398496 -0.23432378986204347 -0.18161593170504647 0.9561620992412205 -0.4670676487763821 0.9879577854071174 0.5334160955084096 -0.497620287925987 -1.0667883150235027 -0.154251410900231 0.7298730614195725 0.27000359825582304 0.12251072136276406 -0.6516103157366302 0.02274560416033705 -0.12654271582595772 0.9145420416944977 0.3059395395095988 -0.3754301768698916 0.8992238809070859 0.007361612676329976 -0.29669537518352584 -0.9354122361022903 -0.13408028991700854 0.8593101881942936 0.07871219572651572 -0.2428918874379246 -0.5053800430752685 -0.6200977126940487 0.45604940651750625 -0.04660554572125229 -0.5913421710494313 -0.588028756371278 0.8614021477111091 0.36219743267433374 -0.8477659830715225 0.0821129552601252 0.6100648812610234 -0.9171241238118049 0.3247507465767636 0.3176738945296297 0.5809106887955129 -0.23855006192117775 0.2084356651937078 0.6976904825591365 -0.29679401985825477 -0.7493645027906153 0.1583449866048219 -0.7070257566035274 -0.06996461033137132 0.9468854573852179 -0.5687895176231894 0.3040892573816544 0.7718186845623896 -0.6404762436738567 -0.9720403613748354 0.8520203774637064 1.0720263932655603 0.3627419641394434 0.6301895818985027 -0.22291221628075578 -0.4468918110365041 -0.74423989361967 -1.0990065367617665 -0.7416664143853489 0.3016167182531003 0.8921527255880835 0.029768653827782435 0.056416125042391664 0.3128070068836907 0.22824142508210932 0.7665279238587823 0.6556361749236799 -0.7919694164055335 -0.28451272865324556 0.17102630817763256 0.6027908408497703 -0.96794077134063 -0.2875204949066155
-0.6878776353893079 0.1324061535798452 0.046752343516966194 0.8630638855559755 -0.9192770856334761 0.7584837813301568 0.5165355972578038 0.07459242407366493 -0.3942694563443776 -0.7290365018190242 -0.7663169483517918 0.9828458389934553 -0.6536219294406118 -0.423543219846722 1.0691480129724973 0.04230675951899361 -1.0389207015077062 -0.01915596618744931 -0.7238737223237639 0.9159146019862971 -0.8264297335397737 0.5604335057442307 0.3785581597723712 0.09484288873910836 -0.6524052544169604 -0.07892350973900773 0.30884742536803284 -0.3890795787040952 0.5425191122956389 0.5521562056677948 -0.8420449522724921 -0.7871118924345657 -0.7708981508740579 -0.3633186772905228 -0.04507797369421205 0.2984753516744021 0.6677529605538429 -0.22021314530662195 0.6019853931414797 0.7737558944864908 0.5525560614582473 0.39799787353789506 0.3849812895450009 -0.4670518732244666 -0.6531229405190018 0.05115774265934506 -0.847891532326287 0.1001930830960773 0.7675747043001119 -0.03256188549855787 0.5845591072379412 -0.11466958954995585 0.06686393523472077 0.07405370161570173 0.8925808818244524 0.18022327140939487 0.3018925185447864 -0.6071266788528786 -0.03016882038802311 -0.7830655225251615 0.3881751306836427 0.9836284105259953 0.34404714616143367 -0.45793409247276995 0.41580276264031546 -0.2666155228572174 -0.5198146867024465 0.8658749339284649 -0.2098963740874913 -0.013667284667957424 1.003301796824817 0.3026369767711895 0.5266516724097828 -0.5541372742566922 -0.35406475704844936 -0.5419462991559136 -0.08206113756333673 -0.26824384100765797 -0.8893340995233867 0.5129529200430769 -0.6352843614857309 0.7396526514745662 -0.2779993671030454 0.49173736038872673 -0.20786723402195936 0.7205291152878329 -0.9498853116881564 -0.703903594211028 -0.09235083406474212 0.3265894651926826 0.05584891673642848 -0.37053135200387277 0.8343592558029119 -0.5133225688573609 -0.8171181346078823 0.6070284570981337 -0.7523026385852895 -0.319647703125622 -0.6896746763506896 -0.39227001318248994 -0.29427967606182814 -0.5786572484164769 -0.26905872688549015 -0.22673245437966738 -0.8466207938587376 -0.5465754591942648 0.9472254405202422 -0.11016922146898517 0.7335371730350813 0.04117842483842579 -0.6118528960563758 -0.7690081471882789 -0.007546300082012447 -0.8083371125204207 0.9109106256696023 -0.7239000880222748 0.5713378300639118 0.17350969823628004 0.41529361788671415 -0.020357354975166487
-0.4054646121478138 0.12005041838111569 -0.7269791541557892 0.2865265978690828 1.031679611064403 -0.39229637273807316 0.3459305145651796 0.2330689523048922 0.6270700242149329 0.07526451454986256 0.20310840244514505 0.2780309302783047 -0.7795696578293969 1.018616508878631 0.1330103445178258 0.3463965019420868 0.3988456782222602 -0.12329149363974162 -0.3928784981741647 0.8290647221946331 0.06588044936618806 -0.5502541956870852 -0.28700397120824817 0.5806498520377344 -0.09355503150990643 -0.11465117532608679 0.1015631550732816 -0.8459408629860008 1.1297144746375267 -0.2699685698977243 -0.7302892983310558 1.0616707629713553 0.06849200491228327 0.7454901578458007 0.5400234572397573 0.24568581237725423 -0.9997098871812148 -0.1232683334251542 -0.5832324319729182 -0.5607095247209094 0.6838582993060179 0.4291242411963176 -0.27294551206847933 0.34920611032944887 0.5846263055993536 0.709787707604563 -0.021392854415753674 0.006855432717787263 0.057630631029702284 0.9128386087806496 0.6913763933590157 0.674717455069744 -0.7970164123245271 0.14552743893531114 -0.5572831642571399 0.167200385209262 -0.8732551693558213 -0.2206706923016269 -0.9689189287256355 -0.1035469469826711 0.6423979451663846 -0.7960594745723685 -0.9812763832394291 0.6770704536061014 0.050155489779289124 0.7900508074759095 0.06481226344159983 0.41310464234267785 -0.7166967998051211 -0.23374132324566801 -0.1798507858472215 -0.9599084168335816 0.8434177013673396 -0.875228273868529 0.19039871362032057 0.836275060532527 0.031167151723961756 0.09656005900826319 -0.5092618711698453 -0.7841332747699021 0.47847380314708576 0.11437444437662822 0.38813509490575254 -0.630884457323378 1.055989445711353 0.49163779750467096 0.6473618596370786 -0.7396862240910406 0.6547685354830125 -0.44990866735415025 -0.5657712718395407 -0.023724146549374412 -0.05312220848064618 0.8279319126554849 0.3573849667346799 -0.9313667372739401 0.5984038113815437 0.3409148635075089 0.18461580503892353 -0.565482281361593 -0.6540153998852438 0.10999413432904774 -0.1537935200321961 -0.13402135483859356 -0.9708787268286663 0.6897184326988136 -0.977403350970787 0.4339722389672062 -0.11672051080388296 -0.6567029431914195 0.1098335709834819 -0.39795654545862 -0.6260606626933025 0.676629646084712 -0.24652963372061995 0.7574176545618686 -0.5520801149949931 0.7219009784488292 -0.15998292770071007 -0.6756154504916635
-0.8836733217674735 -0.4246317355069094 -0.40013673755134993 0.4382662622464881 -0.23076732460642635 -0.40811734379134 0.15824377171911722 0.6942388888372741 -0.11274668468601069 0.16918953331498107 -0.49534417232939576 -0.1703943141443579 0.024162947208327255 -0.5634859813365118 -0.5909907168444374 0.0037065286671023852 -0.1851669507183304 0.6707241549797744 0.5995556438595555 -0.07506942687057845 0.3699940670420664 0.2705769615260296 -0.13443822251666668 0.7238341823386792 0.3908234245157493 -0.8557384384934364 -0.554432499468831 0.03001119504868327 0.5871563692006945 0.17400166357771651 0.3491627871201441 -0.9639924936205607 -0.009740620166429109 -0.7560635161645032 -0.04321999867914452 0.5231971602109738 -0.7144022103491038 0.8604048750842688 0.6054073128980394 0.7561690961963454 0.5958555719521411 0.21103964000808265 -0.4987007579675379 -0.7970431014555083 0.3181705105788651 -0.9034797651109936 -0.9079127290761607 -1.0869518453236495 -0.41178750269469994 0.4181505097510102 0.7462389008830803 0.6064939166981341 0.7548984563189607 -0.6279423747248634 0.31809704117464754 0.320437842728267 -0.26681556235812864 -0.8696572627217158 0.5736981165238327 0.5371660803829742 0.7664419119057875 0.42371633364212485 -0.5537486719784083 -0.16627648082854488 -0.8653737591188978 -0.09412831560301978 -0.009651782222658776 0.028078716434334006 -0.9733753173836281 -1.0413331310750578 -0.15459923511604665 0.8273253809016925 -0.652854617288048 -0.21300940125222362 0.024078898046034584 -0.9308792724465104 0.7374148519372473 0.0212819280593459 1.071243790456857 -0.7133751125441539 -0.5274120144362783 0.7760453878257805 0.4753142199643398 -0.6846577716579499 -0.7376794419721856 0.8073798043897521 -0.0931786614987384 0.06306327300696266 0.7030645614365294 -0.054767455296755384 -0.7616866270347364 0.009898287339335905 0.319604299560758 0.8390452890947682 -0.9176720948095934 0.8170401250189612 0.563672545211984 -0.8704124390948393 -0.0357412971473457 -0.2854429556418216 -0.565172549998555 -1.0580278339220064 -0.5954192630347879 0.3527263918907822 0.7411795467734424 -0.8025014241567733 -1.0065632371603666 0.5220545161145378 -0.43331122770781527 0.8879652802645852 -0.4948384670272007 1.0324355303518322 -0.20613563269381777 0.6173640319252649 -0.8686786364573463 0.767589052721695 0.7247781369893241 0.2126494150313939 0.9632226006882997 -0.7275074492806053
-0.6466454205856798 -0.1629070983646921 -0.1807835217381815 -0.9720152290638675 0.47467540810361747 0.8048204043343052 0.6857100227128086 0.9193983917455344 0.4761973154744121 -0.6479618871239712 -1.1200954686036724 -0.2167121726934415 0.38612833564461646 -0.27003363161936406 1.072261657441913 0.552678367304673 0.11911613623857054 0.0640558061017881 0.15412985252121592 0.19376255557077704 -0.4595771093314735 0.7612282231852484 -0.39377959227029913 0.028631115170168336 0.922248082762282 1.0003349412228202 -0.731116214381101 0.5562100236937983 -0.5572156307270391 -0.15705874350613933 -0.13816337872019976 0.6202471303503855 -0.5604209764519501 0.3690820786931768 0.942808465106669 -0.48305194171086485 -0.11801216292067378 0.1387751919705961 -0.21174905802165284 0.4773609582267579 -0.02539192803383763 -0.2921473864215224 -0.714141090088292 0.3079403135708701 -0.889237920758418 -0.6252280385769231 -0.6253879532278026 0.3702434835078421 -0.02074318168754235 -0.7772316546819421 -1.0853783659774543 -0.12421962872418585 0.935738830544614 0.09190943586175405 0.3638104293230602 0.9963493617857375 0.6459665657877104 -0.1416847722119607 -0.35204606043523407 0.8864361479135018 0.1915963715937989 -0.762040211320914 0.8996416527325908 -0.787064761301868 0.5012561922884586 0.9520688227730293 0.7287458563953922 -0.3186980162134381 -0.407441762772275 -0.7269058299401161 -0.9256290704082152 0.5622135316979103 -0.3110491279948795 -0.2291082702446729 -0.9713823938815762 0.9135658437528263 0.7370473047667201 0.7177991496870213 0.7059340804845786 -0.747570691729998 0.08718168315322632 -0.730897416400054 -0.21103551346987906 -0.5617061439800394 0.5580385688973079 -0.7251086101985955 -0.8285062073205461 -0.3035078890480735 0.9181240590674928 -0.5820028699603702 -0.3840180954345891 0.14009767703314385 0.25054137030178314 0.425636763383712 -0.7170506882892927 0.48109021595613477 0.8855884033451764 0.11693284596117745 -0.7425676585907551 -0.006044572421192416 -0.6606524237606759 0.3501348965344943 1.0038065000804313 0.5708936753767642 0.9337156778604252 0.6558165982632866 0.14232138851180723 0.14755963427134464 0.1662878471121615 -0.574549950218515 -0.5692337967357234 -0.4166814945027513 0.4728991376828346 -0.34777494839945666 0.5900375056482379 -0.8850310354161027 -0.27420992770399644 0.09762328670230411 0.8936522952258378 0.29897595120742676
0.402576232974049 -0.08812815993097554 0.6604685080072608 0.32327458301876877 -0.7784274271298587 -0.09233252559306367 0.5004176518051495 0.8215353684836236 -0.6382323234034928 -0.16930906494432493 -0.5716521988930303 0.2619857307538526 -0.6945439285496091 -0.17860344293195216 0.9199648058890262 -0.7747057239348568 0.7438473671147602 -0.8839975001619964 -0.3980196147684053 0.4038964595095287 -0.7446212723991708 -0.6174107798361301 0.4243571364619319 0.9654490236239475 -0.8199510595238135 -0.7053517467891582 -0.8024429731556916 0.5109889994412103 -0.49620583507924765 1.0757027880776366 -0.07614951528427422 0.5315805057850839 -0.36023639307934985 -0.6164234275932908 0.3783896713564295 0.9288362331322756 -0.16711922476600244 -0.15157493599070895 0.4743331062434122 0.15321252454499168 0.11640996687077615 0.9652544565934426 -0.1288076708226416 -0.9762221771198071 -0.9308806375176889 -0.11599910191975848 0.9496223920559957 0.0942141493934603 -0.8599955096330756 0.652303078219059 0.8593499317344256 -0.27317954121915383 -0.6048472686153292 -0.22311917022718503 0.7646467708133562 -0.17839976918736897 0.3631306784630646 0.24254233137141157 -0.0431402249345719 -0.07437776188815659 0.28982424325964357 -0.760109612447485 -1.0286191527938924 -0.8140698081398876 0.4935594363543304 -1.012151436629246 -0.9289767086417642 -1.0406527776291818 0.17638464285929797 0.10421300225563569 0.9472262248019395 -0.6618318073821512 0.19184976156589653 0.3716850878437193 -0.5825117755294456 -0.9633998884847214 -0.06192435749769944 -0.24029373008542607 -0.8305008903102999 0.5550720829379927 -0.8785536049269443 -0.1654924095302463 0.945407305206599 0.025057975082212903 -0.04907969492859181 0.742119709869124 0.7409407403904071 -0.629813174962762 0.6443490013587485 -0.48969750931265366 -0.08913410434656112 -0.11734533833906072 -0.5114184027101234 0.2431442621215829 -0.8408326052146093 0.6642143369749938 0.769189220649458 0.7080355691309971 -0.8636174045769023 -0.6323188265618388 -0.05201259908602769 -0.7547856453616892 0.06270993606475134 -0.23282724810185962 -0.32446579695583927 0.8422714961212385 -0.4397714729684583 0.695615153889553 -0.88062660603584 0.8681764829327031 -0.6460803363448688 -0.7842634321212788 -0.898498178568904 -0.77553538641009 -0.5936950129990094 0.2592889534964083 -0.19966790415427313 -0.032173839534675626 -0.9877663828830566 0.9015667212328538
-0.8443678347015682 -0.8436233700639875 -0.802766795320107 -0.009900200968329024 -0.8026412817678888 -0.17742979883474613 0.021646567279654454 0.48715196905481245 0.8216522408002158 -0.21996838367422575 0.6716901652170039 -1.0815564631191699 -0.3208540289617497 -0.2587047028256457 -0.27613913688074176 0.2929833435567628 0.8347042313886676 0.21945053314544663 -0.7844177592916437 0.3771807522635327 -0.9829086452084471 -0.254471206641736 -0.015745862434759117 -0.14113407629152533 0.8792966383644435 0.46837344974367884 -0.6395896217788589 -0.010358694237676819 0.7592733516125972 -0.021243438897575382 -0.07969963603404132 0.29350405140813046 0.2706132875944231 0.3247068622291262 -0.1446552000902816 -0.6853226696950206 -0.6914074969910743 0.992825605391258 0.45962107273363173 -0.8116789438666585 -0.8338617779706464 0.24016039686819154 0.7341366652770637 0.8332701193134266 -0.05394909628506427 -0.5925901874097057 -0.9240799945792612 0.7580998621769383 -0.19767430981204479 0.4269090122055501 0.11172062358912768 -0.9550313491765818 -0.09917954747733924 -0.16162378161565713 -0.2724160991194945 -1.0282122325357654 0.6499548194490882 -0.28198586518470653 0.03191739149699856 0.025640503453840516 -0.9846218108853082 0.9606407815653 0.46131959200455575 0.875317328342792 0.530807787004044 -0.7035541832392453 0.682487718207864 -0.15671647741491326 -0.7014218318788004 0.7303630586321521 -1.0040866072122305 0.6356278590341686 -0.25803520399307855 1.0337528026850071 0.46659135609640223 0.5227358109803402 0.4009931696068544 -0.08204103792174737 0.4383669000829186 -0.26697324575531006 -0.4515394116848855 0.932868049145872 0.9316550151286039 0.721726545032987 0.8291297890905632 -0.39902175552803765 0.6703868827331276 0.6479394622568139 -0.4465234736501206 -1.0714550838711443 -1.084300506402608 0.7983259176497631 0.7972944336761327 0.6304905336953945 -0.05004511648630835 0.501449462123784 -0.10319545988727576 -0.7580758598068722 -0.9233353557615781 -0.19811619175567732 0.8756386476897806 -0.30256440119485845 -0.7248553891620928 -0.9938673326641536 0.725416546380529 0.6994332428409029 -0.45528907456153817 -0.4531863238486849 -0.24000121736647828 -1.047560881781067 -0.21901365539069936 0.4723160429754947 0.9641352430163134 -0.5272985545916177 0.011946971115160712 -0.5389401488194508 -0.04338454505317386 -0.8821880600992511 -0.16978451904897446 -0.09567125780813124
-0.44198729250645163 0.375604821442857 0.8367354904830064 0.18307633653534933 -0.33910286196210054 -0.004918261735066262 -0.7925735246364047 0.8293312304752717 0.956130398604637 0.9129805651634857 0.07053058853013576 0.18457926147872156 -0.15887565616830365 0.1483336487882689 -0.38496213147978275 -0.22689772612371267 0.5808586365570554 -0.9264406782405746 -0.7217198778372236 -1.0572739705683374 -0.22395587046094043 0.7344932954900962 -1.00778570446859 -0.04135373286000782 -0.5910312576042845 0.4428234084889744 0.5705564282410313 0.6120688152678041 -0.16685160238210725 -0.23319616147953026 -0.762574718996637 0.5041013588907363 0.15111327623473944 0.762648219717484 0.6719598303488008 0.3088663345655293 0.7875568719506131 0.718587061424277 0.21308197801058676 0.9054165581082009 -0.12070433096437941 0.9045052110890209 -0.7493065124929322 0.02575120338478115 -0.28496127883124484 -0.5672158214197441 0.5641313077191137 -0.6546245362469095 -0.03660595742786913 0.2868805815039482 0.025772706464656778 -0.06855170983164678 0.47006305248909863 -0.35882102011728095 -0.4348978257564206 -0.5686236040879183 -0.7779859934700601 0.7036397248759312 0.5785920811170899 0.07948775469793774 -0.4148263067519692 -0.6159300620083044 0.5385281903898387 -1.0367472168411136 0.8474615336627259 -0.4233313577002289 0.46371071684756127 0.1737952553960098 -0.5521609100000269 -0.0642200341718828 0.29033592383313495 0.4901254863530056 0.3691545587536143 1.087459462656685 -0.7456607304735012 -1.0204260746457736 -1.1050291302930866 0.22243286063271836 -0.5993495443391573 0.7996974244695385 0.215376892266765 0.5797746086090965 0.9017952565015839 0.7457713454959513 -0.27038230508135974 -1.1864464178125584 0.06346835075821604 -0.3291191254126462 -0.5683820650878754 -0.344636994937548 0.8912945316576479 0.8716180498740765 0.7425917180602796 0.17170371429705344 0.7746703904585776 -0.5560707951487418 -0.5546656208329361 0.7686385415795665 -0.17994481910784096 -0.4741978830134182 0.9796505020964181 -0.8231299961729861 0.24002231787901063 0.9614663101535302 -0.08061230001059523 0.5656203852805898 -0.8510756963451162 0.9045511186377687 -0.8623089755201369 0.29111463692212336 -0.7793260358904937 -0.6244703633497278 0.5335376807293406 0.24087204397527678 -0.02421842954136792 0.8352550328105585 0.3019403082113284 0.4723884638448575 1.0060381158137208 0.10910004022337638
-0.9765235731003048 -0.7450973353193735 0.12581833842446105 -0.9193488813108148 0.37812435797295646 -0.9331177450519563 -0.10403420539561435 0.6607690509930859 -0.22429181962546918 0.012474673471581583 0.2203873802590538 -0.48405345817042505 -0.17688863473596475 -0.6229145883649859 -0.6811316268532634 -0.12974069498536558 0.7418691731930598 0.11413953789452645 -0.722326300947534 0.6129549114308114 -0.8216465301428296 -0.4780341944190133 0.5583080716105964 -0.7681167952822675 -0.1276209958189634 -0.31513728346464565 0.4071887978682078 -0.5373757338640368 0.20372353573591417 -0.8419973213035926 0.8065258358014727 -0.5490687141363043 0.30071836114954853 -0.05730022268340516 -0.3562315461135052 -0.6628847119746603 -0.7001739344307688 -0.006091579506485532 0.6397589174664724 0.7834749936829478 0.20224501244153045 0.4028955100374085 0.5772671756543997 -0.6720594499650497 0.45355290624811984 -1.0354640850451204 0.3765634646803672 0.6406870306980806 -0.8437414250222389 0.9872372307450119 -0.6395792017394025 -0.4377407280808101 0.23281729940307075 0.16695449566285847 -0.32513577395617127 -0.0435008371497187 -0.3319152967248504 0.14005381384868876 -0.6340108444785597 0.00460673647565038 0.4555080040653215 -0.109270742736986 0.8991207034755286 0.0014112035666344225 -1.0481560918863382 -0.8251488887610465 0.8323923507200608 0.1911436716416853 -0.547714864451698 -0.2676585141198368 0.9572916632669187 0.022759540175385364 -0.5786601511389083 -0.528315696214684 0.1759123830674999 -0.9083627192072117 0.3346298683710025 -0.1734832440443626 0.10416196019295743 0.14342859607539535 0.22498383024655416 -0.16092600586598874 0.5171147703697292 0.40570822409257773 -0.4158915843464299 -0.7585437131663288 1.2390209896118312 0.11629259946329573 -0.18564576460796434 0.29025148528908584 0.3996311285474667 -0.6996194990513123 -0.654568822380407 0.715667383990218 -0.35076398952916577 0.9709238328299977 -0.5886499009037695 0.7693379634992165 -0.07217012401688766 -0.6025279938119574 1.0578244467401108 0.10301531359656627 -0.62998164556244 -0.3384274600351074 -0.7902434136489522 -0.005261921428963575 -0.7910588436925335 0.6706133128738451 0.5410748917895432 -0.2994141520469985 -0.389720487372494 0.21907329804077585 0.9614884162463117 -0.6414185809123392 -0.018715501847150665 0.7737150691951891 0.26436567492837443 -0.42539288839921596 -0.6688202205901643 -0.872246072573053
0.1771277792411543 0.4414981817041951 0.8318635063988323 -0.03999360388411225 0.5082455913236607 -0.7225035159771641 0.34910682569821305 -0.5313680342985092 0.4566258150228417 0.48023652265914274 0.37083106487459205 0.9423713271422788 -0.47372642656966457 0.19696913005364353 -0.7687060771584392 -0.42108903499440353 0.5123387597781196 0.4496290646827044 -0.12407042764749426 0.6948316418563243 -0.9712830334280487 -0.6575044923258937 1.0224303758691848 -0.7479118917698564 0.15844608897279272 0.27547983967254347 -0.48368409128967815 -0.9314824768316787 0.08363759511557234 -0.03764168384033492 -0.799525232573418 0.8730823048662563 0.5230516996587703 0.11679497287008896 -0.8061166201178569 -0.5328879261829198 -0.16284134115192825 0.5832964369955614 -1.0406309891401018 -0.9549668978048818 -0.3484118922972881 0.7217111164782168 -0.2041017605204459 -0.5468420644586988 0.950752492376755 0.5093955266718384 -0.11221594506534754 -0.3209488087866237 0.5177472859808709 -0.29998192526746825 0.5356436752446386 0.8991589416163306 -0.10377109616783889 -0.026261797174622726 0.21265329049082976 0.07378615003982708 0.795477119008947 0.09772184416708224 0.008273944702419982 0.4295314467282361 0.9388564391525113 0.04970026310575303 -0.626914232529735 -0.9483229664526794 0.1564134318898535 -0.09074821053390324 0.08818619174833962 -0.02420866487488576 0.2999589229039289 0.9056888346043879 0.18646382152509786 -0.3530692520189755 0.9229353749277815 0.6823164110922351 1.0532359835082192 -0.577697754919755 -0.33251291719961146 0.28760926308237017 -0.07120639420349492 -0.1099365599146158 -0.047244554254768305 0.3389514832715976 0.4730100154447758 -0.048973258327733034 0.41582426542202766 -0.0053308166117308564 -0.10834192985813058 0.9456168251098298 0.7346865624622423 -0.463361578420656 0.5531951501491829 1.1286244360075712 0.012430094082410095 -0.2167848600907233 0.06437356510969713 -0.7341026787131607 0.36539160226517853 -0.21496103523673907 -0.4616418444404399 -0.4035664957310918 -0.5490000733432013 0.9760840470960518 0.045876177651252736 -0.031713241022604276 0.12571781878072308 0.13780739629827413 -0.7077972759864499 1.034343379840941 0.28093588350254145 0.9495633040484484 0.5601454690108689 0.2688834390856596 -0.36043905442522495 0.27836539888498424 0.3824163227853803 1.0191013694180144 -0.5021149014012989 -0.3787935255520922 -0.06881061304356713 0.3363369602623984
-0.10347333697597083 -0.9458123129930477 0.7500636742525226 -0.4296867728032645 -0.6240210446082024 -0.5750501007961719 0.8065591887121099 0.6811178970797696 -0.6154006807501046 0.7260533010763469 0.21768967739902412 -0.6979947543167812 0.5246572048884787 -0.9219732444693974 -0.5028885606487706 0.06795199938410111 0.5511013927799879 0.20113207791921672 0.28285751983848795 0.38003983555879006 0.08982001335570648 -0.7043560609865678 0.024424379237257692 0.9904255271520521 0.7652966226439745 0.2579234152471524 -0.19643296472406338 -0.6041005655772596 -0.3032675162445052 -0.046378772492215 -1.1336018257374934 -0.1563466661891012 -0.4774027720534214 -0.26709145629792536 -0.5369696486845175 -0.15786832582395618 0.20118119961733666 -0.49808971097081345 0.6841315417442608 0.5853612648490505 0.09941270778317003 0.7126655167617639 -0.025333338551048155 0.10114737452690076 0.40004307349797746 -0.5602767803553941 0.07745742407451324 -0.9922714984666533 -0.46518604565593963 0.21748404789649903 -0.1949782252109417 0.965880053564908 0.970082466465007 -1.0636795360348732 -0.7465497835142145 -0.23927151685228487 1.1265809191763823 0.4115927568539071 0.5569780227777782 -0.8831200860692913 0.3528783090907869 -0.6912433282840239 0.22345803592843635 -0.5946813898825956 -0.3633795634842693 0.9349893732342713 0.9071069556909273 -0.061831892106092044 -0.8930803787364098 -0.26074966952119705 -0.06971029166952201 0.20787651018341616 0.12191829115708432 0.05282759785914999 0.42061430334834543 -0.9001803585174342 -0.6483843648452634 0.3179435547290025 -0.2859067778140104 0.5875107521788049 -0.19279876171643362 -0.7905513573143634 0.27298555438822963 0.29093230976966905 -0.4763946216940874 -0.6298255785986926 0.21105019245042772 -0.6948886943103627 -0.2924325086006233 0.641629726700356 0.5812873408717903 -0.8957071709451369 -0.5652357900362635 -0.01766746206076768 -0.644582896614814 0.13573227238153357 -0.442905764160752 0.397096499271163 0.06268444434889194 0.9358460374305452 0.6432651537111754 0.7734662999542027 -1.013672343397199 -0.40886294219855335 -0.9045569764517463 0.7517273692742704 -0.24426492843447878 -1.1754380119611711 -0.13841602667656389 0.7135024032987071 -0.6584577307666323 -0.5894266057195433 -0.8394951638095842 -0.16836383239417654 0.809943916991542 -0.5088067327661384 0.6311709565808034 -0.5670232969413118 -0.14171957365250815 -0.9189630836800964
-0.9413650809499541 -1.020789000786808 0.4654876129975773 0.7548813242468921 -0.42746961490906354 -0.01933154839178968 -0.7910784431186868 -0.6803023871096145 -0.5591854546443479 0.8742235748861873 0.40461097550492453 -0.4724289205381983 -0.1427112955926677 0.7598222329507249 0.4674131041015359 0.4589853457544477 -1.0212732121658075 -0.47050236117527616 -0.7857143440504479 -0.261066885622483 -0.7490720569120102 0.9031150821852721 0.14926194768689433 -0.20103425144011466 0.14398872909014404 0.49478965052473367 0.12939083313101243 -0.5734682555048126 -0.6252942064620632 -0.7587928087281502 0.18191871931152795 0.039203402801205586 -0.9113681747627276 -0.02287539165247693 0.9965123590144375 -0.5564004345772262 -0.863834430391887 0.8755398268487152 -0.6387854465306239 0.43388091873965184 0.44930875513553425 0.25656713991376673 0.746734780607042 -0.3906826171778611 -0.48139362714726114 -0.9158546944727415 -0.552713192329652 -0.4726889359840769 -0.6489528379433468 -0.3430916113351168 -0.3084263252092907 -0.5253882865392412 -0.23562863038634083 0.08170462971395878 -0.8975766063944258 -0.4575023604208056 -0.1519747768557749 -0.3093642388914562 0.9149411710175002 0.9688097030056614 0.2982391250047236 -0.9061695652202381 0.435451031892383 -0.7586761439308897 -0.9362404706661231 0.7172428588886899 0.2614680252928816 0.2548090396202857 -0.9598555214095058 0.6286849217756284 0.6713423543719875 -0.09363636516187128 -0.7345968876929295 -0.778994457048292 -0.886189665892729 -0.2965693003169264 -0.8654577961532887 -0.08553803112021585 0.6165601914486617 0.8527768810942247 -0.5675065624425779 0.2557335786154813 -0.9415707990866556 -0.4507696775300905 -0.07976177760908607 0.04547942628314314 -0.47036914861562884 0.644703405041365 0.33126324677921537 0.3027335954968954 -0.8376071571047606 -0.6522353107143156 0.7982199899400289 -0.8917469589204429 0.6004662041850313 0.30488340756000937 -0.11835993655178491 1.0067139143225978 0.45394221784016275 -0.4584593442886126 0.8851552706485089 0.941400197647403 -0.27244380133459006 0.3670147529042499 -0.3728500781425774 0.18218053595309944 -0.2686032921673363 -0.8539920153775455 1.0220624828072984 0.7575953811573307 -0.8070778651082386 0.46442024184257163 -0.952683986519444 0.6570979228374059 0.7287647347241213 -0.7188824468422151 -0.18194371351661268 -0.44820932441251776 0.7746738101168381 0.20124814876351477
0.08412208961252787 0.6526206591938335 0.6840620333183851 -0.8109714269154628 -0.6355420815718531 -0.3840722604167661 0.15281272598139145 -0.9232918774821169 0.4896115277135477 -1.0562874974690124 0.5016070798865475 -0.9012373398616531 0.5588284405745197 0.5986726670692677 0.5594990400373749 0.7110117442556605 -0.025067411087609955 0.40853123808696534 0.15454967703319353 -1.1136437477831782 0.6496600191265126 0.1611393299087988 -0.844162201253639 0.2301743717615554 0.43802497179494326 0.7996348087850963 -0.9552720503785701 -0.3444645085755824 0.05695208234674102 0.5887180498186062 -0.7099009905423987 0.8851760550792696 0.6205919085437983 0.6578199002896332 -0.9769912391016877 0.466220017777641 0.08495725932442667 -0.2344225986451033 -0.7461048403074789 -0.12528531621158112 0.6358792620750136 -0.1785509050504901 -0.3544974930907385 0.007025118273631373 0.21820100776236862 0.2852743738530422 -0.8211805192886812 -1.0300517415591768 -0.5244722447319016 0.3296460812836947 0.3241936150156702 -0.13651201153166592 -0.03694475866904913 -0.725383350568199 0.3271539936827441 0.9436151225192814 0.8495551508560627 0.8803906920638037 0.45003850888315267 -1.1003470907633528 0.3208895647280713 -0.6406379674590786 -0.4168947140534897 -0.21425356531863016 -0.33302367517550097 -0.3329364569090544 -0.2503062278116233 0.08768455428406428 -0.22560158191998025 -0.7918153622727934 0.7270680156330506 0.602490788510337 -0.36315205551852114 -0.50007458327809 0.940500959814433 0.9764167093274229 -0.2748618567018653 -0.5388259008766523 -0.8277157318146652 0.13873534265144868 -0.6027263408853867 -0.6457642847413054 -0.027282472051860854 -0.02576102297791764 -0.10011607006821584 0.040982483679610215 -0.3034987478334017 -1.1580570436447875 -0.6285339234611338 -0.7906596519688485 0.1013605231794367 0.01694031008683421 -0.18820862366387803 -0.7299597567058483 -0.21240025507671847 0.5204564278555721 -0.24429401938548892 0.8859722930880025 -0.35592089222752665 -0.4862102965483999 0.3542549832343574 0.5582838623021039 0.11152773423145383 0.9749420889340557 0.3710209411912908 -0.2819108776949774 -0.14972904571005435 -0.5233390669099716 0.6737810461421273 -0.6436715113965181 0.5253184202444066 0.4435504134868016 -0.8943568137850743 -0.20133444506987302 -0.03209825328035258 -0.28019150566830586 0.6592028068834564 0.612876928476814 -0.4601163837355603 -0.1004002854665867
-0.634112635205093 0.27326772537378025 0.43862617778928203 0.696374119430747 0.6105276828842696 0.27256246153017816 -0.893324386504159 0.6082229754588456 -0.7801657941560362 -0.1902152379348123 1.050643684643932 0.037919168180766856 0.17643737903295906 0.49312231379604693 -0.1876547427918401 0.8049696891045925 -0.28088379572223293 -1.1009252094994668 0.8870222343061299 -0.0925799626404242 0.7163778064441878 0.6689973338962659 -0.9256718956789113 -0.11257213452624268 0.6521762940312186 0.6273424655821517 0.7772453499591279 -0.06522317855588836 -0.6265896618429084 -0.028687086218952957 -0.4657061734495075 0.8513286390989184 0.33015833435015474 -0.9838679957557586 0.5061020027573279 -0.6534509910146513 -0.5598996434633535 -0.6716558605531415 -0.565931809491225 -0.602386107256703 0.12081080976464993 -0.7024782536048796 -0.7806079087921965 0.24017139894149078 0.7365162403223651 0.17311070018296085 -0.5137884770850373 0.5013282181242146 -0.6338146413046425 -0.0948426139869756 -0.544728138017847 0.15778683141864994 0.12215788779146645 0.8107200406011051 0.5995327204601575 -0.9425955515843011 -0.942905323407385 0.09481747816888816 -0.8322268419880127 -0.05473713792890006 -0.9710607379613527 0.28756279923061456 -0.8962400327321839 -0.20901875230712227 -0.8787699989136405 -0.07392366541388208 0.31406886473369855 -0.8753805814407094 0.0014219776818571723 0.5223272087223798 -0.3886803101808688 -0.14925242226277463 0.6386610705479357 0.3825572699195025 0.7240809188600723 -0.8432661071698108 -1.186350010351597 0.7444336877703527 0.31764207333685524 0.5699643313103531 0.12335104365230018 0.772473700542202 -0.9477715645406146 1.1447414624152996 0.26438933493939387 -0.7154653050222959 0.9237638838614821 0.8389939032626451 0.494166220188441 -0.3461597010492673 0.24523540982134823 0.2512660500992913 0.1834839405220984 -0.25009761085724674 -0.5056739808171877 0.3068031157485475 0.8302360124168859 1.0482868033616464 -0.15865036766332472 0.9105750139927641 0.0050439609949170005 0.7319399390949177 -0.3232221470470564 0.9164925626768065 -0.5130717061425388 -0.7191513863279062 0.6565019343716754 0.44874633409023107 0.9956269144819935 0.9258118972788201 0.9689117947688923 -0.09885888362004851 -0.7413064298377372 -0.2854525334525758 0.42738216027561604 -0.38804615554994254 0.598642095163083 -0.7443481342545323 -0.5331183799626865 -0.2572173325870483
-0.2118946321157429 0.8079328022227809 -0.5326620815822528 -0.8515811584267946 0.006044354070871167 -0.6878223737809401 -0.7721183352021785 -0.7833389801430486 0.11395452995418703 -0.4264259969064956 0.452425887266228 -0.5008113796234309 -0.39717078709913073 -0.9347358916837836 0.042696894516755526 0.4063318939370224 0.1098033764447683 0.16212372762460944 -0.09562825442657548 -0.5509678292232397 -0.8047233969855084 -0.06549504960468885 -0.5988113878341901 -0.12905452183656407 0.39135985666530093 -0.6502178030758528 -0.6396856331310131 0.019742572576775395 -0.5378961290403901 -0.2747965588697288 -0.10606643747698255 0.7507320696059143 0.9053889102456467 -0.7685016302912775 0.2009592528566555 0.2341746346594823 -0.7422244518728965 0.18363726689716675 -0.53131322517243 0.31668338433521015 -0.7889352416078571 0.6368880943099573 -1.0460221474180829 -0.2892239387083764 -0.7781070076490956 -0.586710614640544 -0.4767133939520305 0.17897056718931798 0.8082846147072569 -0.8853069935563309 0.36540347144452684 -0.7991431243056829 0.11424149682506478 -0.051427338731957664 -0.033706316371697576 -0.5717852921586637 0.13825049235128553 0.9867717474057006 0.7076961782582863 0.7571542773463321 0.6552174506922248 0.6553179928507411 0.3648365833471486 -0.2271924648210644 0.6513732146832454 -0.22326674122609355 0.5344546999004807 -0.6784817905465317 0.4401208780312874 -0.059021028575326685 1.1128999287354493 -0.6687193822351323 -0.8749056491767948 0.5335653343065173 0.9812972744845717 -0.06333257132857781 0.9346716756502443 0.6719684075147672 0.4643268077120275 -0.06142655138415733 -0.7967436869747048 0.18916632450254164 -0.248181144791992 0.42572847866346536 -0.7444734467649123 -0.07815092321359537 -0.9422202733817139 -0.5658300334222063 -0.8321668470918284 -0.6813460676565477 -1.0768797043443599 -0.665166213182393 -0.3106635700818558 0.6934762709314862 -0.6134041120737109 -0.37888858841328205 0.505025697301713 -0.3153841493375298 -0.2761804684986463 -0.8200020198146489 -0.8302363662082104 0.47498414012623014 0.4450649504548802 0.19934165011599958 0.34422390575311895 -0.36313266629518887 -0.1985366040047673 -0.16852301080870094 0.8202572388021224 0.21364550614131114 0.8368663127819241 -0.7610870756237644 -0.16412364616836492 -0.4862040736585239 -0.9231562083971285 0.5103881634927954 -0.390132088850178 -0.7034812252122156 0.671152641138514 -0.18277175768965034
0.3037268819277428 0.07564646822973929 0.19011805239218457 -0.13618007325091513 -0.8242878284243315 -0.7932619343760149 0.05252481350119959 0.5936315451938775 1.0655616002588262 -0.786243500138068 -0.02971330431270091 1.0254585131270293 0.8214400318450167 0.013637295263801981 0.3244184500524552 -0.8140703033585135 -1.0070640563381141 0.451017557663484 0.5411937246555686 0.7941980090627629 0.8663501757544128 -0.8905422582643019 -0.6797210450551673 0.9979486454444118 0.4956787851455619 -0.56664213045699 0.43809137409686044 -0.41367115575817787 0.5134936199130832 0.04512970063131867 -0.8278866148840314 -0.8821087229269681 0.8615558743155607 -0.23756533778238367 0.43104985444979665 -0.8517760476070649 0.3786173434255423 -0.5759613664941633 -0.9607415586087831 0.49465649777097537 -0.2793406461162505 -0.025750618813264136 -0.30725744007401307 -0.36576280707436365 -0.8953021461553057 0.9380853056871665 0.8921387019369176 -0.6081559489622149 0.8468369434061549 -0.40199240338159714 0.9615801110771294 -0.08614940250524851 -0.1738110461541701 0.5623652261501649 0.9337267051439623 0.4411224967201167 -0.054542467366848535 0.19072972020228007 0.8363787065057163 0.2926786643407911 -0.2740943402472983 0.08847619860573253 0.47372288517413735 0.3085216165154729 0.6854153685372237 -0.5693202727590762 -0.44889227171937196 -0.4169829624844367 0.8528742842686236 -0.021909198073718168 -0.48780356874595704 -0.2935483031137021 -0.6538795767355207 0.17648269107830333 1.0487509931569559 0.3286643227018822 0.12973345675008788 -0.2761936066017692 0.8500178700718567 -0.5864070866137758 -0.6860955345495031 -0.2662604463740964 0.7704698514951206 -0.31699003993948793 0.7994867263557242 -0.7555938973125683 -0.5603333969552652 0.8170390142542098 0.13292345966523966 -0.32102815746915614 -0.050420393855793944 0.8164913579517252 0.9230167827179532 -0.6182138708057817 0.00670871936350317 0.24630519974752899 0.4428300258842777 0.7488042137650294 0.31643845638486545 -0.9334154115578182 0.3758511290055764 0.8665843077784915 0.1257773066881181 -0.3438700659007273 -0.23906897095834734 0.5000908691261235 -0.9318886449866306 -0.5622559974509649 0.4021181417388235 0.7417722467600009 0.8498591308929169 -0.8365262084300543 0.9073344797276666 0.00835840875974539 -0.15545272122710044 -1.0524026287073158 0.9494269064425062 0.04658698044141791 0.6735128360936105 0.1259345460051132
-0.6670730954043722 0.5259218643791633 -0.8961849320779133 -0.930184551764667 -0.487308707060146 0.9300327502178205 -0.8586719251542885 0.22530753476451998 0.6716097002905285 -1.118306401155075 -0.1757820988228704 -0.6834111415025976 0.6121862814509381 0.07653246243272903 0.04170577541580605 -0.9224086222661014 0.5672387669069421 -0.06677130977420084 -0.3626552246451951 -0.16993531096900258 -0.18326582371782876 -0.5954591127314643 0.28069535702762316 0.11794096984027364 -0.02521426390445598 -0.2251170364054101 -0.7655979356361734 0.6117667294618253 0.5015592079420601 0.09025047533462319 0.25229435773361025 -0.8271412663310947 -0.2071318124303752 -0.508824530978789 -0.35724833109702925 -0.8615007361015444 -1.0426401479730243 0.7919735560248632 0.19496011649376643 0.7043767659151122 0.8239865094365791 0.5916680660750289 -0.7809746327540075 -0.6610385235303027 -0.03651994694695483 0.8375065114483018 0.5146043101271605 -0.013427734396767347 0.667309365379999 0.278319585495186 -0.8665308083339287 -0.7825764483025938 0.31020167517115993 0.23019700657876419 -0.1777871426397496 -0.9645612207802124 -1.0479743052809487 -0.042916449373481276 0.43450599291224185 0.8722539942278267 0.5426346984652843 -0.8170282276776848 -0.5580774353012755 0.8610608120676997 -0.6177881340504333 0.1637072076239009 0.6100074746800347 -0.27185357312096764 0.7779598991418447 -0.14212014650648058 -0.11809190276278295 0.21721702565802473 0.011339237488850927 -0.7639754391085897 -0.7223616010113383 -0.5374130420846618 0.25281623199437014 -0.445431385478453 0.5908834737512576 0.7064180253803396 -0.06684219416172656 0.5257361403808956 -0.6699389617806897 -0.6867655229686918 0.30991987534916565 -0.6361391908546978 -0.15058903300121124 0.10950462226683653 -0.9317673087041308 -0.5614621146707324 -0.22246941628369274 0.5549698797467031 -0.5359754244782243 0.632902595840081 -0.6441488377974464 0.763450426994931 0.9764781557976537 -0.09113600513741703 -0.6576501873826732 1.020554461893779 0.7677880521234852 0.030820486220797885 0.3907987069374747 -0.4146433736015486 0.8493017290994265 -0.9552728114657052 -0.5455983343982871 0.45019809854534093 -0.830307960480609 -0.5630494959214356 -0.5972981928589177 0.7083210845594617 -0.9094426097449456 -0.23041816374385024 0.904326134398882 -1.0668804012077813 -0.7884396316598968 0.17031210721352383 -0.7316674939136311 -0.2370999024565313
-0.9856295023986512 0.7720851344277613 -0.6651124331778967 0.7684565650975514 -0.14418884900508708 0.2448353712162855 -0.43247232788400386 -0.10827473254365119 -0.43592098576049987 -0.737737040148564 -0.24792812019943714 0.6062665565225956 -0.8680421363265011 0.7620031415099525 0.2616411985946906 -0.31694017006209635 0.02897403268968502 0.49127826031751826 0.17919457705297792 -0.0040027180931490386 -0.7373614511343207 -0.7611819105277313 -0.5182063020948388 0.03939052592798161 -0.8364356211890759 -0.47492008750511394 0.7018158685702237 0.04993944418784707 -0.6967271020638858 0.16515098065058084 0.8664975593746327 0.10534780405417843 0.4346230339557789 -0.6775454857443618 0.07787728621006651 -0.4782298786640302 0.9152103601165205 -0.24310886785674507 0.837053588019912 0.8919551505132268 0.35881567494784483 -0.6197476462913639 0.5736996860439847 0.29565401989340767 -0.4445236700111186 -0.5350764123869967 -0.966786592440486 -0.25715288169418904 -0.555753077415282 -0.1253321240148829 -0.35646335871537793 0.8658529551319433 -0.8721620214626897 -0.6656131921242642 -0.03013675025987729 -0.4843527756029822 -0.16224491005442268 0.5274852597594657 -0.06374069814680154 0.23503623238990617 0.2082403032779817 0.49757153177731595 0.11359039897042131 0.0027595472125741343 0.5843524030132259 0.28813268131819064 0.5964139550116865 0.38188720198992193 0.5649363385372028 0.47138529703714166 -0.860245768819458 -0.5124205556023717 0.5592551203799739 -0.26368095200729225 0.5704892806588507 -0.8219749069398707 -0.8364343135111643 0.5630868447996733 0.4202226824735936 0.8161624569480699 0.9464716324118959 -0.7064751933972444 -0.535702288617252 0.19525800026422835 -0.2708851476502201 -1.0995065841533664 -0.29421334216170125 -0.32092558189073994 -0.39865483783365185 0.07304253096418764 -0.29255597945126605 -0.050828809844736415 -0.09576339097275396 -0.3694023743159377 0.4482839150673308 0.3935214480830457 -0.9250906403747843 -0.7498363010616704 0.6429853316671287 -0.5859485088358052 0.9398481592756803 -0.10237647477068305 -0.5299097914128591 0.7446098981104761 0.6610408594489278 0.4160318790890055 0.6311285803823594 0.3273564720356416 0.8773931361933577 -0.6621501555854361 -0.4169819209336648 0.055190635433410504 0.44668800579537 -0.654045025651539 -0.8155005285348736 0.7413003754923337 0.45826500595603237 -1.020923500773258 0.11341206126695323 0.9303265759382773
0.1107118402315097 0.24193488176749495 0.2341833765264137 -0.8811572606153031 -1.0113620395642047 1.058375083987599 -0.48782536660173387 -0.5709952233468278 0.38548836393576996 0.9735162004562948 0.5491435686388779 -0.7619659446148292 -0.7341370905401639 -0.37768954719918146 0.7724904951219981 0.1935678341493267 0.3122537460690048 0.5771056454516421 0.04830947605580526 -0.2639804461603194 -0.5677140636049921 -0.9490152057572209 -0.19048398236740646 -0.07783639919755328 -0.6530538542592632 0.13277063608514095 0.1403436802427626 0.915141416046676 -0.5367872317598669 0.8151461820071696 1.072592259972213 0.2415597366051343 -0.7490208507205932 0.3029822676260879 -0.8891557058996221 -0.5535967793228328 0.04082919932739947 -0.06279296562309714 -0.19254128721973657 -0.8942690933028093 -0.8182848888474336 -0.38615433175067326 0.636778873187302 -0.11391905946167713 0.14499752557816958 -0.9716446849534844 -0.5373476138408924 -1.10616137753317 -0.6579325942324296 -0.900043083272656 0.7190403483350137 0.17237321326335603 -0.11477470032928225 0.13439664492189404 -0.8732508191936508 0.4886833379738863 -0.25629954164462554 0.7775987393476685 0.7440240354866992 0.8955968901839745 -0.34703781599440264 -0.7035695091168116 0.07813318061463513 -0.05784989776077217 0.8516223962103125 0.4498924666629291 0.2882720237366534 -0.9634381220400836 0.8839842559780562 0.9602106009680091 0.04176048595499426 0.9385833453449921 -0.5485308470001593 0.40269553478795694 0.09098688044954527 -0.673795207927446 -0.007736650116584246 -0.6839772779091513 -0.14620762399204879 -0.03620628066217435 0.8098427924097678 -0.883061394355113 0.3195986748705272 -0.33799880313132685 -0.12110241984954331 0.09934029035321415 0.51055761279865 0.00011269065219968263 0.47743699149492064 0.2228416702467369 0.31661592335963024 -0.07873231259519924 0.9100295496881438 -0.10301082481000637 -1.0617121353892531 -0.38251575646962727 -0.31862275974599974 -0.8060738125720212 -0.5687483798010707 0.17509326994531427 -0.12580207161684798 0.5121103156524497 -0.9837479164309435 0.35827337823949007 0.4879858759251647 -0.8173563939843579 -0.8678058239790893 0.5662653524798468 -0.6572890526337111 -0.6851148312805402 -0.5072410080882702 0.971485382127092 0.6222417601675599 -0.44581572979842005 0.4573779864467486 -0.08871797833351888 -0.09718204389077036 -0.2801966506605172 -0.3594635413207781 0.015850078254339123
-0.08048808847831124 -0.9149566817828906 0.9220928019965146 -0.46315881556140803 0.6410851682662316 -0.053005132207271106 -0.6130438388241257 -0.3845548348617582 -0.8491067194632258 0.09089064923320313 -0.020540874523958384 0.018062826483416283 -0.663724630055063 0.10134131508850798 -0.9401743816420713 0.874016602516982 0.18343510790573003 -0.69852590491742 0.4531685462209054 -0.33125121226934157 -0.5096955642787092 0.7053086566932174 -0.3835700675849892 0.8721700091104905 0.7365506584650715 -0.08442219682672525 -0.9303631515636942 -0.9584619629641397 -0.822776380632742 0.7482144015322585 1.0258705221363036 0.3229388538920133 -0.10233517367834558 -0.8648559325704948 0.6325099590036204 0.7170851097487719 -0.7682310972899031 -0.37110266219764254 0.2790962668995584 -0.9509769175919428 -0.8040743867417088 -1.058413053912838 0.614440795757777 0.02501142244745082 0.000653258677169193 0.7228984539771278 -0.8446777351426736 0.13120835627817617 0.599384751944647 -0.0667052977288625 0.7793231951118922 0.11748414905320166 0.21054044651751766 0.29405604468291335 0.17028402997919698 -0.054765349803443136 -0.7361600219279013 -0.46962022437276135 -0.44720072649800524 0.5922992103659391 0.12180971300447432 -0.2823989734130384 0.7820148813896847 -0.45877474133275736 -0.9499128714857256 -0.8412470451515728 -0.964478738572574 0.09080533882391335 -0.05900398833095477 0.18853947021779718 0.9857113541000061 -0.5014761807358684 0.15453303308728158 0.6485002175074605 0.03556865387293946 0.5399570019668417 -0.13200152758269942 0.08365371793964062 0.11286559309203474 1.0814375288844467 0.964167909432541 0.3075447982260553 0.9541665482492541 0.33419268558849546 0.18892391966553293 0.33910612898073567 -0.6990549239970391 1.0844836929100212 0.9512161946581967 0.6662800045072343 -0.03935240864172521 0.9397765701417171 -0.5404073410880725 -0.0745391619900958 -0.6838523903618539 -0.7847163521868306 -0.8914100364921442 -0.5282268186721123 -0.9197301809941703 -0.07771020802090656 -0.32364765407004165 0.4321735688291723 0.4130951195561629 0.9218926709904522 -0.20919956185250552 -0.6809673022338124 0.58821432947911 0.610451540361955 -0.9080326786125895 -0.26321453717099713 0.0839144472903611 0.5661267666400897 -0.9150629602916922 -0.8820875135377999 -0.9693835460600008 0.23601073631063355 -0.5005601838457797 -0.31138451284641583 -0.328989857205251 0.8090237427198553
0.4808170693507716 0.03404022803482423 -0.33788621834397725 -0.5827658133511179 -0.32930365095064507 -0.9143158941772878 0.6397584763271275 0.6943721766572427 0.7262390989168765 -0.5295957339770847 0.9873558044343208 -0.375945994504246 0.3603797870927652 -0.1263533906644402 0.8110873559664642 -0.05651667136932758 -0.17541607127650075 0.13957711235376147 0.8340842729463199 -0.16425394661881595 -0.6656710129962068 0.7621152818073934 0.61706110844065 -0.9645665671187573 0.7690226131677234 0.5267860991101608 0.9484108272729387 -0.9545430268154259 -0.6456783177133485 -0.7889857717137523 -0.5545222183743046 -0.33172504358450905 0.38809392358313166 -0.07113814395640235 -0.5474536238168319 -0.7075622324775888 0.8172896068059118 0.3266321126880558 0.8578183331299591 -0.17444321077686217 0.5253180361457203 -0.3445891453906311 -0.3408246381322304 -0.2743418979609697 -0.8173034770587455 0.4505207722911159 -0.17273335151009547 0.5930791478473776 -0.5248627209611331 -0.8767141073556067 0.9177659095586976 0.41798818514059527 0.12520581199905323 0.07146033412791954 -0.3946873809282605 -0.10677313657329557 0.07522356090223706 0.06997819653216529 -0.9720612303601184 0.8631384090316749 -0.8379782794754259 0.22963561887427783 -0.2468096854808645 0.08341636941260179 0.427547862226761 0.36590766316917006 -0.12155060567190798 -0.18796478875348185 -0.08138015972563269 -0.6287602035305588 0.8444237644806455 0.223041596885855 -0.6849569286694706 0.9764083657175929 -0.8380400465353015 -0.3687601431574918 0.39795202923012607 -0.4567485649556663 -0.38816161757861384 0.006869338136179787 -0.573430255376729 -0.12850857463813312 -0.041514742436939554 0.17728061195318734 0.39912873170387114 -1.0864005075058842 0.940480425757991 0.9336482643933227 0.9628564273519766 -0.3318918340723336 -0.7386457919434095 0.7694590060430323 0.4722171292595956 0.1952349821195978 0.4973762605538516 0.9830827121833462 0.20377526299671406 -0.7177959875788079 1.001914337815424 -0.06545011290393386 -0.7954724578912885 -0.03304218316770004 0.4215921744311674 0.29267790920350434 0.17827656081230076 -0.36537607155649643 -0.9312177419464857 -1.005854962874915 -0.29029208231460174 0.2841503589803616 0.8180513913032039 -0.6366402943959534 0.4067876132074902 0.2857543691315248 -0.05054452839417275 0.228293293645945 1.0363198450658146 -0.6289734181235445 0.8269394920886061 -0.00104187065749695
0.44595554712898244 0.18209167460884254 0.7664701919830922 -0.7990180103925224 0.5820838690370466 -0.2983527528801502 0.15433913464064855 -0.3415884443201236 -0.12415367887773461 -0.12514848574670012 -0.23810389093952763 -0.03968860421808 0.5083896072115808 -0.14881038551957376 -0.019318557474431775 -0.6923551697839723 0.44790412019180276 -0.49212100071112036 -0.4614851242632269 0.2598109070796102 0.745670144117432 0.7058328957295533 0.08210882200142064 0.3360449027130731 -0.05643950443603944 -0.25872686110317433 -0.15856451684430836 -0.9675472937039866 -0.04979728224917622 0.01477570713972116 0.548632463796926 -0.7789219750438131 -0.8058927405104577 -0.5249023862226845 0.5989610874875286 0.13734934786049857 0.44198353477575475 -0.32947192592598923 0.5029220927357545 0.03678342164612879 0.0967787911574334 0.39316190121567846 0.43856666568085073 0.5894214819744706 -0.8435750310925114 0.4006430844351879 -0.2038179189281053 -0.7107332934247801 -0.8277444537529155 0.8899306475541803 -0.3810172494508117 0.28076206819636146 -0.07276321573325302 0.3785404997622298 -0.6688751362695121 -1.0173281481473142 0.2376550658373914 0.09725238122510245 -0.4544153390879603 0.8982881465532223 -0.9187866466437646 0.5516113885111197 0.34602558531020405 0.4307267803008606 0.22484093458480306 -0.7375492507008818 0.6662648747417234 -1.021305245335675 0.159685549995374 0.7016530595826739 0.10549233821900793 -0.04797055607481618 -0.503057549265282 -0.6635175106973342 -0.7640066026944136 -0.2004762670594756 -1.0408676283402352 0.5591174496584544 -0.20967446431857048 -0.2199935052416097 0.3673587068523092 0.7306058000311985 -0.27366147797666623 0.08273811450113559 -0.3592886274661669 0.5766558730853388 0.2730250253254386 -0.3250299101959996 0.4729699761966796 -0.6905264634993545 0.19299023034011856 -0.7997390471685828 -0.4662548260226764 0.8406382051033136 -0.01150433428348381 -0.4071278596252799 -0.07482987127292626 0.6828528428360615 0.8654427089306755 -0.46800067036546217 -0.23435140598565138 -0.6755324878322311 0.5481815229832937 1.0220866027753162 0.42202598734957814 0.7261151564877564 -0.5869815983792289 0.4410477768663023 -0.7870081774261318 0.3923723525697094 -0.593904387983174 -0.7495806204466484 0.7203185082229374 -0.11006478669259609 -0.06508554632135714 -0.5073576386238229 0.936980597030641 0.9697259414266651 0.7579687052806127 0.7002007036432198
-0.07603783708496592 0.3503149192399878 -0.7864818131555545 -0.7163972442732328 -0.5279752082645286 0.007253476130846473 0.9708049430026452 -0.08367311886710245 0.8465563727909579 0.19033411966833066 -1.0010333637760909 0.9895708103730902 0.48314496419551844 -0.19110761148810806 0.7441251672705037 0.2285103954998887 0.8511625805852433 -0.12100230736405566 0.24245241053096886 0.14967527143163858 -0.2444337286294672 -0.9230632843665765 0.1779164999822972 0.7121352620273111 0.8839572728931435 1.0675483334060973 0.7541858833040349 0.9680723384735658 -0.7313193083099125 -0.8471846153311412 0.9140567865496768 -0.7958849688438911 0.06984580042997436 0.7630891762642027 0.1524993335463102 -0.7082553520085415 -0.007604342004195816 -0.7173133963011733 -0.6499087784883314 -0.08493963136897681 -0.38255097519833986 -0.36896833491261266 0.04420203022706931 -0.5847921392845105 -0.30393259998785505 1.0266403779942486 -0.8678165102078205 0.8638173325901585 -0.07835868237626091 -0.5770777175996704 0.6444888723406015 -0.33428324913021024 0.41116099978605175 -0.5555555277494395 0.19810041366943884 -0.0982769410389026 0.16297453825089125 0.30180180867410333 0.6955974648160287 0.5078870462559073 1.0437106378092642 -1.0244408610816167 0.30261453721124193 -0.4018620487119193 -0.9948375400576734 0.30532821817773886 -0.6592492657795175 0.04048725675660218 -0.5910386877814874 -0.7384880774730519 0.12741554328296414 -0.04637850973610377 -0.6359286431487736 -0.5499821714037109 0.6395795514342808 0.41348289785851655 0.6145570691266357 0.5539335712233708 0.6880674716950747 -0.4714950400145119 -0.04445399857068864 -0.7456410624358747 0.772146886653254 -0.9213447631866546 0.08099300859965539 0.603319385754573 0.49583014906610023 -0.7826814802918999 0.7266807386992992 -0.31581703019130597 -0.5977916290374115 -0.21243236342511945 -0.3204444211307166 -0.1824476552227254 0.5910345518700149 0.5821268738675639 0.13034985052924852 0.2249795880634766 0.5042198089079716 0.06639651627992478 1.046049355615157 0.6284693705996229 1.0323330340616796 0.3650382190507144 -0.006535609359566882 -0.6183242405415879 0.10301546405709289 0.9109255664024268 0.1899613606580381 -0.8433628404357115 0.09676306287261817 0.3556632480273935 0.0712964994268496 -0.15646422201499777 0.01669959977199178 -0.9892012531648998 -0.4427401251726162 0.3248797502473571 0.48148407193502224 -0.12167228419072158
-0.1265521129396383 0.7728040218434701 0.4732722456976242 -0.33681766476716235 0.3038389207650376 -0.2707070426338277 -1.1713348253189964 -0.9493394004724117 -0.044196296067067375 0.6054618122276018 -0.08457156396649719 0.38339692878897447 0.18484071185272508 0.309451579692293 0.36001933915031825 -0.9243312047731644 0.8170657856949293 -0.04341223294294842 1.0720287754904263 0.8203820166173298 0.472855511268156 -0.06189354178326485 0.1409785791997871 -0.24604625688950518 -0.2467042430401244 -0.987816853420928 0.28589206064117706 0.352030369567663 -0.3215932861207529 -0.4082625903520585 -0.42651740402406335 -0.40746496515696173 -0.3674729887580142 -0.8677100827628957 0.7924746649066425 0.4375762605222326 -0.13115406841025795 0.9558596148887903 -0.7791811528624032 1.0220597022065063 0.2918959774389152 -0.6119289598394394 -0.841099945339079 -0.5666599853399966 -0.46532714555367344 0.7008795149157115 0.27009455130754106 -0.4054029439209396 -0.4497963537081393 -0.4786102957193705 -0.11478225571674389 0.9335590240366805 -0.6613688032027192 0.04344352128958442 0.9733131489175795 0.1935135153833016 -0.6229695059235438 -0.562126741950601 -0.8636058926750113 -0.8903623036624037 -1.050725519577207 0.9383423098364295 0.26125761985374796 1.0850568079249274 0.6513631891528052 0.7372929718684633 0.6621967697197547 0.35647100095796175 -0.07184709098702247 0.11603211600299987 -0.6026927024669808 0.8161003049142573 0.8272455588217436 -0.007088724189394011 0.33367669164848035 -0.6770282024242115 0.7983779347511455 -0.2407230212618726 -0.38682451456450734 0.7649898955349945 -0.24473379650776358 -0.4963935787361048 0.38673751423025177 0.5754058848110086 -0.7981872317957295 -0.38623273707978245 -1.020374185705476 0.4095512592695885 0.168083195965117 0.8999070558837919 0.43207198380186745 0.7134827237248975 -0.41414553280472977 0.14350755508985938 -0.5154212954746679 0.07438268028323286 0.15911117664488125 -0.32234245120967064 0.7138472306510284 -0.3029651400183299 -0.6934408155472676 0.6689546699039114 -0.6858598125652031 0.6651456236402188 0.5875537779732468 0.07516623179712044 0.4708234346753626 0.2971988070742794 0.1937801322077456 -0.8190395421809549 0.8501278927735376 0.12215036415381506 -0.5176214099214345 -0.16634094160430088 -0.16660075799911464 0.47788777051536047 0.6881442884971509 -1.0307791082596025 0.13858915234262098 0.28548812328726775
0.24423738320887556 -0.92027886458744 -0.23190262111768106 -0.32590687056967904 -0.8507832683083529 0.43589577246058114 -0.4778937515165695 -0.7548528667473147 0.42386036812325895 0.8157663764005316 0.2092262533973369 -0.6118573690879152 0.7377088110267486 0.7595402539638842 0.05956141899258676 -0.570683163424621 0.6958243918868627 -0.052180915840182245 0.15272638544139963 -0.6769531988241145 -0.17269038423425218 -0.11711958100942618 -0.9257103555399817 -0.6146004702606495 -0.21229331956772396 0.930661909154565 -0.8027950174997047 -0.8166224962847458 0.4348266147084107 -0.28757140873943254 0.28180825467970333 -0.3610485236726103 -0.8669293201721655 -0.2960846294228777 0.8794231067656465 0.3138302564210937 0.40370404013485595 -0.6509208131846431 -0.42633102730723915 -0.06150251330604454 0.804573549244031 -0.7378922264302531 0.882636637066872 -0.8477170787691582 0.41003787863989394 -0.4336089429888608 -0.3460059705243404 0.34325705565857767 0.0167779688738175 -0.7946316340473593 0.8283082639613393 -0.37236588320082187 -0.20045269290891465 0.02384995247724937 -0.9077213019979942 0.9814792833931262 0.5153891434438864 -0.06965315195586615 1.0969253091334106 -0.3833234040363887 0.2190716610692543 -0.6151430571504987 -0.19086553586510074 -0.311100465720221 0.7442429604123776 -0.3551645565214429 0.141026031328141 0.4865815648469188 -0.6713470031244387 0.38838328854956594 0.43075625799070244 -1.003310395021094 -0.15225937602235246 0.18590628743129595 -0.3000866404864162 0.7687929095343037 -0.225917424098162 0.35029617189407264 0.267007497786423 0.7261609428946507 0.15449017526576844 -0.2635732806242726 -0.9161382986669506 0.3684580440065176 0.5523633257186077 -0.3374958292187353 -0.6761786321667586 -1.1042824017696968 -0.5290120176402036 -0.6840656930565707 -0.19584151284583257 0.05543846553999778 0.1122046612702292 0.0043924820404974 0.09026777752516471 0.1075700460356865 -0.8491365267109143 0.8843931393943004 -0.9036432205401986 -0.06980056067057437 -1.0277281070115742 0.1610687246827672 -1.004011855349037 -0.4737739179693091 -0.7314531556480256 -0.010789435686693891 -0.3041574772757765 -0.6120883726848007 0.02031275915971013 -0.1453653234173459 -0.5913009904358404 0.20749480813640703 -0.17500015857166715 0.8833676163969816 -0.5667137066987568 0.46362351501308047 0.6384490574511976 -0.493852611164817 0.5952789183830446 0.3937084481089272
-0.2600318531170627 -0.7391229771651427 -0.7167795508785959 -0.05236288056952685 -0.9630427719081701 -0.043285673635685556 -0.1927616542832886 0.9299825703815066 0.6713716351162102 0.2618340744053641 0.6764127739921836 -0.05564869547273735 -0.7200468428041961 -0.9075832490793388 0.5575177704678304 -0.5249164153803001 -0.64360234716935 0.010551053533877537 0.6090578838231963 -0.18558187838009807 -0.8717590162304004 -0.26205772090343554 -0.7954143717528671 -0.13221746756645383 -0.9222878420632117 -0.6193384913469564 0.5833695080918788 -0.6117647317296289 -0.48583373331237345 -0.3018357790218821 0.1272173135239717 0.4514784293598104 0.0005557183306626522 -0.80836630141422 0.4983696566891427 -0.312797517366034 1.1439484380735474 -0.8877126621485101 -0.938308787168453 -0.8377827654959051 -0.5545003177029694 -0.9778083779137402 0.7148644853017478 0.6504358813277331 -0.9775943320286382 -0.0982991741392606 0.24616690272024697 0.7382463810205634 -0.37645182652674863 -0.3346348363856818 -0.5822581718061289 0.1230056238792686 0.3681821628944875 0.430180081891297 -0.5734570347180075 0.8205448905222537 0.20111912974979823 0.2838192158833845 -0.34426359221249325 0.528420842665947 -0.19562498709739212 -0.4016593623358251 0.231405299029442 0.8612712647464793 0.701846801508828 -0.26151809013856187 0.3689690670447327 -1.0229319582236165 -0.43358999089714223 -0.6953874797306469 0.6225861978251189 -0.20589027460143974 0.7518303032437889 -0.6297271722239621 -0.8915823505705689 0.6660148495255497 0.9877216271390089 0.4774007791430933 -0.9268246545880733 0.7247382299533637 0.1463909545606705 -0.6524031336059741 0.6668399430348112 -0.9567012210545134 -0.6075718761627281 -0.41707265100211577 -0.34231313155034254 0.47680402731843935 -0.2097916921455638 0.37564493484717093 -0.6207753160007606 0.26329980446689627 0.14957802572305667 0.1179374407231287 0.13286260204204284 0.7029754671787524 -0.5402239054787114 -0.6636745611860881 0.8749618812132223 0.5693222788313903 0.4687666730647355 -0.56757799143932 0.2059247111684983 0.5391867737887609 0.798363796881812 -0.7798027359687969 0.9836994333509279 -0.5069017891252486 0.23042259677608287 -0.2651571045064746 -0.2685828253205561 -0.7229403060102184 -0.524238293390933 -0.034214578974670236 -0.425228903344639 0.4195810630107274 -0.5369266743430094 0.9958987864495235 -0.446554461596012 0.7392308474918805
0.3146309017400013 0.6125493506634886 0.7817712106934931 0.3810799788582224 -0.4587387062921754 -0.14160096672785577 -0.2028969420460958 0.20492893457312217 -0.6722898054826176 0.43566191526877407 0.4211097434255929 -0.1164770825771221 -0.3536170382074675 -0.8044335488019568 -0.671808399745884 -0.9847151171297562 -0.38409474588019915 -0.30417421748766477 0.2403514575930884 0.17319827318653003 -0.20221013198692628 -0.8291809375806364 -0.7343857860387106 -0.6640585114245028 -0.8396555656579716 0.7143069683228953 -0.7032635123924356 -0.8801020891588586 0.5004033333991015 -0.24177592639561984 -0.10809249500489947 -0.4161553963703365 -0.5643557512027765 0.8491676549186178 -0.26930826108989686 0.3675044465366087 0.8591668998224703 0.8854164383905027 0.31185815740939926 0.22487732695073495 0.6398855699397035 -0.6340963863131018 -0.9734356656628116 -0.2932538898805255 0.6595673086606788 -0.5419055518700687 -0.029481382620924274 -0.9937374715244429 -0.07878115248257639 -0.2600005935329366 0.21435546135083383 -0.992174569073568 -0.8384811596583847 -0.31937034164900613 0.8467218084356812 -0.91973805203257 0.9972690232717296 0.1702056508684728 -1.0153361124093108 0.3939151847441645 -0.7811380570569958 0.2117306657939549 0.5071205586811043 0.7163164452900788 0.0214612035926165 0.851231710976389 0.029817393879260735 -0.2644240414955665 0.05452290172622396 -0.3129195484998666 0.7748718160437338 -0.33341114300775665 0.043488827717303384 -0.6741824813499834 -0.6291094471564074 -0.1037000040684077 -0.05144372227542177 0.954074451614427 0.08035180167864281 1.0194135681897862 -0.7163910040167943 0.09634802645342368 0.1904980335447787 -0.5267230490684224 -0.9125200927820023 0.25812302306163387 -0.4689781160305671 0.06703869342964162 0.18164186875635563 0.14519932946861924 -0.6412416738407419 -0.4029522847403988 0.39730666870502646 -0.5713379438014621 -1.0138062362812372 0.5421181017676332 0.33148621347188323 0.49106565899069715 -0.750496584452174 0.3603920124832775 -0.13593497129226384 -0.7707205289845506 -0.5452134116746046 0.17643898195968638 -0.13255563772717732 0.8172439447879665 -0.5136200548491524 -1.0029832635564946 -0.8160228192002493 0.4503095182394519 -0.13753442443312702 -0.6821992050568052 0.6507998073051803 -0.3892547776402821 -0.8942638111394402 0.6290372344070443 -0.6970394923360109 -0.3054491243953806 0.9924510649898183 0.6786825571151128
0.10184113335010725 0.7949721417303773 0.13790951150844738 0.5334747769710496 0.44023276278189233 -0.5136590609536372 -0.6942817555740213 0.07531534128932703 0.33297084326712734 0.4242018557443524 -0.9393987955626862 -1.0328119579811856 0.8531485611239731 -0.6096665760368543 -0.6638079961590156 -0.806448933375231 0.8866826862861279 0.4931533601979495 0.6196798682622525 0.480987394041586 0.8942860707168374 0.44524107003822516 -0.24459898391648094 -0.344057379128508 0.18531167981177823 0.9223738641858596 -0.659161341104014 0.0006268511730519099 -0.19183885820953997 0.2512434275081506 0.44315058833480225 0.6234932737266915 0.5896799805351843 -0.09397898229041059 0.4040162299377492 -0.08453771569574933 -0.15680788045006522 0.09053072830651727 -0.037372779831360996 0.7397936259708386 0.30377375683070273 0.7930825634396033 0.7392998492376074 -0.0932849052897373 -0.5536598896011702 -0.5117102347094733 -0.06221460884063156 0.9440502106612714 0.7513974151231493 -0.27313025984515205 0.645974361195666 0.36273979832301495 -1.0589466940150087 0.09736164208325601 0.2516715372001501 0.07207498783786069 -0.9594604282744447 -0.06535467998151503 -0.6509865856806634 -0.6681052180624085 -0.005982545018676325 -0.9094129298025176 -1.1271777789917636 0.49511779827130387 0.4865712730143617 0.27652549374525515 -0.8496084557680506 0.1311293674897065 -0.4496917267482774 -0.09465188122783065 0.7846207716988746 0.2769543034802645 0.6500401285430304 -0.16788518389666807 0.3457305499009066 -0.6673652034732593 0.18435759040778577 -0.2509510256767918 0.24310956299313272 0.6344862562420406 -0.5061662369306523 0.3838336652183152 0.46245299869854095 -0.7433949933715754 0.5738580230855822 0.7249752444523234 -0.41519826077976985 -0.8510760664053199 -0.7892738452625155 -0.36088164357418834 0.8756765163227488 -0.47956551505245676 0.30621573198465424 0.21782510978935296 -0.5403053977251574 0.7596042275069753 0.7476094743112168 0.6684300987427497 -1.0159589369301625 0.12611597745521683 0.7771084161825231 0.7401742119762782 -0.9791541675504438 -0.7620948748647707 0.24451159422297436 0.771573274919482 -0.835963084798619 -0.09185694825637744 0.7134890288802906 -0.6737160368035278 0.6025795045431454 -0.07439518054554324 0.3985988819564285 -0.06812221755911224 0.30739972333045357 -0.1290138456791916 0.10492099338417601 -0.27478246829608977 -0.3597280235479427 -0.9929054308922032
