-0.2300095366888951 -0.5494609854572395 -1.05300435289602 0.07458791730064085 -0.01064411681926521 0.0978518326631766 0.782519225550296 0.124454238499869 0.08857995067219764 0.3524152012178315 1.7820635150121018 -0.3399977577923379 -0.5148371057813684 -0.31579530167376546 -1.4896083039387922 0.050418864213470166 -0.06266244646430018 -0.6051435387589793 0.29173661343116875 -1.0326893256933753 -1.0723482309321988 -0.3315361093677729 0.30346400911832244 -0.6554365032262176 -0.8771502707362138 -1.3154239351324284 -0.6849126511785083 -1.337565542321333 0.05915898192327588 0.032409097463628904 -0.6091496095935355 -0.16792932928484414 0.035785246057915145 -1.242418134951926 -0.7634559739640867 -0.5524824408439509 -0.997778476486359 -0.7152792021947872 0.2739528109521041 -0.9103113732314325 -0.9917530110717735 0.2777936394331115 -1.0616738619007893 -0.20883673100237282
-0.07882463798844769 -0.9941235587343047 0.5958377443725993 -0.5185513724608097 1.9783450950671218 -0.5485677076713891 0.23163283125920175 -0.8217655288157645 -0.566611455039916 -0.07616826606182327 -0.4563436361605216 0.6571301569536907 0.09502882751030292 -0.17807538060615838 0.5226707746748609 -0.9703293669719395 -0.6531278934900151 -0.20728025991139098 -0.14586315605352435 -0.7421856873100638 -0.33666574621495826 -0.4214102514122422 0.8499826925556346 -0.567101077834181 0.2453557789516043 0.7099288123666919 0.7247611618041591 -0.1001096472865698 0.23242668583583187 0.16951483419501473 2.607894557169202 0.5655887476255793 0.570665777820762 -0.3427536683216472 0.5573267597335165 0.7522999751959595 -1.0025477233697326 0.36778194899838035 0.09446245804767893 0.6391909335220566 0.040915839401471865 -0.0371923223661123 -1.0186413838181059 0.12756345950742834
-2.1685057347455294 1.7367163500626919 -1.8886424865896623 -1.8531851602665301 -1.807086910078931 -2.216771474854253 -2.458385051387585 -2.0679327550549322 -2.116721624493402 -1.3697972702720274 -0.36116079986161537 -1.900223076426571 -1.831942998709504 -1.3894086143864248 -1.6278661664632728 -1.6770578853220572 -1.755105607630817 -1.923932906464975 -1.8017424091129142 -2.1756235665685084 -1.5476219714975485 -2.128548387768296 -2.206486672099375 -1.4917868096125813 -1.5299288382481009 -0.2988200628564877 -2.137888318810207 -1.9398605082758515 -2.7099771307472413 -1.4262930012698167 -1.4659636042785495 -1.8827950366306556 -2.1830190241938765 -1.3886094374958484 -1.4181523522736326 -1.2383159211088333 -1.993850013954532 -2.5871821792050684 -1.4946567641767772 -1.7542413618444224 -1.7685741164614592 -1.7248711447354843 -1.2364199460357632 -1.3257215633082127
-0.9610472621142135 -0.9957930107340995 -0.9945917992786957 0.49727650396936024 -0.36066727447044006 0.25355809696801984 0.35215598607776083 0.6223342341231314 -0.7739057894489286 -0.9621145965676705 -0.024501254243548796 0.3391856870832134 -0.47049108245352417 -0.18793352235798963 0.056677940687522466 -0.11998239300592821 -0.19228521533312218 1.428759036326569 0.6872183800332607 -0.6354136932397713 0.01786354606008886 -0.5525182673271921 -1.1207587758670285 -0.4715178187575173 0.42349712077142465 -0.47715106802871554 0.10292075942184661 -0.6007593284008602 -0.8222444977973218 -0.062322354325721 0.298536550459435 0.6130605888614429 -1.1130214592696472 -0.8178481962770305 -0.910485395892707 0.32368843585629387 0.3027102602729599 -0.9334726383208183 -0.8433545820458194 -0.3063591162865103 -0.9513665330083944 0.2616497918677669 -0.7287585855733537 -0.5154585622458047
-1.2231563399400978 -1.412575501678168 -1.2259029712995417 -1.0609400972449838 -1.0935534111570848 -0.76579730232445 -1.0438217594766614 -1.6459458288833149 -0.5589519362535647 -2.0146261856394436 -0.47007339531614634 -0.7413313281798674 -1.504860913928907 -0.428658483594771 -0.5407486917612178 0.1607421521054066 -1.3023967475087634 -1.631423593279351 -0.3665546479007499 -0.7566677148031922 -1.3091250648661306 -1.4958154896608584 -1.936380110656166 -1.1362482966786867 -0.37869733475906747 -0.04965316393390638 -0.719137438322082 -0.8813486913407491 -0.6022599923030335 -0.7385461849460463 -1.5503812417115501 -0.501521174574418 -1.3064377135859282 -1.0683414166900689 0.13192253500210582 -0.8705039262076161 -1.5957933586724464 -1.2224044337141802 -0.33703203149324723 -1.1088324235996092 -0.6698124799740081 -1.6928387061236043 -1.7111052908061537 -0.8612028581054983
0.298823194764973 -1.2819847709159937 0.5237943934818364 0.43358909594866657 0.6126389430559395 -0.09745466741648187 -0.11683427309878076 -0.2340043592252194 -0.10035359321321126 -0.8573267950114212 -0.5625234731279961 0.601302144545192 -0.3102374946586554 -0.7022634067291001 -0.4811421777190437 -1.243698102495747 -0.9060858690168806 -1.3778645691399618 -0.4138382356022585 0.3610008773965967 -0.6027001834638113 -1.165791903943089 -0.012953990305884715 -0.5870008910837775 0.8068503424412252 -0.8440054662243648 -0.5496010182973976 -1.1555004850830903 -0.46936547198591766 -0.7227846539555719 -0.41070228693070004 0.006103837868083386 -0.5632371078104988 0.4404062194129279 -1.28948836916383 -1.0596068186282295 -0.8773418477286298 -1.0366581317021961 -1.0923012906263958 -0.4844106880127746 0.9007211722145556 -0.521614726479544 -1.0826495211366838 0.42147917927233547
-0.31277428768309057 0.06439327750296407 0.11627544756830176 -1.0233699650145014 0.7508205874644543 -0.17978577406627777 0.5447800660285995 0.830652373283 -0.7352767349864461 0.15930494212653254 -0.5991990913638411 2.271599646806189 0.46518769783728686 0.5928680144218862 -0.061176185533789035 -0.029421156072546115 -0.9751821243010064 0.5257937876839085 0.4811258787732894 0.39874175185013994 0.46940920805109687 0.42623791984719317 -0.30616902782760186 0.5035465653671884 -0.9630705538818781 -1.006682320544281 0.5945515870618167 0.8301292075427616 -0.6589496914254627 0.7361571361765359 0.1778546686639853 -0.9619842049274444 -0.5273827087210075 0.8857784971886895 0.4951313648340901 -1.0332856757619917 -0.33013952982888045 -0.6694995376283746 -0.9935188906134319 1.9631800206149037 0.6290388494343441 0.3725577319472588 -1.1003629635144956 -0.6789869541178714
-0.877958769516378 0.1875953414383519 0.18935071267971465 -1.221443240568592 -0.3495123474372746 0.10420013247860366 -1.0832147524312932 -0.9303115234205638 0.3990808054607807 -0.4258688375147824 -1.3652017316887823 -0.9521850024309098 2.7490671873493318 -0.2104946233081001 0.17081797249092098 -0.48468836118808395 -0.14540642738113752 -0.4704411538604825 -0.6196080539862862 -0.7628711307343887 -0.5241891712924048 -0.2545825773771552 -0.7964637183063165 -0.6525404575733653 0.06705450226140877 -1.8327643736423822 0.41975937649212736 -1.203520063482663 -1.0267166822898708 -0.3843003904675395 -0.32543169433496805 -0.7217044351566809 0.13003986549151025 -0.5113887627248676 -0.11413358396500912 -0.7094933675091848 -0.6037912969933754 -0.9405927962195131 0.4935949389296403 -0.6316841013121818 -1.1620050145337435 -0.20853641138810772 -0.6085512311970446 -0.5027426347070162
0.4028434973714694 -0.7242089376304917 -0.9957551359683142 0.46265204074098387 0.29851456766637346 0.12333562344133185 0.20617275306252275 -0.7146755253936184 0.820226867247329 0.341575486429905 -0.4711922355106004 0.5546501034623011 -0.11972436500177074 -0.9787109774597306 -0.046172381769058635 0.6728647680137052 -0.08913505659236481 0.3680268801387126 -0.3366796565446996 1.244028319621622 -0.9354738900089499 0.3332804246559846 0.4322785039908633 -1.0082663464040273 -1.0500145766234499 -0.33699325752172504 -0.010205319843374028 0.6198886413022325 0.13417754951483357 -0.7941026981093409 -0.8157554776567577 -0.8579306258578935 -0.8392178101289643 -0.08234766177624955 -0.5257236020701865 -0.15656388262586488 -0.9413371751773006 0.18706555148904738 -1.1630352772645722 0.1884018972004475 -0.0903225754508552 -0.9046784352813656 -0.3073115394843782 0.7909278775329236
0.19682582560623849 -0.5386008724175786 0.2049289194583703 0.28281118347268785 -0.1821308519527591 -0.4298586980513948 -0.400547753181692 -0.8929503663045081 -0.1192081160331194 0.661907761188865 0.3507359747537295 -0.7717113522962045 -0.8621947563441963 0.2266552907186076 0.1685440207440013 0.48487273721684887 0.116371633390047 0.7414504123582717 -1.1583232729365205 -0.7063077682501671 0.13191184427121172 -0.13013727267373257 0.057151176010166886 0.10351422667780304 0.004161896247305823 2.4879210313898006 0.9077592169453248 -0.4433073096979907 0.3415892532361164 0.3445418956731871 0.23605820928594834 0.4727594470485062 -0.7806722882813362 0.5796822683397616 -0.6480043291976989 0.4449255951517491 0.5651021738359492 -0.0294232292350763 0.6895272967110747 -0.987381253464261 -0.37422031283496293 -0.6786097117899931 0.4803582428730624 0.2292524040577853
0.31586987014991125 -1.5562107231433868 0.3015371701469952 -0.02451173323274589 -1.3930071578191303 0.2619296943927952 -0.7937493772510948 -1.1561388780106427 -0.1564526188478534 0.25642122704768433 0.06512713013463638 -0.855453474504872 -0.5551649137872002 -0.13805284633584994 -1.3513293543978904 -0.7381018448610219 -0.40329454449775276 0.5228091232813216 -1.0286729280267688 -0.998283576222334 -1.3270911470412714 -0.6144435952530742 -0.21370629933299584 -1.4143866278001214 -1.0987204871824616 -1.1165839918917686 -0.8648886373436568 -0.5181189256855154 1.322289021622981 -0.7785856543596281 -0.6383465837747455 0.11017530277926334 -2.009451423175841 -1.460771793371292 -0.6292375419536614 0.09062273645392559 -1.454326933191301 -0.07595628495842327 -0.8114710903367319 0.2688070678684439 -0.9003297376124945 -0.35267861908570325 0.8438953044594174 -1.1177157190827094
-0.22160841174091594 0.6605141289505955 -0.4884882091976854 -0.3141450345758522 -0.9792816001345096 1.804253363381415 0.14485623912427953 -0.07568357254304486 -0.16676138122077352 -0.8076443462525464 0.12502584682784584 0.28884420169717856 0.35001196051774724 0.532714755165625 0.4532919696517752 -0.6959978576080776 -0.683323071756716 0.648787838189447 0.4784788564954586 -0.6542800244826636 -0.19577886108783737 0.6453799387796565 -0.44919706032213946 -0.4565520640596517 0.23509142585133777 0.8538700280100273 -0.3728519616564596 -0.16228942388372933 0.031095834487999394 -0.5955610841701042 -0.29507041554569086 0.38635234340611607 0.012469621449863135 0.5592745127037843 0.19453722491406328 0.5200922245195388 -0.08854589535996658 -0.04364691580143611 -0.8280694198251846 -0.15827426742560635 -0.5609512620797978 -0.7603209696943446 0.21591434795437314 0.9217546510386556
-0.36636419414945043 0.4621980371860053 -0.1613829589566657 0.2850023870827154 -0.688027428380307 -1.0095153932371224 -0.2798533262224526 0.6648963528495092 -0.5352722378391739 -0.3084892169518255 -0.5477317448244688 -1.0323845260613853 -0.3428853886067069 -0.04361615801355462 0.5731649546179044 -0.7527276675449068 0.3281008404189126 -0.3304001966910083 -0.26163086875138214 -0.9980766089129784 0.16474877370966493 0.7247489238226018 0.29581340313895255 -0.47104910383107784 -1.145534312553212 0.053141172958923136 0.769486742166222 -0.24748981678612006 -0.5896335190256461 0.10332386012121979 0.649959887884973 -0.6500906768991095 -0.17130232382829422 -0.1373261202088722 2.345812602044865 0.18375024927957778 -0.8045937273170682 -0.48289867691668564 -0.8029813255610251 0.5165209405428557 -0.4721316715026989 -0.3711090686526687 -0.7725043435584376 -0.05504274083104438
0.05674320303220111 -0.8135765246806259 -0.8282924269800116 0.8677957692396514 0.7667505941433246 0.2685245099538768 -0.7296331438727646 0.5626876027729772 0.41899659301198094 -0.7290216699854046 0.13707556392150516 -1.0763241089972682 -0.5553004569013412 -0.757859882565225 -0.01952421465733649 -0.11549543385416557 -0.8536971005518504 -0.5775683559124597 -0.5557646328504418 0.000412536178290843 0.7974302025426871 -0.7869347890590608 0.3559698307681998 0.49119297109808463 0.8558391948667028 -0.006316652729304704 0.5266319609001996 -0.6615302152517242 0.47309357028377913 0.39175269199468826 -0.7742546372921355 0.6390731044255096 0.4786794936222349 -0.13367790443974578 0.5132195272594492 -0.8444702990643324 -0.477549073325402 -0.2585760871311891 -0.839366894505036 -0.7947422568005318 0.30622370015878453 0.02316423978207949 0.19784073803939234 0.6333575471058143
-1.4369022993216847 -0.5717891329186299 -1.605977399733713 -0.9878467654082026 -0.227454785612468 -0.11685968099022646 -0.18677136836343491 -0.6258266855429736 -0.02783910515687479 0.18091973017242374 -0.33144747019645904 -0.45218056012310087 -1.1414985647088989 -0.43738200159382423 -0.14663443729569955 -0.2782285485746277 0.8466027342726418 -0.7905742783524159 -0.43576540389450286 -0.036581223863681914 -0.14963930680008702 -0.81427315956108 -0.794147007667834 -1.01482775522436 0.27095133598750665 -1.3303472933763667 0.22222574563856504 0.511248978314619 -0.22785249607905436 -0.6141304894260237 1.1631822883152474 -0.9964377725136543 -1.0955464654196656 0.2113117735907479 -1.267018560334285 -0.002944373936801121 -0.9194239471628478 0.0310920537554961 -0.9567309215054448 -0.24918115979324004 -1.0249930857437075 -0.48809454184808543 -1.717060213926569 -0.9140635887117459
0.723549055177147 -0.8309039109372505 -0.11193766104729158 -0.2843027674780209 0.4600811483860527 -0.7400415678511936 -1.0295813935235743 -0.1031081555749003 -0.22966086789634146 0.9774570073481462 -0.21962447901341872 0.7825436183175386 0.7539589495806668 -0.8844153537427644 0.10182771997492705 0.9616733123068804 -0.4449120529510428 -0.4659689430224864 0.23568070681938175 -0.8824784636793152 0.6564742846059316 -0.8730000878187921 -0.04127320244274467 0.15485343736086232 0.4167456907830803 -0.48543235060006534 0.00986054793565973 0.07055325014110816 -0.33504287315934456 0.7255837831433547 0.4260619481095538 -0.8576577905602162 -0.23003463460201704 0.5547207642379817 0.6972373392157846 -0.5387574641931573 -0.7333131698972775 0.5686881991734205 0.13907950992122453 0.1665400675897797 0.7053111781002793 -0.39906393036273696 0.6119935826092612 0.5155099855762838
-0.9110399714136773 -0.5426305057006056 0.05222420385683011 0.2563860074632654 0.46302994614492354 -0.09909516683981526 0.23628231025397806 -0.5616018645983801 0.8801308265650402 1.8671483997106773 0.6690994689664274 0.31820272796413746 -0.24601242234608137 -0.5379196706237876 -0.94590831229199 -0.40446555478578544 -0.27126092353403036 0.10839923907016424 0.9017352676851995 -0.1335080749771248 0.22292511546506596 0.7732666188173282 0.3974282622507192 -0.8827810503363321 -0.4747156514078933 0.8033536887252395 -0.852664037219484 -0.6560554266157822 0.41297960003257794 -0.6557994632442614 -0.6972322114371458 0.139241412545378 0.5728464772011855 0.616191249658572 -0.3896956999035308 -0.6470851786011421 -0.08883754098535417 -0.10503692478013951 -0.5251763999163498 0.815769763864092 0.4661216213278788 0.16242534237001158 -0.11684915271463575 -0.117238137150349
-1.6396091382936304 -0.5172329933986327 -1.095859478905934 -0.9594792994704777 -1.2247556073489687 -0.38683440229493266 -0.16516670268000397 -1.351504592135733 -0.760464833756852 -1.1121598540951436 -1.2451660880563107 -0.20607955593550806 0.7094488385012956 -0.32508926525813603 -1.1184181383724277 -0.02330218010542089 0.9926680605667192 -0.15189957851139713 -0.5542746037397637 -0.5926766689341799 -0.34127058107895053 -0.754610812031891 -0.2808528362964512 0.03538146125026 -1.2230394395392243 -1.2089508277792607 -1.4664981632462049 -0.5814168698682527 -0.5540779297114709 0.18956780324903286 0.19720581929034353 -0.4925622046744368 0.15445339428572397 -0.7386906052596113 -1.1349929153817013 -0.23506531631464195 -0.9035033026282222 -1.3017175189942234 -1.1159245995592573 -0.8670915882423536 -0.7221981263267077 -1.3548714464642442 0.16457365752764164 -0.9757826796005291
-0.15828690521106292 0.49973630156236337 0.12408999621414567 -1.0265250008370108 -0.8765733565992186 -0.2341334917037231 0.5762419434533613 -0.699498178939709 -0.47212320714282374 -0.03867977626427378 0.06758141467046029 0.31833543712899065 -0.8673935311232464 -0.3536802752597336 -0.6145775233619674 -0.3833582427724353 0.48681707219748466 -0.23199088979971694 0.16624719075223449 -0.804823384438082 0.4434101039468646 -0.3436298308854837 -1.004287747912201 -0.9703622844341345 -1.680347171829979 -1.2846144037305447 0.09105355017594832 -1.2845344021518088 -0.8581209706568881 0.688352882384665 -1.307780232658509 -1.15253438783688 -0.4037206392652421 0.176049961067164 -0.05892910820719461 0.5584062247739646 -0.10515495643090464 -0.6100904248624307 0.4085013074443369 0.27106907140093395 0.7271193807864936 1.6123286191294588 -0.47313484368155373 -0.8337465094962083
-1.049874756089317 -0.12428578205482667 -0.5362453371752228 -0.24354411266556958 -0.5068019683888285 -1.107455529046617 -0.38921813127598726 -1.562629959514068 -0.3728110918902151 -0.692461182560755 -0.8640145877940804 -0.6381092075369692 -1.1862096150549388 -1.4509621317624386 0.06689386606761286 -1.2291683172607066 -0.8506664448054702 -0.2611294291937659 1.4632297169640027 0.20788894657534815 -0.773424640039982 0.2872348299527788 0.1132168802163245 -0.09431168818505954 -1.0894650309301253 -0.3758669267686456 0.62875346159255 -0.823083265219922 -1.288200257144588 -0.048488643466962446 -0.0018313375722736436 -1.2213697945185518 -0.3019352564668602 -0.7504751535506281 -0.9249309892803448 -0.8695796186547317 -0.277043910254108 -0.6321143959603235 -0.8766163732845537 -1.2581112788826718 0.18314548018029847 -0.3283883138181137 -0.8867460740182557 0.1590195764982713
-1.4798502121616386 -1.5537184066817122 -0.9545767992147471 -0.0570518114401973 -1.2195002554010355 -1.8835913654545318 -0.7274098749395319 -1.2321607933756193 -2.248067336918469 -0.3704228308068638 -1.0972566131852883 -1.6913751750741675 -0.4516414918082664 -1.798279414612312 -1.6204916463955776 -1.9031970839939423 -1.6915537426227993 -2.4141660109878167 -0.688346817557476 -1.0603959051805656 -1.7934157529389707 -2.3130658388082166 -1.3194298871239278 1.2138686067789846 -2.1517529119941257 -0.5269904686430887 -2.098277336857427 -1.1800114433605473 -2.0172178485901426 -1.967887986940337 -2.2161683417664713 -2.3386196322639066 -1.1094726395250858 -1.8870418161459788 -2.247055672424383 -1.2023299938858085 -2.1627255664291862 -1.7879061705798864 -1.693828427100674 -1.366689647901578 -1.215366820606966 -2.0797824159400116 -2.918782857253378 -1.5837132596796735
-1.9308755980354957 -0.8783120693590619 -1.5593783555942755 -1.796266478777508 0.23542279101848657 -1.3787027930449491 -1.9965226579108601 -1.5084283481507246 -0.9990172544453342 0.02813893071780563 -1.5486174613780204 -1.0928035340562576 -1.448120153861118 -1.715450797477516 -2.1185666010315782 -1.368925081305664 -1.466186449445893 -1.464236527477294 -1.6053197347183614 -1.0606646464009366 -1.7697642528228723 -1.419584816408257 -2.1487992166392527 -1.710057024655938 -1.4239708428764277 -1.1727984649983811 -1.285100511621195 -0.9267039198047002 -1.9016639523866132 0.9322529393903016 0.42397095259385703 -2.385134688697996 -1.5789537970674672 -1.402939213095718 -2.019425076369197 -1.4617004763325643 -1.2112051710171945 -1.779617884801689 -2.4823961019330985 -2.001276258483734 -1.7211221361870983 -1.3414653734621427 -1.6331777499944324 -2.1328225166540906
-0.8777141376061162 -0.043113908942302055 -1.4820728050698102 -0.7573107542757312 0.23384992333606602 -0.4408380729711898 -0.3722127668457722 -0.6796836947705387 -0.8447272510635586 0.8619241519921199 -1.298029065172544 -0.5307417782573853 -0.5622400041615561 -0.04883215587298745 -0.9985728230609003 -1.2241748804102446 -0.6602931010754921 -1.0618851219494203 0.19890915056195724 0.18797174237697908 -1.0148643928321028 -2.353997648642088 -0.41249942183328764 1.5490156204315477 -0.4594157343179365 -0.5084792017498828 -0.12414556804165268 -0.19540093278562448 -0.3163338031070237 -0.1763342340490957 -0.22722939432798905 -0.3783313909020934 1.5268182730388178 -0.5737863419225364 0.2056234561829731 -1.059629688504874 -0.3820508561959996 -0.21705015897498578 0.1425888560487975 -1.0139224038299168 1.7953253360831818 -1.0176457110581938 1.868135745193994 0.27559237353314975
-1.580824933582569 -0.8070039941731987 -1.4812936120762095 -0.7762408553679018 -1.3407837985879119 0.236875709542217 -1.1815899178689089 -0.6142305734237732 -0.8474985911682253 -1.7582005791975577 -1.17636169643072 -0.008461786635146488 -1.0472515231620347 -0.12365353154472332 -0.6134162018041144 -0.7553356119768255 -1.2724511329132249 -1.4161988602930038 -1.5123348700150843 0.03884989329065815 -0.8164476412686661 -1.107523877899435 0.3311600598533638 -1.699970822996731 -2.3118635700578043 -0.44457847677889095 -0.3035728747252791 0.21066375096589376 1.0888159217598785 -1.0422378438714937 -1.1280215382559264 -1.3548177623316486 -1.69175563534272 -0.7281493207901364 1.0991533621560738 0.10941957093474165 -1.532166291038393 -1.275094649986138 0.846761081776743 -0.03370425474955736 -1.1510651476010527 -0.7735088214638178 -0.7428920601356466 -0.8085237509251256
-0.5348819717273523 -0.7758439552104923 -0.2976727726368438 -1.0120739147319346 -0.6357058595848268 0.2940457364291782 1.679997157541431 -0.8152405313937731 -0.36803576596057413 -0.44853149473400955 -0.9790990068186016 0.7689098168272364 -0.5725658008549853 0.7617461189208965 -0.015585636595094947 -0.49164184446454756 0.02246786932479413 0.35244388452754843 0.044503618942676876 -0.08620365748349927 -0.0034473192529358185 -0.40020338499275876 0.5227666144342464 0.21268596864365624 -0.8189243258253053 -0.3784494704025105 0.7419387711400295 -0.513323187331545 0.026433108610467534 0.05909276086463696 -0.7952952002455127 -0.8370882595444422 0.2732209584255119 0.1721268402592194 0.8399337444898349 -0.10823742472395913 0.374465868844279 -0.6786343467240672 0.4033486291522761 -0.4107430524104926 -0.3546677789525486 0.5964764672793679 0.770067837939519 0.33775035806106685
0.10647171289194934 -0.6687319903201303 0.6855584248009372 0.35375957462371316 -0.5997598680715793 -0.6264096105980242 -0.6049399923586503 -0.30000650766277304 -0.026329916700545363 -0.3455664516635009 -0.020561258080074554 -0.8452407701421807 0.18578605733948306 -0.49735266710303905 0.06860122495054144 -0.044148638130016946 -0.9822119618788221 -0.13863629537958988 0.9742692573659595 -1.129917063845573 -0.42822040866989275 -0.8114181233877201 -0.32001363546242007 -0.6933219189395868 0.4952836720049602 -0.8444245435409213 -0.24463573327763544 -0.24218098773090072 -0.7708373999280691 0.3456389165534951 0.9259911493234018 0.1848133201787823 -0.5242672277932882 -0.6046597885355086 0.6342865600634704 0.5522316515542541 -1.0474817368567266 -1.2355993158366956 -0.3203981997820358 -0.08253430527940452 -0.5348799429806345 0.03597730767640229 -0.5704537142842949 -0.7305554516251532
0.612102265423315 0.30375397011105454 0.33151421685234467 0.38248213550180743 -0.23201322327520302 -0.09321030958926008 -0.8584710569241959 0.2572939549792676 -0.7524888066059758 -0.0529342279426904 -0.7980758654008391 0.09463943879703308 0.8559524075027517 0.5839951497948511 -0.7307979375169243 -0.546310071128347 -0.8708862838526794 -0.12840692796640513 -0.8739824518944536 0.3734776372899543 -1.042220881050438 -0.8175749053638874 -0.1410158058390049 -0.9780767893856471 -0.6627321306934076 -1.0734182761619844 0.2655784703629856 -0.45473995792148697 -0.9335776568792642 -0.23291385869775325 -0.4344793904952634 0.3102855924732453 0.06015397203206565 -1.0256190525390325 -0.32630991789093516 -0.45464470212804736 0.164026832226628 -0.29036637224237144 -0.2797769938365247 -0.9001372113879069 0.17009917175874364 -0.4421396832826631 -0.9589818268705164 -0.8069877797088347
-0.04148981802952424 0.5092649090775455 0.09016466164651103 -0.5800809671644246 0.5987108845601222 0.22661671465146543 -0.5730584624616667 -0.18351051840428273 -0.37518920657826477 0.4026815943947134 -0.5010094631183728 -1.1926989758497428 0.32942666735638715 -0.8502860312192242 -0.8844347924513792 -0.03530863408712753 0.7846756118773964 -1.1850223763380183 0.21931930348456088 0.2250329797367529 -0.07867774400645225 -0.009960350878865746 0.6474359528152241 -0.27101464058004937 0.018405475178831964 1.0757712096283873 -0.10729732453541714 -1.040338186080102 0.1433864925677231 -0.019031862546167694 0.16920030804044914 0.0463303459648786 -0.07585477814459553 -0.8765957855526975 0.4571742641826955 0.3413926971900294 -0.6836481126430263 0.4935622216934239 -0.5964990643197936 -0.6200441208355758 -0.2264031206844417 -0.20236077549589013 0.128399600819637 -0.3307906154519129
-0.3259587472839345 -0.6983780327171158 -0.7021744848615101 0.2891924353195913 -0.4871380960870065 -0.44090063186318823 -0.16723636208268253 -0.38333005604945364 -1.0814902173441685 0.03943539136636975 -0.49138770156867756 0.44333338241682935 -1.2071625092051967 0.07971242575248197 -0.9868440207490449 -0.8103139615505527 -0.04629124803279113 -0.2075506884282566 -1.0316818715650007 -0.10639339470408196 -0.11383553795397076 -0.2760050219969392 -0.6012683811716611 -0.3181884106964607 -0.13895172584444088 -0.24311768092585287 0.06894954236462982 0.23763050637125596 -0.5158911595382563 -1.2994005547545338 0.7397750814248714 -0.5101140730561468 -0.2897743156033559 -1.595322099616847 0.49052426725080495 -0.0872772767647705 -0.8239259950393791 -0.9467367102521123 -0.016943686707059282 -1.3166529586792914 -0.40217386903062335 0.21247134277771354 -0.42309486701763016 -0.017427962653942204
-0.04480726958032305 -0.6942098471661098 -0.36911965851897405 -0.6010106496529919 2.916563133873552 0.19600495110109084 0.7465793507847108 -0.902473595036325 -0.9052585238689427 -0.7563216519924548 0.47329738267282934 -0.5489646601182798 0.28442532509937624 0.10816193322996498 0.7723213550844266 0.27460459503438917 0.09192587282321754 0.2636844879869496 0.11626917530048994 -1.0802163286508215 -0.9821138912026278 -0.06517663600160174 -0.019708844213063157 -0.8866907237503924 -1.1707356639377224 0.670739075250104 -0.10114693926113469 -0.31713284816443243 -0.33531881085722187 -0.3754929203500289 2.4164508649637773 0.0002826300033747736 -0.17882733882125196 -0.6412358107750523 -0.9127927166004195 0.09876535104115924 -0.8678390510358669 -0.3975655405282644 -0.6489593808269557 -0.05208754071208963 0.04641590366688294 -1.2042386514512913 0.7194532671144093 0.10720006434097401
-0.25309715460315707 0.03103035234872002 -0.8760485541372158 -0.047362321216669036 -0.7936154433656758 0.14324312236976636 -1.0879878663688594 -0.8738985536816127 -0.449675008814752 -0.13553868552324266 0.4156837049600506 -0.8281264883867896 -0.7306266881724612 -0.24558392652234481 0.08236942195274465 0.3597502315775506 -0.0008054188130503654 1.7032553495428633 -0.8730265114157671 -0.5679792886375691 -0.7846747461540404 -0.4062953348999404 -0.34680440964275777 -0.5982934551349985 -0.8615320198870564 0.7558873532074105 -0.7968810948656705 -0.06027771767816571 -0.07464441411125988 -0.7047728028485618 -0.23167477631931693 -0.8858683724812786 -0.3564612848131569 -0.20030404378583302 0.4066667169425927 -0.6423848269019776 -0.14567794110871415 -0.7652592217471743 -0.7013798257647738 -0.6693905177082273 -0.6367678469253554 0.48037696492797993 -0.3298482080450266 0.3424206513330374
-1.0757508542788579 -2.035895062139849 -1.5416404359111728 -2.350186393016967 -2.104266644189378 -1.961704370821019 -1.2724311957634564 -1.4858632644831264 -1.6660691671349748 -2.079450586903446 -0.7331514146593766 -2.3599424057972165 -2.415951239954995 -1.4199808023186662 -1.9796307699740787 -1.545940213132541 -1.4215443154134573 -1.6409776269338356 -1.9876147626929253 -1.578858629580304 -1.7748858871782753 -2.2581095029099587 -1.7967081063265793 -1.7913160746928527 -1.0791277066759026 -1.7879341724122013 -1.3846549003118325 -1.695012512328139 -1.9704758184521232 -2.0890258520048532 -2.1731829456273104 -2.07861735055238 -3.0086093067395523 -1.2203926311584774 -1.4527933117968268 -1.6626441137597774 -1.6401390508923956 0.13453895516531655 -1.3206688834934484 -1.1861387126166987 -1.3839311573798838 -2.3818014403403813 -1.7724017564783376 -1.4163755560154796
-0.5563463135364275 0.2257272239459336 -0.15725287472708677 -1.2789141898962808 -0.7642467557238238 -1.0335234421984578 -0.46822163049872095 -1.3290575573009347 -0.4903434127385976 -0.06138593709222298 0.15640865046065672 -0.4711431050004085 -1.1026645234681371 0.2288547093705391 -0.3174766882999151 -0.0032560259719873795 0.2804060459622245 -1.2336539302881964 0.4108060138622291 -0.9869143038440976 0.4666856551125411 0.13609920863224398 -1.5681623510832186 -0.8212037719763394 -0.34835134373244303 -0.2791685177109934 -1.0166182564369937 -0.8181484185046958 -0.7651346445915059 -0.884825952684471 0.42229009177310267 -0.2119362249948792 -0.9756215441602859 -0.9470016026834628 0.03497192924621503 0.17187212000861615 -1.069693638420752 -0.35720112058926606 0.6365192303604761 0.22133572500540147 -1.019811942507922 -0.1060839847929218 -0.15183368321780133 0.07092310981124841
-1.1813580752383677 -0.6305401500591994 -0.44195477251827275 -1.2857736362771848 -1.256141680540783 -0.9162459052735438 -0.2768109675878067 -1.1622768456675656 -1.1379131700427016 0.15763353774967062 -0.7629513243543513 -1.4667218834300497 -1.6788055129654047 -0.5551762326151367 1.3399824965105822 -1.2881292542182494 -1.1395146697157783 -1.2494804499489853 -0.9492566033462139 -0.3006188724952027 -1.2754047203154835 -0.3473017045757388 -0.05644287753232238 -1.111595623642996 -1.1315283430270489 -1.1312480713845825 -1.6501637512020442 -0.8964022242228562 -0.33123627847475845 -0.6913537108671072 -1.167457201292594 -0.9450357470484373 -0.8973072299467408 0.04440814792958279 -0.24422278578599074 -1.2198653518462743 -1.1958025910464332 -0.9513989195400373 -1.1580818834372175 -0.5553889698312803 -0.947008033980482 -1.297549986825498 -0.7160903666677396 -0.9464984233101804
-0.6907055225375975 -0.8313863405184583 -0.02607936986481313 -0.2808095551592802 -0.351526480198268 -0.8941472911961944 0.1781956807728598 0.12333344590815308 -0.5168605104328587 0.12756856877893255 -0.06406192503307191 -0.36873596064861525 -0.2738671165948424 0.12061374360210948 -0.1922308121151398 -1.0140646453451883 -0.5409027155012808 -0.21783380015709583 -0.08029503245316696 -0.271637825720133 -0.8527140267964609 -0.9566488578268152 0.0988532916677743 0.49703362586422456 -0.6161093724052509 -0.09726858802751367 0.6147512897878662 -0.4613430348069823 -0.755311806499457 0.5239264854322263 -0.5147948580572337 -0.4015314809057893 -0.9065745443317225 0.01706255615790714 -1.3785692820381967 0.8406533639156554 -0.9355089644305824 -0.41582817681009626 -0.5700992795013711 -0.8629155787650009 -0.7600413459907988 -0.9107746457974493 -0.1294034388217632 0.026214895813801216
-0.8260762756506211 0.686966534623531 0.030177633305728035 0.7068952531709132 0.3333907121202323 0.5490087224649546 -0.5234123913317085 -0.4570907695414756 -1.01894783522551 0.6998329980444723 -0.05666876081802598 -0.6254759460935216 -0.9964263845992327 0.5500851351161257 -0.36815216139179213 -0.5489350781345107 -0.3750335833987521 0.6738808187753568 -0.19235357246776058 0.3750142049820183 0.6463423826719407 -0.7228502263127885 0.06966062294706891 -0.9944818784580473 -0.02204769498164855 -0.980566894125403 -0.24358636680785947 0.18911737631644127 0.05900183797321207 -0.024090709300216354 -0.3124183466047044 0.31428625034985047 -0.8316071929614519 -0.7281393427150633 -0.17651866852411627 0.24929824859933108 0.6252290406860032 0.6802458321917613 1.2439857567487156 -0.7831626857107796 -0.9959113162081777 0.4824444803066853 0.13542936732498065 0.41815906657760044
-0.9041540605416004 -0.3215499213385968 -0.967913505531569 -0.4609226071251709 -0.44338672868526946 -0.8417970568961526 0.2677112514225372 0.3806845066620396 0.2342707366623142 -1.4412575434751191 -1.10224069715629 -1.2867610888774574 -0.648435868326212 0.17789996477790646 -0.7970190828920951 -0.2796482906906043 -0.35577200619727734 -1.0421677497690958 -0.2590604952248974 -0.6071127736991057 -1.1817804010945496 0.5306255423816958 -0.32168088170842135 -1.3071822906628054 -0.5316987793385927 0.01754689697489389 -0.16818359747613162 0.5327521696291136 -0.574835637517602 0.03945577367266433 -0.3618384218070874 -0.27851051946198024 -0.05166626327574526 -0.9994752956921514 -0.04654587693319526 -0.47049850252476433 0.4589314698400937 -1.3184358786668955 -1.0736682715797206 -0.3345033738592155 -0.7651276459463758 -0.11301988208527922 0.49274608993805846 1.2303891263413478
-0.05267048062830904 -0.2611083254225515 -0.07840014223655493 0.45727206837327783 -0.5397523463357518 0.45607720210257235 -0.6773582641145652 0.7703744478452763 -1.0396085908309438 -0.18865913315261473 -0.5403471609552067 -0.4504534767904791 -0.7224011515311058 0.3217234631746448 0.2012826617332518 0.35217374592714396 -1.0770909518162175 0.22674072983577945 0.40647999680004276 -0.7999368803741242 -0.8565000854244756 -0.5652352335750568 -0.12591156238274437 -0.3831683252312103 -1.240163502277395 0.45213758896361395 0.5214129082083163 0.38275965979925314 -0.28615396228537227 -0.259053646152767 -0.10599939104644562 -0.5397866268146781 0.19322081174644076 0.17061892561452424 -0.6323960098462871 0.21602270930358225 -0.6965880890813674 0.4822369770525524 0.12196998042805465 -0.0794655676938024 -0.1946915332994552 1.7942310077791292 0.2755045338734541 0.16904551546822985
0.07055764399454394 -0.08239445387809174 -1.3564136509374882 -1.2229606182639723 -0.958545944923382 -1.3341435771599783 -1.1762107724926845 -0.2064812360902898 -1.418202874090959 -1.6172339243345137 -0.4727577979471861 -1.0654727104240231 -0.20725167710701892 -0.8498194888919346 1.261311069287782 -1.1411638910585686 -1.1909684367991753 -0.5743896251707924 -1.4572334663129254 -1.1995591734899171 -0.8171067286116339 -0.9051404794514617 -0.025671602548104383 0.4060415378986417 -0.9973129838345105 -0.8735874608923551 -0.00122900466040583 -0.2844978686510657 -0.9314154918085025 -0.6822589914372081 -0.7122491864683658 -0.708783092500054 -1.3347758856401992 -1.015283860981101 -1.5587792906387092 -1.8756958746383945 0.22557347997099453 -1.3377524951473014 -0.5215523680811307 -0.3921228439631305 -1.4510667143610168 -0.5386255869965544 -0.4448853892411264 -1.3510332117304171
-0.843219281175968 -1.5687526905997233 -1.5795022809640817 1.8692729741172287 -1.5976314828973626 -1.0195564206696088 -1.626981983068043 -2.004587783122876 -0.8464260498968739 -1.7582589537401512 -1.2423872898091675 -0.8127044835335546 -2.3206104995790278 -1.210752255756721 -0.8342327565744455 -0.9435469242608182 -0.9273652148020476 -0.3930038035445528 -1.6332053089377292 -1.2421264197212727 -0.6759584761163485 -1.5514787049352874 -1.130691137594656 -1.850577867061596 -0.40992591518106375 -1.7597536596532126 -0.41362658180346884 -1.822021702994205 -0.6591262468286829 -0.6289664276877461 -1.075326886402267 -1.3127588380039623 -1.3519557904504718 -1.0347508761808455 -0.0656148162125969 -0.8689769030271853 -0.47685744614054904 -1.0806265412384217 -0.5849559699535585 -0.30597034927173045 -1.3191794270413364 -1.0349632684250534 -0.43571962790180474 -0.9005026018436275
-1.0170173471729327 -0.1818499417492574 -0.7262317167383321 0.5041252371732 0.15728284274506632 -1.0271455942709837 -0.8698713869212196 -1.2652200229290973 -0.6455392746731078 -0.5207344681672055 -1.0535834510190967 0.05438442021097638 0.3868695668205375 -0.8070259054430535 0.38888683744076846 0.058964407428492696 0.19353751550139692 -0.09267297857313403 1.5102896694417425 0.1359926427909461 -0.16463391244450598 -0.31547970757386745 -0.8047809630426039 0.055006447777109675 0.5624069352523146 0.2408276010673978 -1.1191695953616299 -0.7359468898924524 -0.17437832907741915 -0.608071178847834 1.7428778802016953 0.17228103864558944 -1.0431432235544487 -0.9294612780482635 -0.9624328506858393 -0.6823098742516164 -0.5298899272853936 0.0030339729629664716 0.2247496372454875 -0.19347972062928814 -0.39512411598674224 0.06907672182864685 -1.065015118722799 -0.9979387551021132
-0.5512111525927312 -1.0960520479290887 -1.4241700623253264 -0.4264105655190795 -0.5125934581075503 -0.8587414951350191 -0.8285957306586252 0.33635577585182286 -0.4516555995063915 -0.6616569087644313 -0.2033857627270872 -1.095477683102689 -1.0788668074094254 -1.2192451495535759 -1.660914254604822 -1.2685314368650324 -0.7942080540850888 -0.1557583278933076 -0.5045769878623126 -0.7945083667961861 1.0401631993131444 0.014489649379096647 -1.3845223079878415 -1.7240949630133386 -0.9172006823427463 -0.8248454762295294 -0.3407325834563089 -0.2075034282738385 -0.6159526869413942 -0.10569543080571327 -1.015906263868819 -1.208289712419792 -0.10162233217751988 -0.3438971575176321 -0.9596307976766951 -1.2053566221331606 -0.823247200345895 -0.6017003574934142 -1.06677011002569 0.1698938786068421 -0.18969237964929075 -0.22438995028703065 -0.9438630885282668 -1.579859898518757
0.5121020388699499 -0.7020914192930297 0.9723637907187741 -0.9382880383237188 -0.43979017905676154 -0.31091312920234904 -0.02803320140117689 -0.9262057370674073 0.3498909228680032 0.1572745546122572 -1.073148770759128 -0.6060221875831032 -0.6065537155577949 -0.48266572448699363 0.5668094449056397 -1.0700624636577742 -0.3302959053621773 -0.16046961165853024 -0.2668198929170416 -0.07276649237473765 -0.2699879709722512 0.8142706067587848 1.6588010626620298 0.6974587471490391 -0.28744182702003274 0.07773370335299364 -0.7453757700505244 0.4794970569769931 0.19738212336346725 0.525398208031822 -0.12003726768739734 -0.8895105984129974 0.5627344126826367 -0.6262621780622631 -0.6834082259255808 -1.055553153803202 0.6820416746048116 -0.6585676347584685 0.5216016710825843 0.7483851103273662 0.8275243832959751 -0.5085811099052313 -0.7727811665997891 -0.9459843893242152
-1.4425785419828372 -0.6477348833689967 -1.2490890433199504 1.839404329285534 -1.0828939013251029 -0.8690226038958793 -1.4478840346347008 -0.5395503301165852 -0.6893415769400157 -1.6612728138257769 -1.477742229778075 -1.274699126467026 -0.7404561362811024 -0.9422899448799213 -1.3615892997736605 -0.9319627305964162 -1.331058118770075 -0.9595549940609555 -1.4842961735541735 -1.4952210246897482 -1.29251890971268 -0.39595142725965454 -1.3772813500482615 -2.6210635313199164 -1.2282890517008842 -1.3710741970012736 -1.3028034833787965 -0.7606313529051061 -1.0828235667095707 -1.1896773093165984 -0.5832550369370707 -0.370563143895192 -1.3077385566103272 -0.85940021953964 -1.5225541263132107 -1.7358578180468907 -1.176116039900737 -0.907913441767414 -1.5198302235007877 -2.1161627547529385 -1.296445040516002 -0.8869858844504969 -0.5206169515096576 -1.3204596112265674
0.10983494813153209 -0.19872362488230633 0.7466761133556747 0.6371594956932422 -0.0007192167728037388 1.2209832701471106 -0.4600584037486902 -0.9145176889398761 -0.7925947062233378 0.8391305964868949 -0.128408893893245 -0.4960652583850281 -0.15180547556858673 0.667527808899792 -0.7261129706263602 -0.8233991061113335 -0.9161394649797028 0.7596791522880944 -0.6369677212497151 -0.5703100184890166 0.4305218016294037 0.17214419252349547 -0.9792023876081838 0.6701824979060255 -0.8665138167123139 0.680780307498799 0.9592125618684851 0.7442941787885743 -0.8254762868853117 -0.9771210006229885 0.46615849393879577 0.7696215458031881 0.6013946231273898 0.7337296044033431 -0.2363975079976361 0.3398076247005158 -0.7294034563621842 -0.2574708576921888 -0.9251577560714119 -0.22993340939850015 0.8986467500101962 -0.41168820978604337 0.38342503478106094 0.6892259962182887
-0.3238746892715697 0.1704816883579753 -0.40746220839285513 -1.4259498984586558 0.033568958113616244 0.2902485611688398 -0.5294366305608574 0.22532104224958308 -0.7330196523174571 0.46539248410647 0.38687952337439785 -1.0531744765934896 -0.7622024432812929 0.3028025387826621 -0.7659141581560044 0.02445536022102952 0.3599397896616471 -0.9027162856453689 0.7010432043585196 -1.149235326576014 -0.3070352925199435 -1.3164719436219336 -0.9903602274077246 -1.3350805843746902 -0.9383765398878227 -1.3064799681103196 -0.46217344744897443 -0.9931055077589168 0.16360300823022522 -1.041142235986741 0.6676223287554696 -1.0127892549566404 0.4409034353125157 -0.5852417980568312 -0.07594980574735748 -0.4339221582017275 -1.2284484412648093 0.19704564803374977 -0.4084987937461491 -0.25458531859364775 -0.9620652849391168 -1.764616504857989 0.087584713727562 0.21503561659982942
1.8834443913549248 -0.8913871200314253 -1.3019950744067408 -0.23562547733543399 0.8340725705223853 -1.0263576073909713 -0.913807496101916 -1.2893224124454241 -1.2453789303198342 -0.9563219731598769 -1.1435074876145062 -1.3929602097321352 -0.4653813230498236 -0.2840609505387298 -0.6936823638839065 -1.1604859607498705 -0.8170939082253069 -0.43011138641160684 -0.12444057495796487 -0.5267130151032964 -1.4933383857848312 -0.5489000454690262 -1.0780019772328406 -0.7638113292917317 -1.3036624124064877 -1.2748852645543187 -0.20453038006650795 -0.12571822721471637 -0.37361056399006903 -0.4803728163915921 1.054261521828286 -1.1086621455253347 -0.952372556010532 -1.1984210357807759 0.33452544076228996 -0.6959039105169866 -1.2326364677135917 -1.5992335747754027 -0.7188012659197265 -0.9012991506431981 -0.7017444482567325 -0.750806820308584 -0.5100330788772952 -0.30704764934432005
0.788434297562857 -0.6040284227794854 -0.19642822246732952 -0.7469516766066278 -0.467550381359629 -0.7135837580432753 0.15678220054924505 -0.5127294887815 0.8550637173592408 -0.07340084892313382 -0.4881253017318606 0.6753834712634603 -0.7550629333824976 -0.5408177476514673 0.06902303746079815 0.49856513697870325 -0.3045047991785705 0.4247080493259315 0.3801282414479525 0.7399217686013231 -0.049293961359464775 -0.1833880805939018 -0.9664250282227744 0.07035847372136701 -0.5098683051415834 0.9257477184284787 -0.11970300036636833 -0.2753737928668434 0.1594071279083971 -0.11495626168296734 0.48602033462050587 0.15875044879058314 -0.06184673410840266 0.4948141663454243 -0.8229263864837066 0.6039122081793481 0.6809642943412246 0.6569155971023732 -0.5393105700394659 -0.637321516754842 -0.9868447397507554 -0.11682739958973058 -0.7605322032205833 -1.0155172162536754
-1.7841900808369926 -1.7143891746515814 -1.0396959697373562 -2.4461946871262903 -1.8099031706994186 -1.7314769910175443 -1.4783264939093734 -2.0464097670057346 -1.516707047921345 -0.9264552777994969 -1.4323536122840055 -1.095492510207501 -1.6664967595210294 -1.7710662889335431 -0.9611086689092287 -1.1127401046679855 -1.6110483697805082 -1.9225400105230275 -1.502490673986728 -1.6503198326363118 -1.379290232711967 -1.4737404286200373 -2.0053366876513565 -1.241181267984401 -1.911110312762648 -2.3312919536201893 -0.8983091933782447 -2.0906048878983383 -1.792764633269275 -2.206073133423297 -2.1952281696930394 -2.1686253658393375 -0.8900140503234262 1.74722992386657 -1.6563323531872594 -1.728649790123693 -2.3570848585393978 -2.35598073470349 -1.4161478225693938 -1.9380396557519635 -1.2684015504427184 -1.851028687408962 -1.356432391149951 -1.1235298076954234
-0.6605458764115295 -0.4509935775756381 0.4986197643039596 0.4852310405319395 -0.31424654204206587 0.40190148875310105 0.4204423567768353 -0.6587104786583743 -0.5439124287328216 -0.8636480186688229 0.4253072971395027 -0.5075882772751131 -0.048605866926173885 -1.1845526351476339 0.13951582233605866 -0.24435798915661378 -0.7772126371345853 -0.7861030994303797 -0.8109531993573084 -0.7881314193269546 -0.20389136219176987 0.08873985627651142 -0.9001576461543911 -0.903907002593246 -0.9916445982788411 -0.19650302820941712 0.4916794132648072 1.2334660246130715 0.2942741360469192 -0.5666368198474743 -0.4202577253812103 -0.8581717386912209 0.399446007659701 -0.45368975033456344 -1.2753490817658 -1.6998596859743091 -0.9999874982267531 0.10677034276632912 -0.18278620970792456 -0.8679505436286296 -0.4039404706489588 0.13133314210867514 -0.6014780520530957 0.3624890054616509
-1.7769664490020096 -1.7007071129469082 -1.8467987749290933 -0.3424846966569536 -1.2763987531325083 -1.0950719881226596 -0.7685023048632339 -1.0036869693727748 -1.368101849635839 -0.9846970515215953 -1.4701274064095893 -0.817923629574451 -1.5241087891401637 -1.5071959977155867 -0.7032445619651999 -0.9952560777338939 -1.047017302754538 -1.152781969149243 -0.9810423098248092 -1.305975412388923 -1.8159437808838452 -0.27179497532817587 -1.7709206629543521 -0.9086110163174116 -1.3812977479549358 -0.4518739385999945 -1.5730458277856931 -1.0569805419858465 -1.7339838838694221 -1.3018283597593505 -1.4841156278649066 -1.3051522373576872 1.5517788091056213 -1.2261113569439432 -1.759620403356613 -1.0388757830019233 -1.276704754089874 0.882088513274847 -1.7354006030644133 -1.5836878020605738 -1.3574369055612294 -1.0430164733208382 -0.7894803978025252 -1.3746283007820486
-1.777599196425234 -1.8186733843903349 -1.2315324025353755 -1.6192878081106588 -1.662081518619194 -1.5450036858064313 -2.332083620556879 -1.6608760639535427 -1.1406540668593377 -1.7511520215805985 -1.807013700740881 -0.4297751571322539 -1.4305059014727408 -2.410828754286336 0.123332182279116 -1.4577952369291045 -0.6152556128921223 -1.8147849865235903 -0.8430099409932893 -2.13601535034873 -0.3680497177842115 -2.083873119816916 -2.521102651256801 -2.156739230341115 -1.436803489745292 -1.430121752266264 -2.280378146348661 -2.4860629864505253 -2.527021181646073 -2.020750472032757 -1.8225130260726956 -1.872254238846197 -1.514991513167948 -1.6283056470236665 -1.925194024931508 -0.1887983989188991 -1.5696775893552377 -1.4090022546409378 -2.457904662112425 -2.304676057308026 -1.460568650984537 -2.3082191369416747 -1.6303993778671302 -1.9723670590537736
-0.36197364624062844 -0.8590494880202046 0.060857481728850256 0.07468758478282092 -0.16937007185221764 -0.11408954414187379 0.4628220509405429 0.12816325273556686 -0.8676740064524768 0.6164106499393179 0.7506359285422065 -0.8327221440264604 0.5717823380237428 0.43388539527272735 0.20750844598444484 -0.48367130442738016 -0.650414314867673 0.24064790750366485 -0.03387330856560555 1.1023599416498604 -0.7390856161132855 -0.3145551093263459 -0.004898746427503244 0.7300905430254085 -1.0151560831113107 0.28001415873063584 0.8566545768858679 0.9383837830785423 -0.9672358052748693 -0.9981957647257975 -0.2955352162601427 -0.8515882180087476 -0.43564424196458923 -1.0205182245247677 -0.9228485421630179 0.04208494681335663 0.8758718083307481 0.5428931278171726 0.3247667402431629 0.7835935581071529 -0.6526975594934106 -0.8161967944668013 0.6090241110875386 0.010834480412223471
0.02079745132489357 -0.27942054826092444 0.468131412119967 0.37691385258157967 -0.26634823864983836 1.6901698236576594 -0.0992331154470736 -1.0817270801311767 -0.2880991965373962 -0.5962287182864243 0.610647262734999 1.9150775149779533 -0.6075834816073712 -0.07177861342241555 -0.5916621585471505 -0.8220487916692214 -0.8378470980452781 -0.5844027055212174 0.5030634630245835 -1.0521891500506495 -0.022639636904027392 -0.021950441045930507 -0.039632473541852065 0.3150006100363291 -0.602302986063137 0.2018833097065496 -1.0123850679448048 -0.18719334175080157 -1.0996655073155392 -0.860981579524747 0.09940412082808313 -0.9058606709634361 -0.8566785578858893 -0.13508830831375276 2.7077153472492115 0.0908993636029937 -0.1920706932666305 0.5788114258514937 0.2160155768116735 -0.3730442723064402 -0.8147038188663677 0.05553420412418723 0.14157729654532272 -0.08404737150791773
-0.873391478364046 -0.35979529065950316 -0.49473557198938195 -1.2505840378225115 -0.6176182749709891 -0.8150257744178844 -1.5743621799782888 -1.4221176692664381 -1.065857454538364 -0.9439251672299039 -1.4953407236104093 -0.7545504849134421 0.06361997957544839 -1.1803778798705675 -1.2056688613672277 -1.3679782379717145 -1.4844423405127458 -1.2375525393804052 -0.9351931162766342 -1.0666822492642654 -0.3150637575860499 -1.3979404188344384 -0.3314766970024507 -1.531128585291403 -1.6852764178730433 -1.69269749883658 -1.0084580535306056 -1.1661954339729592 -0.20257004509703455 -0.639285012738066 -0.5084219795780631 -0.6089854079223206 -1.8718042705182507 -1.5122173199913442 -0.7310697922496155 -1.2098429294792064 -0.9923165386183 2.4561042435977942 -0.8640459998985508 -1.009888992677736 -1.2354263580608336 -0.4029777351239404 -1.4917438787631716 -0.9672089818457726
-0.06033037257388903 0.4220805467292458 -0.5719065330663743 0.12476189432573487 -0.4154552438510696 0.19469921267501483 0.24220723526588553 -0.22903530621823087 0.37234977347773646 0.5197884680627992 0.44376025700858546 -0.9804813888034536 -0.7983955634992148 0.02419857674787523 -0.14257486074811745 -0.5565485052540672 0.09416325862623197 -1.0021295305347955 -0.9165433214851693 -0.5510411415967864 0.4500205293574255 -0.41473063929975484 0.7508358143789259 -0.030656450466249503 0.48924192988508586 0.36575087085368646 0.271489045010181 -0.7596527785569457 0.25460113463705053 0.23460308765891738 2.0914902275433245 -0.2943405550371732 0.8802169925410219 -0.1915182292761655 -0.18157270704778208 -0.867722909973077 -0.16401648587850012 -0.3483665373629694 0.6588712818846041 0.7714065076671416 0.6164721819542551 -0.70156941961932 0.3885902292079741 0.6023743458949469
0.18162613623256665 -0.4487143234795494 -0.44250717644239185 -0.8535912995179812 0.22476142219693515 -0.31811102962798726 -0.23134713595208026 0.060258522153758994 0.6052126802707112 0.5911072967435294 -0.10785959716169785 0.6984646895340823 -0.030718395098855256 -0.025730111558301412 -0.5439655959266778 -0.6401665636856017 -0.9443446962120223 0.44543507538380606 0.039920103392467675 -0.029921453216151327 0.49429692962888305 0.16874096599544464 -0.3292782212570897 0.5994564476482646 0.744028997340579 0.7534528725666689 -0.9615877624748411 -0.003364527024846909 0.3285245294682301 0.48127677946332764 -0.9979719330207494 -0.14528902623367274 -0.789917580698983 -0.6178591266329538 -0.8596783342044026 -0.0049996213577031025 0.6169760495936928 -0.3330707031311936 0.5697176283977201 -0.555263683826139 -0.7453323393829412 -0.22076125790965992 -0.5427616053780115 -0.7345176397271729
-0.45745008517839814 -0.36203177076168774 -0.9311013545850769 -0.5731171500488738 -0.13394127740094017 -0.6810200321131232 -0.6327042244943858 -1.1078688850966583 -1.1650845777794963 0.2906574772247607 -0.36068578569890114 -0.9695736381894344 0.020689158177542587 -0.6859625280569576 -0.18853039563022522 0.15692959155500802 0.0029094248578960214 -0.9555181596601192 -0.6491012448534705 0.32394163318691876 -0.6308479672985943 -0.7899124102641938 -0.14671514934629667 0.650540477035193 -0.7861072678032668 -0.9431440062500611 -0.6535815062179183 -0.9661106702790768 0.481362253891736 -1.079241113760875 -1.0507070176242468 -1.289069058295711 -1.1425435127837222 -0.34829770989080006 -0.511939126322741 -1.0834430131285542 -0.5985448800600554 0.21605792402311644 0.4488023099947092 -0.23279221971093478 -0.936393212940011 -0.584276001489808 -1.064129417224537 0.3273327879486043
-0.020430018409036795 -0.38432111483905307 -0.9327547654355491 -0.9282750474913798 0.27275315526426774 -0.5423523839033983 0.22849794412429683 -0.29172218775949993 0.23173698462752648 0.13640548921698736 0.3193973711806326 -0.3238600850491832 0.7100757850851752 -0.4947211636467588 0.07593217860348252 0.5227808075937467 -0.9187778825348696 -0.5492748575021974 0.20761408621240077 0.1350710993018964 0.21043186273456524 -0.949162681038358 0.33636495949440787 -0.5501083765153715 -0.22995042617426437 -0.05524798207537791 -0.6315061543145895 0.34346037194592194 -0.6283108288863979 -0.17526246497198 0.37988357560786984 -0.7545545133141055 0.4762324331367416 0.7448774857254667 0.1112429522316638 0.6394580600610155 -0.5194199006680851 0.9943264808226115 -0.34639318337832203 2.3237105687890263 -0.6590950168133763 0.04537478358935711 -0.784092040230662 0.16577095771731173
-0.988313819516849 -0.25275587172218394 0.48903732183662313 0.17282841350770395 -0.3618240609747553 0.9578384033023564 0.9796776931171146 -0.21518642135604427 0.07757598438706878 -0.26814257726496527 -0.8871721230585304 -0.5271105704458988 -0.5852106958079365 -0.6714117842898617 -0.9270417452515728 -0.19852216202153855 0.8101668996106115 -1.0695893427739838 0.7565152839084157 -0.3011028832876513 -0.32850792649859684 0.6646514696084448 0.5557727692843241 0.5089519208846042 0.8577565897628137 0.6739556792237114 -0.24395292357273202 0.4661151518245468 0.4102591354990583 -0.005535199081975697 -0.5627001358232739 0.3645697442263914 -0.0785299301027766 0.027336681772041616 0.1849951940754347 -0.6319791993068652 0.6081708416537407 -0.7071399590792014 -0.38685679957383684 0.17309732323477456 -0.20272257313199585 -0.3518715136644336 -0.194028698425048 -0.27272146145575377
0.047438148883557046 -1.0943535060886476 -0.2806208496666911 -0.17440010155499003 -0.7800902755215554 -0.9172619754930188 -0.8388511568733656 -0.24216628997727294 -0.7626168041602067 0.20797631399272942 0.4988954080302303 -0.8887897548147103 -0.5838081841144463 -0.04597156412177455 -0.32412902275400707 -0.036153852784898334 -1.004673626185441 0.09377421237855108 -0.6417549975362051 -1.2107314088454286 -0.7668018984259518 3.248545544237091 -1.2119647139816692 1.466666981256572 -1.1505630513374494 0.008108021550142197 -0.2444284080216819 -0.07407378876485539 -1.066836573820245 -0.3326207212326514 1.0971998838404005 -0.7295226433959812 -0.5654933312020817 0.19705921006861374 -0.05612865405454992 -0.3668441804055787 0.328410782897327 0.06292896069495277 -0.31127322279857605 0.1521860240452451 1.1913591910317283 -0.21057367579573527 -0.44850658407889554 -0.1600375683556214
0.16626844959608514 -0.8984946903159043 -0.7333701023447258 -0.834677253424649 0.03305469173438083 0.3996315152820307 -0.30282512430586483 0.3402804273818233 0.09563821753617183 0.21995354052730806 0.43048848029720127 -0.8249799114036587 0.32084294527745355 -0.46034595763142744 0.5527732216740492 -0.9546724395192405 0.2391793404460735 -0.24699421766709487 -0.32246420394456443 0.21738191429444745 -0.13134641496320038 -0.28456001019977184 1.0026356278024617 -1.0957332477283728 -0.6137292710042881 0.5804177987154663 -0.5049845405838133 -0.9694283386739093 -0.07135415147358755 -0.3025600835301921 -0.8200404734965164 0.2688748298009253 -0.7124923668699258 0.4930417990278748 -0.6037624637600393 0.23893941196555105 -0.40938662582474544 -0.33381144684385256 -0.21001293450802225 -0.8812367000088421 -0.036278900687686653 0.44198506761347905 -0.44189443297265 -0.3542521734984059
-0.05080846615684647 -0.6683774941045494 0.22498816065829033 -1.204211470532818 0.24856089615863278 -0.6833867200739849 0.21005048344326363 -0.537651322763043 -0.14629493712980252 -1.211662642722318 -1.0856423937424462 -1.1314126303465248 -0.9616580983917122 -0.2331681147348069 -0.9423728594089783 -0.020747779941101014 -0.3926807561807523 -0.21520798440991865 0.371112670243767 -0.5709398362353791 -0.32110911086249455 0.22472852574182187 -0.7054185664832245 -0.9518660542208781 -0.907353355942835 -0.17973994529752454 0.10685455024506549 -1.006163592324979 -0.06814265573991884 -0.24681160985945524 1.1787028506276533 -0.3530803166656101 -0.5326645925425897 -1.1070458718312537 0.03301034456721571 -0.872052691097409 -1.0533046729207853 0.12578762263697324 -0.7244679555034627 -0.29738224550115727 0.037836507915182206 -0.1989235847144055 -0.6387538806982004 -0.6069207798342174
-0.6432650644574812 -0.12682333318124472 0.061411687276700794 -0.4714556825340693 -0.8621000308576413 0.4490668193052993 0.28639597361112706 -0.5855070424532238 0.8812390660436636 -0.14191302368588038 0.25758401299420575 0.30729612509724047 -0.8652714787651786 -1.03407384615525 0.7455113174436712 -0.905480283521308 -0.8112493495125115 -0.10381361028703619 0.06788769447453404 0.3764488038118652 0.5047757023202885 -0.6045249664982562 0.3158509669485256 0.16224079254249363 -0.6599033057825083 0.014867972785653796 -0.4509829967918923 0.6086910782227734 -0.20524071526355767 -0.8659227813283982 -0.4867706724805937 0.054972593601930755 -0.5848725035489104 -0.09022612323973302 0.1384534459479707 -0.2697934501288863 -0.525764070577305 -0.40569529791625963 -1.0591573208096017 -0.45416558640472166 -1.0354030646931836 2.9139064899625335 0.5348209955251678 0.20347205764823134
-1.583399042744332 0.2968516911583043 -0.8887799438680882 -0.3944332321336337 -0.7807167915608393 -0.6477797734679909 -0.8386949058769168 -0.824835342562694 -0.28163114053827315 -0.08849456371574053 -1.263654155787446 -0.953172066753525 -0.20695191023163126 -0.6467366864457106 -1.220056207203253 0.6234760384301575 -0.8575442330246266 -0.2983778147156102 -0.9133179775575959 -1.1114740212671186 -0.8441218111520977 -1.353131519432683 -0.2893864210921805 -0.11035723364679403 -0.4029858159574672 -1.0048209849213574 -0.7900852603055138 0.16931217072777688 -1.436062530376826 -0.42965029803015875 -0.7549611299483026 -0.5228797127331807 -1.2556925279364817 -1.0185310443604945 0.6115394107587832 -0.8839133495782672 -1.357695798929065 0.18265136694566805 -0.292158729789825 -0.29373410313445686 -0.03978404429945074 -0.40248192964179436 0.32388526214455876 -0.6246166731017145
-0.5698670212267744 -0.040899658752233295 -0.16403613815841217 -0.916420031279025 -0.12467213006812587 -0.20106879681389223 -0.26586435899339245 0.5178843694920464 0.019761592288018194 0.8322999210619187 0.7153205593096579 0.6217321500986334 0.738200268041436 -0.8471889748854871 -0.8335306856240228 0.6860318030094643 0.7947369572477491 0.8061775942715381 -0.5359111608623217 0.4090503302989548 -0.7925205782106436 0.5124225949515683 0.6345186793384058 -0.8262024961064568 -0.9169209500012715 0.05224283248211846 -0.7484126019990889 0.02290523291796596 0.22638110247181767 0.499757428462937 0.8111477634509049 0.15159133204992623 -0.5025877459994618 0.3079980854027926 -0.6412544638323104 -0.23160954077959695 0.7824915161790327 0.4527153008566978 0.6331866214492626 0.7915453352739645 -0.46664798705102883 -0.11403454747685084 0.651237486664943 -0.3054000486042502
0.060328806360865864 -0.7081934917298864 -0.14504272592970288 -0.35646421254032296 0.4268583864149529 -0.038597126087114055 0.05232070999260006 0.26571108849544195 -0.21997215820634206 0.872760720246077 0.6657681394968511 0.08024862422128605 -0.9679209228407658 0.474339160108176 0.9738983994170322 -0.4052486221024112 -0.5256073368122961 0.7075463406748929 0.5925110905171667 -0.9484201425908941 -0.13824425485300115 -0.2594880666405438 0.6807001531393423 0.49896996240458596 -0.36654146871868476 -0.6181009798203958 0.36402183309655006 -0.7717140274551553 -0.37723373176213787 -0.1195484237531241 0.6758891809795478 -0.6931331939580976 0.7079317444846683 0.17717335756668365 -0.3431907490709989 -0.9219135044134973 0.04078520424776109 0.7456465215766129 -0.048011667118463025 -0.3823080915715256 0.2040060650130345 0.15461430810084986 0.05091916441557611 -0.5525637209665178
-0.42258278031247465 -0.592332966325435 -0.566228331149334 0.4557263799457405 -0.36441266828489555 -0.06749944336068767 -0.17493306193303843 -0.27212696896942656 0.6526319130638517 0.2594950284682893 -1.048601525316923 -0.08259657966077745 0.5075464717268506 -0.24307421419562625 0.34608516495404335 -0.3763312861282681 -0.4921878543967126 -0.12626890164687546 -0.12001010867432986 -0.7642813506341273 -0.7858733296889769 0.6838971974938001 0.7212764931357964 0.3138724985255289 0.7274047979431246 -1.0026393013379062 0.3143570277724703 0.2038192540851999 0.5973299989983877 -0.3409005094038272 0.6232732395671163 0.3660287693121309 -0.23724231767624546 -0.7700625797238055 -0.011421944090375558 2.4293902406143433 0.22527766958029058 -0.45987078643016704 -0.10179416808114547 0.47660196250820014 0.7908266426751286 -0.8786928888322201 -0.12494635724262321 -0.3360518930451113
-0.8975796702493716 -0.04507969688824443 0.139873852745034 -0.8599153917420878 -0.7867686541995002 -0.08887207412087955 -0.9951767633646547 -0.8755933684315336 -0.2591915720131364 0.07437165872766838 0.002783583676362187 -0.64237664601054 -0.39055120166093577 0.2996388886722444 -0.3150186672683687 -0.797866118991099 0.49895158712729776 0.6046875404407648 -0.9605248390669182 -0.07640273729718895 -0.7165666542904106 -1.2817903913135753 -1.0496683332539425 0.21963421221714036 -1.0840396129810934 -1.0182277330148057 0.2936655584775025 -0.7086653664525598 -1.031125255839459 0.38735486861170515 -0.8304064985484898 -1.3322516998903864 0.16953302144052357 -1.0302939810361402 -0.20209711224972055 0.02537410541192032 -1.023758407241221 -0.4909128675289373 -0.6972344105608848 -0.05589616997253576 0.9177113643437829 -0.15449736270154762 0.5417729757315963 1.549251738793913
-0.35376906074805753 -1.0300817177805155 -0.6028251380565309 -1.1266602781254231 -0.7433752126311334 -0.08043330152945845 -1.2511978909104347 0.14749587310312273 -0.3429091150950941 -1.3887533721422587 -0.17594588710853185 -1.1352806832634899 -0.11539593570043559 -1.3817250047131149 0.14827103563215374 -0.7435649455159673 0.6305100081492162 -1.8316104032022447 -1.0437778801046278 -1.0234309730825206 -0.7404770409541329 -0.19797559684777033 -0.24854288563415897 0.14619955877413637 0.5013649630942024 0.5157234824032586 -0.922121788182134 -1.177340502302558 -1.2161317444651174 -0.42365700195436246 -0.15602518714469527 -0.019931633074394304 -0.9061573207556191 -0.32188452694073627 -0.4317673415327965 -0.7392798203077334 -0.26051077243914517 -1.5207372336495226 -0.9826858319916321 -0.739301257990832 -1.013209106231255 -1.2055033795714667 -0.39436239830464875 -0.4488406243781651
0.27608847994983365 -0.1365256721662231 -0.7212584614873032 0.4147435481343908 -0.47676576998390907 0.08591610142104641 0.6950494817937419 -1.1835525511188743 -0.08774599343408428 0.2124577900567037 0.6450802881557939 -0.011208947878618106 -0.6170481823647875 -0.8603013622938661 0.9203568234093821 -0.7530423719537997 0.580977004935477 -0.7202452358666085 -0.9444162829685272 0.47151266869318237 0.14367799779300902 0.267903266276527 -0.8265599438424085 -0.3993666461582648 -0.6440510630370965 0.27285226922113087 -0.9693349015364859 -0.673553907788597 -0.8288592657315549 0.031488516822398054 -0.8872087872087736 -0.6849663342087434 0.30625430366869355 -0.8940285378142395 0.19267799541300826 -0.9320513028901483 0.8343713744425161 0.3461655634118098 0.6764684914496146 -0.36933846771196166 0.27141924652794397 0.028364094853121684 -0.08656087733325973 -0.4913490034907567
-0.2916773891740708 -0.9915808715841846 0.5540304206515801 0.08560091951215902 0.000874467149580431 -0.1534522336699523 -0.4630867719692874 -0.006794574610123551 -0.023615305782396942 -0.6741859527300567 -0.6268822137762496 -1.1745243081676844 -0.6577494240514239 -0.4970860911036053 0.1389186019685421 -0.4985072359202017 0.3373675779801605 -1.6917667354838903 -0.03965062405576698 -0.8781095710590867 0.09363500477572717 -1.4252391567480414 0.14675355110147564 3.1548376689095026 -0.21445273792576783 -0.29985900718569547 -0.731013475593899 -0.902714896012419 -0.7589307342753184 -0.715857796392251 -0.6729077832440888 -0.2531318177082322 2.0979550954061996 -0.3262356456531933 -0.039038157459071805 -0.585732608277023 -0.9713052025199603 -0.5500576190852767 -0.6145315935979172 -0.9963912719037306 -1.1568944006581678 -0.7638812957472702 0.922165255099607 0.10672278689134641
-0.20887802489499996 0.8687137111138956 -0.29121435536978574 -0.31644017610173203 -0.2617967296654591 -0.23767849043762324 -0.16487653499485924 -0.6128162649236483 0.8866377806480208 0.7390890242781147 0.6179450786174693 -0.2760831633089343 -0.006702421781780573 -0.7298744552962216 0.006100183459720703 -0.4420882354375577 0.3978190530850079 0.3254795674061636 -0.5004580224569668 0.14836408730869854 -0.8841736695341118 -0.5729424704960973 0.4897682798729607 -0.4371793107064508 0.4075386469222854 0.9128381339802427 -0.15422648401613767 0.8623673490642012 0.2015003688535174 -0.15802537334517325 -0.29647163810039834 0.6699594354697133 0.13953618361581208 -0.3424961471797015 0.5019945364233498 0.5139702545496947 -0.8436019943458208 -0.45049189687276203 -0.31058541860635974 0.16302376033193394 2.3219292275094516 -0.5002416979993312 -0.8519438702861584 -0.39547078350607323
0.6109478496142507 0.42727830034520164 -0.5755329735341435 -0.14439388852916699 -0.8932602023090004 0.7884246810735042 0.3302047213214569 -0.7061668716092759 -0.16904441745964294 0.05212721146390872 -0.9267383163644274 -0.8538109601113456 -0.21400076370149304 -0.8259179194611814 -0.07073264754548203 -0.003204518161653368 -0.22551205962655693 0.2103068251048914 0.7068676718658461 -0.5922202020793813 0.6325393778186944 -0.2527372276827417 2.2031653807367677 -0.17851287845007024 -0.8749530921144059 0.05663271028972266 0.6653760815974459 -0.9217437596488259 -0.09335394852250868 0.5782132951362822 -0.11522293810444875 -0.41423898233572987 0.5550894923100044 0.8273701774030707 0.5315678260085074 0.6690600686232242 -0.9588438475203876 -0.81800894486002 -0.7957560204567914 -0.7790361489855602 -0.65821586119168 -0.35395881412323993 -0.4144854265533251 -0.13735724323910192
0.33650678306502557 -0.30600990615596835 -1.024427391787784 0.6196611780180264 -0.7014830268543346 -0.9523130548030003 -0.809195676182289 0.11591221680749293 0.46814305616080243 -0.18824383926277946 -0.6711855383956636 -0.6741310663944334 0.5271431263587263 -0.530788185895308 -0.2963602301643353 0.7307380620877311 -0.6130603597349966 -0.9749715589669095 -0.7501398643481292 -0.7481578465722518 -0.08606442636390871 -1.1421755048666635 0.6032408784900716 -0.648040111397312 -0.3164710616555771 -0.8375043589081457 0.0508374229595675 -0.6100216374465104 0.10304672285493335 -0.27795556278291916 -0.5671441122778123 -0.32132716123053817 -1.0393796902121337 0.7659360368898936 -0.7225794670008456 -0.10420838468877315 1.189772557536401 -0.7773528305574682 0.713926868734674 -0.9928128099438789 -0.8280764607800427 -0.27274605152257203 -0.18976087575283035 0.30971816325997514
-0.8428315447467144 0.1741565155880906 2.2337321888075503 0.43371021531002135 0.28173976181051114 0.055089547899527316 -1.0171874915848924 -0.8002742024488135 -1.068730928734626 0.5613280227204354 -1.0221985085516685 -0.26145024852927967 -0.9536769931871453 -0.2783482081404639 -0.677847605516847 0.48041775103438594 -0.20122432096494702 -0.30285523800471015 0.14322096942608642 -0.042535270130112234 0.5811274982854636 0.1958753244108893 0.5305660621733378 -1.0749710306093447 0.16055871351063328 0.04736733380990733 0.6510226384399447 0.1177738376411103 -0.7204187864224413 0.7451603466400073 -0.7952435918953843 -0.02525387789351669 -1.1875434607918338 0.75999940755188 0.14109933115605833 -0.18897940728208262 -0.1755921882536354 -0.48302436052154807 0.4450467972871598 -0.26608581352862465 -1.0947472591996807 0.817751869747058 -0.41358505180823946 -0.5150039761744795
-0.8206367576527651 -0.7378500933140475 -1.452678897110611 -0.9186217579122731 -1.8575044595635268 -1.793152013277938 -1.5688739799666995 -1.4209627553144946 -1.8048955108476672 -1.4343451803467775 -1.2655615829409126 -0.6008063603737028 -1.2173531833426232 -1.9310028501055079 -0.5969139284509392 -1.469123544651383 -1.4808161167716383 -0.950615271361434 -1.0889592063956728 -1.6076227097620128 -0.593746225068707 -1.8447024773893457 -0.4143148948902405 -0.9449510073744941 -0.40652921733433833 -1.581011288411453 -1.3158618246806242 -1.3884322401965783 -0.591283680031201 1.726921530363449 -1.711462150206856 -1.5635302055832379 -1.0481663450378336 -1.7253487901565887 -1.145592853186979 -1.5745484531103415 -1.976933801169558 -1.2181978725061429 -0.9201676793835866 -0.47582082254158353 -1.5660639794794682 -1.181312596782959 -0.6895150759335782 -1.0127441070689203
-0.5760374295040562 -0.15175059474501865 -0.2825849494577165 -0.6283139670675082 0.21636370123132953 0.3205996410155898 0.29843330484749186 0.48598673781830276 -0.31257164261214193 0.04773912080122624 -0.4683724003793701 0.6034594734027845 -0.6512312413821922 0.08865865417353636 -0.9850608141206892 -0.016376460400113965 0.23285726710914836 0.6410654629387572 -0.8948702639461547 0.8285784530352727 0.2777533606704149 -0.048745244772055586 0.07745513539117287 -0.9260748820051499 0.2980919364500475 0.20535273847623117 -0.9224549751725988 -0.8517986286859476 0.1519924090516551 0.3911238127143996 -0.42139215275014885 -0.3369463460739277 -0.6000482056491435 -0.20008389475384653 0.17735138203156728 0.6803515380386495 -0.3668556381218943 -0.13611575521896246 0.06717501664501616 -0.8033509098926801 -0.8290005436690032 -0.7302055249324748 0.35585362582114605 0.45453047223970533
0.1649728469886306 -0.2809471522753739 -0.35607549289466556 -0.5362902889523343 0.30641561262001593 0.18054234122172752 0.2690299619295365 -0.7612059262861086 0.7759515388833583 0.6338266030087413 0.31852098245745103 0.339843869093146 0.1532171012016824 -0.4036807435119847 -0.10535832610358917 0.663045668908296 0.6349114860190489 -0.6879568859985459 -0.11367699823646339 -0.33730853835585367 -0.9582454277071569 -0.6921511068312411 0.6244244065124213 0.3207502053999064 0.6663593261190776 -0.8734285518489556 0.6201304301734856 0.7455271426926634 0.6082928656549502 0.3864030047278539 -0.7817535999128321 -0.79776766081515 0.08890303917180634 -0.2226350713681505 -0.2506524961908568 0.4991051366151943 0.36309831029175826 0.4799997760788225 -0.7066751817175906 -0.910661955063782 -0.985428751350057 0.23442006087417083 0.7492119300028229 -0.2739886587124029
-0.3500643722773892 0.0677300008883208 0.5295064824630339 0.5759326485583682 -0.057551534531526616 0.04410661142174217 -0.6833471808814516 0.5092833843905641 -0.4050364979133032 -0.7836383334885128 -0.2050010061719489 -0.20705881583803004 0.7079943891104581 -0.16903108376731377 0.15816476591842962 -0.6207157297717367 0.6258249452659179 0.47354568444591677 0.7848179455346879 -0.23529277783041228 -0.713800271691026 -0.5347729043344127 0.5287302605521149 0.43880495573775063 -0.4029973086943191 1.3107374630133046 -0.7059332761909174 -0.34894553901430303 0.6350889413771965 0.02774933885461289 0.39057322299791764 0.508499507788898 0.37026876257054864 -0.1593820651603668 -0.5841203861189959 0.5495032385519648 -0.4996521678512037 -0.06960366534727885 -0.9931872610028588 0.10099624544420982 -0.9801733187231725 -0.7894505742965395 0.21710391363289935 0.7167884747422012
-1.0727339003828729 -2.205559373196586 -0.7376824284620158 -1.0799912286872817 -1.9124749510863779 -0.6467175304867063 -0.26950618890759054 -0.8658317078646848 -0.9847892492024388 -2.179377047940951 -0.9905806624428946 -1.7834608077674348 -1.0985294926967681 -0.1401499696883547 -1.069584269000596 -0.9751442875668995 -0.8113136387631699 -1.3659399274885222 -1.0894159298326742 -1.013083571823358 -1.3956971136306333 -0.5458744932598483 -1.2594295926367938 -1.0947488977456723 -2.0136774515203224 -1.0099556681633155 -1.1839558334467348 -1.2598299858687954 -1.3173798907585412 0.9961438414469859 -2.1541027890391278 0.041981347960156165 -1.161700538588637 -0.6599739684470937 -0.6970735474622727 -0.8560448156487717 -0.5707701050155158 -0.793200301963075 -0.3963995233290035 -1.1589282018721612 -0.5038825157802133 -1.2682267057678351 -1.4392915271343805 -0.6535707306195216
-1.0679334850479956 -1.2593036814838996 -1.0907229946936856 -1.5348721305470947 -1.3577909803513728 -1.4888841905736119 -1.2405131041775264 -0.302303602749519 -1.7245673196427809 -0.4888127764151386 -2.025310221636829 -1.4033347774624727 -1.575464648175817 -0.3005550895057329 -1.2869074946660102 0.06399070563471755 -0.33655982250940475 -0.13239405962578674 -0.8800460713972067 -1.2208293261738357 -0.911186681601427 -0.6248056703603415 -0.5011501186714611 -0.9656325305146406 -1.5991036070931752 -2.04665491868715 -1.4601301444019714 -1.5513444162544106 -0.7101308332303469 -1.814777851671063 -0.9348115418214744 -1.756229051043888 -0.8315150453628353 -0.13586615922484782 -0.8789764909782674 -1.5041597875965427 -0.36247498672793327 -0.5858357352809682 -1.4618585886127367 -1.2080214998302738 -1.0884131999248845 -0.8017464957139476 -0.8078002575756593 -0.8444374162284396
-1.0372954969283525 -1.3292164981265853 0.8171458577418309 -0.9759875092492711 -0.558301475930996 -1.1969092407059296 -0.4374547751831336 -1.2336125153841166 -0.3415200045146137 0.46654497800554534 -0.07452295607731074 -0.20993170990586227 -1.0750805510980814 -0.8808213810805946 0.00651079788781323 -0.4221495887608934 -1.424329161650084 0.6790040285885833 -0.805277583698915 -0.5559421033648447 -0.5391519734226602 -0.9686491617534015 -1.1564878826461005 -1.8396804388382952 -1.8978629591001348 0.17454936742935787 -0.4778393090922129 -0.7483503653760967 -1.980773017008946 0.10150933602108851 -1.075398559114746 -1.3712156020801838 1.6384539743736124 0.2466769462972961 -0.6521705288517211 -0.7651189271719202 -1.3589269786042857 -0.9562505655160753 -0.9055731714446368 0.1475914151865612 0.029620742277226345 -1.652166383489303 -0.44985894658555325 0.05877154984230356
0.4738070030948691 0.2566180978434979 -0.8213392016545688 0.7561094433664579 -0.023552593159110055 -1.135969993521266 -0.2966262791758632 -0.14820033023751175 0.22959821638188035 -0.653035386358973 -0.4786161969139644 -0.7331080419947916 -0.4548171097941972 0.09603822162162186 0.15906522990834288 -0.4320490240195878 -0.2012364337643006 0.39934058046195214 -0.8339485826592752 0.326131880442533 0.7198958279415515 -0.5980987155776201 -0.2803228909290447 0.6507476065855808 -0.06955369773885715 -0.8912658662839046 -0.8859426157322604 -0.12258103781183548 0.2477197583842331 0.7587514573564682 -1.0189955657303535 0.8745852882250461 0.3685905175552368 0.46394167137193587 0.848317180162538 -0.6564552771134743 0.5368838498900651 -0.8378761834440779 0.8279060090988728 0.5895035797427619 -0.841082272017698 0.1595163194764139 0.00018429123538044276 -0.08908972449651273
-1.5095560811125872 -1.8697684351215156 -2.0440714600152083 -1.7097097687294904 -0.8574110879123342 -1.5552830102109518 -1.2489343531656554 -0.9958345502088809 -1.6895749891073064 -1.111499786157591 -0.900675498405604 -2.625668948120392 -1.0646096286021252 -1.69839540290702 -1.171009660254669 -1.8944070971935394 -1.0879932969126476 -1.875090754332597 -1.5792089715106545 -1.4968163943723747 -1.822123446033419 -3.433774357789272 -1.2723006390501852 -2.418699119488435 -1.0067287117666046 -2.686470940509212 -0.9739146503325745 -1.5647530273768258 -0.8778127019563846 -1.4173209203537929 -1.4925021072378892 -0.8771008217727992 -1.3938893403097083 -1.8348328496023047 -1.680566781584104 -0.7692203893673457 -0.4468704360986968 -1.6819822625657157 -2.4845734331352536 -1.7079942212717376 -0.7301779002499146 -1.4328315559715163 -0.9734972954141246 -2.02970278115889
0.056292477067251205 0.699024617888619 0.9301074498246272 -1.0123298257523259 0.7906045290290569 -0.1964764308743783 -0.47259921675268785 0.3833769799445459 -0.08574634879845891 0.80651107548493 -0.26063311221958463 0.5744632001373456 0.0701803987085612 -0.253682580681807 0.11174799558577762 0.7172037223309771 0.09692770160939962 0.5429457924394446 0.6514285688435746 0.9038716871576763 0.7365582358433769 0.7256519415215867 0.016888802035473136 0.3729096108332797 -0.36461269536685237 0.3717582412814636 -0.3540584746571952 0.3761707066021757 -0.8510409155666208 0.01704434450443476 0.8501890867925448 -0.7846437889155572 0.986754723874706 0.3253040532318824 -0.7113568050735091 -0.7047785978337368 -0.7127050866597707 -0.8394357378869844 0.09272185825093779 0.6970332923731439 -0.6346242102335702 -0.7650589820944383 0.18302982161387157 0.7629491873957044
-0.1418449256726173 -0.6705718454612047 -0.020267445503640746 -0.6858496347979955 -0.48594505649541064 -0.21686021154068416 -0.11901019534709903 -0.404939222860675 -0.7391073723389714 -0.3552554441356278 -0.1847873696930426 -0.6618873290002671 -0.6936610893752669 -1.4157337094075133 -0.7209295632153317 2.3012799249613702 -0.19784544160446382 -0.503449208312283 -0.2542298313992423 -0.591014928754338 -0.37417268307412477 -1.107867297150054 0.03954202358122252 -1.1657417204307752 -1.613059475845002 -0.6262645325528272 -0.7799455845704858 -1.1852538664383707 -0.043092176177470944 -0.5037862127466796 -0.7138122067819501 -0.38813466357772364 -0.5174830740474408 -0.9838242413119143 -3.259499636146904 -0.35267936307865094 -0.3040520308442142 -0.8907949544995288 -1.3126130473434114 -1.3348657546375184 -1.0953747126080364 -0.6267652364056732 -1.232322460082358 -0.5683878565684815
0.06381479264894845 -0.6575095871483997 -0.9841296834178381 -0.24286184362711072 0.14502917465071316 0.910996389521131 0.3839100782858925 -0.7088804628046659 -0.5442322377816173 0.3706650911167284 -0.6712730006430613 -0.489736319062343 -0.3423969005724902 -0.09204256842658513 0.11459588548774614 0.11993985650536516 0.8966625165025723 0.2987776940150792 0.4465120914778419 0.6422823734221299 0.08234043839868503 0.34449216760307866 0.5090182204008279 0.7922513453409817 0.8583201351800993 -0.3233025825235136 0.780157252260656 0.9893824742685816 0.7521575315065819 -0.7891242815110198 0.2625190612190918 -0.5309232701073339 0.44155444014025336 0.2603438952736933 -0.22417374071994906 -0.5879567707281826 -0.26752061263544225 -0.6986734363681817 -0.6312361072513069 -0.42757151938117965 0.3675267073534048 0.6203806221584475 0.2943756023877998 0.054909015379252746
0.36769154282015803 0.6111966518630101 -0.8237490643614047 -0.6198624536103755 -0.5487925477598619 0.0434955990577862 -0.4098628975085675 -0.37780813852406603 0.7183881836527966 -0.6967953496108387 -1.1049361483731712 -0.4432418496246004 -0.9907369646467163 -0.7444864425947214 0.5174303059148465 0.16090342163942378 -0.5860680500331494 0.4413668473606584 -0.9542938664086626 -0.5817797437385093 0.818471149847308 0.3077856858198969 0.2935606307720971 -0.7138316690074062 0.5523727323359368 -0.029624500515381118 0.1478279634965835 0.04075483364862385 -0.4982795684077331 -0.6711186274826301 0.4677331394443333 -0.8184843213442125 -0.2623965949730093 -0.886004534172084 0.6948246224111048 0.5716501232881599 1.2146576028868827 0.21872197679229638 -0.8067757741343446 -0.9831669935270841 0.5280038353533923 -0.781604198464205 0.03244920476918467 -0.8052787459153227
0.900381108179602 -0.13704226487113608 -0.4224493698142682 0.30281483506438633 0.2499700041714363 0.2796239542787004 0.16159922585008898 -0.09653190828554405 -0.8474636322473861 0.7080367452309788 -0.9804592256316745 0.9459982106665779 0.24027418801150283 0.5209412088480804 -0.9038823879835487 0.7361536329209889 0.9431374508856826 0.32923225689201974 0.08643722020368515 0.5329683990914842 -0.8029066893877062 -0.20907809685267545 0.8856863461143734 0.19472453617370417 0.6590484041643424 0.7578958177910959 -0.11960126293831548 0.2794311804919366 -0.9548339271498765 0.526294287582818 -0.25312010485919945 0.006069285891844473 -0.5233799036934464 -0.6486540638632412 0.6152989750063989 -0.08406585964996036 0.715397709055865 0.16854604329827202 -0.7748865201245019 -0.8704535595898536 3.6849758901716267 -0.7828265488060052 0.6449360904077628 -0.4657543408236874
-0.2897148719790033 -1.4211903095208005 0.14668895802858112 0.14213885772194765 -0.7210299162891967 -0.4243571667632667 0.12551009825896145 -1.1813257994446893 0.194444188317847 -0.6969910628052465 2.066468338623932 -0.06216981061991752 0.6094580847398385 -0.8682206966430643 0.44431097488306487 -0.8566239334935605 0.2744472611550049 -0.2249192121823857 -0.0307750116633656 -0.666652928414336 -0.26239897148563107 -0.13500324675438427 -1.1783684495588764 -0.4721236670183295 -0.24219189286560613 -0.8135100381296079 0.5530643921422134 -0.26240272415990074 -0.07857836540221226 -0.1304344461009902 -0.36533059430618536 -0.8200806599258693 -0.1284698832683089 -0.5010562924410402 -0.5517588560278273 -1.0654637539876428 0.016050706234862634 -0.5788164188369632 -1.2512758023728558 -0.26262196306480806 -0.36512517271360584 -0.6157959849838541 -0.8971229483311776 -1.2281525816086183
0.5422720192889812 -0.6160219255932625 -0.10672448133521821 0.26080529282092113 -0.6077040414121261 0.8530443712345954 0.7114856779460609 0.354038761866399 0.40720130431351387 -0.9754437362184607 -0.6008206562064066 0.6586195689888373 0.37495331361018974 -0.9185719366726615 -0.021667074371835734 0.22926201696162413 0.13966252463728576 0.4494607465902593 0.19393656382288924 -0.43732242336241695 -1.1000089867506653 -0.9306994538206378 -0.20082709503564608 -0.1448498369417851 -0.8419636589704975 -0.776831929240291 0.8927139138990782 0.8849838024494713 0.7150671600513158 0.05094590598709399 -0.8804068506979081 0.5979753915924648 -0.27179342119636996 0.7877725988439698 -0.04427804318695674 -0.48708488508290587 -0.10366226388854348 0.11788875611239473 -0.9313501164870059 -0.05732277628860605 0.11327209104290109 0.1812484043331714 0.4677080735931124 -0.17416915805301317
-0.1395153323712611 0.238661967585466 -0.7411248261290011 0.5185234515287984 0.7044691835273216 0.031144343078808073 0.6544605808896398 0.28276528545696006 -0.3982487665948911 -0.050089682752158526 -0.568807934613199 0.7644281183292205 0.5695192042525666 -0.18120752305311608 -0.3986474248465665 -0.06798056679516047 -0.03712319800806891 0.2929595440964886 0.7790435645692593 -0.9437267548857012 -0.17146447760203418 0.9893811958441276 -0.8837503792206568 0.025160831554375547 -0.7888696433873952 0.7751453067827456 -0.6116007295470814 -0.7629717037783781 -0.7327187176702783 -0.26257929514269135 0.5926839041243701 0.08065105290228264 -0.4963267463516082 0.3136758811187105 0.31651925607571507 0.10765497336091388 0.7939432487854049 -0.564385776715442 -0.10847987940982043 0.7813466819128334 -0.7309329839238575 -0.29475045736924366 -0.4288614240238983 0.7015201920428579
-0.895042445639055 0.25018858375806535 -0.17516998332205197 0.411439075603844 -0.48279506264708105 -0.37349245190943736 -0.3503092662615672 0.402746083791728 -0.8983586821586452 1.7909034452396533 0.030363470486931343 -0.34554694664169544 -0.38370476247210233 0.13327338101757238 0.473791533404431 -0.5151164148305807 0.791562518587012 -0.2823148994500894 -0.7090170598611634 -0.16410006430512103 -0.4013622520391035 -0.7123870189301328 -0.6839906992281272 0.4393542517250656 -0.0115450071791542 0.053141691332714944 -0.04767430789013288 -0.46624153918862743 0.7181804338792356 0.32586696662141273 0.6398034777124065 0.15980385212550338 -0.6471129056687216 -0.23041716663974604 -0.8153202957363502 0.9385995051625099 0.5880133291212133 0.16177425132849058 -0.7461488654774467 -0.22166162472235748 -0.3411276660932391 0.45240535318501257 -0.8520663310183564 0.4680260843187304
-2.0790453129255884 -1.79086636646275 -1.2255095750994196 -1.8849851993329583 -2.683462470929565 -1.7622897119841836 -2.3400499198687106 -2.5491062396572963 -1.8509081090425064 -2.470574227276063 -2.6378693963601094 -0.7380024016918908 -2.4878005508430987 -1.6757022170614049 -2.3742895172960856 -1.6810272001341886 -2.453089858609203 -1.7304632445158128 -1.9877585676176752 -2.0554946151383904 -1.7405623090639317 0.21263608371296291 -2.1304954263696048 -1.1312995299285111 -2.8145293358304264 -0.6597075900272579 -2.5848993638151656 -1.991583720642973 -2.8112095607004255 -2.141115687255962 -2.089469705551592 -2.6933589409993974 -2.2570012512149447 -1.7040858766965716 -1.927558978022406 -2.8030223946052173 -2.939833794570796 -1.894770813821592 -0.8470699727131832 -1.7840344897848317 -2.3432217515553484 -2.156250542184846 -2.6525158155191915 -1.5247072668325152
-0.3883836163188937 -0.1959700891455346 -0.35190451104363885 -0.8986718192220964 0.4149256153245979 -0.5929589926169757 -1.0869138766039115 0.5956873595590652 -0.09030475904115728 -1.1345286389924303 -0.48575424521990584 0.12698361062983143 -0.6883035247759092 0.08517658050985602 -0.9512549653650847 0.6035310969114972 -0.04315752352642777 -0.8468000871772696 -0.09670110205543883 -0.6840019551378067 0.6484767811324254 0.5622729620877572 0.04096598595627366 -1.2243228834214253 -0.7366958128830188 -1.0029145200310259 -0.9951285697835531 -0.6510372913139634 -1.0539362789316422 -0.5831730043109733 -0.6393015512512826 -0.11605281372380068 -2.3841611993734957 0.21840851974383002 -0.43613708845860133 -0.6283559181034574 -0.1302164775554273 -1.0103836418866572 0.5572007825106616 -0.07067104827970358 -1.3341390205022705 0.42911943941549635 0.920431154052777 -1.030987762990906
0.6229570221489334 -0.3305495416916279 0.5000716120023335 -0.6097514429916284 -0.3968779651822447 -0.2976783008729645 0.15914615458660591 0.588672957765014 0.025676600764845663 -0.8816644411155119 -0.19243868217636467 -0.24114959012330742 -0.9633648954246347 -0.5770399461936879 -0.7114907788118354 -1.3307673318954631 -0.6335807277725836 0.10184787935640131 -1.3631237310706374 0.22491062368289383 0.07657232688731648 0.32822510969318525 0.2221124116053385 0.3264617197043821 -1.123075548306898 0.09129907129319179 -0.7437206050358571 -0.4771740910557542 0.17813027188135827 0.7986302841529059 0.35601881416574493 -0.4590672045933077 -0.7245721650874026 0.2724816919107168 -0.6776748371945851 0.649744408639051 -0.9425081186484733 -0.15958398596616366 0.21793017175392634 -0.8006780251758381 -0.6617296511163027 0.09516158424153487 -0.3922152660246004 -0.10692595367091502
-1.6131002279094915 -0.6997289456296825 -0.07512629201524343 -1.3366905240609772 -1.1670411847042497 -0.5290801034518183 0.7128613404392544 -0.9261156044530824 -1.1835936672490495 -0.026928297089653528 -0.9032027668201738 -0.7283191391408799 -1.5098675402076962 -1.5356076793697344 -0.7560670600537718 -0.6725571282336659 -1.3054046327586986 -0.709955306462786 -1.0699707436275414 -0.3948514261920129 -0.42943818545572177 -0.5466788530328431 -1.2616524301355008 -0.6947611445742844 -0.13665614774579704 -1.5127680324231398 -1.0637114590338663 -2.0574062031559 -0.8020904406847833 -1.490154477813399 -2.1489960995394024 1.5626300413668384 -1.2405352291338219 -1.1658532766704715 -1.0669761857214697 -1.4598027835927294 -1.5455270836543489 -0.50310198526082 -0.8813245090925956 -0.8695413460893736 -1.1076966542129567 -1.5202510882493812 -0.9037948529143268 -0.7799164097245654
-0.5327557849826229 -1.0650816230469125 -0.004344162722042571 -0.5921181951079006 0.49117884398075795 0.12708326385963892 -0.9630498499804968 0.7009651695960871 0.2387835829485322 -0.9176521262592511 0.10605959660535685 -0.8162643951198126 0.5683035783421726 -0.36926525067819926 0.7304095896154107 -0.1672660567189052 -0.11201789511665497 0.33205116321137146 -0.07397475432930574 -0.7538667356284512 -0.33473634696619303 -0.11160814906364541 -0.3369589610500592 0.0052606538370706165 -1.188093516154974 0.491118477242386 -0.28605884253453623 0.2814474447466972 0.021180822756611813 -0.4725218981718342 -0.5176306681019608 -0.18319757670614775 0.025428665194036842 -0.6847751056153295 -0.6260160944732843 -0.9107250160903753 0.3343053747723527 -0.3344979788030613 2.440033561759286 0.03497807778871065 0.5933900664116972 -0.06874250030060626 0.12759590371040216 -0.05258232367261801
-0.2872902644325675 -0.3912958438950792 -0.7134265758493719 -1.1751190760523085 -0.1981992211673616 -0.18017070195066257 0.7846291762501352 -1.3394405872163875 -0.10326687173487714 -0.312437769708477 0.24579223551626056 -0.005156839181706234 -0.33331407955333137 -0.4059817599940596 -0.19037612541450238 -0.8417371849890898 -1.0743214431747277 -0.7807398231270525 1.0090368296310939 -0.4507225529739139 0.025448025868732987 -0.12372979631426968 -0.4479638769488065 0.02842042414075762 -0.6471525595968746 -0.44156345535105235 -0.9556655631418439 -0.5884193094748242 -0.7571985198247337 -0.5815551379047199 1.811655086110027 0.20905764876514676 0.3900623908161621 0.19000962220488088 -0.5436826520637829 -0.13504624484080507 0.13699482005518385 -0.15662332171272508 -1.2342960194265487 -0.8405333767516409 -0.8621224030252254 -0.03348656337283982 -0.30280749540546864 -1.1703011008179645
0.33432560394571614 0.4754137439216932 0.5752260278287723 -0.5081892749784924 -0.7633118036832521 0.311712421905416 0.4036036586398538 -0.7566957110606443 0.37960557864539235 -0.39291484137005384 -0.7168363241013882 -0.9594679744611615 0.22299047208748846 0.8054728772604435 0.7879578724354851 0.43156036520683916 0.485248097011857 -0.5235576252544808 -0.8288735680613609 0.1917815630126352 0.21342542296475658 -0.3162480491894784 -0.936661692107748 -0.05542316803300183 -0.2674755063516724 0.5068681824993257 -0.17727161435558422 0.2109995990962995 -0.6422361403213241 0.26975326931860366 -0.25171827046478273 0.26755644176928084 -0.32516791172073584 -0.5578985291695835 -0.1926567371814351 0.8329066936002261 0.018520527283382094 -0.6187176708945347 0.5414087797425622 -0.558370490137948 -0.013848431899615007 0.16063593483489613 -0.877360298564875 -0.46360466037475184
-0.440529302923095 -0.3576879045569241 -0.7940058799657874 -1.073899351702525 -1.1231121451788233 -0.8986212556688147 -0.5127757415478382 -1.4196911378816104 -1.2612719133604153 -0.7649847380696289 -0.3300340781430291 -0.36431411939916225 -0.6945931067420426 -0.30654665164195466 -1.3948350873808015 -0.5914263558043447 -1.4510482268633484 -1.1377069517668739 -1.5589311471603797 -0.2228459861059252 1.3539592954074886 -0.9371053822376509 0.09858718056739096 -0.031532133754797215 -0.8915363207833854 -1.2201321154123124 -0.9104172439320808 -0.7661598875428496 -0.7066018446763238 -0.24054490150238853 0.03704428294072983 -0.9000764212489549 -1.2058934308247526 -1.5867313188193657 -0.6442124177946813 -1.0994983854771816 -0.1686521426080005 -0.7578914607533538 -0.40502885104822306 -0.45678765380264846 -1.6315059030619086 -1.657319466021239 -0.8205223781901405 -0.08158563341374435
-0.5614663729095544 -0.23812989482394262 -0.1499445434669356 -1.218374638078935 -1.1839945072544626 0.034271149444255786 -0.5999766987818567 0.4957517021684974 -0.21766549519716605 0.18603775054172195 -0.3149588687954559 -0.5925700902677498 0.4752436145765653 0.11516350561112873 -0.3441901732701829 0.11780492881968045 -1.4915433262101678 0.4877032964863943 -0.6992880543557463 -0.41399530517009614 -0.771033727605354 -0.5562910914097149 0.33100153907145125 -0.8752349646914659 -0.41859622488541604 -1.262572007581823 -0.8672091081572071 -0.32283978280721404 -0.19665144121577094 -0.5439379252087099 0.3573011794262361 -0.31571461073034773 -0.9429240597285723 -0.39628777221579814 0.29102955583388357 -0.45756569089311605 0.6646457793760202 -0.9678087109374602 -0.2983876843265793 -0.7283221551020549 -0.21838366794329647 -0.25857905213930304 -1.2870177781924086 0.2028862510378571
0.23038786663458705 -0.7489148410440942 -0.6220391263915314 -0.46388255114473365 -0.04934850456469639 0.7944225363990453 0.7162121843969258 0.4173455457823763 0.12558985200255673 0.475306366574595 -0.3342633278697179 1.3395889061377746 0.7079000309765743 0.6401741641718618 -0.07338227791242344 -0.5478502429097891 0.4041043127845835 0.6901014270338168 0.2492616489206146 -1.1505429306019959 -0.10379017459721825 0.764239881675925 0.16729683238149445 -0.4292985985916481 -0.32624092399716176 -0.758847166603174 0.8012670793861901 0.2601960619490318 -0.7568303865595734 -0.36938043576977375 0.11767479018880789 -0.1663829144680695 0.1687735564823762 -0.7991826373966784 0.12835368565788113 0.31114754309969544 0.2939080405597448 -0.05663122571960828 0.2861233140145692 1.3422233339882608 0.4351275744961988 -0.6829012150503345 -0.1018709320755939 0.11696344190784895
0.014392757140399677 -0.8422739533139568 0.5647806277060555 -0.5377828567717888 0.7038906814365552 0.05945393072131263 0.7162196008251417 0.005697497986881905 -0.22415044255217784 -0.10490985602002109 -0.6024527007017346 -0.31497916116722946 -0.07816384745929443 1.8959443950221568 -0.4701943075024584 0.12208406408488644 -0.17756907030285246 0.5398582365713561 0.5115128728659587 -0.458710457196987 -0.5517837614375535 0.3887359434135888 -0.7229035536840067 -0.39968481279670365 0.7212851879094634 -0.10931469683556681 0.012056150711921142 0.2586275064816069 0.2942410187157432 -0.272820698225373 0.4428768155034576 0.24263788525365004 -0.0008697182455701103 -0.026919396322773667 -0.4987596223073702 0.44665029972421805 -0.06544058177849893 0.7803498424188632 -1.003412527761792 0.8808700033541224 -0.9729113166630734 -0.5301028424913485 -0.8232935220188498 -0.6520717509061369
-0.5796080890860207 -0.7604205830107403 -1.5291841643429347 -1.224369014656051 -1.6504273870294153 -1.323618373543301 -1.963060463409869 -1.450134364072995 -0.7147825576704123 -1.3930180586141854 -1.6514424026069936 -1.2377143255490495 -1.7684896280771292 -1.0377406945118741 -1.162452361506523 -1.289326665954815 -0.5819495106711419 -1.0859478019468383 -0.43953520282367925 -2.0609906632469617 -0.9510878570845391 -1.234939042404513 -1.6947362320967752 -0.8622997119917654 -1.365573520824286 -1.492552127533022 -1.0782700693745997 0.06068325362937506 -1.4931202111172195 -0.6905436695164427 -1.0418081579977925 1.550113583638594 -0.6397145242236657 -0.6888529002769582 -1.3930502867807664 -0.332906152366241 -1.754610280972879 -1.5841397183074821 -0.9210495916686091 -1.657304279026983 -0.6901028451653872 -1.9798472124899362 -0.7748415390810056 -1.3256764284503444
-0.950413744512582 -1.306304354857147 -1.916604003673745 -1.2821759646548407 -1.6507301708112962 -0.8880896440122542 -0.2292729015897845 -0.8740327940927941 -0.8452882763906056 -1.4807011652404005 -0.3964079512001045 0.09692014221162812 1.4309072374721048 -0.9767285679080271 -0.7465114590479516 -0.5606708724879076 -0.4210161424058461 -0.09538869672682394 -0.8404931053666813 -1.2242347366183786 -0.32815663987833066 -0.8645856529499187 -1.4116029877784348 -1.5955412806813283 -0.019943247732752346 -0.7995309205840669 -0.5991641272356747 -0.9821000227390217 -0.6562001279674075 -0.528974999884102 -0.9897071428859338 -1.1148930538536646 -3.0143552417518324 -0.2241320498541646 -0.40206935278038536 -0.14143994408083094 -1.1183913051586725 -0.215132178671889 -1.2177403043390111 -1.278537052350447 -0.7729383432213888 -1.48237730848722 1.7957939193838584 -0.6132103245058658
0.6990278228573127 -0.13337153419839423 0.40960621285582705 -1.3911360447581462 -0.8284365529488845 0.15311196812617853 -0.8415884605759012 0.23635271725769522 0.0933874587907739 -0.4305493572992624 -1.593441988637909 0.23424536835594748 0.125055064511346 -0.6262613408024539 -0.29999463135553467 0.21991146780716753 -0.575036060221221 -0.6476279763138892 -0.6723944257443627 -0.934277133478947 -1.0553374391208803 -0.3237353108695888 0.14985744846778723 -0.04828690999001116 -0.45074921688725245 -0.7124871057346732 -1.1917750921175514 -1.181967823898063 -1.219619513713508 -0.04931783451024594 -0.41475998267729264 0.08713309485181389 -0.1665382268174702 -0.14960479837047205 -0.6078817377666097 -0.036273674293599865 -0.6951621639541976 -0.7618504710438683 -1.4707177061704173 -1.0311292154741358 -1.0698665583680487 -0.9587347417497207 -0.36264256165704556 -0.11503548424292397
-0.28298618898958044 -0.04784486430362272 -0.2895834652714756 -0.05066680388477272 -0.07636737544226552 -1.1814578508823121 -1.1411052159574204 -0.5272840519480526 -0.2047649393861364 -0.4381878431374903 -0.6058293799474151 -0.6938564167134267 -0.5722341003728354 -0.2368600961404666 -0.8522827261260796 -1.011801958409069 0.2027067238298437 -0.1248291235002291 0.34447018111347727 -0.9359302499055933 -1.6824958622309885 -0.6426798177144087 -0.42440595239124407 -0.2784852370944299 -0.37858558508507045 -1.0156180266014896 -0.83326043764923 -1.2253343174896758 -0.9289212600150383 -1.3772707082179607 1.0409176988261473 -0.5657305017296582 -0.06932777187373451 0.05751000520546987 -0.9783131289136997 -1.0243693213100717 -0.5954963556516368 -0.39121824232458113 0.19346573656791563 -0.21823431996063034 -0.0816988606484076 -0.9687358736362905 0.09282858090778387 -0.036592600599000054
-1.9414063528832777 -2.0937785843095473 -2.1069110851101547 -2.1622282740754644 -2.039224403741741 -1.6188330760974305 -2.256180142707542 0.9797341756975422 -1.7056931043357604 -1.9638853948186392 -2.4154864628747106 -1.9560653684328002 -2.35656365146661 -2.096043690617339 -2.7161482851898113 -2.409283461914257 -2.3975853166658396 -1.7264000542749063 -1.6821530556238964 -1.7883234036233258 -2.1583034485116745 -2.08329173031736 -1.9530700134213035 -2.235453997467634 -2.2935574465308193 -1.4806276835637537 -1.4473790704009204 -1.745253718255264 -1.4792261523119097 -2.104628752471768 -1.1164002809667182 -2.011879860256905 -2.787151821665117 -2.025565514817651 -1.8418546940345017 -2.6848844088770325 -1.8160681392938613 -2.330045344317288 -1.890803163830127 -1.8572273908097445 -2.369326370407927 -1.9771022867464518 -2.1569741814785393 -2.585731417692104
0.9362309806378767 0.3248467819170474 0.006169385476199571 0.15521381524044497 -0.038875866155911105 -0.36405410533693267 0.9625065880658595 -0.5870918193004301 0.036369116454488655 0.5207888878419006 -0.11317962377483876 -0.4780724937955841 0.7357059617420842 -0.8198824674153528 0.041947794587551594 0.393770216645103 -0.391593326040007 -0.8206079489079506 0.0013155951437704106 -0.35777936307155633 -0.4311343080177652 0.4320737134934809 0.4821316964321401 -0.6463755426941932 0.007104555820374586 0.13379909191601308 -0.35606395671570285 -0.388694688446972 0.4277672917348946 0.8291834220185803 -0.27491142797143475 0.29572120772770316 0.04299976450720448 -0.45159274016420403 0.5097397539097462 -0.34992366837362193 0.31617524650155343 0.1939148326540429 2.601345823191144 0.6953544582589011 0.2443189910271427 -0.23178248752641734 -0.39792519488478145 -0.6050250854364636
0.42399597910028397 -0.9491777191416535 -0.2971539623657492 0.43400431253145966 -0.8847563004538038 -0.7632478343612752 -0.1596100008999986 -0.46799489465028227 0.19147345773960445 0.15492653674901152 0.167174057034381 -0.6206033091244458 0.09739878530942005 -0.8749772267324173 0.24061845251724964 -0.10821254762085243 0.02895167296842509 -0.2982428058823449 0.4309015506350324 -1.0199328736160556 0.10878973630386027 -1.050128099582033 -0.49277572611365034 -1.146806109929464 -0.1724331013267914 0.1934211396971699 0.16279055940776113 0.48851825219598666 -0.9353022654166179 -0.6348539203530925 -0.6695358361623469 0.4640720423424506 -0.3386791977466735 -0.061765456785449306 0.1379728406647575 -0.5855185868107317 0.0839654053128044 0.28112076795821334 0.10527223221032134 -0.06291500065693344 -1.0143921781724494 -0.7292849875127808 -1.2959413801938806 0.7531043429227716
0.5206625466864834 -0.0970257019347703 -0.3393780813864199 0.29708001624767655 -0.10310180987363489 -0.2050752458094935 -0.051824437044566345 -1.179392082133992 -0.5090249606724139 0.0031873929265858175 0.336867704065525 -0.9944392026966393 0.021410816276458033 -0.16706518458946773 -0.9692059060576953 -0.0028445999845590052 0.4810789530040221 -0.9491327684064187 -0.19742637565721155 -0.8987813984618376 -0.03432448214066433 -0.5272328771904718 -1.209475259428059 0.6539030722687926 0.1765604368958865 -0.23470867438349516 0.1504899969998114 -0.6236350358533305 0.5296018768305556 0.061112444942723956 0.07193050375750006 -0.9129212780761908 0.2646244136716192 -0.3999678132598787 -0.14117807254064502 0.7802838097928808 0.1947072516673551 0.4741578407078557 -0.8769221972218821 -0.936683765319013 -0.44109490572092386 0.1870489000019737 -0.41518149123277753 -0.5807736214816132
-0.029221185337430358 -1.00069000731836 -0.853948729625479 -0.3659057064624594 -0.32310549093534696 -0.9922080210946834 -0.813253674996564 -0.867617454445181 -0.7185763557974191 -1.1305389896234648 -0.09801917522359803 -0.3342216117117474 -0.04597367508026332 -0.9935594075250282 -0.33378496110651446 0.5908191738455844 -1.3727395018758777 -1.3007452583287058 -1.6275200290191159 -0.23378871166203058 -0.5928313615269373 0.44122160985956144 -1.3740989232540235 -0.7059622136302951 -0.3830819584091894 -0.10291314643337672 -0.2805424616125442 -0.6885337751304055 -1.2999756604641062 -0.5367948871144709 -0.45102801725471714 -0.8656789846038722 -0.16390654119870285 -0.8920537920946567 0.135934352273948 -0.43047350710996174 -0.4578289530180794 -1.524231737067559 -0.6894299068876137 -0.14122318661527175 -1.1393835796398446 -0.536031118188066 -0.6942738555187348 -1.1858522726522607
