0.19528277143197648 -0.3442779441370497 0.19403470855291316 -0.5707151250949655 -1.009572430711653 -0.5468606382870228 -0.12693773601541916 -0.8700186647437437 -0.15686616564328637 -0.9014336545817851 0.42409492975112245 0.9031307207669897 0.5693424064333182 -0.8455514071739836 0.36867621983035936 -0.3115320860064721 0.09472524946653839 -0.14929209859085787 -0.03469826360630645 0.3487582297511954 0.0446770148859488 -0.11075734426467809 -0.790562539668825 -0.2968992143822627 0.1583054640064066 -0.7524441225440336 0.20161589248820988 0.26310645801013594 -0.689734709928127 0.18651578743997604 -0.8405238161190574 -0.22512802130768292 -0.9138477192228671 0.3813198597198056 -0.46343414846038555 0.3623882427815949 -0.16020264654103236 0.5649326094418206 -0.898024456384619 -0.536572748502385 -1.1097210453044626 0.7806803126761966 0.25480966125524995 -0.2736946665963556 -0.11015472129000187 0.4196319350519211 0.07631252301265311 -0.5944948106398777 0.8340284181864844 0.5131520304878385 -0.04475260909194801 0.9293553551372975 0.2826453738559242 -0.5228734109663602 -0.33352719744085724 -1.0485852414754921 0.5573281345068561 0.8834505304237626 -0.699974132395137 -0.2105903185192095 0.5246741845115037 0.5613649462933699 -0.2463937569007443 -0.368855128555591 0.2361558667184591 -0.4692501771066459 0.21160036265450347 -0.8651293789645976 -0.23762502070388886 0.09611083871984301 -0.9839835071574036 -0.6648877062193922 -0.736539228171129 0.7579429809425172 -0.7801613237673825 0.3842674662573262 -0.14967003544250992 -0.8324735179650272 0.11958478150291509 -0.2197826032736968
0.7394534702865019 0.43229263713247096 -0.9639432347902296 0.2096083330565024 0.026526916953848498 -0.1838750633929967 -0.011464219582111494 -0.8515576366591805 0.6582272463282317 -0.6107099090694695 -0.37843746061580336 0.06336445484877146 0.049943655917235354 -0.705623660469729 -0.8213446801874331 0.5008464149925199 0.5298866226712736 -0.44514802763510325 -0.757781972924513 0.7699990713649401 -0.078792774228423 -0.15390800159393445 0.23073678401656383 0.24349525326016172 0.6114276827177958 0.38102639909925096 0.3448834445948799 0.1666202089908435 -0.32912225762765024 -0.43582257403915475 -0.6901601905016969 -0.6887926067003576 0.8113008568986995 -0.5546169073074624 -0.64674413163912 -0.00522234434269204 -0.13993868720727204 -0.8530874419638655 0.6366656632850828 -1.1361548924716383 -0.20014295646659025 0.4126112836884881 0.7761210589772801 0.01777199691743996 0.16082625892235977 0.7943147910780669 0.9111272609632177 0.06412150177796683 0.6152151864471721 -0.6570668576118895 0.3837918280668021 -0.356315469845944 0.3590262523888111 0.9568707451736034 0.5902523477338059 0.6565180076188705 0.8249787275986336 0.9089477210247437 0.6650651838198495 0.7353657901559854 0.4866379068381267 0.2753155645307873 -0.3595285518608083 0.9305404545206573 -0.3521112310211988 -0.6572049120160524 0.8249693207908337 0.9584780935038941 -0.6775963262822029 0.03153579635396604 0.05898531445014143 0.08601405669433895 -0.5937641012892089 -0.19303368759921233 0.33258408287182945 -0.1255021885065143 -0.715710996608563 0.153079725900784 -0.7262026496108693 0.06092414007802527
-0.020033443768427306 -0.01216308542955108 0.45625041857731613 0.24463843852497397 0.5178918091673261 -0.12157101150699327 -0.4968515465371327 0.39870750772769076 0.056268925663243395 -0.13861558224028875 -0.5567492958441427 -0.38788972797035504 -0.14397372269177922 0.3423127556904494 0.4150021351334994 -0.8834452859836128 0.22961329042469006 0.09342284602381364 -0.1322380177787717 0.36682843528754094 0.7643913106705177 0.2928701562154472 0.7852305897720356 -0.8437696740792835 0.9909937826808404 -0.6713669186466147 -0.5086004636339806 -0.12459554687725058 -0.714590037327131 0.8863850328312683 0.3576050493981553 0.08893970207130796 -0.9100536000941178 -0.7961990230822114 -0.032207907611674066 -0.3329862704712471 -0.30701565017284455 -0.5812209160545692 -0.5261635455673932 -0.7445905862069809 0.5461668585282121 -0.7698847391462151 0.3882731950065709 0.3124061483298997 0.49802612891318404 0.6867949717077391 -0.6334981670754906 0.5953658407440314 -0.2095406726656548 0.6693240839129646 -0.5873610626262947 -0.23396506402021586 0.4881612849891361 -0.7843771681372561 -0.9807514560526795 -0.08382333924555616 0.05478502172901523 0.603741690337573 0.8216344302083746 -0.5252822111534245 0.32559175370114884 -0.7648782636904331 1.0199882140383385 0.9464213586189048 -0.8867673058182863 0.5351972912504629 -0.10374457750833474 0.039910814009967155 0.5707620508608424 0.178340567465861 0.21568347355322293 -0.6879882324809375 0.7996962579828119 -0.292116644325384 -1.013310706809479 0.33389213016274977 0.8556271009461556 0.2396870889386887 -0.35034245806687314 -0.4868963193894511
0.8237510723972497 -0.36590829894485816 -0.9835501277868891 -1.0429095253232197 -0.801049360065882 -0.9004914511997786 -0.8330868635914144 -1.008540376160866 -0.9597896091770838 0.8859979828051519 -0.39059741656543173 0.14147397369373427 0.3948808946770827 -0.01890500276798962 0.7778482045492062 -0.6073273397570923 -1.0227501014550278 0.0765813857780998 0.7541748145408275 0.7918983506016822 -0.008218078102323001 0.30799304698139196 0.14182759948503362 -0.17286102363404257 0.1954438078446198 0.6966694188946019 -0.7289102539283456 0.38056672692307814 0.874807983140877 0.633254053225873 0.9189569721057566 -0.9276922714963026 -0.20753341268616282 0.4832211382321045 -0.6703220239569877 0.8681147691686308 0.6971001154383856 -0.8629351653353191 0.36334130801815945 1.0322728838409407 -0.2539893884886685 -0.11664975298636945 0.3438747372297097 -0.6417491608588565 -0.5823587368846587 -0.05490982105109518 -0.33658494399473937 0.92934639091227 -0.3838359136740748 -0.4120122853846265 0.20744932939993269 -0.46584261826760187 0.48340952321402775 -0.22120269170195428 0.6252004664200821 -0.3904096011517583 0.771244417207496 0.15752593890153505 0.28785638656015866 -0.2610608657423933 -0.7833986716203126 0.5734699643476058 0.6111862142483494 -0.13369903643871142 0.9022593245940166 0.26132146818581903 -0.05740482772386134 0.43400929045375203 -0.47718522666512675 -0.5174926005654028 -0.3345326014580624 0.9375637676829421 0.773276139501749 0.5561367136235004 -0.9184293402386969 -0.13556329026828368 -0.21358627890237455 0.9141662726081237 -0.06680852445649803 -0.657029666275568
0.2696707987006184 -0.3321227297843223 0.7507232307413096 0.35711110765825504 -0.03030864436270389 0.8940883003525107 -0.22387561506278963 0.26543502610359226 0.5221542423709749 -0.7531783175655189 0.6977252897087692 -0.9018074069056929 -0.22480846944093194 -0.04046599064648616 -1.0072496687810903 0.3524513279185492 1.0604327568208998 0.8106290524253332 1.0321135533611758 0.6499347545219574 -0.19402095569368455 -0.8778268943131875 -0.5450644150238221 -0.9051200850203011 -0.12081591383374832 0.777758936774425 0.7287210308432929 -0.4859591795740839 0.0031305158460929704 0.9915134073309037 -0.25194224772291945 0.007876447208662572 0.009639254269519795 -1.1193949255432212 -0.5897275185764728 -0.8050202385037757 0.89551639190749 -0.8418256310050668 0.7087511179752662 0.2838315306797513 -0.9853674396280769 0.6424539159637978 -0.030214071803430078 -0.30946314496729377 -0.08335083016152278 0.3415571524835311 -0.5069657703794846 0.8541021833595662 -0.6836184563718258 -0.005357527924177628 0.9265485311840702 1.066615459470877 0.3873191093630278 0.30313524996105357 -0.26416229847730066 0.760750514930927 0.7222189581609015 0.07259053155092136 0.20524902084080965 0.7149184838329724 -0.3067607437162896 0.0016016850968550136 0.11315714885341034 -0.9422335584718808 -0.6323095114865008 0.099914171301114 0.8189533449549108 -0.9784886007830899 -0.39360683468243474 0.6424546577217339 0.2592779818174911 -0.8607899235423044 -0.6621012618513825 -0.08222736603185479 0.6927489911443727 -0.9987789032171143 -0.6190396401189052 -0.7358234990519813 1.040853739763326 0.08267101595261993
0.13099475112378745 0.47368427351528775 0.8863737467098479 -0.45165625312272273 -0.8014962761475969 0.4832792813093084 0.5168159991251464 0.5151934085592536 -0.29435465791551024 -0.10147654437567596 -0.9143191542084477 -0.05528336980274255 -0.39417548433392946 1.0265282302577523 -0.3398697988627694 -0.7043800678069249 -0.835365254769476 0.9381565351960318 0.0856365536033572 0.4182097771804853 -0.11532862670521005 0.5412948966636673 0.17463095412120963 -0.475089443002145 -0.549231278103464 0.45318855139644787 0.3424690034763911 -0.29196822409988915 -0.18224472672694114 0.6085586092598306 0.0700771168812625 0.3880632265199609 0.6417611569303403 -0.46466744614121797 -0.13219878383145875 0.9349043388618824 -0.6940106203908045 0.45866359920299327 -1.0423258389677825 0.27906272472198784 -0.14569075647997035 -0.13774487294602142 0.7515650891080605 -0.8069156491567084 0.17701034348606678 0.18865641217444987 -1.0301887556071296 -0.3957447774701049 -0.2552649163756268 0.1608486176548705 -0.112791722391181 -0.7417587368350866 0.29080940775823644 0.42877632443383784 -0.47902837853138414 -0.5104975965881919 -0.5773965530108995 0.4790057684073309 -0.42604421886432703 -0.701990201224936 0.4333292650499743 0.40522605508709675 -0.36500449121694306 -0.3217195340893009 0.10396651832711261 0.25016468131140424 0.3636618119107075 0.6267027727647059 1.1240329262011544 0.43721196751063823 0.7017732906677824 -0.5441284327118557 0.5685580904816142 -0.39723175136462496 0.8997338588190837 0.0026496519750484936 -1.2383090438962683 0.0720817824257236 0.3936160661587067 -0.3384122373252998
0.473571400401088 -0.4926631038205842 -0.2644543802696264 0.6310541735610433 0.34674203100843365 0.30114057074688705 -0.766390703067764 0.6510368875559934 -0.7093975696137157 0.6644350573638087 -0.06180603648966505 0.10799195255274348 1.0688824736132532 0.31528434630873414 -0.6915757427175399 0.7481982973323053 0.4927007511132619 0.36140300490455474 0.13400426533051116 -0.9874866808071493 -0.0616323592087632 -0.32642155247009663 -0.9545207617289918 0.5132070554889369 -0.635942458969999 0.19752167956479227 0.15515873655365867 -0.6534081463740155 -0.897158370081091 -0.5864244284883284 -0.7100889474238877 0.6651542008247456 0.3293348406778376 0.7449543330797828 -0.6488278309200286 0.21486703928306936 0.5732940618456664 0.9052151649581563 -0.1033022607968927 1.0277217996461705 0.9990558594633088 -0.6054097648508981 -0.6238093052419881 -0.9956768459870977 0.956450694080697 -0.2855240561126736 0.14607457040066876 0.7742084308522553 0.9207202931568215 -0.6306748708910159 -0.2435827354591122 1.0029144615372954 0.30082389168465007 0.3918841423022358 -0.32934489062632455 -0.4420886494744499 0.7381212330295724 0.6851935090154003 0.14438488634939517 0.5440779268849848 0.03516826629975146 -0.8685361716575511 0.006055969029752126 0.6438573531751053 0.8701982815187643 0.7519651883281441 0.0106866327797382 -0.02440750063324087 0.6434633566326984 -0.6868560224027069 0.38220537448085695 -0.6367461654377673 -0.2596787416276524 -0.1922763001872194 -0.9347599713492648 0.7232164956646923 -0.6003065681095556 0.43371205876886393 0.6185254803039915 -0.8359064686297017
0.9042580278372825 0.43596743962788176 -0.7992039374991712 0.29973539690180157 -0.5982601109884104 0.3226344663892268 -1.059975390043891 0.6105551976492012 -0.5362957853852184 -0.7481925175471956 0.029313841824840293 0.9308900034635772 0.786022601696303 0.5598923953882882 0.34596227253989614 -0.38451394923712445 0.047815708882272226 -0.2773134558588289 -0.6069768724621246 -0.4788145390032272 -0.9438246636466564 0.10092986471341588 -0.13846904585908118 0.1907917936383527 -0.1410465353069288 -0.6110083283001618 0.5070915470821256 -0.8537443554649596 0.2544510092882381 0.17137928979557515 -0.2470301437867881 0.11918253492642586 -0.5003170283188276 0.8197771544691304 0.8721802602963559 0.6871210154967471 -0.5536283941265815 0.3280799851985246 -0.26036697850323415 -0.7525941538396265 -0.21778357323744335 0.6529375927925942 0.5229004102901178 0.503497227841527 0.5846096518188535 0.2859169250133987 0.7829990217693964 -0.19516229667433976 -0.9207450948110583 -1.0031815112032585 0.32861884594857865 0.07394178184170558 -0.45933012543718693 -0.6907494128510407 0.47116346151243776 -0.19841681080953633 -0.7867796555367614 -0.7804386075396128 0.6835035799962697 -0.40845578724008613 0.6684416267710882 0.36433236529427643 1.0491709344012492 0.7579085325236641 0.09633077349729137 0.8070142205276621 -0.8644399419838754 0.7823984036776965 0.7933286502620515 -0.6441155321779708 0.22220583393063043 0.6349612446539002 -0.7728509473438911 -0.022794040973217272 -0.030078392766516488 0.32025230267244353 0.48161595066686164 -0.8906957108087162 -0.6611258650016999 -0.5099582009691914
-0.4889369670592705 -0.537683572493281 0.5545485793444113 -0.46771288214677237 0.9199034176418227 0.5263080031370629 0.6707310196098735 -0.882328523411242 -0.44283519634523694 0.9701409126883265 -0.03190860901357003 0.0042694590111117025 -0.227047842087052 0.2053736770952297 -0.8277038748321268 -1.2351471231370235 -0.0634097512983772 -0.9919509847674082 -0.7949203348987854 0.16384749721583214 -0.1842761890983409 0.11025026078444629 -0.2623442129488669 0.33905259948877225 -0.40915471591875674 -0.02968535091893634 0.18707909299246062 -0.5389857245111584 0.41527716679460913 0.4365185287462244 -0.30543378834289625 -0.18954870949500108 0.47456786648541066 -0.6373872177228528 -0.3201080987449141 0.8015205842149048 0.3391423567969988 -0.9064849748171777 0.8912102134136785 0.9764846791917315 0.19721416676942874 -1.2720618871863243 0.6520025954273545 -0.6515098977074975 0.5715163604263418 0.7960360317488736 0.8468235678382323 -0.6221758992128833 0.5154930539872697 -0.8387191892464243 -0.38445442729241797 0.4862718211748744 0.8233136350157506 0.7809723242640645 0.2375503009203405 -0.48102868387456166 0.12525719262701404 0.5751495977907233 -0.591190163774743 0.39964307359284773 -0.7528672894451144 0.0937840134960744 -0.3562131109606041 -0.0924514377148146 0.7297433629765209 0.2550603506796533 0.41338040337988413 -0.510431843807802 0.638350138932065 -0.7480615760217766 -0.7082017856835735 0.8254892289344176 -0.922051708425751 -0.31342262116371605 0.677863296176681 -0.3284565354029946 0.7688502932865083 -0.5625541190551516 0.7515270826653858 0.09072767193042396
-0.21098994263552817 -0.4625488549903915 -0.8388783280114638 -1.0221951142614814 -0.2948368469189139 -0.5886929824434279 0.8019174879213646 0.1123774232369116 0.6115945920654926 -0.6681263135954725 -0.22242918626591593 0.0446715417029978 1.1019430508805905 -0.3674654268499434 0.931828299416923 0.23754635483230183 0.869173734948941 0.6678847575959737 0.753436872982377 0.870045125009086 -0.34703126841904675 0.8685638048795279 0.2883197164203372 -0.8975562312466304 0.7739316302505318 0.34239070958484824 -0.9483738737314581 -0.6842024996626886 0.962546561139241 0.5944799191148747 1.0823424932928376 -0.2528427664368015 0.6999268978277063 -0.9946847593834106 0.9339031810785601 0.009152932596889356 1.1399321418229562 -0.19436939717118656 0.7878624281267951 0.9428112898209744 -0.39571745508359724 -0.3916563311299652 0.1952699573457541 -0.08095794849997848 0.5142842896790488 -0.8776404847942071 0.7381020475907524 0.3389831821236787 0.21482244230875805 -0.6045261451052159 0.696261088283833 -0.7273369343871786 -0.5738837175053847 0.6366533219879484 -0.5634576702880477 0.5404367492140584 0.3622680807820556 0.30065617195951777 0.43357190583699884 -0.9574712208830912 0.6149427829053157 -0.6961377811666295 -0.47489621879398125 -0.22306251415543568 -0.9997417489447975 -0.11948048092985877 -0.0711817939677744 0.8760227532393521 -0.8763390356779716 0.3648013118908149 0.38425631499680646 -0.06612195443136 -0.20631633980921915 0.062051959090585494 -0.9505397360615493 -0.07321020771588022 -0.3435186534085672 0.7522930123186028 0.3091029241259296 -0.5147390127572627
-0.6493884682673208 0.7880768009865525 0.9135137690153293 0.6781968768795282 -0.33111187608288367 -0.847814595671986 -0.8072140996195505 0.09329133607481976 -0.2711181510173502 -0.32929730381236816 -0.32214962295608646 -0.8881716714582647 0.4799351370207998 -0.005246309168129257 1.1474597115637752 0.12655260431037604 -0.009820905321972157 -0.48072153457178407 0.6884266984165117 -0.09293422268246446 0.07568891439249759 0.050098365189439394 1.0127634849627702 -0.6048394021120017 0.9289487239031491 0.8005205383303062 0.019938056052643434 -0.20742729030971557 -0.918617554883618 -0.7827017209572146 -0.8376899552704794 -0.25539454100052394 0.9773494184740799 0.8254001027011905 -0.11917081655661386 -0.21350003158210015 -0.8301116980675544 -0.6558411349821699 -0.3925518667671032 -0.2518992434918996 -1.1817704622050538 -0.839239740722154 -0.2595288980296329 0.22270013029101707 -0.622249575793189 -0.8866824696214626 0.7735513369885806 0.9516862869389441 -0.5138383440583968 -0.6183693144734974 -0.476935801803559 -0.531127502794664 -1.2490301404652526 -0.2597486705669115 -0.163254478359865 0.6215395022926493 0.00830000422908851 0.6167277443624727 -0.2443727157681657 0.45328012572188825 -0.7753898087409719 0.007653144593930206 0.2115288820338515 -0.5499616459814953 0.6634202979386131 -0.6604247241270187 0.7758106969869869 0.785481093715278 0.9349653726966443 -0.8719176848620457 -0.10052515581265685 -0.14147704919611825 -0.23832138870143718 -0.30924901288631185 0.08600752495473148 0.15021563283134473 -0.16878109786034332 1.078449892443458 -0.850292075864534 0.37344704788324606
0.7432166097789414 -1.2174823780753972 0.7068491687219051 0.4374017935195559 0.7334922797992155 -0.6786442036946987 0.30358669734868965 -0.1544115330646379 -0.2017485346111972 -0.48227384301231274 0.02896057902556957 0.04525301398106151 0.44070885907922236 -0.67951558142815 -0.29573555363455284 0.013216197687967137 -0.17748183053242286 -0.12089714660444496 -0.06996567996241936 -1.1072041500768346 -0.41131323857883456 -0.8137675505378686 -0.5642737636142334 -0.9268613443260914 -0.28349413419043407 1.1009989161403926 -0.0196576396227718 -0.7436400663152971 0.9288347815702505 0.6037464106602367 -0.0015873446396741924 -0.28435265218644634 -1.0136356087762357 0.0636230405410065 1.0679907198698906 -0.05484553744329981 0.4353988311025877 -0.29453526150444215 0.6311571097161381 -0.7806815019164547 0.33700938081775245 0.6733168533968129 0.10980283644853667 -0.3901160693196904 -0.4359547383664133 0.3787410035949222 0.8019403860966658 -0.6872145606055098 -0.8219310794647692 0.6311247445190411 0.1943771405847132 -0.432648654526717 -0.7737082084655752 0.8917343182807868 0.7867113956756252 1.0032494290142329 0.5187547134573288 -0.306749067082164 -0.6442621241477124 0.08838387617387543 -0.27251558290009553 0.22073540018890647 0.6238272471307521 -0.16404217449907837 -0.24423242685530525 0.822690364997332 0.6578965311984281 -0.32150830545177794 1.0744997919558432 -0.2829631374280389 -0.1105074135794247 -0.4026523456228096 -0.5824575366831232 -0.19697067122399534 0.00842960149688249 -0.835981097824441 1.0358408077973025 1.2220290220425516 -0.8735971680922332 -0.7251575214771646
0.4295197100769985 -0.3353539775322974 -0.8393859778354672 0.4024446770766269 -0.20044603861010554 0.3849920408642706 -0.23277562242221078 -0.24894233730638224 0.9203610997876017 0.17863779605028784 0.2687264842290526 -0.31538241020095426 -0.2827711466840814 0.27383483823847393 0.9668753029498562 0.050278900664809764 0.5343876179256934 -0.06249107757923937 -0.8735343819149747 0.8679916191553207 0.5735411310301834 0.931306219924058 0.6855686834653972 0.971510015970549 -1.0630977480677781 -0.6063156310571979 0.8341066871447029 -0.15291736237579395 0.36253316137027203 0.9450236670267136 -0.8432633075109592 0.42068480401939007 -0.8545302799267831 0.28821311613849393 0.8733265748977415 -0.8852692806968359 0.5238209442941664 -0.8639876378896069 -0.6770900377282538 -0.0992962200943649 1.0821613437661826 -0.8461351229543255 0.3582936066911324 -0.9815079889077345 0.9729728615777784 -0.7617349613093972 -0.49736840518146147 0.29511198912071296 0.7696205991247025 0.41162212646167123 0.514852933108568 -0.5499449353604637 -0.3470953933254843 -0.5272915002116351 0.8264185240815607 -0.9167841695802492 -0.7628360750408932 -0.29267136032730046 -0.361600923503752 0.5288930186922807 0.41057537818424383 -0.3239084204112697 -0.9212348398951816 0.18222894936694806 -0.34490320333958935 -0.501905589334971 -0.7821802631648513 -0.09961694671972021 0.13184887465270015 -1.0398872304557805 -0.40304712862149955 -0.5011738083314601 -0.4528794178720896 -0.8474849242077812 0.5369660372985867 -0.6860736400597688 0.002725985308029638 -0.4208691520407106 0.13203261363652727 -0.37554487834663736
-0.24430622477856212 -1.1209964194833004 0.14783254862662246 -0.6963916286971431 -0.6144435295682208 -0.2024948724161589 -0.2849346687540792 0.5073837636466049 0.33551769061180076 -1.0462050555886389 0.6322289156955847 -0.3116650585670061 -0.3310229319176025 -0.24126407726060248 0.0609510210238427 1.0910616835796734 -1.0706849232181963 0.48992388719915736 -0.09004722540391377 0.09561717380355246 -0.7841304861843715 0.18474008988962035 -0.1363553673216789 -0.36319734056556496 -0.9049228319288944 -0.621483875493705 -0.2761956760127791 -0.418845746526844 -0.7646903966732115 -0.804381581838131 0.9943054210519864 -0.4795629998887306 0.4821663227652279 -0.18501129263591012 -0.4755079002103421 -1.095499621017007 -0.6823325659737826 0.05896089352608647 -0.8694915349648322 0.19317714832528188 0.786896230880157 -0.5726830593996312 0.4360059678856728 -0.4732724961059978 -0.378532059800919 -0.4012266457314378 0.09743333533660976 0.38360456970021284 -0.8761376860227784 -0.8014693074072049 -1.0306038545997398 0.9198094036938171 0.23044039406619235 -0.9467703373040831 0.9214952197968778 -0.7877115462287857 0.10213340184376783 0.47639234476992043 -0.22786622598339512 0.7477744425633018 -0.8354379663066848 0.5722366567436963 0.3332705646621941 0.8847284581831626 -0.2892605936386387 -0.6933879490059701 -0.43403028985866693 0.5251361336801471 0.8927988726656738 -0.21835210688010395 0.935175001576074 -0.522593339321144 -0.44686970532281933 0.7211205925538942 -0.04409334958071198 0.5413095211919834 0.9895805536204884 0.8002365725619883 -0.9204278565945065 -0.29473397183359046
0.40829969741616523 -0.132983736098961 1.1343415612381345 0.5476663907038586 -0.658507531481652 0.9105149307750028 -0.8937466593930751 -0.356529239168983 0.5012270754195045 -0.3355343373419048 0.5055324371320401 -0.9094341554127443 0.09729716712535084 0.3500155482646997 0.33559555392242524 -0.523368156493711 -1.4229786748404112 -0.8690807341012289 -0.4717758063041965 -0.2980200737260578 -0.3261603339336471 0.3224804719030744 0.31854833747486583 0.5410175799718103 -1.1323342846933588 -0.08579201135893724 0.0627801213080016 -0.8211751133743417 0.7113490086228016 -0.17475645047650457 -0.9345315507535822 -0.4174906099202837 -0.3326449954840375 -0.2305098066037805 1.2554513679541146 -0.12481980890965035 0.5451758333471449 -0.9265490948366305 1.0302297053286968 -0.5831513531483428 -0.33776960942888373 0.8119982306878386 0.6537018084424434 0.5878476038183101 0.7973814587075398 -0.2257109986525708 -0.39852438551007113 -0.6538491217753705 0.49020127484745446 -0.9292441952582154 0.38060040746295243 0.27174179286616734 -0.02713200092023935 0.04091482390697433 0.8194841080312237 -0.12215436079423016 -0.9166553327577042 -0.3729647828406314 -0.499405238537287 0.7891432415140769 -0.5213062194807377 0.8661360493897673 0.06375739537537888 -0.5964737774761494 -0.08182985235625014 0.650515169202717 -0.743129671741122 -0.7721252042871978 0.31261290762774385 1.0293360982172706 0.8636733235126587 0.02504692483471406 -0.07232829620686193 -0.3094083404601819 0.6393388445878536 -0.7143681147878502 -0.5769340416979473 -0.3527761251220406 -0.5206483119419584 0.8510935717985134
0.4727445018381389 0.6890255714887042 -0.39138108854956866 0.09728215184755608 -0.7934023753879038 0.5620905734484644 -1.0904791866603574 0.9280491667105404 -0.6032051970738886 0.8870882226033955 0.9352702157593648 -0.7167482660118114 0.8440044496275957 0.5319301419453739 0.19045277355550555 0.7543512754667427 0.8554491313450198 -0.38720352162238203 0.0036597536305281986 -0.6220579925789439 0.19112978936234776 0.53092117573957 -0.00036427411362681514 -0.7103822912774185 0.8827680378091589 -0.5807958410288907 0.16419478041314248 0.018883370360376735 0.30707520607175953 0.69559793338445 0.6520250811180657 -0.6083127322583624 0.3605154214743645 -0.9493973537146551 -1.0027895842160761 0.6290654692876018 -0.8768609875561217 0.7286648106417009 0.6871866483624728 0.9381923542525721 -1.013607981319356 0.8799931727681616 -0.14364093610784714 -0.21232908144391807 0.1307861592153065 0.12550456301756785 0.6581538399581487 -0.5597628609276183 -1.016052337434301 0.22091793999173992 -0.4903683535925149 -0.65619460295353 0.3780214515923288 0.7931916526684913 -0.44520101204537377 -0.9176508610450471 -0.930467021233026 -0.1446404683661204 0.11546441601689084 0.4138665084711821 -0.4819550771827477 -1.032353081307493 0.029493194206772128 0.10543844109527327 0.7959694111514041 -0.8172005590654652 0.9153165164218787 -0.9997763665847395 -0.8034831896366481 -0.5249033745349657 0.7072441176359004 0.7511801096552325 -0.08574792690010567 -0.6686573500114351 0.6468638496370416 0.127281502792774 -1.0539350375817997 -0.45504276767828644 0.9737325903269601 -0.6868690788750756
0.9121937534927882 0.7484976030693066 -0.36988856060425646 0.8991192833656163 -0.976250267710159 -0.742174758225046 0.9164285071375812 0.3554044020808407 -0.4186663929054635 0.1927924494548214 -0.9203864997961868 -0.8554594195562808 0.7660874066540665 -0.47541153870902453 -0.14820210181318857 -0.07879378581835765 0.5557787450373438 0.6587710515125538 -0.33271882429899025 0.8621346350122846 -0.04441216549022889 0.855296039607514 -0.176362709904686 0.8553032763572355 -0.0035949146276938646 1.07973147124135 -0.2618356947851828 0.4672372504639384 -0.25032068091111837 0.19325445093256244 -0.5994400739828046 0.8033922718503217 -0.5042636681901639 -0.7704086093235188 0.45332160857089815 0.12378493854216768 -0.89374434563979 -1.001074328885367 -0.6440051379090194 0.11030107244337614 -0.6698600616835322 0.7500844797238368 0.2321813004274227 0.6864640767004119 -0.16672379828927356 0.6136936463543462 -0.6987703628933536 -0.55704020989252 -1.1503222796558905 0.6053189444531869 -0.023095578706345873 0.1657052843708743 0.6620711449057153 0.6203546658166148 -0.5101528788077934 0.01841612878566048 0.01594769464862171 -1.0501513783185767 0.02735802916908648 0.8143512379604056 -0.3303183438132057 0.7863704012899433 0.3826215564587442 0.7086875326214395 -0.9415960215085736 0.921885476470348 -0.8069579319570381 0.8050113585976054 0.5809631975848765 -0.012923472629701841 -0.3156910042273822 0.03444179960339135 -0.6668035909265259 0.30607082744397074 0.9395463445640971 -0.7789836404954641 0.417105843799295 -0.20749933621693079 1.1668856540778645 -0.5719361618910682
-0.23221060235772195 -1.0310866068887985 -0.3762616634591509 -0.9926709082732104 -0.9795640633211767 -0.4483666235118066 0.08007548863104381 0.7582317573533237 0.41006624829202803 0.5056407440140622 -0.6256737426662679 0.2850447353660773 0.5851846840899728 0.46047614350187266 -0.5039813088101086 0.9612891224585784 0.8053785799703507 -0.9181955524632376 -0.12423301657519038 -1.0696053763375737 0.3007480015767545 0.9862699855285506 0.7259708896219587 -0.4448785397633133 -0.7117147670686974 -0.07957525960474782 0.7910543197884959 0.23141817062944584 -0.7326436751419678 0.2225439084428059 -0.7173537921487255 0.9516191878124415 0.7590289893105592 0.190021974512621 -0.1730088873871765 0.9596799688994447 0.245420733520888 -0.04684211916247673 0.06366776414069443 -0.8008710503278008 -0.49930247452662313 -0.49799892680234437 -0.34753321729960657 0.09294920538603715 -0.3289947945891928 0.7810195982795252 0.2824769966707303 -0.1756096634534209 -0.7438361421334679 -0.7328685417088865 -1.0841587065635674 -0.8385966190603883 0.9615807664444879 -0.7691692161816865 -0.8458705481650916 -0.46216944099400165 -0.3282249267579397 -0.4530808956171947 -0.19707107054732265 -0.03629894806969193 0.46514568378762067 0.024828118669413625 -0.8942617198479313 -0.021337236440994996 0.6396329888929722 -0.5333599572630331 1.0079738106176601 0.01846810413779851 0.9615789598638436 0.2532854902084457 0.04465363479091593 -0.4808133286827166 0.7720538848351784 -0.8513886589722341 0.7825485421533387 -0.9835181239597107 -0.017912019328122634 -0.7538294934489835 0.9654585408866102 -0.27178593401566287
0.5611392361401368 -0.5869340523142001 -0.7446551882099905 0.5608931023709212 -0.2526564787878454 0.049349111750905894 -0.35651440693069236 -0.689350866258454 -0.15963719617550848 0.05590865352811851 0.023047871127225436 -0.2787441298261423 -0.9413765144009014 -0.12698562995245688 -0.6282921926709216 0.6325152634728219 0.6275163618059354 0.8662202958081399 0.640880135282582 -0.5238533316726417 -0.8690115135993914 0.6493381266513935 0.8800757136001837 -0.8755360389745791 0.310982359072619 0.8755720625418147 0.455180576275122 0.14120793987533845 0.5183049073951715 -0.8222453695164315 -0.02768144030888938 -0.6328332420901583 0.1153313262776252 -0.7434556167350489 -0.15868040639247513 -0.9032581892533335 0.27042506927582116 -0.1487163282943106 0.33376289034272383 0.3606228208273514 0.2687300936755008 -0.5612435915476569 -0.3886876944050031 0.41089228651737597 0.4396720387001602 -0.34153367463345474 0.18756021863011285 0.7703171506789468 -0.08070587449155074 -0.5055492027065469 -0.4123887284911165 -0.8448922831726434 -0.3805192962156799 -0.7126587062081028 -0.9956919871303684 0.08726991024292295 0.9428838977644607 -0.9473244794560008 0.21247284961645416 0.8924027663852226 0.3775656007357444 0.0683683591266888 0.2098729453823375 0.1817498423705505 0.9162040471432248 -0.041173753337572734 0.22759733900594292 0.13239165044675555 0.6210323291107221 -0.5558409597824333 0.43289454373303904 -0.01911804336437522 -0.42057767153591663 -0.6330994369803967 0.8155252194148563 0.9515370689011164 -0.9690231048036129 0.3979970735311906 0.26103682778789156 0.18674095470730132
-0.004558101781186874 -0.4234938203337619 0.06489419210678507 -0.8689146663585695 -0.5410681943703541 -0.45986709315560537 0.737261375128814 0.7948673889399738 0.4189653784809538 0.08388563316840113 0.10926024690292671 -0.9559506940433244 0.1826489714660353 0.3152982908487902 -0.06487931437519995 -0.6578480542697611 0.13655922530453665 -0.2721810818567631 0.7666420399117105 0.24468365175031664 -0.6837807481206944 -0.24355330893156582 -0.9693672582391014 0.6992958251961853 0.8967099275979218 0.3656307470528503 -0.8760761337415318 0.2266983372041203 0.6488890474628307 0.5460358003020764 0.0029600158150703713 0.7472578801426717 -0.5907195537763779 0.37363168454405726 -0.1065247523582175 -0.635433859817657 0.7906916167714633 0.511046235305186 -0.5899251776928134 0.5248499571184845 -0.43306555582083617 0.6170906605363445 0.5636565109287537 0.5190110403377762 0.5679632454510871 0.12556762295448542 -1.0300018231230221 -0.6948713561322793 0.55871362169929 0.38113768688510513 -0.7841309474903556 -0.3325755167754838 -0.4000440940985659 0.7301668432069565 0.5171327223730452 0.17349472192868143 -0.8637911677715864 -0.9172734897742083 0.5230199244895648 -0.3580246271738562 -1.0442839502653147 0.9184532381147013 -0.4089231300186222 -0.5073589109387941 0.14623124665517714 0.31411087018371975 -0.7389820218344505 0.027501671654448702 0.8485645215692159 1.2567864126798303 -0.009144514808539344 0.8115254084836355 -0.6490255083513435 -1.0734565241798053 0.2986213010655096 -0.152627141710766 -0.45077099099613616 -0.49628327654085375 -0.45019236508281607 0.34445786466074124
0.2549729363771345 0.2537787468955476 -0.6117589146626362 -0.3026418410591673 0.3490317690892916 -0.4169438743923739 0.43299679666231405 0.8838106198215421 -0.9363380268673164 -0.7132514410845274 -0.5727520096953364 -0.782575609789459 0.9992196531584994 -0.5080125192689661 0.5326462113366786 -0.32762549454018336 -0.13037531170937394 -0.18185827092518342 -0.20985342257575273 0.8536167167508806 -0.32067093409325365 0.18803425248869138 -0.6150582089052398 -0.6538885443939175 0.9587111301497443 -0.7446861376893043 -0.8058148017816552 0.38574360863382207 -1.0748388716417123 0.09368936724758326 0.4313035054682346 0.5543495836875988 -0.7523629419084962 0.8475540642680327 -0.8259838416455405 -0.349824788865008 -0.43111150045405094 -0.676637796794144 -1.1069485850073102 0.41572323009635825 0.24813914007079443 0.3865250795880219 -0.9712784651681995 0.4726230499042933 0.19795110120299922 -0.6850260035028843 0.5895107288528697 -0.21933141931326125 -0.6361769014370703 0.8787410216538328 -0.19838584862738842 -0.26712391996024903 0.4277634603820075 0.03438840061483589 -0.05835181827256003 0.9183085299393552 -0.6107035955531942 -0.603753116501104 0.756368181278224 0.060581959150845216 0.489976355304005 -0.18863433057509765 -0.5330360099578382 0.3400644371088522 -0.6336196649577134 0.16349953901054534 0.09704362393277277 0.8249630296605186 0.029422550561453605 0.6130785727529523 -0.4937706527939556 0.9281144357258969 -0.7993181925247941 -0.4264523000200633 -0.5906022211497859 -0.018858817744782628 -0.8524352918755218 -0.5845392844733869 -1.1540073199604257 -0.6163308334541713
0.840640962746473 0.47674101211869935 0.6300448823442177 0.7968129873983977 0.20502083308154917 0.7019571729780346 0.7735401321099036 0.35098216425498424 -0.18059646258146697 0.8757581630280512 -0.7644216554911302 -0.3322761232169795 0.3383290715440421 0.9770989000556369 -0.3777328523776324 0.014315135757838488 -0.4727237412781424 -0.7418713674698699 0.6049094539807842 -0.6586318165537028 -1.0046309782126364 0.891531073139775 0.1472920328604728 -0.7832199659855185 -0.3383365782242415 0.8533671012888651 0.1542167893070157 -0.4427836488835839 0.754833614804831 0.4126410751820891 0.7821668945058611 -0.21238231187177867 0.5193539836875445 0.4978393784663947 -0.27644957102723644 -0.7728759348105778 0.6293126793910748 -0.9912778102400117 -0.8410165611206698 0.39403844738257443 0.3828800637026292 -0.8536194282620744 0.26369240679493805 0.24045090101162073 0.019128868273831607 -0.48117790278936057 0.19314720811927086 0.6731468639455823 0.7524086289023524 -0.7109533126507004 -0.39689762262127665 0.36594946676411083 -0.22692764049420855 0.782925257565337 0.7877248785115483 0.5561780563085379 -0.9838494273720155 0.08239388876695428 0.990200879356289 0.8155667580523261 0.4096685755457661 0.7479110717965806 0.32958448039201155 -0.13437625504750741 0.4515679075340915 -0.014360441849494789 -0.32472831729829166 0.5013710812679841 0.03523548941502193 -0.9198965150268269 0.6127355095944276 0.4963371909443833 0.5288724711816147 -0.3749657429790695 -0.7067827986247832 -0.4491059724096655 -0.8803562533766527 0.5537588665349261 0.6532785721600975 0.08473263163085397
-0.28196852565815167 -0.5648267997036283 0.4330258612794351 0.9771116263161788 0.7762240636207505 0.9513439865835891 0.8845189306416293 -0.3841242293481655 0.6213132381953078 -0.6198756007093223 0.617186205825396 -0.9163000506893733 -0.11595722762775516 -0.40441423406026644 0.1886360656131859 -0.9124732173823902 -0.9137804627962433 0.704521701132583 0.21989490415762686 0.9999508010072466 0.9430232849479095 0.10521208114409587 0.1612799640480719 0.7358615503699114 -1.0577847709538708 0.09901523293189839 0.5089474113234613 0.10842975657310583 0.370088975014742 0.17908081000445975 -0.9362311857581408 -0.5904091708578368 0.5268801877002626 -0.1033137414656109 -0.4686910717842789 -0.15166837288686055 -0.27820259555241034 0.6297410605688898 0.015924089732361604 -0.1762555673179563 0.36019919589281074 0.7054302027747541 -0.47163616838696043 -0.7869747460214489 -0.9617230463667623 0.42006453797429233 -0.7807795408669859 0.3650235011485094 0.2855531806811625 -1.0817146484960685 -0.1346608057084103 -0.9413831754696105 -0.39682096410485856 0.6047439113716219 0.48658235979060516 0.9036131391853942 -0.7308125473955736 0.7178560627509968 -0.7817165690895498 0.7887235930455474 0.5517208975496136 0.316824157240652 -0.7243792783937578 0.7434500676211273 0.2646505121443332 0.29234546509995857 0.587560573752462 0.6097879004643044 0.6128584300546764 0.8925182840007551 0.32667781706006527 -0.8741790124581033 0.0799913513671572 0.23416355303476058 -0.7653888445573436 -0.7444478552178077 -0.1293275973536231 0.8594098234527316 0.535725919396225 -0.44977113905092697
-0.789408041668741 -0.6572480141583019 0.8220628657441152 -0.3736387254931389 -0.5601458390202518 0.8360921117715946 0.3775912089614339 0.7903371255900757 -0.46931808884413045 -0.7031201604792793 -0.3741154789327229 1.0717196103956221 0.3322860657187195 0.8434640228307765 0.17205870974537663 -0.7352781948304963 0.8428711120840203 -0.04216129934738118 0.5083233113045705 -0.5018395679443199 -0.10436755786263048 -0.30440769694944225 -0.4394031450278372 0.5881852574108327 -0.19088456055201714 -0.7141792415316729 -0.3744795920296322 -0.1594682156162472 0.2763040351316856 0.19124771219670383 -0.7695811577694442 0.7094194225785144 -0.7670185940435422 0.8147973352546697 0.5956741526121495 -0.6264256943499376 0.3164432523389471 -0.4546815915128773 0.9285143400534009 0.6172990180439248 -0.18128156006622242 -0.4782463981647837 0.2905720334622169 0.7184562020546319 0.9550723022156941 -0.8268156785010957 -0.2941714362923478 0.49407220678894087 -0.6836180494917234 0.8558062952182706 0.07353173795608149 -0.14014451500657407 0.6390117249636601 0.41917426412266856 -0.17726396171405698 0.5380872196212337 0.8155994011010458 -0.5372967105687017 0.5853779914237522 0.606989305648078 0.3235522724201904 -0.32190542214893003 -0.11019454208726892 0.4021967713625563 -1.043524154393723 -0.6901468557765422 -0.1089404503255047 -0.5953237822507434 -0.17392448895713128 0.5585857174451718 0.4679394652465872 0.8702890570945645 0.622713622576577 -0.040978067468945896 -0.4840970548001117 -0.07292919317109609 0.5873471393308155 0.21826085258549313 0.18465517837192683 -0.8385051249789305
0.1992242190316018 0.2408059424395823 -0.7500936857959636 -0.2993358711150339 -0.6900191750299188 -0.5433990886294903 -0.48976094759426686 0.3404829031827511 -0.5495291685619421 0.47548539747914487 -1.026305072536035 0.8414099517989473 -0.20713471551067414 -0.31959059208155627 0.7340763361282653 -0.6491877511352292 -0.4642411700780151 0.717775251304117 -0.3829930110001054 0.8546924225195389 0.21088872945464412 0.736023175600685 -0.3208871578563483 0.05873455916424406 0.7247711631243241 -0.11710280645848727 0.32767590665260343 0.7098730121498235 -0.8989794743408267 0.9760079521639237 0.032662944867008666 0.8132439596677884 0.011318934858950039 -0.4924117538763379 0.3639874613338088 -0.9242882726636844 -0.14807903377106468 -0.9230301883094922 -0.7850686085967552 -0.6417603793859753 -0.0064039542843805876 -0.45089709785707915 -0.5618502049168499 -0.20454674274724674 -0.5142596351927744 -0.08515044599692312 -0.08113858351265364 0.9309157101823147 -0.4032999645256844 0.5094592107362574 0.4959585154281303 -0.5752204040485986 -0.061474579783235436 0.8750420429585147 -0.8322064983372616 -0.7932936304820696 -0.677659024205921 1.0304233934753653 -1.0240462068170926 0.13548801222523169 -0.7424348055454943 -0.627039534246322 0.3434903835629608 0.444977361552177 0.8948624315993529 0.15529947424155283 -0.7420713035010341 -0.1360387242791771 -0.7939604374336047 0.6133450060915182 -1.1064949616966917 -0.588014728718662 0.38958340056201796 0.512033358254697 -0.09072790260016415 0.831439431902897 -0.8350390078468487 -0.16865967046779856 -0.2683813224270941 -0.9226832344556833
-0.3907226656768934 0.2899371976299904 -0.20991364744562693 0.7594168800450275 -0.6612667430404513 -0.8558269192034343 0.2944938638046945 -0.01230531791418499 -0.22364145084291168 -0.317890611987496 -0.12905679917581878 0.8548622327243142 -0.9996804115485961 -0.8295871950771018 0.24447115397353583 -0.3670253231408398 0.16224632432827366 0.4835207050367435 -0.3304814509043252 0.701301744896596 0.8470378045802847 0.5106234868226953 -0.7841173971513355 0.588810122502697 -0.2605375836264709 -0.37223835489044543 0.7629502180230714 0.027802963084366444 -0.3696480477654996 -0.09990542191565899 0.7400655515929278 -0.1591168105040991 0.6509524659510113 -0.4992672952160974 -0.8344894926195116 -0.25279548019565234 0.5905511079762269 -0.10081718191985259 0.6912390037856215 -0.5086352001118953 0.9380299385477099 0.644310043821435 0.7818592448958773 -0.015412208185499326 -0.41247326836076736 -0.7851154192924461 0.263787685782748 0.724899340844661 0.3590277513996924 -0.5568941807361651 0.07420212433058672 0.8771927275072423 -0.6130633332815971 0.6739232786522945 -0.8099840756062341 0.17059609195534206 0.0762913385940855 -0.7825559325752007 -0.5529550606681934 0.9889643078924637 -0.19284041473567598 -0.7041602974253591 0.8529059695588044 0.24884365950274306 0.5811602892268352 0.425553371889085 0.46793091389729075 -1.0221959237335536 0.41268077579963963 0.29291367282341546 -0.5667779341007525 0.810077645096997 -0.7654199540185832 0.24266196290221762 -0.9133514880053282 -0.9901037649572548 -0.39594873649506485 -0.5157377647462937 -0.32820302053966166 0.609070999075241
-0.21497829461323104 0.8556926957558759 0.5731952290206975 0.9975398650697661 0.13151386779989357 -0.21491052124573448 0.8699028855305524 -0.2070500380339964 -0.21636071383288288 -0.3786125884741804 0.901831564667385 0.11881846455255046 0.5956369689194333 0.8122863211717702 -0.25859637404777064 -0.6165284049745406 0.7741254337641492 -0.9726734722574769 0.6698216783898381 -0.10525248071310192 0.10465853067181236 -0.3843475933784648 -0.7491183860814808 -0.961802305507888 0.825887208006971 -0.7902302111047269 0.9086430780838681 0.5927986373691969 0.11635591158205104 -0.8986211208332137 0.7298088590328033 0.730652066445501 -0.6621915850580672 0.15233420450053786 -0.7218994093479014 0.7324423471734687 -0.7420263312983513 0.9133220456203572 0.9665449928304386 -0.8258963976447568 0.8020998742979337 0.39947919736822285 0.6126556755897934 -0.7607318819864639 0.533267667408922 -0.06238566260139599 -0.21169908150905392 -0.2857034645628778 0.5915350429226931 -0.8892606805824259 -0.8394697503459714 0.6440759330599533 -0.26167959619938813 0.09533497288190866 0.081971646805046 0.398751577111652 0.2827161734399556 0.32238304135725293 -0.19713494127172984 0.715870493717571 0.8296015664844636 0.11871005507469555 0.4561438615234892 -0.365128629890192 0.05461167302875685 0.9864011616656911 0.8799996730343954 -0.7613818783671891 0.652175536762403 0.23104110893375188 -0.4968226625855499 -0.3249755513238333 -0.44204694949967643 -0.11074845193035751 -0.8006262626857219 -0.1949969207401245 -0.9880526923101324 -0.06554733991561236 0.7866252520874243 -0.91620179952571
-0.14627758689877912 0.07767604835846954 0.37018602907271875 0.34354833100221194 0.06916862920026419 0.1301827064923075 -0.043445339847524224 -0.7932364449848683 -0.2708368071551043 0.9566423512126571 -0.35541881472569575 0.21225497748373615 0.48058765843320744 -0.31353512957641844 0.17921513692072683 0.7902930302248729 0.5744720857890189 -0.4338692302373002 -0.52305000793301 0.636168615714812 0.08033943432100304 -0.006978025302934153 -0.028317570103411425 -0.8305720090792218 0.2566090578749514 0.4356667559019901 0.8162111271664249 -0.8390732915827973 0.9750923702366314 0.36072744230106263 -0.613548387068987 0.20782828814044496 -0.5346656588485137 -0.34776370167202036 -0.3564571214029999 0.7825020964502107 -0.3599307330413191 -0.8193449073124932 0.866060783124027 0.2366470320278366 0.511228825778771 -0.2874429389352111 -0.6233266810626454 0.5053882723377652 -0.530549526094251 -0.5838479244339738 -0.43516559686880363 0.36519451299410527 0.22163921517788038 -0.8544064345284824 -0.5031383356622243 0.17246715381152347 -0.18102206273758972 0.8653589167627381 -0.5652850442636279 -0.4276897070601055 0.15420614202430988 -0.4362045005807512 0.15953671618473889 0.36394602327348047 0.03023801618606262 0.7951097386412458 0.29296795535585507 0.734269929772631 -0.8481324899757737 -0.21993741766702596 -0.6653952230116468 -0.8594969689104041 -0.024559871410623612 -0.9812409755766053 -0.4515932073557446 0.816226177891025 -0.5487106368948284 -0.08489665695234665 -0.7936772841943781 -0.6833346489530507 0.5270306093695472 0.3570089463137359 0.8603700385168481 0.07331429153656692
0.6053830088326704 0.4722980625984561 0.8478885026557142 0.4108349740328373 0.00794721220371905 0.5876434556067389 -0.0845775085330723 1.065852989537072 0.47531882601191794 1.0342705801368386 -1.0906635639280584 0.8340439985634538 -0.06542672183295646 0.2850091976976721 1.1147893135601423 0.7049639748026275 -0.4089568955696941 0.6853857862954147 -0.9548821532366372 0.7163344678841821 -0.4164397290009199 0.538326868796143 0.4627474412108489 -0.3500727341732676 -0.3707179750904823 0.7682071747986149 -0.011879105326757114 0.8167596258138263 -0.1892774728028817 0.07536409316756584 0.903883920309185 -0.2381836953537947 -0.6115748881830145 -0.7183763412601415 0.7819259272508564 -0.6704601220860015 -0.659298995674962 0.19751706639873606 -0.1511763915966254 -0.7805336557302194 -1.093620729640735 0.7611030149353722 0.02274820035657529 -0.22869833665803577 0.5926447220676092 -0.6104751501049185 -0.4162443668921399 -0.5626622738419036 -0.03490075153625768 0.7462114585111835 0.7654718833511652 0.43792796883657464 -1.0293863889378145 -0.4727105981556952 -0.3353684970720501 -0.1397046874974773 0.523515885359905 0.48429756150010794 0.47944652019726364 -0.7736007322933761 0.25494096068279704 0.13448373867940908 -0.43896848664771393 0.10726574987812869 -0.2816348392331194 -1.0414206414321068 -0.0734720201938843 -0.1129294249359796 -0.4494452677171536 -0.058407694886077326 0.567327137886967 0.6735926145569197 0.20636609174446424 0.10681730770500845 -0.40206921747344937 -0.16483294345612523 0.5791715604802026 -0.5396184019724195 0.8578994880728162 0.9261949395938137
0.6374918702245485 0.06412864261341376 -0.6003296595528288 0.3327519119821911 -0.9809940901974156 -0.6277765130830684 -0.34948547696631577 -0.8383983071671423 -0.7888299571638585 -0.45940267856139944 0.14995637887961794 0.7799596840434956 -0.46494859697401114 -0.260602178130329 -0.0790187073883797 -0.7027089847260054 -0.16056700403499985 -0.5025436751931629 0.4087460787759677 -1.122813500627735 0.8723346997727179 0.09551996983480535 0.5184160806142759 -0.6369822711256027 1.135876914389447 -0.47968480072165204 -0.11599745023651187 -0.12525430288541978 0.5650403114396618 0.33251328778138234 0.7199753783153844 0.6010231071378485 -0.9467955185035363 -0.3917145074414544 1.1645128968492926 0.45762456930325296 0.835069874822447 -0.1660101979858384 0.68253475047195 -0.3454618957233865 -0.08363653536040008 -0.4282803783784024 -0.5735117307192003 0.8875142153057091 -0.45474769446382785 0.0852057871117538 -0.3800402860208441 -0.41881511913050073 0.8771450394879607 0.039553307588127855 -0.37290720283765055 -0.3668306791725887 0.7309297734261149 0.1912004065216255 -0.8669465604541075 0.584668854858104 -0.6429380233175636 -0.6817802418299577 0.6537836336748513 0.4435936140693069 -0.18171851509115192 -0.8015787904522466 0.7560665515779125 -0.6430334103875369 -0.22278141220889466 -0.9790272422938987 -0.6358905573231804 -0.2445527865322982 0.0006641397765146378 -0.3504205910001459 0.6648810007787868 -0.47401448559441706 -0.8818061561292126 0.9998498297294613 -0.24194406746421562 0.09024902409442336 -0.7807854658432895 0.6781515237371254 -0.9815219404395226 0.30009443320119916
-0.6636520347567736 -0.7994452921351445 0.6802814109471425 0.5907754483375834 -0.8098567733996906 -0.979956268882527 -0.46723701573488374 -0.8734351938590779 -0.014007544005128715 0.6448327437007155 -1.025016158058698 0.4672305415355747 0.3909318326096616 0.277477520438041 -0.10110004456485619 0.7397302349576035 0.6854517386762656 0.5651832399407251 -1.0608489164192432 -0.36360381901583566 0.48217728885180194 0.5498761178101668 0.5081157972993214 -0.5368132041631 0.10533765762574875 -0.9025642147345458 -0.5110487779046943 -0.7947138892065709 0.15198106022272168 0.14323740231815396 0.6616974776742477 0.4607918880886406 0.6996506856011914 1.017588385369393 0.5924204390666556 0.757229952167553 -0.9349142964267176 0.6400705354861 -0.8595579395952546 -0.5558857757457913 -0.1392110493730209 0.7730142945370158 0.1651079792217572 0.3619768249168363 0.04287618576940891 0.9814875861746328 0.704305691459772 0.07963052344050454 0.8103499653204249 0.8417873445266539 0.21045538593105884 -0.21167868900119208 0.10410123600169638 -1.005991048048712 0.19235431784062704 0.06436643775084876 0.0942108332353701 -0.6899932644261246 -0.09216022161746674 0.8708611059537515 -0.05845897206629459 -0.18514657928814268 0.7971551811071221 -0.692030172801474 -0.5712627721320372 0.10249801962556288 -0.4193467314025968 0.29387762782703575 0.5587924023866411 0.318496126652679 0.19234881790716823 -0.8937352521030806 0.7338805964631222 0.5066640352564907 -0.13027263958234522 -0.20454870929908867 0.7240078715476618 1.1121246231540085 -0.03888587866836979 0.5061314312963721
0.8171487051108124 -0.42146384074421706 0.7430042104947705 0.1985344263536071 0.9045695318446544 -0.41466101946692013 -0.9315003124869011 -1.1374265760817917 0.8738333127748935 -0.9357059656831426 -0.9646384918277403 0.9254731435675472 -0.8971079339228399 0.12492117627903633 -0.41546657933223335 -0.8415821355155334 0.9970390881405536 0.9238767958323932 -0.4418719712110014 0.7354935285281663 -0.0013838010322107103 0.6300531249763444 -0.7322103735943174 0.525500704716437 -0.8942344891094047 -0.8033642852955006 0.3745904670714055 0.887634210627743 -0.8620442908712654 -0.4792193742996552 0.5370013578086605 0.6305072355038485 -0.9025463384258458 -0.8089996614735353 0.904038486188841 0.8494673404844968 -0.9686039202607122 0.47628542276519903 -0.9754738746288152 -1.0213699545025399 0.9319100275150171 0.6466135639618259 0.23922438911087002 -0.5826976012675514 0.9168835234831872 -0.6775211274403117 -0.06444716975750402 1.0911395623790396 -0.4977085618776279 0.5343124057445906 0.7503011467727969 0.0881596920242668 -0.007450221760356829 -0.119069668001412 -0.7188696287001065 -0.19179643565839494 0.19849804047703273 -0.8524851151527918 -0.4862455529329301 -0.9119933752316265 -0.4849589129392904 -0.45782966295429467 -0.564309143221924 0.5091189470713681 0.21694047712224382 -0.2589829923830772 0.25034496440449905 0.32137511590972245 0.15912710341624042 -0.5682138685680379 0.8300326952493645 -0.33991228619864705 0.8053295546749788 -0.683755760699166 0.9949705609035375 0.5658700578548663 -0.01562972810890298 -0.7549928479727088 -0.356710934951863 0.8604604117326944
0.30956514500965193 -0.9936829615505207 0.10763911619208688 -0.3570344183212356 0.2326368754408254 0.21198566779327008 0.1732024137050164 -0.1770583671899634 0.28691747476250157 -0.2505192583856925 -0.9605144857163436 -0.5768894463620808 0.4944891921778159 0.8340618508765739 -0.6842483032960249 0.7135988671974798 -0.8476679178166819 0.7920638620983628 -0.04748717911311425 0.521995589410923 -0.44876867519120645 -0.6550574844290853 0.17130972539413308 -0.16065065238010795 0.4888758795421995 0.825349793778406 -0.884967804595843 0.8014093550636462 -0.20414038159918327 0.2863888641008505 -0.4030396429344002 0.8358502505515336 0.7814823731824134 0.7677301723524392 0.16018111841593835 -0.19848828240436678 0.6446633161240101 1.0407011457794515 0.5913547527768227 -0.22934522583620565 -0.12208394201519845 -0.1824712890277801 -0.4385088195719685 0.23299553511789697 -0.48566598946228967 1.0464967280903117 -0.0574565472596099 1.0002627442228358 0.023333312161457592 -0.04876035153530755 -0.4261631967541701 -1.0183408829541167 0.47474778983576715 -1.0578697998943183 0.7131924801955661 -0.14439171080155566 0.7882960798269549 -1.0023768320769466 -0.005046215426759199 -0.6194093654932787 -0.191050911164781 -0.7278092353782916 -0.6220063241868319 0.6551774034466347 0.07667491356194792 0.2217312969580842 -0.008647728560287221 -0.8155433031068791 -1.0035894446038292 0.7128351885846529 -0.227666858535784 0.8279717410119176 0.23296023362078064 -0.15248028076926126 0.10371770346500922 0.17865959177700144 1.0137286708633553 -0.40586378383863675 -0.5118303444689861 -0.3110769042271419
0.43184160502225466 -0.05033546269309261 0.6139044406805164 -0.32815264188198967 -0.7198513511661426 0.3394121056928272 0.5351538825889777 -0.5220157757866077 0.8468040136561744 0.8132119096816344 0.07598503428165171 -0.25762179356511217 0.7605390456216684 0.06358025523611092 0.2947403664615777 0.7654043461009321 0.34340638389256234 -0.4457713606344533 -0.7164686796572072 0.12193329640380712 0.5821138127685572 0.5756369893225244 -0.05308290864534065 0.2814035150877904 -0.9273039019660886 0.08879494071494713 0.18824653096657187 -0.6261152187862169 0.8816946920142306 0.8293580901391323 -0.628212480635248 0.7085929227843959 -0.17110491407067407 0.5128772673196075 -0.6090922326714489 -0.6731602312327578 0.6446489791148999 -0.12950419777123393 0.49649494633848107 0.31109305866623616 -0.8569990544124864 0.7905488190223903 0.5254384462996604 -0.8600641043307652 -0.9137481704867646 -0.9325934085073416 0.6773296902072727 -1.011610799398217 0.9216023973476616 -0.6294584629383707 0.9786435171933932 0.6631120701728493 0.8945354984427737 -0.2892753667468686 0.5550316124297462 0.8261481574039917 0.5314882970644115 0.2557323084195974 0.5856387822795001 -0.4936747396616351 0.2279614916643036 0.01782737165233851 -0.887202344067338 -0.24248730621627718 0.2632882011966129 0.8267205269744632 -0.7589353972161152 -0.06217486688490672 -0.8108644350811833 -1.0200588785739348 -0.022402982286618717 0.9831441120952574 0.1143684795928254 0.46600466397108004 0.7582779782515388 0.47138896066235453 -0.11294723823496225 0.3996270513350534 -0.2893605577503355 0.7391420294953254
-0.35980549035824483 0.49492655247706546 0.06636447933816964 0.1838539113640464 0.12141453016986516 0.980514830687144 -0.04640361163550541 0.6214890600205798 0.7091349979187574 0.49671937007803096 0.014300831249204013 -0.41040372779061046 0.0554263672980342 -0.6346672710574677 0.5451084704343101 -0.7849697178159963 0.1273677192458966 0.8642776918708663 -0.915785746234874 0.37223194361029965 -0.6729298047938079 0.10607842823743405 0.5300833651675592 -0.9504429749444923 -0.8940963676355912 -0.12376151100829755 -0.23172458182541913 -0.11107907982171288 0.2178091560411528 -0.3651109732987575 -0.11707871221698393 0.7304784114631103 -0.9110321155131312 -0.24816970237407318 -0.6089024896225664 -0.5014691491274065 0.2614364035342258 -0.49248143841154085 0.3841779282393163 -0.7605641210381081 0.1263738274481617 0.5910623813310221 -0.38168259940881727 0.6057320986126091 0.2995279436343117 0.16927429113707637 0.9382436288336621 0.27472896820832393 -0.8228085063237849 0.31227503656993383 -0.4031541501815821 -0.2875746112700393 -0.6141790263680099 0.655547414688922 0.9568779148762923 0.8559453385489868 0.09909154416914057 0.39457652818453115 -0.1045305994136174 -0.4866760317700438 -0.5586244049483093 -0.2770665552398851 0.661091850340986 -0.4419659493837042 -0.7921635816547316 -0.3229164459070115 0.4119057834885801 0.2837065662848278 -0.7484619319570924 -0.05814615087164592 0.881195124201772 0.2876986610694696 0.7689518949729126 -0.4772682874810805 0.6191313029775994 -0.027717644716753042 0.058811881076539674 -0.8943020308921492 -0.37477005780953687 -0.4492154234678504
-0.9440195145943042 0.9167110229023808 0.8022886322877447 0.4769425705785802 -0.7615089721060305 0.6671486732693508 0.5077841009002219 0.6184237106738052 -0.785238898837828 0.842519492923436 -0.5247424446835612 -0.7068718225911998 0.018671082019563162 0.5181659640188009 0.21854131362443552 0.34250924413264405 0.11507802284630245 0.5107633998633624 -0.3129993337039266 0.4751602930213587 0.584216764071205 -0.21181091997473983 0.8077010165369898 -0.7226712407365831 0.2788567215088467 0.7096910057468184 -0.5900502341847382 1.0374621939519137 0.6843666532146274 0.08755400428700877 -0.7029695304868618 -0.546629724348644 0.8199424658470262 -0.10590337749494383 0.5751051925303315 -0.6068556418459964 -0.45889944548597605 0.13799178649493588 -0.22694834349955298 -0.7795460790761829 0.5603931047382972 -0.7331263842496814 -0.5527243595396456 -0.2416448831503862 -0.9942481178620662 0.8729539235441661 0.4582143164494988 -0.46077773776285563 0.6996312529751456 -0.504145689262863 0.8880058037350367 -0.4310632060341881 -1.0426708946288807 1.022037867638527 0.9532530816425173 0.41257837627102883 0.8656136843850967 0.5705868476785344 0.8714065674147389 0.3846942342086935 -0.5452333057352462 0.29002783797299514 -0.5639207873927561 -0.03558256971559053 0.17516105847130684 0.3549228262677643 0.07139784522443694 -0.7167432116028808 -0.9679056758351375 0.17586129276889712 -0.9778063989240613 0.25142874027639467 0.8950666761410793 -0.3050638805458081 -0.7108081312446783 -0.2450641061019642 -0.028186367827392384 -0.23992769025404165 -0.11721209018344714 0.6219389754379793
0.31355894702169884 0.3683971759037962 0.799566958748126 0.7874865758898686 -0.37303098431392284 -0.019495540547774436 0.05670937868086357 0.6077248673583049 -1.022279471326928 -0.7110531108812153 -0.046435340814882715 0.8967277919014308 1.2232318585579354 0.8472730549320275 0.9798997666821772 0.3616417456564828 -0.11277737371419742 -0.6651126307074889 -0.36721291881942736 0.8126172531144367 -0.33594340055866445 0.7107944422501606 -0.5061498357434449 0.7011951788691293 0.4476932867283155 0.4166894013798868 -0.02899279033529716 -0.6202548076858713 -0.16741636287139178 0.3541329600541653 -0.3646349030888353 -0.3669072194462939 0.017200415628819916 0.5351069038156413 0.4078948756441473 0.12840243070912144 -0.26694967501709926 -0.8550677877072866 0.027858375181715873 0.2378951936251961 0.5729836109450426 0.14644832021728796 -0.6783503047693415 -0.02710078343995436 -0.49282490775491467 -0.19130037687666918 -0.10816507707555827 -0.573857349723793 -0.2057762543903777 -0.008405974515116958 0.19679391004008834 0.3353003027950255 -0.5772952635277062 -0.5018395487413996 -0.5227924835389944 -0.5528074005080211 0.01727201842821781 -0.9075980887808928 -0.04501273870779287 -0.3547950930050664 -0.9750276410930995 -0.12695598288617094 0.6149073200325598 -0.402293630215581 0.1830645974497312 0.9383476172360299 -0.40027996180802833 -0.024064773558764505 0.14970148745035977 -0.7859370868353012 0.36684756782211936 0.06954782289209649 -0.6134133846398516 -0.7268368247902355 -0.2949552406596788 -0.8452140167820872 0.13559146898072286 0.005813229900790088 -0.5418751035343059 -0.23415815601151457
-0.890686436305083 0.4450651037782554 0.20809765223168594 0.21565321552731928 -0.44311921435433166 -0.955264613947389 0.03613839153312198 -0.7844517568241022 0.9029580881919004 0.7495396182408253 -0.6748206044919963 0.056177723216241975 0.9347640269103461 -0.1950535604674197 0.13786046445064284 0.626821341197224 -0.601654750439544 -0.5773211747726632 -0.7341752029250111 0.40305393445584725 0.7139736944211689 -0.574328406383355 0.7762751873645808 0.6786287043907788 0.9475465378915819 -0.5617180386895202 0.6973419095132278 0.11564017137888895 0.3137289568969092 -0.8103747237415578 0.025905892611289626 0.431110333968314 -0.8013747241921525 -0.3573457564645421 -0.8224418852524498 0.9841202007967681 0.6079570361700859 -0.11900286221195405 0.12998612766574125 0.28478302035374947 0.6107550976303112 -0.10454358729917944 0.21872826827390138 -0.48044618921665566 0.1913460818301575 0.6071339384402975 -0.8812642051857482 -0.8705987972974834 -0.5598603716754444 0.3463574496064689 -0.6881130078261596 0.7289296612332299 0.04698931903560442 0.5843924352832698 -0.7685628658651901 0.8790110516720163 0.436675698417123 -0.892123054825208 -0.7702879173241844 -0.6185425890944843 -0.6903716937520924 0.680036273813396 -0.277117929595857 -0.6339733790201487 -0.4074697429257636 0.08786727041502367 0.29603889177613957 -0.35315133001019045 -0.592393203804395 0.0019255236684186917 -0.09030723937824842 -0.1830610841577317 -0.18786897235479044 0.6410348049883657 0.8916362838547428 -0.8640106811605085 0.6085321730848011 0.18204332955509242 -0.5298744731186604 0.03327630456577421
0.8995976354932391 0.38681316322406095 0.541822036962558 0.5610345057181758 -0.8585184096504128 0.7458519583041202 0.28580795681447785 -0.7241434452817751 -0.7149744890715607 0.8491085518206274 -0.8910127767990969 0.008611713628209077 0.2735655169963573 0.669273374020784 0.6834174364399643 0.3145186231167217 -0.4432917568390071 0.796550853207611 0.7955189856222917 -0.814720849401403 0.529292680038724 0.8097740863235523 0.20416999207360922 0.8976009930270386 -0.803291520111883 -0.7491972554802937 -0.8647280203899599 -0.6783735130025215 0.4975115157948471 -0.044618830950531534 0.9416900057741295 -0.44501880682331546 0.33920659160859923 -0.42088204606028357 -0.938358975300984 -0.29529025135209075 0.20716349926139654 -0.14959776124187865 -0.8821838220118382 0.31358575330046956 -0.33062841314586855 -0.04622000954609615 -0.4624146017324709 -0.9759948951070291 0.535835560402107 -0.3223166417671859 -0.01733640071464352 1.053248088726521 0.4054563631383805 0.6874606546039265 -0.7411566751479047 -0.23147841260245636 1.030778378485561 -0.17143600044371937 0.7852868256977907 -0.3649032013649532 -0.8085654872181419 -0.7906033366609067 0.15689676740623426 0.6662556884173276 -1.0044619244585766 0.8406688648400262 -0.6683061591668559 -0.06869140938216468 -0.8792389454916837 0.2786649574971448 0.31641828472053796 0.5449861957828006 0.4230364352522292 -0.7794863124237295 0.5848618595638657 0.5528573500228933 0.4748471322146889 -0.5103173113429853 0.6225706243983168 -0.843721033432651 -0.9353485547352008 -0.2227384668015493 0.392244051289866 -0.5900415916928686
0.3377835328804901 0.3795993388939648 0.37872907755636553 0.7945116273104148 -0.9993719993239458 -0.011920566979803511 0.6057432138687052 -0.6302599491515083 -0.8827760375466376 -0.6364406790354634 0.003159509182735114 -0.14411157512939043 -0.4486185670703543 0.8764932021326525 0.0534276102469234 -0.18330463503739564 -1.1507994965746178 -0.690855404084803 0.8323514884590699 0.2821706024365316 0.7662618665408825 -0.24526138597861963 0.17877278254974688 -0.9755369913177763 0.026846527037629075 -0.8755750414316033 0.9064814131342279 -0.031884786954499575 0.8983462965876574 -0.44394276096493485 -0.4692029584402052 -0.22968900066054648 0.030027088353187337 0.990550052203377 0.5179602525302506 -0.35524887730917243 0.02651478416197293 0.39954608233936706 0.47655273876864307 -0.7830510686615678 -0.8456577296738962 -0.8424685807341297 -0.7158625933007606 0.8182789629204633 -0.07506135522685485 -1.1020449319871635 -1.0597921409639253 0.37309325741224747 0.6217772834396146 -0.0569426567274824 -0.3010980108428255 0.3611339653542166 -0.9850994255951013 0.6587443117450006 0.6621279000582744 0.262726919278955 -0.44494411636378345 -0.5917306382407995 0.6765574452818816 0.21240700553913175 0.6634052406230871 -0.3476723652021655 -0.7372932341304459 -0.19110576360122164 0.4437351093493674 0.7591118645583235 -0.6711896536850075 -0.38532087946531224 0.3718262501605368 0.9087558226327905 0.4064394200582239 -0.7563893448284064 -0.44586002830362137 -1.18154736761744 -0.6514097853225842 -0.4781697719434352 0.5009996335190525 0.2697342200383463 -0.7565022348497795 -0.20297148821075484
0.9368367910403441 0.534694107663445 -0.8786224926296243 0.8690881618611312 -0.48758075112583726 -0.03653324229059593 0.2964840927146308 0.4758135121559353 0.11142324362309161 0.8659494114519786 0.3973400968951864 0.4958963384958442 -0.7908063406819142 -0.21021516473784072 -0.674038610991502 -0.771940993050025 0.8452498909048454 -0.848978703623678 -0.07862080428201229 0.5914739571278514 0.7631282469489409 0.437144641087974 0.047412464703165014 0.8161011988369358 -0.5211121693935064 -0.7829169748894123 0.7549983629924722 0.48392811593762197 0.08130981353867443 -0.5105430288557384 -0.08043923155926254 -0.08017918114118511 0.9427921473597467 -0.6988852603508497 0.8004669275809276 -0.6766575209176662 -0.7251403130655415 0.44126261566446695 -0.3088549620156561 -0.020979771458791076 0.3388227200959144 -0.2504553165912358 -0.5442518800563285 -0.1023324000436553 0.9658024257996761 -0.2752193856662017 -0.7501719515043368 -0.8067464266322921 0.24940797756584548 -0.8965894943242513 -0.9530575318626494 0.9089776980207948 -1.0598133560587604 -0.4146464413567884 0.06407066756389942 -0.1047995957712609 0.9561499460105919 -0.9714656005644314 -0.9571825210257481 -0.09911333979521836 -0.1138903512193059 -0.05130735389554227 -0.24393856904122346 -0.985096637666519 -0.7272761907697181 -0.4490248438006319 -0.08471085141944518 -0.2211752793467032 0.7281429089070313 -0.13160851598000062 -0.37918715029547384 -0.157135377383901 -0.32120459109560945 -0.8507109201472013 0.8669551525248131 -0.6389290974360466 0.7197353744832391 -0.4791887238038742 0.29074713206971736 0.8613180050138061
-0.631713428852057 -1.025694486870321 -0.14304458340574192 0.2376516161034945 0.41848255303827286 -0.9844966980197828 -0.7647099772762671 -0.9524401331592209 -0.18277276478996882 -0.6457893571110589 -0.324947683391228 0.9401610689835261 -1.030208392969549 -0.7870165306738133 0.743410183969806 -0.259441948775079 0.39428528171441884 0.04591981893727079 0.2867196850314977 -0.42942656454065903 0.8089457592614263 -0.8343392103968341 -0.11018495957528414 0.6195261554551957 0.9805710928155821 0.6107840859788862 -0.8812858898090493 0.9152636151542524 -0.07792090826918265 -0.6775108939037169 0.7750015254793909 0.6078552426771413 -0.184988623257536 -0.8493874843885695 0.5188336731486756 0.8842006753472469 1.0408817983999898 -0.43971863738320693 -0.26815575868172375 -0.07548777935971093 -0.30794538418545586 -0.9039759073865973 0.713827425967378 -0.0016393026634507924 -0.003119424749901199 -0.23604073185232835 1.1148344536765369 -0.14374058069374301 -0.18624045511560983 0.8430207490539026 0.5363219415404039 -0.0651726816972241 -0.5661745924382635 -1.0146129673771767 -0.2685990591447543 0.579956987815664 0.16791215178780433 -0.6524368199679715 0.7003724969449506 0.4092872990750936 0.11371928742212978 -0.2075977816622093 0.04857768941592693 0.9765214761002803 -0.1522548386562087 0.6509983056806833 -0.6913074713428365 -0.8995743005857385 0.28936800237691224 -0.045998988438293635 -0.8060480542651494 -0.8775752379051278 -0.3936960874247118 -0.16889464736973847 -0.6775929688983485 -0.39964723138053965 -1.0703162720631263 -0.6118508903274426 -0.1830135708890394 0.22571372645985305
-0.4414723767068853 1.0160071352056872 -0.2614931056630846 -0.04787931653108352 0.5919848661018781 0.4216874220106197 0.11767952887075134 -0.7838349491163353 -0.31435655189707123 0.7362041331763065 0.31259175814239526 -0.48007377782466043 0.8469003856925649 0.05438588780411628 0.47195282010323336 1.0346764858374726 0.41649637391105654 0.10267110347726409 -0.34384060681908124 -0.7746373652269677 0.142202651512445 -0.6829404672590638 1.0879350444405391 -0.4687713816520013 0.3028144671120317 0.7975102403397002 0.6543831162487366 -0.7186387808123748 0.41800875117681385 0.30017789965915675 0.07177227783461955 -0.36569118895094804 0.062202556548646114 -0.4325731489692552 -0.06850417567788529 -0.6571367334385528 0.07290897090487394 -0.702715669152037 0.21411601549514145 1.1794043663046254 -0.2052486626637336 0.08894172546320843 -1.0940763844735828 -0.5232897650722095 0.6524302038653302 0.159252076132525 -0.13159231909863053 0.22662329424871408 0.9803311182398399 0.7688056181048154 -0.9971065865680572 -0.19699147438275103 -0.075104764352352 -0.35393236124287736 -0.4451924698672278 -0.6987208008176172 -0.2867984536773804 -0.3846004374361891 -0.7570090121363156 -0.22729485752840786 -0.2416813957432546 -0.8569377274651018 -0.17310109436875598 -0.09350688335853802 -0.8604353689278692 -0.2863819746476357 0.18934924228893976 0.5388669842718309 0.039443494415894745 0.17028089466788762 -0.8320483807611402 -0.6074675893537147 -0.4363051959543144 -0.8444338841968638 -0.6759420780993717 0.459074868467276 -0.41667458585086453 -0.5595999884417177 0.1659636142924315 0.2053007181440141
-0.5457766162069921 0.22342341801399146 -0.6005544845118516 0.1373133406946447 -0.9033341704443725 -0.2059029908196172 0.25970209128080995 -0.520167727058685 -0.8633769218198428 0.028001387104390985 -0.5663491993365077 -0.6958488766387314 -0.0774479357366676 -0.12259175023781038 -0.6915419739324418 -0.42172155040472453 0.40836757860877526 0.8433170651418143 0.8808096807554268 0.33379592096152316 0.7114704730651459 -0.712705728991185 0.21345857814341818 0.48139694480612866 -0.7285258616703602 0.20304607135628341 0.2529180128737902 -0.6022779242263769 -0.7768147936074574 0.09555954301237041 -1.0083807967282075 -0.6946893242864225 0.15952350964305456 0.8982411447327701 -0.4958812319145904 -0.3468341600779744 0.7456703457751763 -0.023044580996903166 -0.061478073698140547 0.6096406261090579 -0.3057070434062269 0.05855661246890618 -0.4417122132893791 0.12327122776688886 0.6313292834360905 -0.6420692388358474 -0.6810116490094921 0.1457241377694242 0.39241750471718534 -1.0061655570005885 -0.23308867524889448 0.8191614683627102 -1.044637320740131 0.022223628383891046 -0.7962963358900292 -0.4077613853064565 -0.01908947025163086 -0.15536880612617482 1.0073524919039865 -0.8836963398864749 -0.8748166552831834 -0.34418569219021444 0.20857386415013873 -0.19491067768941803 0.32437041809811357 0.08804876286265294 0.21071233162798864 0.21615125771832727 -0.8066714193865541 -0.8358417024366206 0.927174508613958 -0.6271052952828956 -0.47813199047433164 0.7559544536915969 0.7907680527190453 0.3119867481903461 -0.17802955474739032 0.24441617765483434 0.11490732491560395 -0.7242532259996192
0.7413836179992823 -0.15536164758523724 -0.7035441102969493 -0.8205622440969806 -0.44388123552995606 0.21782960951355107 0.7002909936752414 -0.7132209423626571 -0.055498250557923005 -0.6305493996283008 -0.29602847184553754 0.14206462598169822 -0.5027960869974883 0.9150662149650273 0.32147559561225314 0.2829482639036833 0.967010718936881 0.9824313165929917 0.38721463091668257 -0.22178208818416312 0.794524375148054 -0.4719165595037633 -0.6318172335580495 0.9283223054357557 0.9078940854878584 -0.9593090514604694 -0.6775798233696545 -0.26982768088631537 -0.6107294822360129 -0.17831894369321177 -0.4279018134825041 0.6731492153710625 0.25983047601832354 0.8118579976119973 0.6985050600694851 -0.009835114284262125 0.861630249463261 0.6560513723241106 -0.03098178865296758 -0.3809512389737328 0.38824814238720745 0.144717102069707 0.4115749745576147 -0.14155574200135385 0.8471581816997682 0.10855810907628646 -0.14129589340974155 0.5309597385191349 0.0013070163828904182 0.35776091722128084 0.5705809649347181 -0.47780429373963645 0.2350223609871161 0.9159476449309962 -0.47526680909455665 0.582987708616633 -0.30937203754368586 1.030272630374071 -0.6966248922204996 -0.28627387476027627 -0.5843191289889399 0.02143837653744799 0.08666663137590207 0.5464078945446074 -0.9357095479960247 0.3662444363919167 1.038954496359237 -0.18385142452914668 0.45723003393382416 0.20555524583402376 0.9760204552663342 -0.978200910910338 -0.1540058558662738 0.846971939465414 -0.8193883476233738 -0.5466130697486336 0.7453696989944133 -0.25076606915208305 0.16263850291339177 0.32252465945054115
-0.6444923548668797 -0.06475207195286528 -0.16462505617247816 -0.10919260625624395 0.4466679231281909 0.45685949210490595 -0.5110971426364865 1.1403824565992635 0.5808338233134177 0.7834164218649469 -0.8789780359003041 0.2715779846085049 -0.11577022749174824 -0.3710225708615954 -0.5783443726020909 0.3688302486728483 0.5337778036401413 0.5583575255114597 0.966899332525743 0.7317332510754745 -0.10750943956903816 -0.5063356510553633 -0.5760811410236782 0.07183090737763106 0.8694034859646881 0.863341641001348 1.0395026901141555 -0.7885673551613391 -0.46922296556491805 0.12082787298153115 -0.8896769557147243 -0.010073720715793065 0.41707124481247054 0.9168057291406346 -0.5150592339046927 -1.192578645571077 -0.10921109823631453 0.8489574522955442 0.5797299432245321 0.5283905422732299 -0.33552410819968936 -0.3697051638530825 0.7712524138117077 0.6917411825315226 -0.34569507370102187 0.8605812547876505 0.826162701227398 -0.5279593643431636 0.8553835821652542 -0.08460886579493254 0.7514012220127658 -0.1936772019166048 -1.2564930463348634 -0.556023401727574 1.0412511379781375 0.3186322594662448 -0.9861460077841161 -0.7090316544633082 -0.314058364414738 0.07459017046696699 -0.07438362860552605 -0.3732586530601669 -0.6462314735050786 0.8285451816626743 -0.7430431953300671 -0.19687508271597612 0.7249875872652775 -0.01987810523877156 1.1564310562360023 0.42538211759984623 0.38476200062742477 0.5575721369954043 -1.089438846710979 0.8127763269119751 0.85810305800634 -0.01778585478514855 0.1924389282463201 -0.5877720687399722 -0.022346828370703176 0.5644523033329234
-0.3235218313845398 -0.14926686265667485 0.5393961960273936 -0.7992578036194398 -0.30438809131136213 0.9182047433585855 -0.6130403060777706 0.16835335865113113 0.4455463771126661 -0.9044387081885753 -0.3315056381364078 -0.3111110476712283 -0.3324922327738796 0.48492088295983077 -0.1635980230247368 0.5017123206667146 0.009279136844928185 0.8372408118741874 -0.8016304454921876 0.4625429874743207 0.6728450465448822 0.6372295905106972 0.5355957230469001 1.0066449386617193 -0.6790974863221642 -0.005359987024982032 0.7980764130984359 0.8683026755952771 -0.17584963216511187 0.5530626636855194 -0.4529735625725546 0.6060272559463793 0.917748613050891 -0.7234040297873499 -0.7189570319646962 -0.2999069145835717 0.7168329126409104 0.935222484671851 -0.7985394730071903 -0.7871347423496009 0.2420928592653701 0.97930170207879 0.3273885931186008 0.2520170745763552 0.8593300796662215 -0.5443241661713858 -0.18016359587898953 -0.6235390384268191 -0.3902876475341983 0.4952315328753545 -0.6661026129158469 -0.9323016091007288 0.01933401122321177 -0.21118736870810467 0.1673000470210509 0.8581089537390504 -0.6213246193126034 -0.501597426713318 -0.48454483478957927 -0.8007379469904709 -0.9166256695737315 0.250154932004195 -0.34944153866484906 -0.7407708397707967 1.0666272649196724 -0.72838117719624 -0.8752577711939026 -0.37395391899023395 0.3485517062265541 0.6021917253873821 0.7495068162734441 0.9762018492077386 0.06279457905939706 -0.147904249926968 -0.7077327095653921 -0.9891812693056131 -0.017303887342268048 0.9179617683944044 0.9006539096742101 0.6368459141728386
-0.3254295253214792 -0.9154262524089183 -0.0948704969651159 -0.7423878590289832 -0.35490001210079986 0.8266977831548251 -1.04798403684936 0.6141334823150537 0.23196082521978367 0.7170029497043608 0.1507348861286648 0.4709008686725573 -0.07057441476218512 0.8843947452276042 -1.0871754976233092 -1.0419860702894366 0.606132050012872 0.6339168994086524 -0.11295164765242795 -0.03429926590048541 -0.07278379668387205 -0.5189368261391737 -1.2894178864565795 0.7604260133272923 -0.5701534082087564 0.40470904609556996 0.134026532209823 0.4701140864670266 0.14009683058691316 0.50269691072907 0.4523997086931125 -0.7093876691550852 -0.633197190653608 -0.42891245906812586 -0.2651435299090978 0.2778377068212136 0.2738901723585828 0.315536626623057 -0.846352214704097 0.8249749649643479 1.2860981023680251 0.2761709955921284 -1.1142096204155434 0.6435348453900973 0.5893480041792266 -0.9887423889883235 -0.40454295893938724 0.15227684885789355 0.6366400967208364 0.511061910045367 0.21613999025505778 -0.7243307648395703 -0.1205947514720472 -0.8610158573327895 0.20930296375185867 0.18665375607808157 -0.6606638644123974 -0.02344026201035735 -0.6393547989300569 0.8376078013021303 -0.5145970025665375 0.021564311429793974 0.7598949791949556 0.9070294142151478 0.2800567820438706 -0.5156657962384757 -0.9006905350176375 -0.995219449783782 -0.789641089047711 1.202862262357138 0.03127927748793921 -0.7589697090913942 -0.19742779274889333 -0.6529580330010403 -0.028904545468383336 -0.8871797440747573 0.21072480472463442 0.188075729659836 -0.39135343462565253 -0.2952311045132493
-0.35609484190825946 -0.6457019497595007 0.6326551664247732 0.3273981068447109 -0.4552805929579747 -0.7262079953281644 0.40309774291194134 0.5590332562507239 -0.6208803070876106 0.21327604983680926 0.6098186165825368 -0.3049998912613753 0.2847482853694551 0.6229805584525175 0.9836560240413025 -0.3709987142506845 0.024037331140131717 0.9172559165571716 -0.7659874111710322 -0.5460766591077022 -0.8623583659717751 -0.12444312077124066 0.7074396781662188 -0.22056768551418607 0.3609130950406906 -0.6083125148987608 0.4635808659195735 -0.39705216645636593 -0.47248192406452 0.35394480161073916 0.5793183201075455 -0.6691847895793613 -0.31955061592278505 -0.35665468716681337 0.2575007070684684 -0.4472650615064413 0.5477309493111153 -0.09011039005753815 -0.6034086306270385 0.5815187504488033 -0.09039893043729011 0.003281325303446869 0.8627414727393163 -0.13092778932881444 -0.9594659815886781 -0.053045972336064 0.8013733064019873 -0.6322449039238176 0.8680796280633947 0.1060143856681929 0.38443080586424433 -0.7400901261315564 -0.948743941353746 0.12271649106446157 0.7669407488765727 -0.6497275125422132 -0.3407471742715232 0.9264212565040127 -0.7424944459638337 -1.0082132566539015 0.4763349440403132 0.627172309877364 0.8294474979410911 -0.5715326166784329 0.30416162034892935 0.10373922007290969 0.6524978410051117 -0.7481211319612341 -0.8328393596411625 -0.29024647224738354 0.43375685583486345 -0.5367359875555427 -0.49883525661713396 0.7657309070554811 0.5096548368744948 -0.38525302947273665 -0.7588406672391933 -0.2261497322567638 0.259571928986159 -0.32625850322459826
-0.3560652080491342 -0.09218608219921472 0.12578674669772585 -0.4712900210999587 -0.678832113876026 0.05130774460057206 0.07108933886942342 0.3890571719984934 -0.16878367985543605 -0.4474525197552678 0.9619995826564638 -0.9910955036164542 0.7998640964051313 0.6919732195275943 0.4031971542535526 0.6218939190355012 -0.8141871558396091 0.44241253707062406 0.03185602780004894 -0.4521825149676727 0.3003973162437952 0.2280364772434372 -0.1980676591237215 -0.07627686729935972 -0.2634111034988574 0.0040351373374065014 -0.49520713772555963 0.9349358603691014 -0.028151455297028657 0.3668925048805552 -0.06559831316941726 -0.7178263911282093 0.13426048506265023 -0.11038652714317161 0.45982996606886567 -0.6228883977186277 -0.02741799341242436 -0.03470205515335735 0.13539208871033911 -0.3919656743281987 -0.00315098489340678 -0.6920722956041752 -0.14975920762248288 -0.6756521537708418 -0.9021412778936537 -0.09041130424608905 -0.6148740438347765 0.8019903085526383 0.17775573611342907 0.19124142012873832 -0.8760281980878956 0.706891285332439 -0.8408650675462153 -0.8682713024960801 0.4833553491441754 0.4150210240752126 -0.5041581519149543 0.8491794776125235 -0.8520872787740462 0.23747796611256491 -0.6765361006080497 -0.5747140673135065 -0.45940835825238957 -0.8628941597667208 -0.6774872253254267 -0.44126081876096396 -0.34576392887972635 0.6231567979926655 -0.14416709860926588 0.7283957339737596 -0.16653961291368052 -0.7588638562177108 -0.4884924284530565 0.6446980376902888 -0.827436800198353 0.11163385962439004 0.9761970951545409 -0.16486889563277568 -0.5876790957604666 -0.8111004485191394
-0.670876154973832 -0.8385627779736512 -0.5129124966610044 -0.24178230229607126 -0.62222858013677 -0.026559334871410076 0.5479360832496128 0.09184074871694452 -0.4487341959688459 0.03691776944521665 -0.3722237276741675 -0.4281883542189974 -0.029362969493311488 -1.005681515872894 -0.21677531546586395 0.5542992301035394 -0.6797546044634971 -0.18915492142780105 0.19862872594391942 -0.7820855061797523 -0.04983608961674451 -0.2695166761365079 -0.9643736230804328 -7.15767592334784e-05 0.9837789710333525 0.9338146276274497 0.2558002020825518 -0.7749294673475984 0.6964604137876348 0.47838115514034285 -0.7088759643478231 0.8177357324504019 0.31217097263977617 -0.9713332973312345 0.3967382083451377 -0.06277620792044189 -0.3531828168661267 0.76434717106104 -0.098667283671079 -0.22583402757669732 -0.04589422756029194 0.5927077898183575 0.7690683690339695 -0.42185133394291985 0.5847300529365963 -0.3994447006920075 0.05665124097772677 -0.27595761386534173 0.21328326013825155 -0.5533967640185685 -0.864410672487666 0.43512599209786623 -0.5524574625405346 0.8862151511846292 0.07962969181866632 0.03797819972219953 -0.17858926795091376 -0.8130007042025871 -0.0697284035854289 0.2252508260274682 0.018359214773711705 1.003555417739604 -0.3115179115918135 0.17346760458750277 -0.45020821870642347 -0.6325093366289504 0.2419582420865927 0.3472091210170103 0.659172557423731 -0.8092994062749926 -0.6061516129989961 -0.7304186616684379 -0.0005487612863509909 0.2627114035288758 -0.18376384092650636 -0.33242416416594106 -0.5941892149306448 1.0046381864350207 -0.3485497203918498 0.30369739482883096
0.6935487554075674 0.5238888579701982 0.641056365137912 -0.0866477061195348 -0.5102917002743523 -0.8001326275004543 0.5013455583736183 0.6706960301294086 -0.3985155138497311 -1.0543335018781936 -0.4455218503355442 -0.5125390457722835 0.1372549832434266 -0.9690559306448563 -0.3552116921333436 6.357384743813815e-05 -0.44779824927111106 -0.6743126518356738 0.6453870961461304 -0.36114311506419633 -0.2506929825230164 0.04181003933946983 0.9034133335132523 -0.5506989937810921 -0.49737426825034475 0.22610367718766408 -0.006276120170256331 0.7558363607587929 -0.27307497438530537 -0.40853118848730774 -0.2870342068215684 0.0987639474394744 -0.010030573968071707 -0.0753395965551588 -0.8282757031481567 -0.40394912227785035 0.08657123125695358 -0.6263110002404563 -0.9130775204168362 -0.14759498956485667 -0.652251168245937 0.3578878650396961 -1.0204918450236826 0.11274548441838574 -0.4385782318723928 0.3428728037517656 0.06841585872174238 0.6835677172911684 0.23742501547404693 -0.25873918940934154 -0.5781530548027631 -0.8767528139652682 0.10815160351997924 -0.0433545567710171 -0.3440715350894741 -0.4602274807432135 -0.7921347677110651 -0.30439405611756004 0.5244412755383866 -0.7126521296518242 -0.49142895919185237 -0.9363707230986481 0.4346075545978521 0.5895818043216486 0.20168584126787137 -0.1655759362736712 0.22297218060810528 -0.2938719163462792 0.9696023663925917 -0.16124807412207884 -0.7408642539431524 0.3161832411201142 0.5389066582817735 -0.7249004887935535 -0.25966807575807316 0.09848040956677388 -0.666129984204914 0.7152607753754666 -0.2375801958141373 0.8259067543602545
-0.23677862767393898 0.19597454926112337 0.9599455810491032 -0.09736377159578044 0.9130287382271233 0.030619916401961853 0.5972180978769238 -0.7324278929346324 0.11801458203714395 -0.18273141563985332 0.27635559430460765 0.3213102468808507 0.7741454674762106 -0.6717490837945266 -0.26425506856456116 -1.1309051222850885 -0.9953919328553914 0.2988981257904325 -0.031084047560488142 -1.1244475027133598 -0.3428054396346828 0.8725174928311537 -0.7296355586462936 0.24659331871287973 0.026753422555312458 -0.8757155087192541 -0.3613953915246299 -0.3099133577726458 -0.1571096102537092 0.06825839348459059 0.10876840784407964 -0.022718567233741587 -0.6181689825118221 -0.6232874282645745 0.2791560334332427 -0.22548356179167434 0.8643004823659416 -0.511099852699749 0.12173046097414038 0.056159764238836556 0.1935897862504903 0.11461278409165924 0.5134612178223685 -0.336611191686385 -0.6513537242017416 0.13571702332669888 -0.4860340604714505 -0.0404890433412727 0.6439958313101034 -0.9168838915765675 0.8532354408376346 -0.36205530178343653 -0.30704089251446276 -0.3047316660258087 -0.48040153081908393 -0.6701701754329557 -0.3425586666928113 1.018870718789304 -0.2823450314005367 0.17552430184654305 -0.07554344840589673 0.5146307361022893 0.4783704605666833 -0.45628620614084564 0.31979166778541845 0.21314286382241998 0.9592033813604807 0.752830084030611 0.48561064739497595 -0.6005398863724016 -0.1769994913196744 0.648028290620422 0.6513788067508995 -0.6044848282275183 -0.6857287374338894 -0.715096752922771 0.6460812731758391 -0.2175825392337596 0.5900893869148625 -0.2053400423016571
0.8320629913115594 0.6256243795714356 -0.25649693076691615 0.013407779375802117 0.6565102962217274 -0.6902504807323943 -0.9592590156784558 0.12024997966918193 -0.1388843540721891 -0.8295482156484693 0.6898647580179678 0.34811020594474174 0.590949514024904 -0.6499099655348077 -0.3690285908137436 0.8130485356953164 -0.2962764057039952 -0.8821363349227752 -0.802373137151936 -0.6118385018194097 0.07708530003650083 -0.32102599656537306 0.15807901597847565 -0.3179851626977664 -0.8308417157276263 0.48981299594598887 -0.14426482558590684 0.06249004559222788 0.7405811226774246 0.9368068621417945 0.20124137347705595 -0.7444953033590467 0.1448640390446884 -0.43156402547807465 0.5825394487247026 0.5547735706551251 -0.5706230706239351 -0.12094707993140744 -0.6751476169368453 -0.6007143133795878 0.25831961350876853 -0.4063372185459456 -0.6877537907797227 0.35762195231367294 0.12734970296703965 0.42138309302905413 -1.0239427402312202 -0.8583863859859697 0.8798004115094961 0.4189029777829486 -0.3239428770328605 -0.4759704614042186 0.14016478949378536 0.322973593880035 0.1663676893662171 -0.06559410367424448 0.03791844416857294 0.3495155008950412 -0.31038907796498155 -0.8225819278871981 -0.505588298960787 0.3652176377947222 -0.7256986563943703 -0.6558248097339988 0.025068709871645056 0.8476529923511813 0.44185660870574267 -0.9334303793993811 0.34201290834321985 0.3099068730324925 -0.3124688181073033 -0.18728161526210968 0.8494075390724674 0.3951240120171287 -0.13418694129237307 -0.3234935689429221 -0.15302578289320645 -0.10271577276152634 -0.37769763600515727 0.6381603811446072
0.6262760767322344 0.3939021424650128 -0.38928642047130546 0.742668239293607 0.6490582990467872 0.42109323055895453 -0.8481957346101051 -0.8827636806408219 -0.9415481858844965 -0.3298815930176615 0.519287230290517 0.42068170335505006 -0.1821918836030892 0.36583403128189107 -0.6381718215310211 -0.489294222494589 -0.34467420200583265 -0.5068914889635179 0.40767397162199037 -0.26430316920163655 -0.3951896347572931 0.5562487794508292 -0.825047422979005 0.2746039503481043 0.42120630884842103 -0.20890586397753852 -0.5152576555313294 1.0130641310055666 -0.29453539978767057 -0.3510765836869781 -0.8157750947483542 -0.1909797915402347 0.652901981735512 -1.063167379708702 0.9197408802132102 0.11502635020877938 0.2961865854840802 -0.3336679089840207 0.08823912966522852 0.4109210372833088 0.8431304225352807 -0.36696086986117815 -0.8212830590030812 0.728301190029418 0.6127597912173036 0.7390666298723177 -0.7020227032723939 0.5347988261189776 -0.006115241939341658 -0.3957635380033473 -0.6434007209975079 0.9832401896651466 -0.7776582232241576 0.8599298851318783 0.6983324299352714 -0.4295722251856405 0.40081718429932356 -0.6364009188484343 0.6460337345614737 -0.026890702673572218 -0.8467070400417879 0.24897340011863767 -0.6509674499483087 -0.6416668044489787 -0.9998382681222454 -0.5897338485701152 -0.08559350175514728 0.4015969935642929 -0.12567799377222424 -1.1882393622207434 1.0417058456140003 -0.897179047588167 -0.33662781163330446 -0.8067488042088221 -0.6359008587608769 0.24672171859026654 0.42199788753961837 0.3361682961855166 0.4923479540598333 0.24116781077557845
0.2860006232957437 -0.28393634393374834 -0.7146128162378496 0.1071748417226977 0.26731743627863513 0.5544752850497963 0.5588178243930546 0.14588432672553883 0.7511574386642781 1.0230686225195076 0.22604193860141863 0.4768365002204395 0.37094942081841903 0.9286989428347315 -0.09724506213415318 0.9772517827707572 -0.8607321821929305 -0.15430315109793533 -0.6108866050633251 0.38018922996687465 0.3232336106187548 -0.11218076382596753 -0.3505087963730878 0.17992883488130534 -1.0373063732242063 -0.25958757214294714 -0.975054755455891 0.1653445880306765 0.3889584875176572 0.9128795664330559 0.5735306504396893 0.7350781776533825 0.44823255540014706 0.11981213382544936 0.2951799910858082 -0.44488710095793393 -0.825596031261537 -0.16689235847383752 -0.6175399121928573 -0.23192303260477384 0.849940206702126 1.1172752250192128 -0.6615003756240144 -0.7316590741232157 0.7785768861554782 -0.14429494287432112 -0.33712644990798263 -0.6303406974927753 -0.26763410247172414 0.12520880482077512 0.5267148716900703 -0.5452305168083801 0.8212937105535658 0.8353782167857952 -0.6509899820923534 -0.19319790210523405 -0.1697772033285069 -0.7941239227523232 -0.9023625132948889 -0.5744375288994737 -0.9185953649600866 -0.6746552940313504 -0.7016593113320079 0.9062263062018604 0.7397186223577901 0.6856862128605171 -0.6139149652478858 -1.1129713928355511 -0.8524814552159475 0.6920683513380985 0.15981418602132683 -0.8842296798870205 0.025950149591354145 0.6783203257896834 -1.22908832297234 0.3878842686608283 -0.6200217219763293 0.4546363521439596 -0.6643428734988379 -0.7746303426311363
-0.4176701180594038 0.8932615030926856 -0.9302126754587996 0.7810212563993075 -0.24406393768227008 0.4715693383923373 0.8165178754525416 -0.2444422780676734 0.7840662139146118 0.470417353847874 0.7253047395831824 0.7048608527338247 -0.10338174057649133 -0.4853766236545689 0.5800314074986264 0.7515512832249939 0.0032205554982872114 0.768763582353341 1.0054610723760318 -0.3972380878258349 -0.5900379486660129 0.7357287534399733 -1.031578351173996 0.5445369082076389 0.3598585114511373 -0.2730303931777337 0.34182117235659615 -1.2132545231556744 -0.9221474531050465 -0.19044856848945368 0.5620658683084159 0.07142279750267044 -0.704263956973248 0.06425247182367391 -0.7259797428130226 0.1164572581733064 -0.09352705751649518 0.32482841954417413 0.2837861784554775 0.9386546719986593 0.2472109832150424 0.3750406211084131 0.5668018853383865 0.46370870927266084 -0.9828958514739979 -0.22035979870536887 1.0945491493733028 0.26363464149265015 0.03464025470165787 0.12364939876454224 -0.5203945899127743 0.30970930090277865 -0.7495787682275392 -0.6829371358754579 -0.8483260356158429 -0.13690892337563917 -0.6846043652863686 0.7357478952960617 -0.7173455093316736 -0.29059170886782754 0.9627368248862748 0.31253974441308596 -0.7414098973557652 0.8924404392540776 -0.6544483694118124 -0.834458822722362 -0.7707479141177151 0.7284516301124228 0.5144741967658064 -0.5249741980420558 1.0354694178984052 0.5410372183028692 -0.13291868069927737 -0.6181877282777578 -0.9736292848080363 0.8566334981289796 -0.12986498102782085 -0.4052699723884457 0.5269780361371059 -0.2964340471021868
-0.8446423541108503 -0.40150669685056967 0.051300170961512695 0.8073654236889675 -0.3847058177078591 0.3238987251347076 0.38072459589961966 -0.9681534585429398 0.6061364207303501 -0.1041446494739831 -0.1477007386150362 -0.6983661856059493 -1.0208839894290194 0.8123717524536005 -0.1390235237348525 -0.6615981259999608 -0.9720993879626112 -1.0041408703458152 0.3195222474448808 0.15565204242982475 0.6812918650204924 -0.19621834905159113 0.19982484207836548 -0.23277855978064682 -0.7130756306946431 0.8859579882671719 0.24211096795191805 0.21855413214979422 -1.070724336535512 0.8360951826248819 0.8093120497130462 -0.5527366978627406 -0.4086072535979065 -0.4199475321709627 0.3582305128084405 0.3959613296812589 -0.18247342790602483 -0.23575259311978167 -0.9863759235186302 1.0176291248832539 -0.020759175541583977 0.3002109788879538 -0.9387342185391826 0.1419118572329666 0.2120505758979118 1.039460852951375 -0.5995599075530328 -0.4728483715212026 0.4275671101612589 0.6605822263143747 -0.2246408065529226 -0.31385619595951575 0.28468136226556806 0.056353750213622225 0.7254411683527526 -0.1795552146677802 0.6793377644653966 -0.19646612273117073 0.43588668041820144 -0.5613320114415147 0.835524756650309 0.9868958087257844 0.9715744768782921 0.6653796085911932 -0.5846560781434322 0.6508831230783093 -0.27458027995027023 0.8317624911045169 0.21717659237536263 -0.565858259730116 0.1632314983324166 -0.43024639108255747 -0.6428133729264652 -0.5160273254142063 -0.8168285721111398 0.3919733800498427 0.2095679974274767 0.7080146013690884 0.8637188522981142 0.22670988143648682
-0.46755252223293464 0.3948534797196903 0.122922074120005 -0.8190420884445332 0.25468458661088167 0.5461279526209847 0.33671949392487543 -0.5720196807565523 -0.37605160221417294 0.2370980728067223 0.47338628851924963 0.6931200090305597 -0.6278472860103339 -0.4693068639063205 0.6871454441482836 0.5733421438388435 0.36705330771072153 -0.5676658310356671 0.3171342532498176 -0.3756286930097648 0.16425592717543216 -0.899698741512816 -0.4629585713813485 0.8465771202193229 -0.27978781986182394 0.6486946169204342 0.877230610271113 -0.01093125878832216 -0.9386334298862147 0.43261071494383346 0.4165537220174993 -0.15539840566980656 0.29261740398724756 -0.8458542002141876 1.1560497033960677 -0.96533090663635 0.6442096839112651 0.07634890984267503 0.7270657109092277 -0.978363948353302 0.17750457922896365 -0.46346438620939057 0.7832284193918929 0.6261318290538256 0.03730910609951583 -0.7009068761810648 0.9479032208700428 -1.0843786258974337 -0.9171237244000957 -0.5590202876830461 0.775019224372299 0.20675888750148408 0.3168586464513763 0.3265537867378856 0.17225005553176972 -0.6275798981048305 -0.818871932479389 -1.0344682305870696 -0.19698924459836625 -0.9293697921755321 0.219650522441901 -0.6919053730082182 0.20725512028783688 -0.7425956024354338 0.9075189372967948 -0.5437676958128375 -0.4362877238843177 -0.8603668340847612 0.7650980297980924 1.048797009442294 -0.19310909205574459 -0.8680868318741712 -0.9540809045150653 0.4650867027714114 -0.9726200711787039 -0.9281938071356663 -0.9079524437740917 -0.664797363639789 0.40372121869671784 -0.18653757657776043
-0.9307079653687573 0.13074653484979712 0.09192849672534184 -0.004156262649890942 0.7999346587925792 -0.2037679074161465 0.03981892254850143 -0.444102838412013 -0.476796280304412 0.29724250162108745 0.1651377340903714 -0.5598697375806501 0.9354324382409612 -0.17928059887444525 -0.08824169213123806 -0.7420638952727336 -0.34055236108599707 -0.5205086592126253 0.13213019909206772 -0.21254186312186357 -0.40000641158770023 0.5045066724163788 0.4829202148141231 -1.0848253401042922 -0.540782033092323 -0.7016610081148802 -0.7183019114516657 0.27225561523098535 -0.8940498945108916 0.9017851908761713 0.6261173906193384 -0.5955240072128224 -0.9435850788195087 -0.8558008621827754 -0.3049463603744602 0.13491612357390625 -0.17052804114840817 -0.4068324581169473 -0.3324372973360935 0.8047791766697673 0.7032038134331685 0.6287255713952724 -0.4878050620237496 0.07378190908830362 0.9358445091319877 0.4125592693930589 -1.0205217510814222 -0.8250701189597358 -0.13833039010530734 0.4508135692000177 0.16006904325203555 0.02294881969918218 0.13377249864457905 0.05228849357984608 -0.594066840388287 0.5354401601282641 0.0543557790889605 0.7715394650960083 0.14117968538209177 0.147274137236908 0.20871069487982885 0.5193467616490663 -0.9717511969432938 0.3647890235558227 -0.038491686216216986 0.9012948763702341 0.42511488482827614 0.45336500881712294 -0.8325431101675028 0.2814164827629031 0.7463837417921994 -0.6549675120395569 -0.6312003856984743 0.35714604791570853 0.6005056679795897 -0.15710627357155818 0.004824130581183708 0.4269889047970864 -0.6511828899381014 0.2691283068406684
-0.30621088480497183 -0.47133568890172645 -0.018190686159894408 0.41991901557757344 -0.6158909050725788 0.7953671742242591 -0.5625889117440674 -0.26278418413838806 -0.19091201308379444 0.012839814690471539 0.7084239061554933 0.5544970036307703 0.39637451419672853 0.008151864226015616 -0.9013232321156237 -0.5648091540582816 0.21411420430245257 0.22590355222845415 0.43255685481677764 -0.8561822733955234 -0.092686580469791 -0.3407651841249784 0.09844796457279129 -0.06610039374676173 -0.2722703457874239 0.5969592561396443 -0.13185479812407766 -0.025086522439099052 -0.9110986600121475 -0.7624271805580384 0.25163825962582437 -0.9113047575407689 -0.40456809309357705 0.383329813587835 -0.16742683999769029 -0.2999519943448998 -0.40288950675997837 -0.12315109550648234 0.28478421740914794 0.7835728558550512 -0.844247488313176 0.27086960655508746 0.8920384888227065 -0.07074127091280712 0.4185581667564857 0.28544999773153906 0.6160425460976181 0.7416472311396912 -1.0973957509217438 0.4148823510152465 0.8684920724138604 0.43793891163854437 0.23975843068388025 -0.5563582770269472 0.5735820330655524 -0.22894702355335364 0.6808570901550824 -0.9935753080480079 0.6427878889967105 0.7007718528728522 -0.6495264289848406 0.2690177830993805 -0.3243631320937803 -0.22233059160548294 0.41691678980178426 -0.0802080038432906 0.7434733967372696 0.5987714634916221 -0.6459731568185242 -0.4307482157792483 -0.24566841445964963 -0.9391365623052943 0.7801019789690921 0.236168105797319 -1.2422794993166473 -0.8577550608853652 0.20560975226958286 0.40264433822719825 -0.5872825221283022 0.6686756706206907
0.6765289915827517 1.0381192825636518 -0.7901477468968511 -0.0825171573307221 -0.5853604366424899 -0.22937263673962363 0.3315949774422715 0.5350017511327438 0.5912376496203147 0.371446085688618 0.19588053525933355 0.08383014116517391 -0.7418443461211875 -0.6188907573130028 0.6879495582659055 -0.5447579461520048 -0.38998041403895745 -0.19563533357305 0.6373438457415437 0.12242020047090309 0.37306874700740483 0.7680721270074216 0.9307635500075395 0.5526091836874416 -0.09953950701151122 -0.7716799222374695 -0.3837879615625447 0.7328562820637148 -0.8951693776819597 -0.33215079906766737 -0.6252708544337423 0.2437191411965929 -0.27558562801723624 0.7956104751329883 -0.72407863529274 0.34578755852941506 -0.7562634549355974 -0.7970575081755413 -0.4410474209526861 0.2399759128814815 -0.8528339138312567 -0.30221852208343714 0.0634535834968412 -0.9346781773528854 -0.9786345092621456 -0.2933196856516765 -0.21370128305716352 0.43404404137867286 0.9767066416946667 0.5279051261895541 0.6811009374675544 -0.6978481751216713 1.1217817479487981 -0.1368543865892557 0.24949009266897307 0.10311337261816081 -0.49114704085646854 0.6272350385914351 0.045598133480430104 -1.0199876023313086 1.0160810693869147 0.1491967899856749 0.3881732713435803 -0.6635674117757016 0.8642463709878417 -0.25579083294125177 0.5080788176523511 0.8320147895559058 0.17328386819280328 -0.8955395517414526 -0.4348795912819237 0.7855038547121378 -0.37963829292209134 0.6711668925495964 0.8999069264168814 -0.281005194542362 0.41645519485770166 -1.1033773879491877 -0.8701501909332952 0.6487388142864665
0.11537081349501932 0.38158351245168365 -1.0454474234026583 0.8468742517424219 0.5475937918219257 0.21884597799448993 0.8763945545152444 -0.3042046577242521 -0.5758744734878939 0.5973841133267226 -1.1329811214010317 0.9034391112377215 0.5000374224731925 -0.8455099560720791 0.33959829910670314 -0.5103251796048327 -1.0439508109821285 -0.2029209527500709 0.33009741622646854 -0.5907573316679402 0.3030210382548989 -0.5043933216293128 0.4792724773884133 1.0386373986527029 -0.3858371926964855 -0.2990955734277677 -1.2259991475936522 -0.8438810460950383 0.7621725291161839 0.5192337046502811 0.5438073502423818 -0.4887961791871956 0.30705803735308235 0.042267981072221815 0.4908370966821023 -0.2329861544781014 -0.7467566378365791 -0.6902211173172594 0.41023032388386055 0.7781578693337394 0.753297038375499 -0.06024469746500076 -0.38245558839658367 -0.9273798207425376 -0.17007873676273325 0.3019911467622462 0.6637936795814549 -0.2346415416739689 1.1016579415561059 -0.6248014371094459 -0.09498292890166692 -0.9289729019870332 -0.8911709693508171 -1.0122729396133252 -0.7904525784352184 0.0756608002489126 -0.648824092674778 1.1041592431513385 -0.47875410414735653 -0.6076418454942598 -0.4838719314985613 0.746320899207999 -0.631574182855165 -0.9748310624107717 0.07921437187364933 -0.03425978741946002 -0.22349450581318003 0.7582392687053231 -0.7414859391341465 -0.8756772175938865 -0.2980842641164782 -0.131429495674608 -0.3496928780542781 -0.6648924930787242 -0.49670697034674277 -0.7365297844308509 -0.5137033508767113 0.3433789911491807 0.4028591542595283 0.559101431941924
