-0.021014549553941445 0.310985729542567 -0.6166425640689294 -0.6158971940678009 0.6668805781691964 -1.0205440997337403 0.5117849201329928 -1.1258590937954853 -1.017546551655064 -1.3938603622101464 0.2082206570870487 -0.1163928576081799 0.2686532518173095 0.5473950067038259 0.15573329942397038 0.11139845102210481 0.2769487033126401 -0.6564099378433412 -0.8923017744847274 -0.48931051714754864 -0.4887573712812024 0.5279794183268435 0.49699086799715153 -0.6754863015938212 -0.9101829357188311 0.32910329551119194 0.6113447482538159 -0.09497430235787731 0.11023994676069411 -0.8722406560514797 0.603627177076124 -0.20931518866992865 -0.8128409638261419 -0.7822164592326231 -1.1542933237804123 -0.24784014914159175 0.4242083681616999 0.5750145717870315 0.5413763548044647 0.2809677169361737 -0.667187579456461 0.13697101696181077 -0.7972057237160838 -1.070469988080719
0.8885604607787716 -0.0399626030451918 -0.20696097111335265 -0.4065449687813089 0.04060811369176044 0.6954306341402634 0.32036930246397716 0.6235129491199484 0.5530738847648896 -0.4344313484865773 -0.8027176135626233 1.012663273927598 -0.09935371822708494 0.18599584989483073 -0.8993080869789459 -0.15331486852793225 0.48199915484695943 -0.6365951364003821 0.7152458207687612 0.7806672364297155 0.7985918527701996 -0.12191563128791705 0.14034592544252739 0.047913845136182624 0.025011247012615267 -1.040286401533911 0.5723856439628691 -0.3337096777641613 0.5857507240318125 0.9010881293485876 -0.529677391225818 0.9205474514131831 -0.5493782992126771 -0.7241735194025669 -0.33547287095669 0.47038936265451053 -0.37377396013997677 0.07658578220559713 -0.6778457039074731 0.04415346185181624 1.1387686255400726 -0.8026115867175465 0.1977771093187597 -0.5050102871581543
-0.8041175276788362 -0.9188454101733956 0.3246587136537628 -0.030712332775982662 -0.9411001499777356 -0.6230841289310657 -1.0353205450514302 -0.3451484956385677 -0.6895712922698236 -0.9655244973160045 0.6870316286187657 0.4503242944667611 -1.0411410366548288 -0.18203525135446547 -0.4649915084469257 0.01044065224650116 1.0524189306828224 -0.6082915109893647 -1.0170140517159685 0.6007702044793525 0.56500048208902 -0.24431433912624084 -0.9934636070994197 0.7508163714764851 0.5935425516897154 0.1234584739534793 0.303288843674546 -0.5741671861655245 -0.7102796904558103 -0.5350817757683745 -1.0165005684464519 0.5032667269766785 -0.13188173519211574 -0.5049949629917989 -0.9220236183211276 -0.30141813447879595 0.488041951949033 -0.8511581595929157 -0.46853313321642504 -0.2315940429622959 0.9850921426699409 0.9515641503956482 0.6851439325888047 -0.304255011502394
-0.8314567685645108 -0.7340256073061563 -0.3379621930076567 1.1825155656816815 -1.052572191342974 -0.7530450229882715 -0.7147717814169331 -0.525202052788184 -0.6371553215814999 -0.4688142655780896 -0.6669386110398661 0.21933409556410566 0.5443619999228158 0.6689436700519492 1.0075505168522427 -0.7851593803646579 0.6363815613952339 -0.6959033150905949 -0.5317665276772262 -0.005284953695989042 -0.004430684039180894 -0.5346710768273016 -0.43137304698435264 -0.20523655690082812 0.1484954134295835 -0.41772430851440856 -0.9482061964841294 -0.5565214935407671 0.035603352562261124 0.40313329784199997 0.13193149474070393 0.23720714465229845 0.07831060460700372 -0.7248353841058008 0.15551656435284356 0.01964823930399819 -0.07805154618480822 0.5645810627990944 0.44348602024205014 -0.7914290726015948 -0.4612776805550714 -0.715057439399343 0.05445974975845351 -0.5325575004847236
0.34579090197961476 -0.3884843430294587 0.30562460240587924 -1.161268699430252 -0.6541523787645649 -1.0528571475822681 0.05120356711510656 0.5467133076264901 -0.7581206175840978 0.6041600154463092 -0.6286421242731096 -0.6532842799276755 -0.8253422796928338 0.676671868112235 0.5907891988301991 -0.7222252245916666 0.3556412959370717 -0.1272524240292966 0.2969433239381336 0.3652099270200599 0.16931642788509474 0.5412806554910697 -0.5849256584481348 0.010075149754215274 -0.3109902302456994 -0.35663524440573785 0.5196626927406922 -0.5513514680073734 -0.23767685255201693 0.999468959226742 -1.2111458260785013 0.43773501923567787 0.46540378090461554 -0.6621177292517773 0.5043969274795249 -0.6341629384775982 -0.9877886478310426 -0.5077594181323385 -0.7856028391904154 -1.0993185429574321 0.9939515633904229 0.9297387625471121 0.336413048724032 -0.3380677520722236
-0.01441471471687753 -0.44705107609352507 0.2127436602150774 0.46870844243997145 0.04656450709188326 0.3585430090883082 -0.7769506132664906 0.29167833527001347 -0.8882448531182723 -0.2125152348617242 -0.8445412028347064 -0.07428150286226282 -0.6344748334973491 -0.01993334846368489 -0.5842560713488534 0.8857090618339389 0.37419888388816835 -0.9487547930020077 -0.7322198841592764 0.5163138658214418 0.1939057881014706 -0.3452052605163823 0.7556459217416434 0.40809521049149855 0.2618132741815478 0.9233933036702938 -0.5774401921645077 -0.32514366331744643 0.4670471283870887 -0.5632997969883575 1.2215648276910958 0.6814001680986033 -0.276588665592695 -1.1230635993897111 0.25201383388792603 0.6739817843420591 1.3017049515138372 -0.5984223579700315 -0.7535491942301283 0.002231598974056234 -1.2556282825250895 -0.8952089877576306 -0.9092525789280792 1.033769603076295
0.9707971030851339 0.08176890931189297 -1.2362334791203944 -0.4200042789058573 0.09347085836192888 -0.9741277622882084 0.8060871651677567 -0.5060550980514752 0.5419837678355163 -1.0875689168120806 0.2933697942520789 -0.9529660187334975 -0.6614338844646382 0.6713168004609144 0.0976457721717419 -0.5505579617003342 -0.3073581469912695 -0.47327396180154063 -0.059037075233289084 1.0564340410925954 -1.1637063622036519 -0.8825612845475883 -0.13020367844842282 0.7918528562658783 0.018747208925931805 -0.13296120574960243 -0.8355100983515279 0.7141719631760649 -1.0575273368161044 0.3453599299006006 1.2319800377083614 -0.23454095712953102 -1.2388706351195535 0.684096888684461 -1.1323871001910344 -1.0306686897468618 -0.4254246625770049 -1.0134998924264167 1.0033628796550298 1.2017085895487831 -0.5180049708355512 0.41420775940688315 -0.6737420227416443 -0.48223860056308737
-0.21458796696964624 0.12405531202774518 0.9980724375561585 -1.1434985405404001 -0.11453646821690978 -1.1740184715401105 -0.5239524795226592 0.606703810857039 -0.7711461105029588 -0.855876444944123 0.42276425587965294 -0.8608838532227411 -0.16677771797379362 -0.23815613011077993 0.7240588735755126 0.02890142559732081 -0.7029237412869845 -0.04102323008602463 -0.71629610901762 -0.6916817240728381 0.17460288887508021 -0.26493246020255934 0.0013515649543635925 0.35167162173637756 -1.2239361578490455 -0.9316634794518962 -0.3507325758165153 0.33100217852558445 -1.084903277621044 -0.25890826622482177 0.8548920062512756 -0.48838851892382096 -0.8711863446633936 -0.558860138627463 -0.7314179207443109 0.9709712726848613 -0.22331690200676776 -0.3113060814990998 -1.016619693231489 -0.5066237521587598 0.10680499456130135 -0.7761166945198922 -0.34184208481292466 0.7213785838585252
-0.7586319896252985 -1.114868975012239 -0.22149008412386706 0.40138939245159355 -0.2862931635450564 0.2457065685692896 -0.9812797747700498 0.20553769462238222 -0.9423306720586834 -0.7708838356873722 -0.4289530092039542 -0.14940984002482557 0.2558925019329378 -0.712127402980631 -0.04787438846627592 -0.4674773778076848 0.7009896634479545 0.8054125894240147 -0.38680517888548316 -1.0521089714838672 -1.0354820227471482 -0.4214925638894567 -0.15348726232790186 0.49592924629714025 0.1560494794038579 -0.4645820723192722 0.7024271819780674 0.2272479747642922 -0.54685607567973 0.47026965905013257 -0.9363794293167934 0.659282982550679 -1.0071049708920639 -0.3364253696957061 -0.005535170886571265 -0.050687173825137766 0.19144262881518265 0.17799994870617314 -0.4917115493408524 -0.6505378909234123 -0.09684653073003716 -0.10912129605062 0.640502394301239 -0.4965964736526333
0.1050224366347572 0.07960917716865347 -0.12216122998932553 0.7070518926009562 -0.6075707773005647 0.7568189910582382 -0.7764664574687519 -0.06698365438889313 -1.017160088546401 0.7740806182256281 -0.5285076303184518 0.07016834797276512 -1.1559411954208916 0.7537874139824231 0.24330742889641938 -1.166499228584642 -0.33719662412149676 0.9232178187550332 -1.2574968755710207 0.005209801826348677 -1.2598230069783674 0.2980919029055602 -0.6006651804637867 -0.14540674455340594 1.0669756601365479 -0.08386455926569517 -0.48564737817951625 -0.14968362514909658 0.6297044216751276 -0.3282942199281169 -1.159157889233392 -0.43980918033231636 -1.245990157008019 0.9726598505817302 -0.5428508237757086 0.6756276804801516 -0.06343287955636935 -1.1514910355847598 -0.5622611481604854 0.019829702079333978 -0.4038249958135877 0.3725605718637229 1.0788969358566654 -1.2157166979342997
0.9233088354079337 0.7452568910366782 1.1791482838875924 0.03127577362887042 0.4389832697422913 0.8427309811348223 -0.13206479551653677 -0.09251115619762217 0.27676860267647074 0.3997505012051062 -0.14575049730728562 -0.16506794322895735 -0.5876321733642744 -1.016626241669064 -0.18380054452014738 -0.4162961806121524 -1.1275658752346915 -0.1879742511811512 0.7354611956352438 -1.3607067404458704 1.230505424118042 0.3236137502845456 0.15196925146802578 0.6167739439265704 -1.1157085747772046 0.5914864280968312 0.7615116413948336 -0.8059186441995946 -1.0922870456617404 0.8959190331167668 -1.2921334863084284 -0.5371319110570805 -0.7081704753762175 0.6248897851775939 -1.4615969233560018 1.059726031280757 -1.2211728400728554 -0.7377038092456873 -0.8865169622540535 1.2450010230253876 -1.0616076915137538 -1.023905319782351 0.7865108086930012 -1.0658661263869844
0.7739266225976236 0.05657204563929135 0.7244766182912663 -0.3627430949217382 0.13516088337729013 0.14209944200448651 0.23038655226625163 -0.2771554774856419 -0.22145495984168923 1.3721318841702435 -0.7410859314850324 -0.48276611206355236 -0.06919949745867746 -0.46174396260129347 -0.548531943952305 0.5409900256745315 0.135560270553668 0.5658479869473491 0.4376637832697051 -0.12415543837213662 0.6872728448943943 1.207752459429172 -0.5320775112501299 -0.34320128786145976 -1.3588984322392499 0.48748483356100236 -0.6233601211522315 -0.812190308066455 0.20131537898230698 0.7156388851586701 0.6612418099672653 0.7452014701060335 0.6401217337885393 -1.188677608676073 -0.6111600082063436 -0.5710976182399774 -0.34972272124466575 0.016271362947879252 0.11207442581353633 0.7335814951940297 -0.9591134389794125 -0.11230125335343161 0.7064635870478349 -0.7255873863975018
-0.8943886680619693 0.31415044928693986 -0.6920440407665543 -0.4448956723394803 -0.023347250333037944 -1.4430481696070578 -0.4642321868696315 -0.5100072466040025 -1.6468523967954696 -0.7087414631579911 0.4373689663742023 0.7139398847397711 -0.42989991205239264 -0.4049507358037813 0.30626151536230634 -0.21908840773125282 0.8438620199687931 -0.9006812928022261 0.30672405594258517 -0.39659807588022644 -0.5752375534677984 -0.5038969944188795 -0.9631358617425946 -0.15440768298283528 -0.519985611500975 -0.2513497632144879 0.11439326619183711 0.04384118358919272 -0.9850847365995354 0.3713525461591691 0.697689513460886 -1.0847156303318908 -1.1485678860820152 0.8829072514211543 0.03684868832157084 1.22159718297118 -0.759891528701403 -1.026208085260953 -0.10139872440640575 0.9562598549254515 -0.06977392841831648 0.01371287768810428 -0.8927710610274436 -0.730150115728847
-0.0990895417815158 -0.10418849382833431 0.7478909990545686 0.036852731482905375 -0.8548278165443312 -0.037454420019274286 -0.12542688556245168 -0.9043047439927603 -0.5409395319462846 -0.6821441233512211 0.03840844931964409 0.5921599384048427 -0.39020937644416814 0.5355269440118057 -0.536063583099398 0.5910688971081223 0.14378862274150653 0.6883908514341112 0.24844330553987387 0.600720775233427 0.5085843072820051 0.345102426096908 0.6027548412816659 -0.124165507857623 0.1887542711140763 -0.006110927351390571 -0.03771322971617937 -0.20286955602756993 0.82121975266531 -0.6430657546629129 -1.040043762510968 0.21461103951354865 -0.531532142651502 -0.052045123927066096 0.4227889354725488 -0.3795245341369861 0.6527463596692193 0.5896663380510113 -0.8043270965250775 -0.534017683756497 0.6462576141568236 -0.10614624683571625 -0.6824464642585847 0.42036024548525514
0.27720665987739473 -0.7433806663182997 -1.634950622228209 -0.7493268493867518 -0.3414500110536389 0.17699403367146557 -1.1624606453826836 0.5736526426305958 -1.3429979965673404 0.13110589154721117 0.12061580064058644 0.20324327275942286 0.47781226022723694 -0.5070054358050482 -0.13830335104597774 -0.18476305964420406 -0.32468925187444564 0.42041484023379017 0.1620199561878557 0.009221236300425872 -0.4958078409754147 0.6535923646112918 -1.1172329567028012 1.03323464434989 -0.003910312972284928 -0.44754318104245827 0.32107175547752337 0.3200096738426713 -0.445136873157246 0.9025707471597438 -0.39147738135951216 -0.777790661714486 0.766819033834935 -0.6791967758827356 0.6516634028054675 -0.4051575253954775 -0.9712709490133936 -0.442923074541369 0.16736622521085373 -0.6793002973082485 -0.4535015623842251 -1.0427930520636577 -0.8864360782747459 0.9309136850464891
-0.9416197865119065 0.7351131699530311 0.22391182566982137 -0.2864714769817155 -0.8717801944175013 -0.4837970585353315 -0.5623425593349566 0.18908625029052029 -0.8764957651975368 -0.4085400589214873 0.8726464775286985 0.2368163493846716 0.6301319692662977 0.3617297540555307 -0.31207557021962323 0.06290330638997099 -0.7198835768320944 -0.33287656693889556 0.19253783514991693 0.9846486959423012 0.16926945598055484 -1.1697698714015077 0.6428476112357487 -1.3410912142279205 0.6978780629905231 -0.4483961688546473 0.7940890586987187 -0.6626086593873277 0.4188558632826325 -0.9590659316110923 0.3057527500598746 -0.0776996927276068 0.04254655245040917 -0.807392341114009 0.18980457739441645 0.8747243053052152 -1.1390781197456414 0.9264872557957377 -1.0210838390859438 -1.038131991691745 -1.2143875653534322 0.586878840649766 -1.2624612117006013 0.6201345402220152
-1.3201447943183462 0.024235475162085508 0.2266758543413623 -0.7549072633374038 0.43753623787781587 -1.1894219954613932 -0.5018347443812817 0.9121989723972581 -0.6275188610088968 -1.3520299776916518 -0.3628775571992668 0.5326626592816899 -0.011103810726626931 -0.9064204368717439 0.2154899994235538 -1.2782600739209187 -0.6884241114426013 0.2866126055763287 -0.8877339896328136 -0.5444421079569115 0.6110212665021566 -0.3238522372305625 -0.011100250355605858 -0.9573012725528224 0.31300280184819645 0.29132731180564225 -0.43580941034463744 -1.0125010962237257 -0.7793672889132954 -0.09898698981346746 0.054560641210248256 -0.7874214643251003 -0.3692958808942185 -0.4982666870767614 -0.6606191618880631 -1.0309828066431466 -1.0488421316735195 0.43014493108734897 0.024111167221975822 -1.067491000265479 0.9971245104174031 0.23874418587232474 -1.2738475968508698 -1.2536457646740913
0.43996186906126244 -1.100751465991984 0.1299551954305648 0.2934648688991993 -0.5000733202978573 -0.8472121612139893 0.20630331465931637 0.04487214258581805 0.04054335304555113 -0.30567915250058236 -0.2609777242673426 0.31581929145806764 -1.0093534227654648 0.08468570739840273 -0.30149576460526123 0.28791282285135134 0.026197566917244713 -0.8899951509323689 -0.14661204964122837 0.5148503763925266 0.14620616721524027 -1.3397961361439303 0.7290746926697939 0.5847397914218522 -0.3573286381743926 0.015066299247416379 -0.8566812420391375 0.2786694521774217 -0.6229831409122333 0.39822462853210555 -0.8613879757342715 -1.0847094610767436 -0.013987565368290983 0.4319545712652805 -0.5743655140953834 -0.3629383841744701 0.29227355387583226 -0.9181946859076144 0.35221832529121955 -0.8174236033322017 -0.12813984575472767 0.6602775227838457 0.267182658536422 0.637026400875473
0.06814400709399084 -0.9001715421015538 -0.5592145988871144 0.8392176527711691 0.6472506966588137 -0.3128317478850799 0.5672879215724557 0.26695883877161664 -1.096189515514996 -0.009327282399699457 -0.9043951953751879 -0.1558761083247353 -0.4726848207417029 -0.12702954101263272 0.6040159450583631 -0.8830681547458044 0.6418779558154725 0.8424548487672429 0.607206103754146 0.3727038100890688 0.7626442378167001 -0.1743906171658129 -0.7298047474879479 0.2752485733732481 -0.18718439473768575 -0.4162373676346681 0.4550186291333079 0.291203509688425 -1.0758819874620509 -1.2331507323483812 -0.5483734330286305 -0.3156940215924179 0.22889364616854854 0.05482296585320616 -0.8017802848659015 -0.8478470135866616 -1.1045553164201036 -0.2804524396511308 -0.5241853245349278 -0.37917433147313007 0.15273166763764234 0.4637728409841944 -0.2488355684573993 0.6373633973519327
-0.18017453609203157 0.4855184052592598 -0.27355089117039266 -0.011445045955926061 -0.3131898742042862 -1.265627594041334 0.8290420603609255 -0.24638135167860503 0.3246672915657937 -0.9127787960773911 -0.22056866137097564 -0.7034587553159649 0.05570941233608942 0.4392792037117264 0.4983653024878125 0.6603942973837152 -0.25863720471768514 0.5208601875979626 -1.0796658595400574 -0.8727141842393881 0.8345540109821802 0.775184649409615 -0.03907524951920284 -0.6099279996584762 0.5407126288544545 0.6647807369731452 -0.6827350593573402 0.6851314348675028 0.7597841325495661 0.014343760928385676 -1.0817490142131851 0.47676751038155873 -1.0177023108737175 0.8524748297259086 0.29244386592739907 -1.2678228546980972 0.4789408882850566 0.8137766553867737 -1.213291089810304 0.34154375403506193 -0.34127316538622815 -0.2984254235959823 -0.007723768341608668 -1.2291072582103206
-0.4898251589243508 -1.2779664680564142 -0.6768902136532546 -0.10183021188664756 -0.9656265938169998 0.7895470931696721 0.18539641795099196 -1.1021895350302684 0.31969448308069487 -0.6481527322826224 -0.6086857925096136 -1.0197031952687314 -0.6525349359877562 -0.44288527628273067 -0.3812978266959895 0.46579292155756047 0.08321369851672615 0.43188862252358706 -1.2348524851419038 0.7345080656933248 -1.2481544719586808 -0.4980473488958417 0.15940793313324605 -0.30576464673516757 -1.3079583712543192 -0.6476467799246451 -0.7086464564237046 -0.9283055214180315 -0.793024200377107 -0.653129154345914 -0.5679131125478388 0.266636461092002 -1.0200691587526713 0.2031630901922307 -0.018848278642045097 -0.4575780746793176 -0.5376596557359916 -0.2821522876299264 0.6208143714665711 0.08241712220150964 -1.0671957698556462 0.3376563767385725 -0.8155247946557898 -0.8245522801407827
0.7357213617308495 -0.8007854796849292 0.413866193332192 -0.46682331496825547 -1.0426439108198196 0.9552102599289662 -0.5444484547714732 -0.3584158364508683 0.6737726272473847 0.32777043261576067 -0.1324060548743715 -0.15548501270032938 0.3917271959498387 -0.35833823225559835 -0.9182410922869191 1.0356639542336283 0.14978789962638478 -0.5405461581147969 -0.12951663016267595 -0.8647668225097049 0.37602794841124876 0.5668068138906602 0.8071524035871056 0.1095386391170988 0.31794411351999985 -0.29808388509335393 0.8663525799491061 0.15978399636770557 0.34977361734695955 -0.2637650096605428 0.5121761322517034 0.28159896504091586 0.8707536377041594 0.438035310925451 1.0112121338782558 -0.3449526427563116 0.5093897145223637 -0.8392757033262208 -0.20602129512243517 0.27673571579367584 -1.030101214519049 0.7193785877183316 0.5892698394493632 -0.9305757938676863
0.473641562996993 0.40016774734126814 -0.5432068073222129 0.17478472827900499 0.411405298525072 0.26719035215747666 -0.385614553092502 -0.09080747631627424 -1.126279482536324 1.083766385682944 0.45191798687431906 0.3508561918530296 -0.9706365222133546 -0.6690331287213012 -0.5841808054778784 -0.28837210657202356 0.3823298006830537 -1.2468732207007505 -0.5060170964903824 -0.1976578075641203 0.7058549456995322 -0.45403640261660544 0.9830658614007639 -0.667831834720911 -0.008087194206402895 -0.6885826070272999 0.7146278885495861 -0.24858721033116418 -0.6341692171416331 0.7275145835456097 -0.03750580689146569 -0.901147469316651 -1.3595154116055987 0.7150447572172041 0.16244380614217985 0.3366160478203185 0.6332108755531327 0.042031628971111075 -0.3586905454287599 -0.09076158503955653 -0.24909058326197273 -0.6272980899939223 -0.14360625552096073 0.3670717547838656
-1.1094317936744178 -1.177248374619596 -1.2398084187869431 0.766636379700784 -0.4285503303245581 -0.3813578861036417 -0.6881615270765012 -0.7029949501249534 0.02722366540002502 0.12214433673650786 -1.0845290637543104 -0.5258941475304793 0.47451955082583147 0.025898683939038693 -1.089522069410515 0.3163949625631669 0.21385417195017514 -0.8654799944961606 -1.0551749570129312 0.4047291513593722 -0.41385757240337806 -0.014262165862689143 -0.20475787067382045 0.043528123828887294 0.5706102957788277 0.025273324966997846 -0.6252106895227986 -0.9495703689952104 0.4442276008253149 -1.0608893434107054 -0.514083586865996 0.4890871710443009 -0.47845962250068963 -0.5552824233662392 0.23491194955482908 -0.33454467146070693 0.5476759279093634 0.5071877767359376 -1.0750484381412597 0.520622846356294 -1.0384220239387387 0.16052337401585207 -0.903305747624646 0.41286519510833597
-0.8230941330171762 -1.0565603045640568 0.17489105196285523 0.7630514265267762 -0.42941113182382246 -0.7308998662497422 0.8551913602066067 -0.5510386672038093 0.7710918717810495 -0.32602339325266355 0.013520919282586082 0.8278782330147813 0.7632247230594422 0.3933292161875748 0.6392187932627093 -0.42763452278316816 -0.7976769248219288 0.42165798065692867 0.8313528758090558 -0.3982837543903425 -1.0323284503729027 0.22849667995579057 0.48464531165812696 0.2974829397766589 -0.4736794792655458 0.36557922215749994 0.0301345833311771 0.25587566226984887 0.5699602728288955 -0.3696068676105639 1.7069288285931496 0.9079868180896468 0.6485688499386649 0.10048022367156219 -1.017530392355904 0.06234819401068712 0.2632337377880302 -0.8108784564597141 0.016915780097009878 -0.24442106442549477 0.2951840740780904 -0.9459842017723311 0.6799857665170814 -0.8888300127510811
-0.7948982447168924 0.332291909951144 -0.44312076475322565 -0.3001662296600797 -0.0572764915732383 0.04248128320305561 0.4533867241310157 0.8325667890205614 -1.0311481178709365 0.31195143082160665 -0.19455225013617583 -1.0729739764828656 1.1631190272143714 0.5072944717047546 0.6125287189872352 -0.03546513974273659 0.4349181833396064 -0.9656409623986926 0.9374027651901061 -0.5135298368405442 -0.4554798313191724 -0.08694085639857828 0.026903324163544375 0.46321040058709984 -0.326135913354635 -0.8957780702441528 0.6831593032604499 0.8264069048514175 0.006579916500639235 -0.1753275647748125 0.4384934161102327 0.2863834002027062 -0.5969928338582949 0.44059828702800813 -0.8747148472306314 0.4093452974467535 0.9019832940400244 0.6028955945413607 1.0349179544547173 -0.04162458438077799 -0.8445531577969075 0.6965753406065391 0.18519721146626245 0.7484535231210317
-0.21575577773167373 -0.34873789446248055 -0.846131944549623 -0.7204111128665609 -1.1282957999857706 -0.6233557209554077 0.9668881014596383 0.20773672594731138 0.25826390707606633 -0.6788349393585751 0.867816206010788 0.0664961671469339 0.20918518958898025 0.45101846668520884 -0.9985764138970391 0.445587541877186 -0.0932996569967388 -0.3888027317728877 -0.05843517685128488 -0.7995627661099087 0.44825121193821593 0.07873548762588077 -0.401199855102468 -0.0069630259280551296 -0.20031872947925422 -1.255551103388192 0.22601824054248537 -0.23015165668865656 0.7950173164216947 -1.1325516906038158 0.8446106936665366 0.8101355589430551 0.34520005773108375 -1.343785245618052 -1.0725578271867207 -0.7503284161974266 -0.9508103125528168 0.7515310962016449 0.6787325908930534 0.5106584041363459 1.1492788954897206 -0.9659777924728596 0.9304712920839405 -0.5725491996421597
0.6144172258780393 0.29884921395552816 1.8295229446873802 0.8942073435268677 0.6794131979416353 0.4056595509773274 0.06122498159193302 -0.5647147948168741 -0.6726589396976367 -0.0655591414712105 0.028013995388419356 -0.9355343114509642 -0.5336332139331182 -0.8297833080950753 -0.5975581028224739 -0.7824360710157304 -0.21513548825555548 0.4377158114275941 0.08743587747496419 -0.685779405068549 0.7759025888182474 0.6811628757663231 0.6238866128246093 -0.4290477663062393 -0.8442526385655008 0.5425097174099097 0.48674896876967316 0.4578997487517351 -0.05196781199853802 0.1723009713113659 -0.6744884959763556 0.3572175437749559 0.6367572533251002 0.8605826834744184 -0.2754314897275217 -0.3031314922355315 0.47850493431380825 0.428436809284742 -0.3403154979637059 -0.3514141174930222 -0.03168839290221153 0.3420215903974422 -0.8174139703988681 -0.428258486301032
-1.1469724943312458 -0.9021992651726578 -0.02825387079079893 -1.2318284015902297 -1.0620721935891921 -0.33366381569592296 0.49079611604934065 0.32910551312420183 0.2923575012019308 0.5547207084132868 0.5389934784741156 0.302749442689138 -0.3168265315189394 -0.07469318877862245 -0.9520603545106386 0.01673126724034361 -0.6429694195878386 -0.6750300895560428 -0.8347688662531363 -0.9643349637613857 -1.022960223651392 0.8204037249699337 -0.46097077983653584 -0.7763340883141209 -0.039111109877107364 -0.4290479127206509 0.609611276959888 -1.9796429147205468 -0.46922436115346294 -0.9531479252125825 -0.04432428866853874 -0.3896171734679374 -0.2750011999037512 -0.07230297161005081 0.7885979619070853 0.1732173806161412 0.12256987750250523 -0.5573714466125307 0.2504829921647271 0.6533910206544378 0.8222540943090253 -0.9144686153533069 -0.19621724642605112 -0.25930210010902655
0.6234225544755918 -1.139725251101795 0.5112470536922479 -0.10189866470901124 -1.0552158536759269 1.0606135049052974 -0.6072599005741772 -0.7476834594805211 -0.5519594736963459 -0.7413851390313698 -0.5850949856328501 -0.9014885456558094 -0.6178689960613744 0.07067403591692963 0.3527721484414595 -0.9476191200930714 0.567394925303259 0.8037423672478774 0.3351953711183124 -0.9580189646028815 0.5824399214191324 0.6228701250573933 -0.12363489905641256 0.4932721354236456 -0.47286485867077194 -0.47723415809271336 -0.7622927401380838 -0.9689059343532945 1.0036173693600448 -0.47092189523386363 -0.3181566396380785 -0.5571647157644068 0.1418189378098946 -0.5568326329467642 0.6456521190429804 -0.5919653839625091 0.790489890297546 -0.2820989712886741 0.30512795615450633 0.8940011452117723 -0.7880313792967371 -0.7484438923832689 -0.6093954124852694 -0.3239517239166096
-0.20216485890324148 0.10991556720351317 0.6340194073956099 -0.6109098572724978 -1.119059155354403 -0.7397131257847701 0.5511000093266424 0.5824000511459991 0.6515070398189129 0.37658044839836363 0.26758016385054684 -0.7221851065206524 0.04724389305993482 -0.01697502528499476 -0.03750767885376946 0.860553740371238 -1.1532352081647104 -0.11879259046909103 -0.4160104754891092 -0.49194806326522633 0.8123977813177734 -0.45333110158483264 -1.1093634359537765 0.37185109731842214 0.591948305548138 0.1220130331454591 0.14373625455425706 -0.2753457137319503 -1.0949474016346246 0.82664434209832 -0.516880537298967 0.47093275723173894 0.9936226655360422 -0.5322204372223248 0.17895142435485611 1.4051999751106465 -0.884597143001035 -1.1291586298283305 0.5112514551599205 -0.7625022419646068 -0.8646062222023027 -0.6249717079521352 0.9901209342548666 -0.4658727351593224
-0.3704293045790074 0.7168601759805128 -0.06561539854240853 0.42177160495313615 0.8110705943835054 0.8807107683566061 -0.2718550926626373 0.16895282529364075 0.7186219189434798 0.847696544971013 -1.089470243829062 -0.3753350464905214 -0.40571406050865 -1.1579944614321878 0.21777820801338282 -0.30318367078735503 -1.0560512254634142 -0.04735307573184165 0.12641166063957254 -0.06376143399518924 -1.0911382665624456 0.4584383529637861 -0.1228103128142107 -1.3587590700915377 -0.16564043486810498 -1.3155411907991008 -1.0666542312589262 0.276620177034655 0.8378357558281329 -0.8336577992298414 0.10827290551660686 0.10372025447393407 0.3351351379146945 0.41114742685338646 0.07815401652258828 -1.6296955596219902 0.1653107569453045 0.1722733150225986 0.28573982273680226 -1.5210338456158141 0.4609978622095273 0.16855845151306525 -1.3456471159293524 -0.04322654181815621
0.9160611955130777 0.2588496946540008 -0.33966879607069633 0.6378088208703693 0.51289684701452 0.6210920956203241 -0.32958618917347016 -0.4216413033836969 -0.266233776755412 0.3236046281100577 -0.12765049164967615 -0.030482499107384 0.4792472210107213 -0.4297552333170553 0.7117203766814448 0.392287406437405 -0.5881827030093618 0.6031219766751783 -0.07958417969488785 -0.8338455375670837 -0.20315460106690403 0.782864814148676 -0.3904604446987259 -0.7406431041547406 0.8075242642751391 0.6061880597784716 -0.9550437714330051 -0.025011216947171223 -0.3056252076432636 0.45989246436364906 -0.34531747707188143 -0.5303248147689953 -0.2940363188973631 0.28106527621876276 -0.13740264329918458 -0.9209184580887566 0.11680108471526165 -0.9271972273209192 -0.006908948516919747 0.7599423687421671 0.2473108455413014 0.7996412911202654 -0.17867480744844713 1.1594184292455894
0.14136813149651511 -0.15636464968738656 -0.03956330404097 -0.476396612113867 -1.3273589437023183 0.4362604439587381 0.29605365930613603 -1.3089878633447791 0.8764864406279018 -0.2688027464314205 0.6941634397061524 -1.2882868864998926 -0.6188374031006149 -0.8908995055133911 -0.9864754742722714 0.28358007652235157 0.6562567849309712 -0.5459119785467753 -0.8114694066937957 -0.20165845716348751 -1.0233169140027532 0.16813996782830198 -1.0155682326697537 -0.24562224880978176 0.01769385052716648 -0.8585972374467279 -1.5185506825977106 0.2890516684999094 0.316420821378315 0.3823694411018337 -2.270931418657638 0.3303418337980241 -0.49970073541363486 0.1904578835233539 0.3272080551618927 -0.00587890112087642 0.488465777101252 -0.833785913164303 0.30609337605263176 -0.6348276610941955 -0.8836088007348689 -0.4069517763131992 0.8049002498588538 -1.0272438786476135
0.8949846158435552 0.25135335601089914 -0.16730220349740318 0.19374213316910052 -0.5148219197471606 -0.7808675078901615 -0.3214388058579982 -0.3268944025774697 0.655445798386151 0.22891262495193998 0.95173119274535 0.8751806494371391 0.5195979479015705 0.4668377057119495 -1.0438278228451652 -0.16678028453284052 0.7254321991190271 -1.0089647056622386 -0.7872068144816691 0.8365458301802091 -0.9848270152218741 -1.052776504722878 0.34176824777788584 1.0898628463527265 -0.216340914083737 0.8808456320439985 0.9863808689685619 0.34891724842352817 0.8068456690847083 -1.0250681021755048 -0.6543274739874502 -0.13255335281043681 -0.9938543013975958 -0.3365739828034699 -0.3816798056314822 -0.3586359534512013 -0.5129617673888027 0.8063062991337736 0.6575819732564294 -0.644641682536041 0.3480648763100431 -0.7151178948509053 0.11887669306851213 -0.0506221020254485
0.8741958199601565 0.07899995343707412 -0.12746264062212811 0.8251875792524385 -0.7598638276421809 -0.46093151681717287 0.7798667201695534 -0.34788117639728605 -0.9331982685535213 -0.4959938620979759 -0.49580420428843547 -0.5971171073464189 -0.010036804735601486 -0.8818783208836973 0.4473705140827597 -0.4138110719015266 -0.4848706070200466 0.8805479210009727 0.3349368413494687 -0.5022939043794415 0.02697130356249399 -0.8116504201893846 0.8465945635464678 0.08346716841540276 -0.829303105225686 -0.5954584542685711 0.38210215489516486 -0.05412952396152765 -0.2636750370307823 0.17095794556993577 -0.20173302486094805 0.39884452499826334 0.12433919776731327 -0.42597778162863137 1.1940192010888664 0.41798956195131315 -1.0005542987846188 0.5594201170649183 -1.0659271382065845 -0.4752274917147432 -0.31862864241818994 1.0540161643303867 -1.049752457472429 -0.1397093987281108
0.6749606312477237 0.7353148739904437 -0.5911626752276024 0.38070373715647865 -0.8679056396670056 -0.3624060618118932 -0.5116436156299271 1.0229769714870045 -0.6141122415067676 -0.8336851228190995 0.03385184151259972 0.9382429738094338 1.1965333281721133 -0.4635909594689248 -0.7206268878878683 0.3298485870001071 -0.64683646729368 0.17672009677183448 -0.6510815617165046 0.09967248784177724 1.1746824879736202 0.6680601331802258 -0.5243710899929215 -0.36661944031119476 0.06469869897412113 -0.9802306094921486 -0.21430514318528857 -0.0858165793198308 -1.1295125675672892 0.4331721655316853 0.010567605435193519 -0.6484418056561392 -0.11661728012871991 0.9606219265633974 0.4627999969485063 0.5674537635343738 0.140675399452734 0.17764047579288358 -0.8171384762601419 0.5189085678787647 -1.1780362280244872 -0.32795608479210364 -0.34946237351242027 0.4428060477693503
-0.36358985391254184 -0.8123955396892475 -1.3621556393497911 0.16381421505749785 -0.6557236759773846 0.5022291431343845 -0.4312599052966013 0.3713902998310176 0.711102230716041 -0.4938629870160634 0.7624399241000298 -0.8222338884644594 -1.030239381079564 0.12622214181083632 -0.8828438240505466 0.561995104186853 -0.31218038630794687 0.06939514096482681 0.9156220400345584 -1.1635717110908812 0.4726537836275662 -1.2853416710929801 0.1456613368503798 0.7451352633911753 -0.13383860833273337 -0.5768516706717892 -0.9014614450893739 -0.09360655837843637 0.7708557575158911 -0.10554448970938757 0.5940215783254092 -0.20475710737458813 0.5758557060286377 0.890631692924367 0.5790432996001565 -0.2141069192920298 -0.7301430910488405 -0.7179076711033259 -0.1749460213904514 0.3299079013890965 -0.8946016540482019 -0.054736778871736974 -0.9779348927669997 -1.058934087493005
0.4450468496069475 -0.467630412915663 -0.5156599485419127 0.016086176090409302 -1.119080939177612 0.006079797079965696 0.10988784892295964 -1.3335383543516863 0.09004872459212312 0.3754635071895245 -0.21930582823097466 0.36314531888195756 -1.0732574343651144 -1.4426919062536223 -0.5160961512625553 0.7060066625717526 -0.3078333712369726 0.23378443529223328 0.4456356323854061 -1.134918033311425 0.6897802090056067 0.22621889347722682 -0.24283856922839947 0.30986316510439327 -0.3375848563921949 0.03698986217047538 -0.11835730681748598 0.6526362265637657 0.1318496339082354 -0.4719458931325352 -0.05675010149776786 -0.8957052779254889 0.36650961636570023 -0.9534830087383316 -0.16996415879553536 0.8848826022992341 -0.8734852526403374 0.2260498052660636 -0.49856662202975904 -0.6346354012895001 -0.833070997618458 -1.2953190426608088 -1.3157007380696437 0.5197943101523251
0.17602057038284327 0.05326434162707624 0.03140606430579519 0.609489371631219 -0.7550415398934311 -0.30066532571139054 -0.19195637784830252 -0.7066094988046796 0.3286311056159736 -0.7889211242420855 -0.49935715274654024 -1.3410338830038053 0.28410198229317024 -0.09937850629930348 0.340571009990773 -0.05916434073180282 -0.6501212848967165 -0.18302548530582033 -0.8167040935609752 0.5987752397761433 -0.46277009930147495 -0.8786473540671053 0.4599907697811822 -0.994687184280223 0.3032637031908446 -0.23524182723647746 -0.024677306781659383 -0.431568032057661 0.38406987495922096 -0.6532571135948756 0.2166545236655479 0.010974332006977734 0.4749966949232775 -0.9267292414603929 -0.909222942014043 0.06500388816152806 0.4625481510349381 -0.5571689615904157 0.37850175467456143 -1.0414514921630103 0.6332353929887997 0.19817538978261426 -0.0460256447480567 -0.25549483165850784
-0.04356964062412278 -0.04047092443767792 -0.8275014110639355 0.07277627849448762 -0.003940425211972124 -0.5854381153906318 0.5015554340637379 -0.8200715084176047 0.1647834324224838 0.26678886535435137 -0.5260729489494279 -0.3716052010065418 1.0042534037807849 1.0246894014678107 -0.401410645526767 0.4591218938087108 1.1557092674453866 -0.1324782836938577 -0.6835374962033753 -0.04261931609312544 -1.01818183200319 -0.4561218611664123 -0.3871238894349705 -0.5064115479488525 -1.0297356215820246 0.9667957302515908 0.3160737199275208 -0.1603024467825328 -0.7250987073045104 -0.8671883408661232 -0.7166437142687327 -0.7172629935985491 -0.18000628658495835 -0.45354035187001107 -0.8060548413320753 0.7980596563608321 0.8403423432859543 -0.8850303675606676 0.8610959149115259 -0.5483076635222508 0.5296908308146229 -0.07135842117324408 -0.2712330805616565 0.5473824384560678
0.8167847431880112 -0.3365812889700334 -0.2866317491009666 -0.025096195491991824 0.15154241056930537 -0.3799100794500952 -0.8553150647390596 -0.37688780653246734 0.4613719982277374 0.5657048963268086 -0.3452510648684431 0.8617067557189934 -0.19760266887142014 -0.4750339630351437 0.7607856514432778 0.6170207268712202 -0.6291666698576094 0.37073717861419186 0.6532351657206176 -0.9791782462892614 0.00864285201855365 0.567797785585759 -0.5613443947164534 0.020446692525581858 0.45217658620599155 -0.044353144512234 0.5299616695691708 0.8637070964150058 -0.6778934279889616 0.7921842176283382 -0.11434627714932166 0.03302860053082442 -0.8178921952506623 -0.5157652331281936 -0.9871051617064394 -0.0034480272883855756 0.9440619073424112 -0.267470322160413 0.9218353908577063 -0.5938295713668891 -0.11080651380316162 -0.7256638664354135 -0.7262829007047273 0.6595270439949062
-1.0261438663673794 -0.47833772886549303 0.10187954753603706 -0.9019399135974089 0.6457440084955448 0.9073643366469447 -1.2661166925935812 -0.9568208051136456 0.9491500459250123 0.7590703182184485 -0.10615864741134166 -0.4667966522042319 -0.9353889268290425 0.06550851527819622 0.6843081198316562 0.26309591649654995 0.4895514041304969 0.5184566530212442 -0.629389530577317 -0.06100808024706348 0.34535124179345666 1.0277881338258772 -1.1787793605440227 0.8185119159829441 0.5596174751189568 0.8077201725828284 0.597846440271572 1.1684157423960406 -0.6615848554720154 0.5230374091815613 0.8688720411328509 0.39016249525981606 -0.8927879123537003 -0.33933345986470725 -1.0216140619394996 -1.0513743288320914 -0.10141171148792226 -1.3660234064765497 0.5926734794249231 0.5753440744981935 0.09644551780399978 -0.5703274140526854 -0.08039745928022479 -1.3054176934602477
-0.3991269307601534 -0.7638725416088461 0.425079309903332 0.19036428796601731 -0.8061889492686298 -0.467340279341503 0.1823085017763997 -0.5371967112173632 0.6661562808197952 -0.6903495197366403 -0.16454035775109463 0.9400599113527349 0.5072912631737965 -0.987140577850737 0.8627593266139868 -0.692969404868558 -0.5428832423123084 0.17959406791834395 -0.5971327893337128 -1.4136599388339888 -0.014105529045465056 -0.43122035337624715 -0.10861805108380666 -0.19597685084401853 0.04778487891548775 0.07085064729507622 0.7523295395933605 0.3122866659014158 0.8078450372377262 -1.0593270115203106 -0.7901317698881763 -1.1909281610566416 0.23207756821113623 0.9474371537707025 -0.20434331480401038 -0.5527348188287498 -0.4357003272991572 -0.42813938537830676 0.5792216457062708 0.0025764863782228283 -0.529266408714196 -0.10440515457963025 0.5046250255159922 -0.827847004086008
-0.47167300169751686 0.23917293245056018 -1.0853172724320332 -1.0216138939769461 0.6151644480185113 -1.1168472232244362 0.7236101994683792 0.24278942918333243 0.6058429557994819 0.6343554511468161 0.6312959799427401 0.41801240797283074 -0.4463940442098 -0.06399365387752161 0.9821112942598833 -0.8767037363272294 -0.41683502362036323 -1.1276236165364115 0.7759262906580953 0.1543669187204686 0.8269466933343259 -0.8963592749293519 0.9044217567075585 0.07487164964859458 -0.5965495327241637 0.5159149924524508 -1.1505765067009148 0.9101599774718244 -0.7707401587439912 -0.031055931939708858 0.2443216502843746 -0.7476486781808874 -0.03740370325212004 -1.2975441051824737 0.2100499574543018 0.1717570523620588 -1.2992182340711655 0.8534398282354991 -0.4403004560409639 -0.5409193034642757 -0.28313875956090323 -1.258333091585584 0.3760167727707307 0.25830765945543177
0.20197651907210973 -0.23358455905650802 -0.6634845756418825 -0.710587468516661 -0.3463263917074478 -0.42675231065781344 0.12725353682364535 0.25063171665579587 -0.6077228025913642 -0.2859281162317239 0.5817382059848796 0.7291111745071586 -1.0736531351254421 0.6665902640845587 0.3797300393640305 -1.1616160923537788 0.49116134752051827 -0.3238936048473157 0.7171826863108874 0.6172430963551033 -0.5452028632218108 -0.5831487342527824 0.7661068448031805 -0.8678298688809022 -0.4153999000611229 0.5057785917016475 0.27456975334741235 0.47010992502163396 -1.1607869778029154 -0.7834858364755032 0.48615464300353306 -0.8379885079200178 0.8223006636245933 -0.8947766306947432 0.933005184247968 -0.5798343700435344 -0.7512255939464895 0.754126969940855 -0.3707193294981383 0.024376939719162372 0.6228236614649945 -0.36617217700417437 -0.11138950325618682 -0.464945816290163
-1.0138536193738554 -0.019552241014557836 -1.150682775087678 -0.4027024835259665 0.41704269654101844 -0.4240699907531591 -0.9173210484848603 0.6810827058834255 -0.9308339418850347 0.11932102123155966 -0.04326203500375445 -0.04513443759906979 0.7420722950337513 0.6376071731511903 -0.3580081152115658 -1.1658331876323687 -0.48474932011696353 -0.626131006191323 0.08792841017610606 0.2199326968470073 -0.4589712362315395 0.6157275928565409 -0.8913122470444306 0.5663049660789374 0.797797863188857 -0.5863258757836306 0.4036133615298124 -0.1735649995231936 -1.105497228033077 -1.2337429280738126 -1.3740859646901336 -0.8594012952794479 1.094099592661207 0.45448994922246694 0.7585926428965383 -0.91776351148669 0.7552902137105955 -0.059971720608804985 -0.9098539772484198 -0.3971087545974205 0.6603709256765244 0.9410860584164168 -0.17487118993444753 -0.3750931833118568
-0.8772996196677011 0.040116227645372336 -0.7975503725738826 0.4730013733202361 -0.48860020277033656 -0.4103342365543524 -0.7638071741250965 -0.04092969407089888 -0.04351558187007352 -0.17101371997917544 -0.28295059456765703 0.3005933582271957 0.4215746164120152 -0.9250688641069085 -0.9116868809817361 0.11740953062542409 1.1677392269681983 -1.1697608817979024 -0.19710329795646597 -0.19648001083461128 -1.2128982554707624 0.8149576257704554 1.080411044184496 0.17603750807247975 -0.3601428187834568 -0.8398016951719974 -0.7581611319408165 -1.3694025732650477 -0.12389713297944367 1.1429105371071104 1.0707832921651526 0.5375439901903061 0.9593748180824375 -0.08650611941675448 -0.11686216185106456 0.7102233584606173 0.3533975827448067 -1.3040093808342252 -0.7574183252687535 -1.0339691955410133 0.51167503951137 -1.046413184355706 0.9131394426457426 -1.161238193424863
-0.20396421505735726 -1.0749372051918356 -0.477536584400794 0.14439414501898004 -0.535697094862566 0.23301512555927667 -0.17220795403047123 0.13950174807544394 0.9094642076127338 -0.034280832352683206 -0.44950812138480073 0.22678341358769005 0.10780517676578304 0.3900970391324257 -0.4737434590036107 0.19697760791934438 -0.9967554381453064 -0.3050476979318 0.835973040764924 -0.8532607255770667 0.05972485883592167 -0.72489078185727 0.676512336507145 -0.19428191659835356 0.4825816060931539 0.7672286303028201 -0.14263865273749798 -0.7331884452625974 -0.7286168772062155 -0.6094820983238214 0.4061788338179543 0.9009438018912737 -0.41542027106355933 -0.8477399101395158 -1.0248943930234904 -0.12442985800448017 0.8674205016273546 -0.3981241420980544 0.88294759432824 0.18408018598566722 -0.1674430487537111 -0.5072120672634866 -0.0634521498621479 0.35097879556898526
0.1455340523468447 -0.04093206369174273 0.5836098987473453 -0.696377429038246 -0.7580087780086292 -1.0096866561171267 0.4988905331797884 -1.277463334443976 0.4109079630008156 0.22897819873913722 0.6636272447790286 -0.2476781010205034 -0.08526015308061206 0.2666236222439003 -0.6001788665679273 -0.04358177827517774 -0.7849420603365557 -0.7930599794765992 0.49804082726553145 -0.1218561244667708 0.1601779696191673 -0.3325685815721775 -0.8978783636800856 -0.9190262418840078 -0.16883029857951984 -1.2226011799621925 -0.18002671786009009 -0.7240080201193726 -1.0712948244761495 -0.6641372492807647 -0.6939780460758749 -1.1464864541859663 -0.8451322293686178 -0.15473942889046888 -0.47535094732165034 -1.1772506899295911 -0.9266708907461035 -0.8905133346446988 0.6121040145153356 -0.5256374362777233 0.11406869119969602 0.5384028242393843 -0.6930300125514028 0.5586843898346924
-0.39945858950868 -1.1751415412326442 0.5823791841035079 1.116094072747458 0.3294700065138461 -0.8601730872430218 -0.18597744739376024 -0.7353295299698156 -0.46916124415992144 -0.44635128452076156 -0.2261538877931694 0.6627718496400256 -0.31854658002524366 0.04743852318440791 0.30235413067041844 0.568678770629471 -1.0807518315059352 -0.6168356309918199 0.9031466001808249 1.0837505654969275 -0.4578518607065202 -1.0434370881019628 0.8977781999156885 0.6389897780727539 -1.1281028348890707 0.29144057468373724 -0.8816679739134053 0.7501418440448788 -0.6540781627700574 -0.3476567174836159 0.06287369888148098 -0.8897328953553024 0.5722093110658465 -0.7651801356829228 -0.7248966479197014 0.953259789958746 -0.8286521076151137 -1.289456571207926 0.3183164950082074 0.7557153893781868 -0.38907355413186456 0.8730307261905953 1.1870372671548701 0.6515907900300316
-0.4914844618112236 0.6884470576843876 0.14261750525874262 0.45046905202439474 0.4417161767385439 -0.8677328146938045 -0.04132812798617495 0.15624735798077607 -0.15238081287809221 -0.7431734021003285 0.6459751433258925 -0.1648095968090572 0.1938321920030449 -0.17019725791794088 0.3163187071728044 -0.6385229703735498 -0.413857913114223 0.5319083088147454 0.7805225389138978 0.6556760594310075 -0.48826698124159873 -0.06936350178031084 0.9409809566081405 -0.8154025404576215 -0.23234566967992729 0.2570870959883185 0.7692192725734638 -0.2417335921063089 -0.14397421309891542 0.6891858457241503 0.5617209984963625 0.8710177933833805 0.3951367542777408 -0.23740430757102152 0.47719934476786185 0.013008735644756448 -0.46040747608538907 -0.6811797228359675 0.8336320547345202 0.216055649239647 1.0638749169731876 0.3658074677148039 0.01123371449812534 0.5078549099507285
0.4587792332277884 0.7816703889388511 0.10654529741004178 -0.5351485169600261 0.4541875822123548 -0.7007423158182001 -0.7482561196467632 -0.8503904948555946 -0.05037232155938753 -0.2912674188039137 1.010191866713801 -1.0327735849493125 -1.170862231980645 -0.8425172408639781 -0.4412508226601519 -1.4158705117551957 -1.8172218264780535 0.20328554093823564 -0.17324886765796652 -0.7933160588734401 0.603986466004626 -0.1938470248262557 -0.6500007924663822 -0.5897941095993237 -0.4503416149694184 0.2700551761342542 0.05619352602093619 0.36112120965194766 -0.5141903885054214 0.38835909075585684 -0.7368243529735297 0.585203269817654 -0.07319416953896367 -0.3819655886389962 0.6329075612627696 -0.10131072034019828 -0.49820805613771013 -1.2574709318267234 0.06582561218816593 0.21548595461065595 -1.2461509544932816 0.5029248593086856 0.4093772979579781 0.9953017854267779
-1.0530778046871092 -0.8238364528474148 0.631844698064442 0.9365967781859736 -0.6075053958051173 -0.7065537323615637 -0.4627429218136646 0.6708035278460016 -0.5766363036679093 -0.10382022220169274 0.8897564976644194 -1.2996156260445484 -0.6849723568913073 0.01735795467237315 -1.018937582127957 -1.2156822254588826 -0.25853272681739925 0.33777865627427295 0.7121308071824698 0.7661751376129867 -0.6886117290211783 0.5614613499557911 -1.1924836518157813 -0.8139563419922545 -0.008646851968932617 -0.1348985625814529 0.046376256790440065 0.14487102618461903 -0.5233605761596892 0.6126947974410604 -0.7130488909315245 -1.0706549895739388 0.7082285517176113 -0.23270198204460166 -1.1932595458075899 -0.08606814546648571 0.45060233862287025 -0.40363811674179384 -0.6094679205708079 0.36388464890482836 0.6011362214198458 -0.5722498021406079 -0.47398434517869575 -1.250786035004105
0.026898146207547102 -0.9728606934842698 -0.8480377298752668 -0.43846410818054354 0.7231079538491834 -0.8497255369716958 0.23488455282103723 -0.27224494837162194 0.1347696057555375 0.43515802349147253 0.763044295350624 -0.1242001326764403 -0.09342943725770418 -1.2716049848567463 -1.098943899373139 0.35214660893567756 -0.4729325523130973 -0.29233306822181304 -0.41947316747283486 0.22226273432309238 -0.11781128799728102 -1.2759485944468987 -0.06272985511712426 -0.8542559593501755 -0.4658159686796965 -0.7069165048782783 -0.27244963493399144 -0.4554086128743589 -0.7879617677281702 0.6101312304600088 -0.10373250946257911 0.8208294371281774 0.24649460752871133 -0.507050596498496 0.607067603661817 -0.01217715454179954 0.5523663116630808 0.5369133823118334 -0.05274370636000403 0.047132650626287936 -0.7287384185881245 -0.5974161859111952 1.1262220334951967 0.5736666451062132
-0.35943883592928155 0.5024447301244084 -0.2588759121627778 0.3096262256151128 0.2879373208989206 -0.11908425006296212 -0.5052215638949523 0.9973424377035918 -0.5424125081694534 0.19212024973994574 -0.1454276688517734 -0.37990582305692117 -0.4582633372939151 0.034708474506018376 -0.09520583410707355 0.09788320351744276 0.9886222497795705 -1.1051297928160138 -0.5489234830197663 -0.20144211822373337 0.1536321743220612 0.567801978905727 -0.09853098316783547 0.44012069266621034 -0.5297412736687964 0.6897584942487154 -0.29533492762252717 -1.0407955776332716 -0.6768720366359565 0.27049183615592787 -0.5782443208662329 0.17686378788578344 -1.032685251857464 -0.6124883890916087 -0.5421918796265305 0.7423871069282765 0.6265470468830804 -0.04820265463498688 -0.04225316217129339 0.48137044702889037 0.47930218744014824 -0.39226097196567655 0.5927608690965428 0.31161151267215004
0.24155965662240006 -0.2396452019994376 -1.0112709354368208 -0.5675959315634811 0.20698563717914095 -0.1364993409401316 0.8125972716977286 -0.025624408020634308 -1.2890856983961712 -0.28263572067845266 -0.005231920268201693 0.4773472941686848 -1.0416695162503657 0.2765808942092481 0.10364748319775201 1.013927398754357 0.36052601858679423 0.13797999514219197 0.3761205428943485 0.8000741352695295 -0.758261400784383 -0.3021882108044821 0.479879191161338 -0.5686771812960022 -0.24802259368042662 -1.028738640088752 0.44189201334635253 0.5087103178853054 0.37754331984550754 -1.1704428437999854 -0.6164928079423236 -0.9665435391470015 0.0858607488579924 -0.03838300719426261 -0.22912522686212122 0.1792969512173798 0.8370960932702678 -0.3087325793244807 -0.44245706542234203 -0.08845437645459325 0.4349424244484073 0.09507729715079695 -0.6123350762300724 0.42057465011679784
0.017978194843742416 0.4126081371412291 0.6659285012019541 1.0598923442057802 -1.0176260588201713 -0.7969952207541285 0.5997524023144439 0.5881291224109255 -1.5130519396303308 -0.2724885257399843 -0.7119614508491391 0.6634478481479518 0.8412693878222373 -1.1535274634190331 1.0024078802068814 -0.43209786718628845 0.7013379780859806 0.46959164079352045 0.8314049255348666 -0.6447997061615909 0.68457258719392 -0.6644347960378049 -1.4660830563880454 -0.8525442691506018 0.13603080627756 0.3487773570897498 -0.0397144292205046 -1.8535461123418193 -1.0592053810611282 -0.5238833144780245 0.00018672899574745966 -0.20979077202975385 -1.2445499462322236 -0.7698998531751724 -0.8959936834259664 -1.242134029517663 0.054721952938665164 -0.12742028543457581 -0.8138772648051045 0.84036314835347 -0.8370093775756526 -0.03402949873171054 0.9174836940077274 0.9372098032318585
-1.1744966154548004 -1.1112243043410466 0.3124312753567848 0.6853565199842682 0.06277847840216108 1.2191107050152619 -0.5700838792953522 -0.4362130409288042 -1.1542347727014948 -1.1503352888515075 0.035829857021660826 -0.11768850698281562 0.7698441824462541 0.7678498653637261 0.7711700932778439 0.43406651952154757 -0.16615827056396554 0.5840670733345947 -1.267323925112523 -0.19178016941472778 0.19959057298948044 0.5109316410606872 -0.6055055227663644 0.564425497152655 -0.2000053372110583 -1.1524534422046238 0.21175929268140364 -0.7380135594057526 0.8430014773737886 0.39428989974847733 -1.257710043397453 0.5639864052620823 -0.7306933386371247 -1.3479133853724914 0.37193469065260876 -1.297353734281563 0.3887180921770429 -0.07899168938684092 0.35877367866027804 1.1201234016285817 -1.3181867404576342 0.8520865208306635 -0.30183509694913685 0.49262226942299386
0.7939474232806998 0.593556922760588 -0.9757311009257058 -0.02802138644868671 -0.6420550033584985 0.02343683033124954 0.030719263128079034 -0.6971916791100361 0.3528396357217332 0.22256505530655316 0.14098440021621372 -0.7986362211645306 -0.2681366576920621 0.08593955688261593 -1.0598961148470616 0.9908681951379871 0.2754413232130764 0.8868120845793394 0.5232782603935401 -0.8197007187908684 0.33273749314099155 -0.2898942145762549 -0.22236193562444634 -0.03116889950231393 0.9994015045337705 -1.1066555571934282 -0.6261954348815966 0.3283243928691417 0.4428925336939879 0.9397317411092669 0.48033918863036573 -0.9573436239439346 0.8347612146842965 -0.3721077711393728 1.0212423351553856 -0.09499478293647551 0.5163298198247265 0.28279604087695426 0.6270074276393699 -0.047213317552461796 -0.5013636852405521 0.1353298807740338 0.1672513248723219 -0.6043005942653288
-1.361853472021524 0.43130227323098064 -0.5649708649853179 0.025626359829085937 0.39980783167441186 -0.6262988578377064 0.9455054824128166 -0.8198169675500124 0.33571479153288597 0.8879788494172937 0.10759090375114322 -0.1821972862351823 -0.03421407993543821 0.2766663532059259 -0.43865400865855975 -0.04403161993766093 0.19717038952418262 0.35266488204433927 -0.9483114874952485 -0.06593567054096827 -0.9355297867213385 0.8411374418129455 -0.32452246664583145 0.12785875412916317 0.6342684981354396 -1.2456601224118178 -0.873202827347049 -1.490397472377865 0.5989816693069574 -0.9961907055088072 0.639427870002858 -0.3176557014959163 -0.036006428602020045 0.9219758492439056 -1.491250877883589 -0.8923597886942187 0.9437292611108393 -0.6342575158300539 -1.1906701269078401 -0.1657577769846115 0.5654784337476788 -1.1179457963102404 -0.15518012426097222 0.20812903641847563
-0.8494107799774225 -0.0037427516625558556 0.4735877609091823 -0.14644548210703484 0.5558795375043852 -0.7590273754104538 -1.002942288311966 -0.0033679533838139116 -0.7765055013666213 -0.47697389995529016 -0.3434645336224765 -1.1172850717493017 -0.35495458401280067 0.100694461911704 0.25654782600875653 -0.5301455899305649 -1.2383228900754586 -0.6350459278695814 -0.4425244897634414 -0.03756056497682885 -1.0669708652576226 -0.8774911337848119 0.7359809194774 0.19506671589811664 -0.7265609815204579 -0.03380494571623002 -0.6123034653566579 -0.869380604603306 0.7996334579730047 0.49551922779475666 -0.5092134504160218 -0.4509261784206076 -0.8250275383315633 -0.028438392223763292 -1.344327503560437 0.4146808611174976 -0.9813370281562236 0.49560588365458463 0.7256647684589982 -0.6276063874261693 0.7840550118031335 -0.42376045086954195 -0.5069379446536855 -0.10951781690243935
0.6512695744213675 0.42491751729239047 -0.28175685806641565 0.7768126647906728 -0.963816700560297 0.6658616633486623 -0.36392162192552163 -0.7667303400598421 0.401731627350645 -0.2566228513644907 0.6839836579923472 0.008386925265039875 -0.24159055241693592 0.6659880970889566 -0.24811589690996821 -0.6753470063152855 0.612013395415493 -0.8446963969283398 0.668301008128065 -1.0231165151580672 0.8995205625152707 0.6189204320635938 -0.46961646202928514 -0.2960959334598508 0.7039415087624667 0.9163715879444974 -0.1349397986324977 -0.484034273804035 -0.2856510382058777 -0.374614785441128 0.531735479411396 -0.07573675718525268 -0.7249250957763153 0.7566379567606554 0.6317727800023489 0.7700618662079705 -0.6880523058193504 0.3976637697722586 -0.5808826094574662 0.035831961390831224 0.15063142403202898 0.5934537994071901 0.5560616004689336 0.7699008454980281
0.14046188343274912 0.4622857993014276 0.11539243942414297 0.22154856742967868 -0.8841065147509392 0.7102240416268372 -0.4519422826034491 -0.9730880713561848 -0.35661560891747385 0.6014495238484358 -0.6751190315881224 -0.2708699619366206 0.35140836089400473 -0.6923277310805838 -0.36554992915063156 0.3076741422814752 -0.544570913948138 0.25681773998984186 0.47490476123129166 0.9092867334438545 0.6935491312795694 -0.9879995382348582 -0.10727139306541054 0.20127781320262444 0.8130144342757014 0.33934858071508 -0.8832088647741358 -0.16851243332490676 0.38724719124183865 0.7700943856552903 0.05424901822176204 0.4334120236483201 0.500616056778881 -0.8907331941742934 0.03901409143948525 -0.2869354023071718 0.2316919875138698 0.5333075835315891 0.7679104241996275 0.44731167452131565 0.8349761146740409 0.9008302958475612 -0.7360483522805635 0.3704637457851974
-0.6609055587536435 -1.6674523127330227 -0.17958279034288924 -0.7315072564738655 -1.027144454609994 0.9731968610020635 -1.124977820364003 0.49953962970730764 0.7738137383639734 0.736207313892626 0.7354611532196137 0.6274370307554881 -0.47380368573267784 -0.7761244422588974 -0.4691382353277961 -0.42186288623472 -0.604753984108103 -0.07453831148291586 -0.32457543252394583 0.5253256487931685 -0.6898668432547126 -0.7984154901610944 -0.9115277287160158 0.0916057219456365 -0.1771305144021273 0.6974358932123219 -0.783687222214654 -0.08274032280754566 0.06847872788797969 -0.9901141395655985 -0.4001926816946277 -0.5163608775407879 0.7719652643554639 0.6082201745336542 -0.01805700048438922 0.16347862827117962 -0.2692204025245509 0.8886138265022256 -0.7699850899252567 0.03493337698158257 0.5176273820506531 -0.5116422794862187 -0.7095171248428047 -0.4850836874060607
0.34732346896503624 0.23394199985020583 -0.0573898162278841 -0.6452633729137006 0.5171249036933994 0.1221363637826481 -1.2299972266862325 0.45694702030133383 -0.2585928308777456 -1.1004626396797568 0.09231477131346967 -1.0864302206674603 -0.5238808580234323 -0.9098783712641172 0.3017771304925811 0.402030176528278 -0.39495640141395577 -1.0786045908329986 -0.5054126325902427 -0.39444701206269783 -0.6927626558264759 -0.04494231477462321 0.10500548401827368 -1.1038120342957085 -0.2291157807859906 -0.8702105435192127 0.7107868222258182 -1.2239616677726215 0.2726443713303236 -0.24622031607199046 0.08959925089949526 0.5570412594000574 -0.9490728672409149 -0.6432348974845032 -0.8289429257520945 -1.4503101915644099 0.16590990050336824 0.8091252317764981 -0.9445899812559286 -0.9577770296145262 -0.9486666563658762 -0.4740669893415067 1.1114648008739787 -1.2775563720183176
-0.27009938416787954 0.09704248156801862 -0.5759373889262519 -0.7351119290690366 -0.39956835172132277 0.44715666351821476 -0.6062132144485742 0.5413291648885474 0.5023269544347627 0.7532346256674154 -0.5381518031622897 -0.007022570701333507 0.29734676518941316 0.5375036088440297 0.7462278678384769 0.8610926432218273 -0.6583136088586601 -0.4089267795740849 0.9520930941031339 0.5835343378780059 -0.7694692120129523 0.7013760811902328 -0.4030824779911578 -0.7952188674871433 0.8963099459838275 0.6832190763837204 0.5146584162777056 0.5597131777585734 -0.6019845289904571 0.33162751364646853 -0.4695774285279051 0.5171474326362181 0.6581897178810494 -0.4287681091973721 0.545226314494798 0.4384677616658691 0.11699481883227147 -0.5237342531988356 -0.4552251785737329 -0.776161103791808 -0.25338055944966487 0.7912057815127215 -0.9441979220267404 -0.718293452125121
-0.695394086622365 0.34524936646042875 -0.12348191493573703 0.47760812482513576 1.1834678683084794 0.9285973468757037 0.22742241281054607 0.05659929046442632 0.524834409211081 0.23235863663114098 -0.6652746145760527 -1.0806397423550322 0.8068658727278972 -0.033045634088700544 -0.7375409214832975 -0.38768024741161405 -0.20068418172877245 -0.5589943853503926 -0.4420664922732169 1.028621281052278 0.9224733979494928 -0.6001971512333583 -1.171895049370952 0.02559917965797725 0.01967458142324914 0.5775964359065097 -0.5729581935890192 0.6289064611930055 0.6923244674113901 -0.5676658602348821 -0.1043924679619763 -0.021436402795800346 0.0035600787801879177 0.4457808488926897 -0.930336533942359 -0.4967300341336541 -0.3568028882025639 0.017989408012796533 -0.22916264857331142 -0.375161102974372 -0.5482512781573813 0.5163733657538002 0.44249500377740536 0.1163516722400441
-0.5313840240688489 0.6328791016987619 -0.900137047293363 -0.6164740101124172 -1.2066550500250544 0.6418875531881408 -0.9997846292486796 0.09809323525529376 -0.6161490533974178 0.1590008071798907 -1.1475814209295092 0.28676684864282026 0.7364265264512473 0.29548468410235507 -0.3984076491365216 0.7369624784302122 0.9106455229574963 -1.3715542510729137 0.6420498574707137 0.6701976605514551 -1.1663071499087945 -0.14928967266788423 0.563685180241985 0.74552356682386 -1.3973468910411957 -0.1057901375978544 0.27556033265907964 -1.4877113446412715 -0.5712767256888687 -1.1873486485974336 -0.41602289118316443 0.32467743445829234 -0.07580176685450728 0.38564747514574876 0.4977704883278929 0.19509028960646013 0.2879650558883118 -0.6658889953364607 -1.030860042502069 -0.6195863951960806 -1.27217744135903 -1.1527023413576456 -0.3439992544757243 -1.397286921126418
0.7370584406553315 -0.8084353279954113 0.7925259819921764 -0.9932687773173919 -0.4358731142645442 -0.9868153278942206 -0.08347263144975793 0.7152374102932522 -0.16049743344862835 -0.8823085497621772 -1.0867791608677972 0.09032173236035242 -0.025193402172043612 -0.8744511948983178 1.09591938885178 -0.2476604280324639 -0.938373836222405 -0.9164446557689893 -0.04992078571354054 0.42685065327097205 0.42087810148705435 -0.17355470907069553 0.1441407702001521 -0.637541711102692 -0.4471824289718048 0.678813166175947 0.7360271481453994 0.9433904935764477 -0.38467176052743046 -0.348151029496629 0.49532142335003754 -0.6266917932686633 -0.26192786082842257 0.9329652435873725 -0.6221311559459425 0.8385165162464758 -0.25953695868066573 -0.13099259585325443 -0.22900568590352402 -0.8405956454629785 -0.04849133510951932 0.13538289008417626 0.2569790303823695 0.5076434853186922
0.426355906195226 0.3245190269559436 0.09239519790285924 0.060174393049628024 0.627004016698115 0.6948208847226542 -0.16974598098494076 -0.24306358918161192 0.5851307671352011 -0.5119277644351509 -0.2230343669665979 0.41436573030541546 -0.16507019285089677 -0.07237354197212552 -0.8621649508702868 -0.17000375148461366 0.4585903508570221 0.6377624820633672 -0.11886513003628923 -0.7147917678700642 -0.5653463671559286 0.27837124170272165 0.4965952300466607 -0.17286785470999372 0.7174404787196579 -0.5525777131534609 -0.7810029235851583 0.4445218375089932 0.8522171581061795 -0.47527056754017877 -0.8891145634330092 -0.016065700559032167 0.8524138135552155 -0.9211482003049356 0.5989662889551789 -0.34502949293190777 -0.46813407882632635 0.7781878374633873 -0.4047632442322809 0.33747506162551905 -0.10863673883542359 0.6083313684607496 0.40739156359178913 -0.24639028978585747
0.6443495998126271 0.3127905350660441 0.7734712929185256 0.37026604730997315 0.647839290698092 0.6429836040046873 0.9650330575233093 -0.25765577181593086 -0.3662601492507683 -0.7185978102305959 0.6424454292560393 -0.1425258915655382 -0.6586665664734552 0.46425047223448207 -0.24255096251724173 0.012202286992941144 -0.8244460720210706 -0.48679914285746584 0.4270061604558848 -0.8634019606429385 -0.46984443852471597 1.2048010682152834 -0.7943053310466799 -0.4859379721866583 0.053891621509505855 -0.4945711559688266 -0.4720037779384754 0.023598769704751034 -0.3328915532820247 0.296127344539097 -0.13848376579323934 0.8911739243361668 0.48875967747053983 -0.2980668937894187 0.9271163581414383 -1.0409822901288464 0.3349269321403838 -0.27628064906533223 0.6153901854608969 -0.31132294527273957 -0.6036805366363102 -0.4163727610026648 -1.0052985638018137 -0.72216588935933
0.18496887641490395 0.6006561998807284 -0.6309260495632816 0.6739954294201862 -0.9162207698330705 -0.03724727500826438 -0.1382868429032384 0.7581385766127487 -0.975244868832711 0.7917510604191116 0.5849828970829639 0.043866799417455096 -0.9719009047675413 0.34475793524380915 0.46665814359565017 -0.2712763981897057 1.0614682225132963 0.5976008065890404 0.6651461611600683 -0.44271193663542635 -0.5848934923080399 0.6162453362547307 -0.2366599971954958 -0.10021113883902821 -1.0734903533269753 0.11908045614759233 0.8778588284555161 0.5449686490509363 0.7449658871409117 0.27087927840966164 0.14088069176506096 -0.39968834720013946 -0.9046614832458779 0.33154235892411227 0.8833711984758342 -0.27768555585594107 0.3420002743035876 0.13484170066608808 -0.39327052700497916 -0.8387912491719014 -0.2934926450736643 -0.7526415520733934 0.25657839500240626 0.8102924301617404
0.06043910513738391 0.6843935552913063 -0.22404049366504597 -0.4376896219352347 0.17134014558610486 -0.2517440496441517 -1.0700989010041828 -0.6276931956439088 -1.2051687885529212 0.04324564225358262 0.7305108303712045 0.16803689223471774 -0.2329344130601459 0.9196253281008129 -0.04282783768212246 -0.23420426489856402 -0.765675243096522 -0.8713477665084406 -0.7626580700185568 -0.8332450769552097 -0.671251541760969 -0.9565354841712023 -0.7455000703524245 -0.9755941891583458 0.2074125381503371 0.49899448213628095 -0.5516596923869748 1.1283317973849605 -1.0569016869073102 0.8485086480597624 0.41099126128371666 0.8437682115121021 0.10626928611768037 -0.19457996515168194 0.44568148550330017 0.793619499100318 -1.1374143222514805 -0.12555927165727795 -1.0536675801234845 0.5573256260023178 -0.9632375695807183 -0.3875582134679305 -0.254066716828844 -0.3322419813267856
0.460249747922887 -0.5766151586957828 -0.28756198155354523 0.5691142244689763 0.1630967123260633 0.06846399491999161 -0.30319727997294915 -0.8485255348779216 -0.3820724813089667 -0.9480499205611183 -1.4636412118025361 0.11476884990912775 -1.3469441685879666 0.7500586759379011 0.7667195822687131 -0.5976702503590021 -0.8548286057650816 -0.5527759190956776 -0.0507804852036729 -1.2115375444916252 0.5471290855743062 -0.10445789675193148 -0.26779263948585846 -1.2331402652444792 -0.46376872715052075 0.038255942144394275 0.2954659537304658 -0.06809537026384868 0.28828551766948074 -1.0092299282623394 0.07202511040409013 0.3612021332962976 -0.09829668613198347 -1.4470176024777273 0.04539375553897451 0.34293820152260085 -0.8484472740800333 0.2684467837131468 -0.3458052025398598 -1.3446669168019396 -0.3584564491447347 -0.4070747580735314 0.23434211380031167 -0.06372808026644827
-1.0640002908304547 0.9397508610268079 -0.2109440042638508 -0.1644200856849552 1.1497537285117618 0.8118655307392223 -0.4024099755208408 -0.7188478428586648 -0.9484112323846122 0.6670871487893437 -0.7209590651889912 0.434515695573246 0.5206297918103479 0.11360371882900942 0.7227561492358427 -1.2363216167475104 -0.9713632391276132 1.170656351632849 -0.4744904389370671 0.7175446326688607 0.19333379877818588 0.27396669160248854 -0.7507287569874428 0.8578660368513618 -0.7669520601490516 -0.935463714878365 -0.46383359898373216 0.47717622883754396 -0.4595718878559342 0.4757961045577058 -0.7936021837205524 0.7820585063185017 0.9990662999159995 0.7778840367329983 0.34035212792059216 -0.007182247340897328 0.37763959926541957 0.11457980250562977 -0.9503888584322516 -0.09462271361829823 -0.48413477527523807 0.5433020605512064 0.35245594012669473 -0.34806958086929857
-0.33966226071539257 0.6941069548272003 -0.02006947819980441 0.5009336755957928 -1.382104980670722 -1.109084997942696 0.05401898251747385 0.3339373493410103 -1.3053632745447297 0.29724883764194526 0.599923520527898 0.7008459469846411 -0.8981439832026696 -0.5971759101877301 -1.0509920464664089 0.6430477475840084 -0.2708225280729008 -0.30791778964316513 -0.5884194463610453 0.6395592272971935 -0.6587941626526221 -0.020724886523046375 0.8896132543068506 -0.285972922573447 -0.9086641824799575 -0.420036874751086 -1.429862074512937 0.7297245481909539 0.349431935291835 0.11461279507233622 -0.6624662513017869 -0.7973405151094001 -0.12904614797348077 0.013488602401858946 -0.44550651684366144 -0.3692304585359925 -1.256566634225487 1.1102774620966214 0.9361441677025758 -0.3712579705084154 0.28727928288016935 0.26051619467414855 -0.03326314197838323 0.6599342467537351
-0.9935639652701598 -0.23654170483051715 0.3437173085730323 -0.5685714143924646 -0.8526266122400006 0.5916147628578196 -1.2855033598082932 -0.2870625673457664 0.6021233459557334 -0.26198374801125 0.06789496485187445 0.7931343593234677 0.7083755583801593 -0.9421268878952941 -0.8203437734203669 -0.29348337329902346 0.45987565049055024 0.11609229559808668 -0.14245630013553895 -1.1725120019607524 -1.4217660247487318 -0.8939578935815529 -0.2343866459424631 -1.213285592074715 -0.0488934738163549 0.6449640677814666 0.7334335563825887 0.021291428716244284 -0.4296457667855266 -1.157256032308742 0.3898719239500039 -0.7035076402419684 -0.7219656781458401 -0.9469934084382505 0.4623209330232315 -0.08079206511435377 -0.0538886210739623 0.03767906687820449 0.3190518063275956 -0.743501770283766 -1.1049733335827994 -0.009173762790754419 -0.4618559092300408 -0.6285287780574219
0.3499368944652432 -0.42661596043047156 -0.25473626197157734 -0.8419176538969088 0.657278067669927 0.41432368783186607 -0.6554655806951594 -0.30784746068131225 -0.7284618861381188 0.3891950338859611 -1.236654686608159 -1.2259348281581246 0.7006573820567807 -0.5315684780202167 0.3231846865007345 0.08973793008079052 -1.0580666362423439 -0.7951900442572037 -0.9732062746471497 -0.34832036456811954 -0.23006795538712405 -0.009525141341791023 -1.0767350245558476 -0.17010922887809762 0.22857747012620777 0.4797487137881236 -0.8725249673416613 -1.3583219508318582 -1.036663684215697 -0.09242485905498389 0.08816193579311249 0.6916150294263186 -0.9649550545639392 0.04272699417764926 -0.2657615430485909 -0.742607667819514 -0.9746692995935621 -1.1133902289654882 -0.888887237031294 -0.14074442499163714 -0.5009109383989939 -0.949169056182996 -0.9862928746956057 0.3564897288554591
0.8224460049570634 0.0765352334611215 0.4025358783306854 -1.4115583092578186 0.08661808868914751 -0.06392447017984963 -0.30274054767460257 -0.8177398963205074 -0.6171371811170566 -0.1405374192026745 0.5042455860053219 -1.0059579391433826 0.6970831542292225 0.5581718007393761 -0.5163322364263279 -0.5281960544975078 0.6946047785368509 -0.8405146878047095 -0.0940919150839252 -1.4469961495602492 -0.8371067537440823 -0.7986204569223551 0.5696030596727015 -0.5131115459816289 -0.9026697882360473 -0.09311851836498006 -0.8781817054517854 -0.8133303881174474 0.9405010667599819 0.5649777328426567 0.07041826410245038 0.269993972333837 0.44627749752902923 -0.6959326555337669 0.7021038540566391 -0.89801523448229 -1.1452349305925043 0.41220889596259386 0.03338615289615038 0.008999475988394927 0.22104943390310133 -0.6551469879297818 -0.6348051339501327 -1.1027457080334737
0.49367384338021286 0.5558841537827002 -0.7062740682718202 -0.06192926661878889 -0.7541284431923737 0.3019182727647789 -0.6250179411625852 0.31498668736065866 0.09579020091272215 0.37509267359065035 0.027561675780445976 0.7108492033419106 -0.7722076071902396 -1.3272368998095296 0.36920727290491967 -0.5937334181879721 0.7413554912758161 -0.5980437502930906 0.7818163019994571 -0.612134843105912 -0.17736762581537494 0.8840977519076505 -1.2463752545802451 0.4008152716236758 0.5382898657652012 0.4970490407039592 0.4015199653003412 0.7399056945365938 1.4563415985665022 0.7005464338292193 -0.10221671890590636 -0.9423073431788319 -0.806765351896199 0.17394510253767662 -0.5593840676985136 0.31107566201730896 -0.3719343886594998 -0.284486327044043 -0.39315523560256876 -1.0334488293487964 -0.1322328935771105 0.2715145255218211 -1.0362692864524676 -0.9120381032817902
0.056155880759077355 -0.32608339059187325 0.45187213497835205 0.39469458212980113 0.9679720560844316 -0.7929365439264056 0.5663418883222836 0.9261149508499793 0.476671899164996 0.1802485920914194 0.5148426061159771 0.6704612211170508 0.5183960766463325 0.3307207833484037 -1.3456855225643523 -0.9244283969564955 -0.05774796086242398 -0.14214288493154717 -0.5889149552978498 -0.5129682071324816 0.2986477927789457 0.32356279008610767 -0.28540567699452124 -1.2622949317558207 1.1881859920695075 -1.6424054903371403 1.0364875889466114 0.16069463458812258 -0.6343928448400806 0.6810547973315685 1.446541404900529 -1.0323540719223248 0.7382579116319026 -0.828088543519644 -0.8286692909347697 -0.4333952978438263 -0.7613999778479468 0.5921020709572622 -1.1328798198281005 0.450454546050392 -0.4649773971634526 -0.20446875875669765 -0.6083349237510288 -0.016310759979317788
-0.7951498532518353 0.04107313971482871 0.03290828250755982 -0.790425597653949 0.7768494881727825 -0.8456491460754995 -1.3392289489964517 -1.025129118222115 -0.1076161900139598 0.2859909279899025 -0.8603011421621506 0.4809946345562968 0.270346525052343 0.9934580714092467 -0.34099743537778643 -0.23162758049954135 -1.4639998052948449 1.1096879800274724 0.16306390604307874 -0.1417165022575979 0.4031455967938446 -0.7281452710023689 -0.2858350352778984 0.21285402559010347 -0.8055453367042424 -0.2905555402686372 -1.0334746704699103 -0.5448875183304096 0.6600283972530092 -0.315064411271962 -0.3645939786051147 -0.8474892533892401 -0.43716354342801345 -1.2958117363524122 -0.5168064942427004 0.7395552459382007 0.856577446329245 -0.2183656840769407 -1.1056979643437128 0.1637312036489702 -0.3384135268993509 -0.7290143025735263 -0.4240672062969918 -0.2856209789946727
0.45416379217086267 0.617845233520169 0.9050045967641567 -1.1968740645027742 1.1043016968134731 0.9208217952360493 -0.1120373332392619 -0.29263605534477627 0.24216617663139753 0.18155260386393018 -0.9481398131161938 1.0340656801967187 -0.7077200274783855 0.55045764269759 -0.9553297593559483 -1.0002672184432644 -0.19867069794002706 -0.6112713258748486 0.5695772378306901 0.5016695995400609 -0.20153029529751032 0.09153012759257695 -0.9387599987595979 0.2077191574316308 -0.34469476314645203 0.947144990116049 -0.0459323719386591 0.6883885952018631 0.12463182355766442 0.2142136994940114 0.654743929451663 -0.3552582998527652 -1.1529884366378746 0.46437413286968754 -0.5034722062575868 -0.06776691378883702 -0.7573375216817884 -0.19752408412290678 0.612896775031621 1.019174308708073 0.1830328903273195 -0.5523911569124994 0.5271273586827319 0.0911718273734377
-0.09908347696230961 0.0022282247155637784 -0.4799346761670366 0.11936111045817743 0.4357102294095935 -0.3052498225450126 0.2337139199218104 -0.05954055355066632 0.4287562994711115 -1.3275293773833612 -1.2783608089017966 0.1378463633897339 -0.7594954996006972 -0.5055968937414608 -0.5010924227972707 -0.3069692002354287 -0.6427251702109532 -0.23488990049184236 0.840022639212511 -0.7186290825037609 -0.22847030836994445 0.1910192715249718 0.0947403631774848 -1.0428783993950739 -0.8043962745094587 0.08483484772543559 -0.8947874428370937 0.31850126269495294 -0.8241326126801998 -0.3894857822277756 -1.000984848818437 -1.0993680598874809 -0.14093989718546088 0.524976838210878 0.16100347955435823 -0.20119656256085225 -0.644808080219093 -0.33083572740917505 -0.033969955229212784 -0.11866313552640247 0.09890753973952154 -0.6055684320349117 -0.34280338008538347 -0.19329249994646858
-0.9006306621640839 0.8933752756505083 0.5235567941664383 0.1530695860720488 -0.4724314434284558 0.8397704961257045 -0.177377119893879 0.75067463398089 -0.47376836334938766 -0.6622882697056164 -0.5940641317131193 0.6071684607263874 -0.23489807727231482 -0.6637445994752622 -1.0409401723639253 -0.27908176978982835 0.6979380491529417 1.0832133379085391 0.0849550853401077 -0.9769660963341942 -0.45198086686196975 0.5222145509452425 -0.31062722537743065 1.0637312053919015 1.1281195707381577 0.8107227693820033 0.01663702935294015 -0.5949572047221071 0.2887509285028973 -0.38828704244425744 0.378637435053284 0.5637308229975174 1.1279134735095058 -0.26122344315660395 0.6904827417110321 -0.05728122825875466 0.19817015060567914 -0.373104686003066 -1.0519630436611715 -0.470423036409358 -0.17828444836229176 -0.8310024169715022 0.28282504725098895 0.48704890853727195
-0.2837655704929381 -0.7851857601294745 0.6351233784924516 0.27389883933574666 -0.22737703427978137 -0.1217082822078688 0.681574227006848 -0.4970223107928456 -0.509827883951564 0.7089226658972103 0.3164806495666101 0.5110909231008868 0.5975593930033185 -0.10870812486968055 -0.804267904914733 -0.6277014245807203 0.8325723137098022 -0.18077183333645605 -0.028304767193439457 -0.22613664813610954 -0.6382264376812548 0.4102431255076149 -0.9021615963281793 0.7858190744187544 -0.9673761750341352 -0.18780806185766868 -0.7442145346625556 0.33251946344840116 0.12739102312686568 -0.2233907644045076 0.2959595481791743 0.2555238111062366 0.45323058458892945 0.35562530800220793 -0.005293030876731378 0.7065941973223445 -0.035991905006675595 -0.7513312799916618 -0.49660938170203295 -0.05938918080302206 -0.7162079944443706 0.14813056960819845 -0.588062868843822 -0.7018646517427163
-0.11807760028791224 -0.4519272030791965 -0.8247511461353768 -1.2937076713557285 -1.020242727679207 0.16154581017661537 0.3236517918769269 0.6400753353673179 0.7991113637239607 -1.0582374203298985 -1.445305364620472 -1.0379383349147997 -1.2206435158654345 -1.4121228342002203 -0.7263891119222287 -0.904265054522795 -0.4296334258021815 0.28686093690582637 0.6618432174211821 -0.888624454486868 -0.17613849168731305 -0.4457140428366109 -0.5039847826717023 0.6334011277172985 0.36727315758682216 0.2860017695262445 -0.9160967778103551 -0.011698920060809666 -0.30989813812010497 0.08902268955983218 -0.3429792730891008 -0.8224851389661444 0.08849472581822822 -0.4005894599396365 -0.043281287159200675 -0.9023233261776754 -0.2024581723973209 -0.013354822573423825 -0.03656233185107644 -0.8924049372930931 0.2820876073508041 -0.37758032757750964 -1.1350390180342613 -0.5099382695920348
-0.07123104993230402 0.34946345940123846 0.3818032388230886 -0.20953066724274336 -0.3462470196027244 0.5845742482788207 0.7161056234579384 -0.7429008403228884 0.24731745485191758 -0.2361552682352667 0.8872294703345308 -0.2241263618781359 -0.7380115460650335 -0.5405445232733604 0.5155712039138437 -0.05000768429009025 0.1055460698449536 -0.5179271932824407 -0.8266634108386977 0.8159256298794385 -0.7789304185203614 0.7909360778576643 0.72978603752051 -0.9812933220853294 -0.4612902864536184 -0.6880068367066294 -0.3171215775412446 -0.3767705892120931 0.6311616346155846 -0.020431617299136458 0.14239530098882322 -0.9246809285775323 0.8861389348703833 0.8942680284617527 0.9163128443838668 -0.4912046374948967 0.02719354790315496 -0.6723233330292505 0.37783836639826734 0.4199875886917693 0.6723384188743224 -0.9249393900879372 -0.4618971664799661 -0.06554680697624121
-1.2817713986828423 0.05745170536002258 -0.6097735808598558 -1.4207271529278918 0.4590080455968138 0.1843661284056146 0.7693960158784856 -1.0291935160275927 0.7138874406770771 0.1873522996881 -1.247903840256183 -0.399712238771045 -0.06406923477066913 -1.1299893048687646 -0.2899210364884275 -1.2061196300958974 -1.3969326050127406 0.49101858105793067 -1.2133545219033046 -0.09702951373569264 -0.254231883797669 -1.1382265198572674 -0.20755647140957295 -0.7991731595578224 0.701427783772871 -1.1891006290365247 -0.7934250333634265 0.560682311147683 -0.5761459092097403 -0.6782690612567703 -0.44866000156229063 0.16273915840754927 0.24640495476229804 -0.10526203132792042 -0.9020423415308017 -0.11040654904708419 0.6543023016068291 -1.1237546649880974 -0.5747752993978703 0.2277233644982508 0.4477529393445696 -0.0698431048143784 0.26595539883387176 0.07828185749110227
