-0.4959276797401868 -0.9059003635233722 -0.24980166429903067 0.6734104238807442 0.3462989994015474 0.15024177207721537 0.8973821409800963 0.8827939256924217 -0.7231499630816911 -0.10788290964012331 -0.49355893233168635 0.06549525328721655 0.539861699233299 0.07997683108702222 0.6147335947015523 -0.29765023391666295 -0.6572655825807284 0.06303858760059729 0.922539897186707 0.8679174391271047 0.8981040513758798 -0.7295089505376698 0.45611036946861 0.8645019964060049 0.19130906440809112 -0.6226767768348459 -0.5367523670307988 -0.49775006192484383 -0.5368827261685436 -0.008442152990320471 0.5187896869780965 0.8004701893588643 -0.9889104930990074 -0.6615401483713795 -0.7605924491165061 -0.07829329322027632 -0.3281628733220839 -0.41359947155729215 0.4567164573693509 0.3051171475811753 0.03685170410588941 0.28811467871624075 -0.24821713386951813 0.8285747362696816 -0.4231888846371542 -0.22828192555167717 -0.9968904370057063 -0.19688382627037054 -0.7165230115584544 0.9666936659261135 -0.3005514271560019 0.35474060802102275 0.47152971146243566 -0.6624979050545304 1.001884843896838 0.9486989372499615 0.482532821589076 -0.849071169849213 -0.16971873954286731 -0.22974669877282552 -0.6584133060343947 0.9205953699082463 0.15391025778370987 -0.1269875403989715 -0.6936161247329367 -0.8697950299917707 -0.4947972693147287 -0.7729673777220006 0.8043859091147727 0.3622533556480497 0.01531417195215711 -0.48090452218084095 0.8011227269971642 0.1703581071424238 -0.21626560344915144 -0.2563625557856106 0.7142846144021932 -0.06101595438873228 0.6727134891521749 -0.22005415433156095 0.4282406396307874 0.8396090872803191 -0.6429469631384696 0.5628376299477545 0.46361451123231434 0.7181330478383364 -0.5753110770222137 0.48284683150726543 0.28373915118809195 0.18422942530520736
-0.15066556900752137 -0.3970493523822766 0.008813064527011074 0.9058860815036435 0.012533927877352472 0.9892954813941567 0.238893150387617 0.8751394566348968 0.06355554200016773 -0.2477125106439388 -0.6700923377163769 -0.8985914414173095 0.938439129307832 0.4119789100115643 0.846571241209123 0.5476992938776122 0.9533629698981074 -0.2163443529751351 0.5449261278288028 0.20892798427378795 0.4242740486502452 -0.24621672842567657 0.23801684774928072 0.5192891699873976 0.12959117700817635 -0.06827213922842353 -0.30627890149099457 -0.3506743549247135 0.19890970741331784 0.0647879767550463 -0.5362828037243946 0.6892419609031445 -0.5037394622650164 0.45076813942582095 -0.45396996616824886 0.8237660684802111 1.0790883406362202 1.079323772496449 -0.990089288391298 0.21754852555261947 -0.6517405616050858 -0.8961383750004958 0.07360901865988949 -0.3964122215628985 -0.21257012849704465 0.5403485584183848 0.1570695885967043 0.5735411908970721 -0.9034557269778787 -0.844460706641527 -1.0258528082700398 -0.5782642136586404 -1.0358368746583575 0.8693862327507331 -0.17107174856528382 -0.35370141179622233 -0.273135505424053 1.0346443502645066 -0.8142852895580259 -0.22322345307950056 0.2556724406569413 -0.3384305878479112 -0.28697233492781243 -0.0860800768508357 -0.8159706762077413 -0.9012436664204148 -0.5121898148079488 0.723341731263879 -1.0590118762363334 -0.9832380077429917 0.22963117980663686 -0.3599706514368875 -0.28014636822385586 0.619294056070247 -0.944313727752458 -0.3552820600510135 -0.07232635367226357 -0.8147534555912752 -0.7952070036034122 -0.9280625669673983 -0.5349040763467989 -0.17975256725300973 -0.9064133360062334 0.23840619097162977 0.8292744628192537 -0.6743940782200727 -0.5503902845392112 -0.6572909639123523 -0.6470741443674174 -0.3803912175968069
-0.282261897851116 -1.0823576546956404 0.16011128711043493 -0.07598370583314994 -0.7525369451420453 0.26505658586175923 0.9041120361025408 0.3192229536506469 0.3930825608849844 -0.8663269350446212 -0.25874532373574294 -0.02770169170981562 0.3227942458372284 0.7034600167175534 0.5889493693275463 0.1324902717093955 -1.064309257125082 -0.40148906328349304 0.1818805280624536 0.0934070669852981 -0.15326337084886135 -0.7540859694607357 0.7913077397453264 0.34813520194777314 0.40082777828704785 0.6784957192087767 -0.04466889120124532 -0.6668651246933913 -0.18322660944399355 -0.20167001464639112 0.4118441629466495 -0.10202270773602518 -0.8467027962807585 -0.7687400554443428 -0.07748832193223619 -0.22298010985893257 0.32079645411969476 1.074691561938194 0.6318999169716184 -0.2983278165143855 0.7184546636402396 -0.9060359005572346 0.6309440301593828 -0.9525995845048854 0.011886628964715606 -0.6954447256889812 -0.9287642575896223 -0.9478871094946085 0.8229218005966278 0.1575492905478836 0.8460176771444534 -0.5221419703133524 1.1388639775309197 0.9237504631478457 1.0276955772127396 0.6985328342584141 -0.7494807217051282 0.9892146167026167 0.5776942514221427 -0.30329406116267565 0.05230851352276647 -0.891241202871567 -0.4971806400213899 0.42122410503485497 -0.4882639541254595 -0.3998635383386433 -0.5758457528721097 -0.15847811412314058 0.13796932176463195 0.5132961142713701 -0.198510847388519 0.4244721047744599 -0.16748797755543463 -0.46592881315631735 -0.08727536995996105 -0.15608047852759957 -0.5736844940585959 -0.836832092246917 -0.14161533407405072 0.28965325206712667 0.09544627525965313 0.45650884453524243 -0.5832445210147693 -0.03447725063212037 -0.099893109786152 -1.0840537347919657 -0.9592697195006344 -0.5693853244524969 0.04054729758030168 -0.29689267849632955
0.9527658173374405 -0.5830282591702987 0.858840992594602 -0.3390963286325696 -0.746851946278109 -0.2817589828390158 1.0902320846972062 -0.8814809227202937 -1.107437338911902 -0.5696353794632798 -0.6453345456905297 0.1701357508196064 -0.22877136237842896 -0.41347394039027485 -0.5387392083771615 0.40498235058355225 -0.4430397275188074 0.5670568874224317 -0.06682931778534396 0.34755020038121376 0.5234614760148855 -0.6526399384607232 -0.8699372951952342 -0.07216852393604754 -0.7900443851406856 0.1927525499615708 -0.17992082940288248 0.5736580598372354 -0.5256888259511455 0.14371208548222783 -0.19647627516537114 -0.8188491765763156 0.45320096753325595 0.16605073334799098 -0.4555632343422148 -0.8043951326043484 0.6535667472760509 0.9943404490272117 -0.5456212771743957 0.6526588530118912 -0.05142004764170663 0.14202947941360178 -0.9380149592214513 0.09353385853138821 -0.5759763663055565 -0.10905222509255977 -0.5453785194854922 -0.8752491245241429 -0.9737476483062737 0.5153504119752442 -0.286877012821066 -0.586656613741896 1.3570358730202048 -0.4719266518046142 -0.5380088973664622 0.8919024534060046 0.8384705819125226 0.628758052940906 -0.6203367940469007 -0.30986879829227454 0.8811320489979974 -0.3763892597075778 -0.5693748314890562 -0.035972030495037575 0.4746950352091805 -0.26502468549433666 -0.3624812682468303 -0.6849965792068374 -0.07969069601814997 -1.0706253751729793 0.20535360932418417 -0.07091092132171228 1.0308332679339391 0.01036092954981837 -0.2512451370637584 -0.471897112749009 0.1257590856381861 0.5929423463313016 -0.8446069743149828 0.7910901485970702 0.28930104617326086 0.23551255932006984 -0.02650532107514286 -0.6013094977237596 0.10056218961677461 -0.10076625468137543 -0.38337504856780985 -0.7592020351340575 -0.5788798581517018 0.8556535328710385
-0.2416625910483532 -0.8516219402154681 0.022813375682077756 -0.6448888664987646 -0.5061117360531859 0.41634898891970323 -0.17154771528058677 -0.4794523818222003 -0.9641103690471466 0.34935850304966476 0.3573981553439993 0.4969534417338598 -0.9454814832714538 0.6645455054144748 -0.12691336401906705 0.6310159130459906 -0.22742130809031744 0.4392135504353499 -0.032971570816757265 0.5076897503275558 0.7256392215492364 0.612352121966263 0.31890517644483246 -0.386616837610331 0.5734022524012289 0.5265410349611371 0.5652679238242201 0.2687094678639933 -0.638204956469869 -0.719595947186525 -0.5429401217507588 0.4719027937476979 -0.9904413257942525 -0.42776538971072986 -0.5271410795045488 0.3395503865154039 -0.0297114861579186 -0.7452303097655945 0.1291640313571426 -0.2466900687474358 0.7876431935799231 0.7751347857714297 0.6632064720729437 -0.8419418802058918 0.608671880928423 -0.115258796696665 0.7749661155383548 0.7200840444778125 -0.44996824796191354 0.23446445700074856 -0.14757273964124962 0.9073913627977667 -0.9178325107494566 -0.8623429380243723 -0.4364925865700405 -0.07981397866380868 -0.49487677782103795 -0.9233054907885386 -0.1422622888655503 -0.706224756536395 -0.43252764440491287 0.5856039191866356 -0.5014734964393951 0.23828547380752477 -0.9833862639546079 0.5004245292062985 0.2951383609296648 0.890060212691915 -0.5497110086556415 -0.8704770130333311 0.9213192709422492 0.4442786175696299 0.130788926745832 -0.8668429534190562 -0.8649696916388558 0.17908809554891733 -0.8374872876413993 0.34412509980544853 -0.46145317628753163 -0.28025600426882386 0.06780862138232915 0.6971424473880641 0.47287636276836575 -0.49175689047807775 0.7154444607903228 0.6971937562145185 -0.036197006633634406 -0.4172929976948427 -0.5284929858120383 0.23761597294022932
-0.9042896380861956 -0.9069086214881105 -0.36201937204868784 1.0059958513257923 -0.03579717104649383 0.7848610034350991 -0.9830308498161189 0.9511326217556014 0.5451692663479815 -0.0716762757787064 -0.6152739582580782 0.7486681752905071 0.7044705448095059 -0.1730618500718225 -0.55416194990809 -0.9998453989220746 -0.7941478795126601 0.1354590654429861 0.8876223938968039 -0.6317978266743549 -0.7551061876403601 0.9761253362830433 0.3765675805569016 0.353804993338862 -0.11388353711218453 -0.6361343318403946 0.2942150696656007 -0.015625824137406236 0.3604408217429548 -0.15230541429113773 0.14885081351659732 0.9106441137463582 0.6774913371293695 0.8079577899488513 0.4954122854244594 -0.46461473998728237 -0.8703558164880218 -0.5832306001197444 0.6382280302700994 -0.1925984122746076 0.6100535849173422 0.4214310653510523 0.6412081481777846 0.8034970173283849 0.3937093547886878 0.3570415175504541 0.2253163516231803 0.9653990501282963 0.9989274243745899 0.6443973613984507 -0.5201089515317155 0.14731539914518815 0.25846158659345086 -0.030632602310845747 -0.21968486462860473 0.31832013442096263 -0.3289772351495894 0.6308071261495521 0.9442564778951841 0.5496502881096242 -0.05900079744532355 -0.3799923524875698 0.20788135009086883 0.003078978440302702 0.8191849478552566 -0.46127022956335206 -0.3291350111546693 -0.8234967875961359 0.12648805554112158 -0.7090468498709457 -0.3605292965358652 0.021324805797999936 -0.568284908125111 -0.4826461399856843 0.984765187278272 -0.46588256548635154 0.7454347318512323 -0.13463539736448188 0.2107945467107875 0.12223198006894025 -0.4059105880927039 0.5778562880054933 0.31689642645015387 0.20326666353858303 0.8071166582442683 -0.3669609228412135 -0.8472205769975569 0.08211869445101584 0.7087684439545971 0.7434664683851349
0.3625319102770139 0.06693270919570467 -0.8504509350642648 -0.7512145400571789 0.03133394517044875 -0.24148042125801358 0.21114491933135607 0.5885440632131019 -0.9677926198942497 0.6428838939349485 0.4697490393015041 -0.2040012932233403 -0.37859085072478627 0.09769041885941225 0.21240315635787607 0.2292579250245515 0.9337612997830452 -0.27245882515649955 -0.2909039358315259 -0.0001157594814838579 0.2551884937612268 0.1931452326168285 0.2020071977860957 0.33554159316471205 -0.505708224913016 -0.49634047141760773 0.8459183549155289 0.24721940786280766 0.8361393879185397 -0.730341438230178 0.6320143563780755 -0.1714782666378932 0.7281678117888756 -0.47025208946753644 -0.3559496477160059 -0.22963600188542346 0.9723100896547501 0.9626258028660215 0.8962073114206555 0.6402926763856529 0.013068078877531244 -0.5503060524529637 0.8764256534018393 -0.1313030537505332 -0.38972458620181055 0.283723634709272 0.8142319278207928 -0.08163700571034936 -0.2485013963234169 -0.08499706045115234 0.10301271410334932 0.5788611186948749 -0.4540708633261203 -0.3368789073272862 -0.6825497301023359 -0.6918352705924942 0.2670415332241603 0.9542693828138386 -0.8723920723892898 0.8398405981749172 0.8788260848956473 0.7712674492428702 0.6590982703501839 0.0026212172523048553 0.7288009527588678 -0.9687822435365899 -0.36562898187190324 -0.4144373339244215 -0.6948975667798201 -0.38130347122865627 -0.9514423627160598 -0.32642798458129224 -0.981978474928666 -0.5475543795594536 -0.887688258435981 -0.418697416261584 0.6619417348274278 0.7828058913273563 0.834960137124456 0.8774742598762796 -1.0090780704970281 0.4371821082830246 0.38839515823069753 -0.4764741981742612 0.7853597058928246 0.1567420002964808 -0.9731733012945756 -0.3287037352563455 0.3827897886607166 0.6111420832773357
0.9608371807980471 -0.22379591418260492 -0.6642706314277163 -0.321097339481904 0.4904571450404116 0.01955519497758124 0.30026407189232585 1.1333881854779722 0.2725647877929067 -0.6811127780111914 -1.0602308177451076 0.561999517904749 -0.7948203522485253 -0.0854392097216605 1.1558296169552156 -0.4619231045739184 0.9691916842417599 0.44356394893918794 0.4587810581330257 0.2861754916715324 -0.8038891814349325 -0.953165340639903 -0.9079749706638923 -0.5775285532156084 0.5311643035376324 -0.35322531058009293 0.06063271273798287 -0.8663150451689408 -0.6120577038751793 0.07886838160600898 -0.6077224531525854 0.6106612612869844 -0.09109940812907155 -0.8378263487503291 -0.4464148115312685 0.734602135135623 0.29949013607698954 -0.25191293918196955 -0.002047657258633507 0.3490496399643341 -0.2341443687474 -0.3426723222773196 0.6262912224505728 0.4248226812234086 1.2602144707983205 0.6826296347513146 0.2442307248139637 -0.9866520814699136 0.7695175817022596 -0.9606089391251723 0.6127392234539595 0.019416184198772526 0.044154058447868266 0.6638935598752399 1.229612869374788 -0.6915766519337551 0.9236170656210352 -0.8258648054510447 -0.41794470407465134 0.7429418473947212 0.2503276889800917 -0.5793693201648914 -0.2848641291032127 -0.8380279829864427 0.5749397512664215 -0.6200084791506136 -0.7652792842095403 0.7015025640879857 -0.16504186805992796 0.4252780990806222 -0.0688429162004209 0.7409770624631337 0.65989151471809 -0.8154964323786884 0.9763750598543602 0.8570663698730265 -0.8436390468223797 -0.9041460489144759 -0.371940977620987 -1.0950118569404403 -0.48133894802936483 0.9079979323689908 1.0641736655890621 -0.3838108886544837 0.9700308986635883 -0.536185314727805 -0.3654011073501997 -0.5950470414825917 -0.7605862681445329 -0.22988321880875923
-0.357839422881689 0.4802796272804082 0.24467851053242468 -0.466172827960365 -0.5362526865952416 0.1544296512921718 0.6477987932452197 0.04837247377837052 -0.5140673633503702 -0.015001377023142666 0.8268355275159988 -0.4750662693438194 -0.6188237214016338 0.06994439670944275 -0.4028697768451484 0.8381285134102897 -0.10959565978476937 0.6242376590177865 -0.552573291403095 -0.6547007048009705 -0.0030845901410981084 0.7657683160448691 -0.47647051645361926 0.3586812586625884 0.42183906358470874 0.7445522363925778 0.6278432205216091 0.8737689888528749 0.2816295601810262 -0.44658142223468494 0.8634974969255406 -0.6435484504770729 -0.25107826783799153 0.18599023706180404 0.5587763219756573 0.5368956780543891 0.8616258356782223 -0.5233631883962285 0.8377621497891264 0.7039161212124653 -0.17485831617088757 -0.652495671257929 -0.12952516850233278 0.9027287172259522 0.7975997852393419 -0.7682763970994948 -0.8372587363781611 0.6666852713935105 0.9628262429030631 0.3999251561554211 -0.5897863794514091 -0.621903709174488 -1.0002592696143173 0.2255767098596352 0.11953406735022372 0.6030509168523901 -0.7813280740916988 0.055570826395917816 -0.19611609050138348 -0.305440815160747 0.09586294190259641 0.8019509571496156 0.4200490631295741 -0.5640374277767288 0.697969842921866 -0.3862141340846392 -0.6005772851157126 -0.5352980673253815 -0.22601960619207392 0.7335357160219226 -0.3709894319818849 -0.6525950119327775 -0.2572752781338691 -0.9769794109681057 0.4084669889393344 -0.9780156443924146 0.7619374583931292 -0.5147138664605977 0.1113253074258991 0.8610986975126043 -0.7483329207789895 -0.6659247053790422 0.777663963444666 0.8176900013978461 0.00499453705671834 -0.9909836919447331 0.17321071394195048 0.20229052707712966 0.7869181306437756 0.5248403484367856
-0.2994078680621548 0.9288136468737792 -0.3591378712750361 -0.7567879516144557 -0.5072085878603998 -0.23028378652129586 0.39773842549360544 -1.1877216492045752 -0.39307139195688445 0.985483331248282 0.19414170265723044 -0.7467256949049971 -0.11355964113266408 0.6757119052623205 -0.6527151533628843 0.03790332712110508 -0.9153116822822711 0.28896154362584225 0.6972006304556609 -1.1317566180842906 0.4658925764777835 0.8335732772945849 -0.25803604255712376 -0.49228712745048125 -0.4181571842623509 0.9892791449080355 -0.2356991931931965 -0.3015530515732569 0.490591164362653 0.2533053528031512 -0.2733174985531888 -0.9126668328647538 0.4160082555401062 -0.7737866090997576 0.7287576232077292 0.40285302010444224 0.7605124913350182 0.27794284842637373 -0.862097287866906 -0.3056066112185012 -0.32833970412488434 0.6824296521077804 0.050569080696433136 -0.8456588009930313 0.20417086429768497 0.4942438196246291 0.7999638183831084 -0.9912836163188838 0.8254206314768728 0.8581307388573227 0.7841051416997292 -0.8978622945421985 0.6798161058153878 -0.5348225289744757 -0.5246511921132792 -0.030899045355694446 -0.048421309278711 -1.2723661435206677 0.9651819671564326 0.5171886010528143 -0.39026910548002436 -0.06473814350443141 0.4659030648279818 -0.5625731045555652 0.13606532355075449 -0.8940952174957214 1.0337066714655705 0.8155951354105317 -0.2280237929263435 -0.9999352810075468 0.5155820726542706 0.053322147216478134 0.7572226573661718 0.20934924263267807 -0.21823985720508862 0.9403329600472761 -0.34265346488853005 0.426914555509816 0.06820285229181934 0.4766410024656032 -0.6588651659347944 -0.1464213315726556 0.11430405323484902 -0.4680847695807825 -0.43757118662945976 -0.8561204320313993 0.4000561792629862 -0.381945173104629 0.4931205260758879 -0.5868413719279164
0.8045664945837532 0.8602920851073108 -0.955153814396835 -1.1718155398439059 -1.2236122866417374 1.0343757112407235 -0.4840208007094574 0.5617091016961601 0.43663041339179764 -1.1575699580238656 0.4257179482895463 -0.6793208040424823 -0.3590445250558518 0.43987789420503864 -1.1384836832036 -0.9582135069799105 -0.24555762244958798 -0.34403059658564267 0.00046280149127098 0.11500760059576694 0.09177396494140057 0.9873622947512286 -0.19325362539604826 -0.07248769525425246 0.3237808216026713 0.6814102009692489 0.19301323333408593 0.3129561545665146 -0.31268454333641366 0.9047907013906414 -0.9013884198552528 0.93367942234659 -0.09173237895563584 0.28204998246681817 -0.7514789425641468 0.7562718257891714 0.9994032879411289 -0.8746214338906634 0.18526613774071715 -0.6931606793183677 0.7384068673603438 -0.2832860918163044 -0.33066389099560206 -0.8324431944850339 -0.8343507234175128 0.6077153672082996 -0.7437346816218328 0.22738026058349553 -0.8575694903290016 0.6757472806466504 0.28410182235883924 0.386853334006198 0.5431549266287443 -0.26004648986534595 0.508619521418666 -0.4980713874061674 0.3562881494851368 0.6466409894345118 -0.5424305458991082 0.01806431671005077 0.6733887233085563 0.2869237429081878 0.7984920113287446 -0.10558747115430904 -1.0181985704872192 -0.3833538349009917 -0.8723475984866694 0.17137799775652549 0.4315253615146973 0.725358631148266 -0.4657689462685854 1.1202573638103603 -0.5906272823831338 -0.8782684919323677 -0.6464312476804822 0.11853301735360601 -0.8617648882210268 0.4897843129874566 -0.0021874950360849877 -0.5754560186593874 -0.4241344734219978 0.9128856586166484 0.47021609542317894 -0.06700839930651686 -0.7534815091435211 0.9583894903332946 -0.3801221089783088 0.9022687714640684 -0.7406032262961545 0.8100485434977236
0.7221465954061395 0.7141740425646333 -0.45393388116425504 -0.19961476419304133 -0.590424247219267 0.8959038739336098 0.06759904467754535 -0.6448698314971348 0.9082252940570417 0.21335073617395311 -0.7206279466826901 0.16628997930459374 -0.538241155437057 -0.9783433612372198 0.23624392806298292 -0.26046221383056933 -0.41804205503953457 0.7019413848844697 -0.8784919185160918 0.3669575381445721 -0.7509732068336091 0.07287080119447745 -0.7433770528694941 0.15627975526079693 0.6086536033795428 -0.5492218607620636 0.3057157183170599 -0.9237429881986635 -0.5201571570809362 -0.563558075094648 0.5662588752889332 -0.4253541142737912 -0.5782457184807615 0.44653829067521744 -0.4036468893886084 -0.29984354402863206 -0.3254763451940356 -0.12615588596232546 -0.9407144149865022 0.3135994683259721 0.3372458324403079 0.567668577134894 0.29044361160303817 -0.8224922541458665 -0.39944528274656266 0.039307167237273 -0.5734616303938975 -0.09692406098096007 -0.885240720602105 0.6287823939117297 0.6729445807845641 0.10924670464556115 -0.2734053849328541 0.522116910104111 -0.4961549457486528 0.4670527978784375 -0.060366014892352333 0.4376695904723866 0.583727365797278 0.24609450254900778 0.6221800558972621 0.2693193385760771 -1.0624959730044061 0.5336082738234366 0.5713496329900084 -0.0622679264768103 -0.1613437821449467 -0.7502442895247672 -0.8544114082964754 -0.7021840635836176 -0.6535468030154438 -0.48664915461165376 0.16664420893496593 -0.2058755343840294 0.5943427509802967 -0.41266613337149916 -0.0321801150716338 -0.1677492717005097 0.3604148715987437 0.2823150761046253 -0.848424737140148 0.8439552206033425 -0.5372495451055116 0.2079701704211115 0.30998629514706505 0.3258923273560419 -0.7254338253832281 0.5195692547102984 -0.6727424904842779 -0.5845253669420329
-0.18659815922993128 -0.6145787517122412 0.5162317805209535 -0.8520323164628137 -0.9028700138514897 1.1132080692951087 -0.8938718068747095 0.7159154067901674 -0.6952514351311463 -0.3089272252400891 0.5657994151629193 -0.9990525746179811 -0.15772774464288122 0.5797287203726973 0.19782981607100286 0.8886018418965153 -0.03287543629895148 -0.06512674715036064 0.19121404313020465 -0.7326237496953759 -0.4462453140344587 0.5684376871073313 -0.2918068118384964 0.5262959787479923 0.5710965005944593 0.8669951146117527 -0.2360871404407951 -0.05673875497583648 0.3634894892659088 -1.0788039460654328 0.9971447645697197 -0.046602275343620055 -0.06855135795056835 -0.2535608408111301 -0.3571560950273593 -0.14029770555134188 -0.7270178281725713 1.0503067440864162 -0.6324733871803082 0.1345994813884094 0.3963643653723543 0.26391619871485106 -0.8501640959126447 0.5431239553750605 -1.1722066965551257 -0.9597212177969257 0.14358864561369694 0.2967481681666734 1.0705634853934771 -0.8835857715170393 1.100167353352739 -1.0269033455989993 0.46393528005591844 0.6531375749148935 -0.9695082327454708 -0.7444189104262282 0.7057203785228907 1.0705165189498442 -0.09313945075039268 -0.9198121619183234 -0.619423746513673 0.8532207854572076 -0.6908246840498549 -0.4217408286617275 -0.8069269981950469 0.21922459596952537 0.4450209290307836 1.2410460671850543 0.4812942834226697 0.2520223510619908 0.024833431620772946 -0.987451742580029 -0.6218339220796933 -0.6413690183612142 0.0954134016181593 0.4730426723197244 -0.9334497564632627 -0.8053540075063484 -0.8903572329214452 -1.1930886255048552 -0.3390641184069834 0.7427453646886091 -0.9953406583551583 -0.10289158487179412 -0.13924065712149397 0.728405370357903 -0.22157377842733775 -0.3432748084333165 0.5903263779981187 -0.5335025615808776
-0.09898674345878833 -0.24219609132352454 0.2023822826712431 -0.7043521255790041 0.32156237135171445 -0.9200637211389742 0.6387279185581786 -0.5795089310579452 -0.9710152187805849 -0.858128542785466 -0.8516846444348216 0.3340964344774842 0.5038608821372286 -0.5621908283355543 0.6982889432864883 -0.23912345491768344 -0.2805505576401578 -0.8341681994947003 -0.723255502705748 -0.8099292511072972 -0.8492057586220538 -0.7660128817357403 -0.5607909484168925 -0.0010957970884438461 0.9588509167760766 0.5796211374646427 -0.695450432107714 0.7947314488043026 0.8924297697144571 -0.834596483232705 0.21315986396497938 -0.6063819066500468 0.8197922254638038 -0.19142659261251743 0.7573271641702877 0.29258243563071384 -0.5280273284851389 0.8467370728804818 -0.16810264616403733 -0.7627741073977398 0.333142208374732 -0.45870006805187596 -0.5855640493609877 -0.3551743140119169 0.42384494835543013 -0.6385539075626656 -0.11353983893584406 -0.24331845906512373 -0.6449788888627422 -0.9218528854976724 0.5279763118287221 -0.5672534676860574 -0.674359628902559 -0.608935396248689 0.5576030716327364 0.9059662188301544 -0.7741483859373789 0.9603375214369916 0.7484893654790777 0.12047628625113281 -0.9737098930042332 -0.6136662479477478 0.18639181009657507 0.33758106876108057 0.068748633443706 -0.5007694520943892 -0.5840273277999558 0.6297552367342373 -0.4908048472818589 -0.3436470812669786 -1.0086656651857324 0.7765186450364896 -0.5947270398815174 0.8433070133023245 -0.34213246659792573 -0.10546429263684173 0.6259345561200148 0.9759730424408136 0.2576455386128533 -0.06945699287977256 0.094374134638185 -0.8125078156169406 -1.0198367573983798 0.02324264697958019 0.15933642791472774 -0.9376053255380775 -0.25341762903905257 0.12017116199061798 0.18444843998818145 -0.2752762281219671
-0.6058996917305544 -0.6289638266500339 0.4887865521708246 1.004474641178882 0.38268426655788235 0.8161490981111936 -1.2386243389613474 -0.4878944680911779 0.006114317871307424 -0.95498045476443 -1.0930960279332802 -0.6104989907486318 -0.6340494512210668 -0.27574865665565496 -1.1248324560181422 1.1325309010800282 -0.2993654093676464 0.24088884645553277 0.09714571171025867 0.36894577368720904 0.7246612037323208 0.5010465432717269 1.1629786194682175 0.27510333517080005 -0.8109068980202114 0.30238154431681363 0.042748716289952325 -0.6568485930176191 0.7651740149622304 -0.9414082899485685 -0.6905277427976168 0.0557516058214468 -0.32745291682072264 0.49383706466784005 -0.05109047531328043 0.519264181123158 -0.9186001906037995 -0.08265185919500694 -0.17215832549820512 0.680493594251316 0.5165793415033854 -0.8509989831668548 -0.8705787684981182 -0.04915661600853282 -0.9324501030887097 0.6708786405668292 1.2280022347971873 -0.8952773795653575 0.28016240267217873 0.9894961953364784 -0.4365237212174775 0.3877320992466103 -0.7889856098190492 -0.0815898742549386 0.8566923910455523 -0.278633192699033 1.040631087995339 0.5853065738665932 0.25101951170791764 0.7088391532837719 -0.6526905738087824 0.9399385002549555 -0.07635198226196908 -0.7203050097098398 0.09617930583366181 0.6550685817934563 -0.7670287970632584 -0.9879427654959926 -0.955679042567908 -0.1773677450623951 0.2362276769329773 -0.7393980890684874 0.05318097791325264 0.17204966933063837 0.737979640355315 -0.8522189855463713 0.6620488828471961 -0.11912441334127079 0.03403481186117777 0.12330169751778777 -0.6689177043874704 0.9934070466599875 0.5231099204271904 -1.5441812109910404 0.6180834563024434 0.2733900925641513 -0.0960019732024991 0.3697896024519429 0.20074930599823865 -0.6256616874154366
0.36000976221034353 -0.7880250650756977 -0.5386990153150952 -0.39858898967590756 0.7615882222886314 -0.14953259431739893 -0.6856587938060484 0.9245635460471637 0.199179754470987 -0.7121241719874041 0.0008548975633155138 -0.10419979116965748 0.5003763727204822 0.7151201601790297 0.5448238404064522 0.002141714461627754 0.3983728061763467 0.8847298351562108 0.9095289031746544 -0.9599275032680216 -0.5518527497299577 0.24605092332157688 0.8879276170224956 0.6535966207804352 -0.7823785725513183 -0.40677919532612733 -0.5247026221696628 0.63494099924532 0.635801588747799 0.004485737141643164 0.7198700373017927 -0.553705948593331 0.012633684007851703 0.8778883792208952 -0.002167487288248768 0.0955239971574194 -0.5860053394927369 0.0891700966324895 0.8928737521699425 -0.29092259083394606 0.13503328626418049 0.564807813567986 -0.9390651879650915 -0.6480564303944945 0.8528567654560142 0.669179249641333 0.9045296810965257 0.5292236127495094 0.08472804195726476 -0.47307940119616687 0.9545638920868977 -0.8772524574859909 0.26098874097263647 -0.7438794659063165 -0.4588499642820497 0.18404905094259097 0.7710536954467955 -1.2349927316896536 -0.012597317604763287 -0.21551995319694106 -0.27131235175711066 -0.7169612440396738 -0.07506071332139216 0.9062084432763622 -0.277524616912159 -1.267302948583792 -0.31035698124363326 0.37823718934724193 1.241088211316824 -0.9962957897032226 -0.27594370318569755 -0.25169459542178463 -0.1336095477200365 0.1156476419215327 0.18211941132283233 -0.5346392261445717 0.9677531507228689 -0.23705039485403562 -0.1568245721766908 -0.9331296847768306 -1.0247525378340616 -0.7651887696164446 0.4984881333433407 -0.5771513436562488 0.7733296412134393 0.8060504575765104 0.9123165943010614 -0.5495333711694311 -0.6303774127801673 -0.6112332013048324
0.5551676154685823 0.30482721227099596 -0.7763501662631584 0.32361027643472867 -0.6079653879963287 -0.08326471799120647 0.9698372877584631 0.4338451025171904 0.6779983167931629 0.6607827853231936 0.0038191081898278152 0.1768005432506048 0.3747259750992596 -0.5404289155401961 -0.5830763767902678 -0.9786628324269818 -0.5043902753763261 0.09176628911984837 0.3494399731996383 0.2649150123289179 0.7653764053193283 -0.21043485889820623 0.7995985767991243 0.5990788630908281 0.9484273339401812 -0.9320996880129765 -1.0559393534656147 -0.519583973251882 -0.7222625525364582 -0.9996546188910417 0.6273559746120583 0.06863147766009471 -0.08937538927832338 1.0542330176785606 -0.3602550807270615 1.2029907414752885 0.3621781480973333 -0.7585948044828938 0.7121636186033243 0.03675527349762479 -0.5768262458109084 -0.1686887306451929 -0.7968249022948602 0.06320830434086717 -0.13290698344823718 -0.8288845898364511 0.29531826599424804 0.28561530087133996 0.27259679134248 0.3394256594405312 -0.5698874857056351 0.05715999757560969 -0.20344323688776836 -0.17842600634407985 0.05129185486790952 -0.5942509218784198 -0.32865249924865014 0.34800364624613705 -0.7752435454769564 0.2563529379387239 -0.08283682867617362 -0.15442142806108292 0.4341915805503239 -0.8425939627213742 -0.6744107772775823 -1.1052975387350092 -0.31108003352019664 -0.22817642059867993 0.069455460908785 0.8243901304374567 0.3384465708023284 -0.6268802300165615 0.11841606230825083 0.04566026219649151 -0.7374969471891126 1.0945357907993059 1.177732839211799 -0.7317506008454747 -0.9140772513700525 -0.7988352358782618 0.3514737525727614 -0.5737944278504084 -0.9173268207755063 -0.3302887208190614 0.11205015409446671 0.509577857785958 -0.5152631260529713 0.1515313927847104 -0.21600200357100488 0.9777726602942423
-0.1512139161450774 0.7324837296704001 0.7980459892326801 -0.7639598977621992 0.819163559251314 0.36869857477317586 0.004117303488676012 0.5654436073663832 0.19415231803057023 -0.036893607988883644 0.8786076408045799 0.6078483897038381 -0.9103038459590248 -0.2373790553139699 -0.10682472302398616 -0.2220302509727517 0.3412539835545281 -0.8030524366418466 -0.9288770764324081 -0.14611714605330375 0.2355117766016516 -0.3087939332599613 0.6612991999531087 -0.00027031831038077633 0.714164804730249 -0.9289492383913255 -0.0533749961990614 -0.07086845017960589 0.858084793799014 -0.7252385288283113 -0.47199285332566293 -0.09315869745986792 -0.5914977864442347 0.2632804082467252 0.8760229470376135 -0.9350265269540661 -0.7200155653196789 -0.10979232133483986 -0.5712277573225447 -0.9575303228980919 0.14741007094304195 0.34749400689669196 -0.30699623478045523 0.2435793970848461 0.5484903455880611 0.2772415835333113 0.11469315420942364 -0.5819310245450652 0.027749046741035115 0.2991519267671133 -0.265954272453902 -0.5290914356531969 0.0398056136209113 0.7760578836846226 0.002236095440213841 0.5166192694249189 0.9157450765719649 0.852652721183779 0.8659686168443727 -0.7215078776050918 0.897841185123968 -0.4153332614309033 0.29828233953553335 -0.8308413057329894 0.8992621990836059 -0.9355751721108295 0.7144695845586316 0.369638849761216 -0.875466064152482 0.6045746914303636 -0.11837841525724513 0.5859077087988553 -0.07401753515339052 0.015286782514099243 -0.2754674844740611 -0.07696922688103774 0.20181267965704575 -0.3463715585871754 0.7060198367904488 -0.4284029302516477 -0.5400095090295656 0.5762443487597916 0.36553711147092294 -0.18217599751574623 0.9922595985172563 0.10348081606941126 -0.9240437274736895 0.8108920042239033 -0.434482885082575 -0.7967007068330713
0.36679340626949486 -0.6372030000885176 0.3420052444066257 -0.25375110678759116 0.8805637853681123 -0.6410058087656748 -0.996723814935952 0.4283587475745431 0.8871782695377632 -0.8155465794705241 -0.6721424937315044 -0.5950005756548078 0.39634187345524563 0.5380466801456665 -1.1621296869306403 0.4470822193497682 0.4962805547671581 0.5381887040081373 -0.434250701782928 -0.6063030071474917 0.3637923611394407 -0.8760394943290973 0.4116803388265841 -0.2026134903318857 -0.7702156122318204 -1.0119283142512099 -0.7680483788524417 -0.0060652650016935795 -0.897452080913119 0.31389121202282727 0.0686162635865271 -0.7676550253066264 -0.14420478062300077 -0.1024870502252282 -0.42341157439125887 0.25554397090744685 -1.1158757270436177 0.15495623411388096 -0.7263218901288125 0.5412759409832283 -0.17778586589223838 -0.8900354802354494 0.9840779343316657 0.6696449803835843 0.22118564206555705 -0.17349744430997974 -0.15322271114924427 -0.14816405864649698 0.30691379169812566 0.06489433296846371 0.718766216482525 -0.11589242224027935 -0.2960442902553803 0.9840917356410033 1.066914644264032 -0.5554559772754712 -0.5645049121357874 -0.4158578709696457 -0.13864205173206093 -0.7897566706385631 0.17581726101404513 0.21688010445244083 0.133544303018107 -1.0133174614330633 0.8031282258547175 0.08883575005863346 0.5862615876203211 0.5842550167067038 -0.5160942844017492 0.29670972598327056 -0.7944644852068405 -0.44682049712370275 -0.4165519891939177 -0.7818287133271369 -0.2502847965577873 -0.4530298144052225 0.30244619895895547 -0.8956631955718827 -0.8316822234973541 -0.918992579363651 -0.33626085975022113 -0.46410133539554105 0.48919438140839194 -0.9984709003183831 -0.5951514084442678 -0.28207549715976477 0.4009446577040488 -0.4096219526471655 -0.4761439961988346 -0.6223776452939979
0.877159062017306 0.25992105633776597 1.075757823165205 -0.35772192340257436 0.4602818500127199 -0.29711282504610936 0.9241540344142684 -0.0921190745536597 -0.5107603691830086 -0.1575542424144321 -1.0401166460275548 -1.1414125781970221 0.7089383407521794 -0.746613012918669 -0.3485627201683756 0.3018055470737245 1.2546632735722065 -0.3148790898867016 -0.8777254589074546 -0.06320281716038786 0.5464527429532429 0.7113230560706338 0.13192435416482004 -0.4755198206016252 0.3321733061499742 -0.3404907601219673 -0.6233464323820757 -1.1051558809772948 -1.097332752686629 -0.7095358235512642 -0.7535208938032959 0.846444759414076 0.6112117928850497 -0.2798770278173447 1.0262488496396203 0.5119427103056102 -0.18476859111010788 1.1668730613947145 0.4944400427315451 0.3155767621419229 -0.49655001697319645 -0.4685013362477998 -0.6874309706547951 0.45590266144411923 0.27055383059606114 0.25705053242690173 0.04368494769330025 0.7784032388909157 0.7319844416552256 0.7446302243992057 -0.6124881298837523 -0.29501716008571094 -0.03879721425991823 0.05168140284972972 -0.763023156140186 -0.062405107336321354 0.010173253420060181 -1.006715178658838 -1.2264680946376627 -0.6091004244981955 0.33684078891041946 -0.33109985166432243 -0.1304146695158888 0.365442574454408 -1.0591809806021397 -0.1692702634494047 -0.8309413911628768 -0.0893735307834911 -1.0009666439718716 0.4190397676600955 -0.6543780208100227 -0.08555609968725908 -0.3143278465467341 0.05260296777646819 0.9975169831676916 -0.030008164683381702 -0.09308524070347099 -0.8541442183092123 -0.36941441493850685 0.7467313543475352 0.7481661338463231 -0.321865616546422 -0.9659018062330651 -0.77254249371872 -0.12192670926517744 -0.8280261568595148 -0.6304839216129551 0.8083366272104565 -0.7175032768745466 -0.19909729088280545
0.6101413576060979 -0.20481949672767022 0.8041939818986528 0.8669641020482234 -0.5882402028726446 -0.6661470756718464 0.5190437697859711 0.2014563990099038 -0.783340774350747 -0.16897226406332613 -0.6909088881775397 -0.791694947343647 0.8620138615986448 0.37723021505047777 0.6628275994554612 0.25438472915092386 0.2732628518682322 0.321635330695966 0.8939096396426556 0.6596363854661387 -0.8497558788486693 0.3743130317725066 -0.42330750077836593 -0.03309522691022203 -0.10194691146959746 -0.9231950164940851 -0.26012757191514024 -0.4426055173231085 -1.0184603845362417 -0.967976007623144 -0.20173830803191597 -0.2977669091104225 0.5024545321196523 -0.20518385078522147 -0.9989325272032671 -0.558317971935466 -0.7788546809930313 1.0613093028551375 0.24031920836249904 -0.05147803000241926 -0.7096246874901403 0.02258472522892126 0.1662885975546444 0.46307162840167226 0.8064320631530913 -0.30260092555944157 0.1997687954573792 0.8812735707436329 -0.6246046449923695 0.962744332549047 0.5526302458092752 0.06207125845307784 -0.4713937438544375 0.8553834206433982 0.003188730420875131 0.02723769011497116 -0.6490824144209162 -0.4724943425844717 0.7663705020483319 -0.7376703207199161 -0.6881766186002863 -0.3093965562359627 -1.1722175027795632 -0.3147748242688333 0.4786891034605556 0.45610463209569496 0.053128540821635595 0.12314043844269192 0.7918486559362821 -0.8669121297302467 -0.6152529875356646 0.4910717687486202 0.06934749364112204 0.012816187746423303 -0.663528705316631 -0.02063867357419395 -0.09952704190365085 -0.4658909220149132 0.2880774416564832 -0.4851920273146737 0.8332983374603348 0.10826309296333325 -0.20103132080713554 0.8656225103191748 -0.633905161206426 0.6283009799281717 -0.23810669618515545 0.6040068317739467 -0.6966722182108914 0.8243159018191629
0.4850963719066099 -0.009948820677568452 0.21740675048414343 -0.2958595267967766 -0.4270180164939233 -0.7952549500519001 -0.27382465991652427 0.22943041122308092 0.36410827315881017 0.9092756316785824 0.8535411816020474 -0.5947299387853533 -0.7528219477120843 0.32824498380073636 0.4301908044626302 -0.8500700412314 -0.9388906144654139 -0.17814488024071617 0.22939374997002762 1.0133577298937297 0.3694309266587084 -0.24840728827091474 0.3474720749297759 -0.4207241220708788 -1.0292365278081592 0.2722793681751435 0.6474449747784599 -0.8339205256924193 -0.9119621345572033 0.3251601675899666 0.6510708407195692 -0.5286464018814319 0.49835394625530866 -0.8059394359767896 0.5510590329058235 0.015985675897305242 -0.6031284408228231 0.5683818755098847 -0.13488659671003322 0.9660821930158415 -0.3331535881075256 0.17751494417988442 -0.5751885681628758 0.7070257523815411 0.07647946822504134 -0.8671611447497373 -0.22332429958535224 -0.72030487375123 0.4014507500643636 -0.37133372535146925 0.5268613072196533 -0.35788208470115584 0.22771115044110413 -0.06195062051801098 0.2117685095676291 0.5721938611053826 -0.5843407483030814 -0.6865179022819922 -1.0531749661595242 0.7413888668973608 0.46849835229917164 -0.4243082469133598 0.6447719603544727 -0.6417723705008741 -0.17903140896981984 0.8201483069189542 0.9462586609521092 -0.39020130634923156 -0.18248909227718524 0.6782751416033602 -0.9062004739360029 0.4163568360626923 0.5517290467572948 0.2901560140553352 0.09102705838526853 -0.24520122749999432 0.3579750956018423 0.009542866124973398 -0.7636561011167823 -0.3213215201748727 0.05356103568960218 0.56484377678196 0.6003824269992603 -0.053118774790321004 -0.25851366700456196 0.2806410926028017 -0.9744660202886838 0.7413921906060248 -1.0379674961831369 0.9960953000941248
-0.7027903929980379 0.9055521781750985 -0.9044319480326347 -0.023244391053992938 -0.6866797095728191 0.38194174596534164 -1.0701172137732544 0.21687690224880407 -0.43793204785720574 0.12795060323532972 0.19810021719196685 0.17044834838801173 0.16915455168537447 -0.2835120460559057 0.9976369190026546 0.8310332466695919 0.09921295733389726 0.4123876985503698 0.3207020152847075 -0.5673506757833124 -0.5651906982827477 -0.41190128526843706 0.42354556710983393 0.5000475932216581 -0.6217376160983819 0.4512595403394295 0.7658332805541279 -0.44038890873165476 1.0064406352749138 0.00016730362619176207 1.21154388761519 0.24033842796592406 0.12746409339825732 -0.8090627424565819 0.388987616163247 -0.584688827732366 0.43153060660376613 0.5035418521219006 0.6483364705446054 0.8654753349873571 -1.0236821671248457 -0.3188854640834038 -0.8781488096683195 -0.90947520442306 0.6453129442891403 0.8472040736409525 0.5630063613172307 0.4457938103448505 -0.48303763039315967 0.7983327361648632 0.6793521767830647 -0.19541822775376227 0.8640047510276238 -0.8358800049449282 0.6766942677903677 0.871543560745686 -0.7321606518124947 0.5279966604112145 0.6964955690868083 0.31200357244329807 0.2314065459273413 0.6831872012650776 -0.3580273589600891 -0.2204122777768118 -0.5854553447906229 0.8681520844286109 -0.9537670459947402 -0.6978172569042387 0.730346310143141 0.5364978300155501 0.4739530730445758 -0.7568314872931879 0.7031328819002745 -0.7877302551971365 0.959026393555139 -0.17207277132915796 0.8876851238151943 0.01401939358718311 0.34881485210722996 0.9930023751179395 -0.2048527397657611 1.065538579437688 1.075028365957459 -0.3103230323372068 -0.12329211912663267 -0.36397211002925883 0.18140969888736277 -0.9356168375865961 0.373003981230593 -0.4259380362827228
0.3763163108302021 0.8853904093009428 0.4965173373587944 -0.1157525708411049 0.8101295051199922 0.4533217419449899 0.28931001891334523 -0.3745351354355416 -0.5884345958037412 0.7819969436550581 -1.1573356248199278 -0.8980793445583306 -0.28421480424762996 -0.7785082302936245 -0.3525725887209939 -0.06858416822395977 0.32490959922464513 0.5963444331810696 -0.8453393772672297 0.4317124785679403 -0.4816462896462794 0.7060029136365866 0.5498192514994293 -0.11447576996605938 0.6576866942783177 0.6796746271100578 -0.5839407994088026 -0.5116821661716936 0.7398548774042522 1.0933247460914175 -0.2797770695425034 0.8399976336601616 0.3008982663500797 -0.8874306151331499 -0.766826101874309 0.349325458661942 0.13899181202601232 0.8543346723473001 -0.3377063268037126 -0.46952339092066364 -0.09315531420598099 -0.695199912110764 0.8374890846401769 0.9851473681069005 0.427148045967188 -0.24266411159476184 0.5219870223586497 -0.7528863863305733 0.09148162856170693 -0.5797253234046392 -0.9828993350521161 0.8929479091587574 0.07233631700300043 0.8138211411932647 -0.10452133530226432 0.6034224839794121 -0.5129814159102756 -0.739385940507547 0.38421569142631073 -0.686125932912808 0.930654046980652 0.5603761092428411 0.3963091878735367 0.04818266304938064 0.869271177010875 -0.9290361112157258 -0.44681066710900036 0.3570717557490433 -0.22622915148975922 0.9584161484510514 -0.5050367935731199 -0.5921542392637685 -0.6104884634739758 -1.4013385975257628 0.7766653115109873 -0.4919536431415099 -0.6893968151964707 0.09226275667215915 0.8927339518856063 -0.4564520381134153 -0.01879017895576814 -0.9818729889638728 0.670985053330295 0.3178398935096534 -0.43233559099297336 0.6175690203434098 -0.48655998601341743 1.0500960059571827 0.3158058814611377 0.5129297977023003
-0.8414647528867756 -0.8682034235403636 -0.2738306725316563 -0.29155029912666974 0.7766826579878554 -1.0422004474796782 -0.8629757042088125 0.028847701694196322 0.0035644174660452214 0.9089382720667629 1.3251477342462346 -0.6578993739370839 0.6005386983881137 0.6269123279186106 0.6090811352446989 0.5984878255254144 0.6514584763967834 -0.46412355180953996 0.7888609285415956 -0.05459653814673587 -0.9747542092630984 0.7560480113413482 -0.20011266157111307 0.4119988975261039 -0.9354008091388657 0.7863254642401181 -1.2301955693434625 0.17527761714093582 -0.9243553584570675 0.04414624257825067 1.0256267639580925 -0.4816852471371459 -0.28642648025008155 0.5077744367925785 -0.9075975476949223 -0.7454205584863992 1.0806209627965877 -0.2026398694267369 0.40948928858443456 -0.15227571736878073 -0.39552198417887036 0.5099548206229313 -0.47389573805196167 0.9048625557667026 0.6774727644393942 -0.4504269877651403 0.039242073504426225 0.4401683294464937 -0.9796521322072471 0.2591969922018963 0.4118075836923202 -0.9803078998892737 -0.5760707230297735 -0.5874070726582046 -0.8606416014047826 0.1507613991786168 -1.2117626091276401 0.14644452647441417 0.1510885374427463 0.24264016411947514 0.006642861744364305 -0.23123655760243264 0.7338630893671255 -0.4383246557582858 0.7608598182468133 -0.5063240755164771 -0.5051670323959293 0.6782294291542614 0.24803576344887637 -0.4628781776211956 -0.26304880126464586 -0.9506536809601212 -0.001353922361734164 -0.19647472886926654 -0.22688035706423512 0.48517441974902753 0.25485591441104516 -0.29740257160768896 0.823387319471409 -0.7526670625944047 0.9039767112226633 0.07656905480577966 0.02384232461798883 -1.2127965010984552 0.6779749422791302 0.24968030006323955 -0.3257870451185845 -1.001986727725466 -0.8705878046865774 0.9546984970012516
0.017507214472704646 0.4691200171737851 0.6343444133511119 -0.5328243167536391 -0.6889389149746171 0.4289619489748716 0.4812425682050611 -0.055792946684099745 -0.21906592398674013 -0.8852754107247863 0.7552520546341175 -0.5221856677990923 0.734826679432479 0.23519297212907006 -0.9496700608517717 -0.40823825754204646 -0.7554237186113056 0.8012485027978714 0.4268163281514032 -0.8768221651858995 0.39430730380652934 0.11336493013272621 0.0780661461194045 -0.6145873733897566 -0.34115251425200516 -0.555065104357869 -0.9108496212608532 0.02066455331988207 0.4720371596898526 0.4307728073976745 0.22004029553525026 -0.38550961451429727 0.4380326246029262 0.26874446836193927 0.9094564830818413 -0.7562166566512613 0.07536999259694332 0.4094264030026378 0.7114927379820912 0.36326788700408386 -0.5483190191030449 -0.06071239396541007 -0.6879682386421613 -0.1404423785122166 -0.4752535866440416 0.34612140352211695 0.5209940280308366 -0.24313288258130392 0.3578979780192243 -0.5048497168715571 -0.6907676493387244 -0.21281583647474847 -0.5650000134291954 0.14524032974933168 1.0084146688586784 -0.00377696635078622 -0.4994938687387759 -0.7167433614436828 -1.1618389931036983 -0.7860375519951123 0.25524640295676204 0.9160104345688196 0.5975542013230942 -0.3091936847193524 0.2805421829118976 -0.19066146650874638 -0.3040549261237954 -0.1298029149898674 0.8918649865465984 -0.18141225798354044 0.6095978221688545 -0.0647055637239189 -0.35996202765464913 0.8898919595213862 -0.5840079887758524 0.013481221710677832 -1.133777242662692 -0.6771317129378672 0.7101619697807631 0.25536769399913256 -0.3097342619344288 -0.33576969272424456 0.07347316288714842 -0.1306950674580335 0.9629531165331737 -0.11294326291318388 0.3574008344017824 0.32365936054060296 -0.4251467009040024 1.00432056349583
-0.3577056613243528 -0.773480890854375 -0.09987517387462695 0.5172832519583335 0.44062740768081493 -0.07443268606140681 0.7671921264885375 0.8202469146867581 -0.9615705652147711 0.34724540704623913 0.8326026344983025 0.8703495737971394 -0.8050481588997584 -0.4639912362889221 0.3452066202931702 0.012333076700616783 0.8277411311298588 0.9366875334038473 0.8705763736856426 -0.47663467973541135 0.2571996123962463 -0.5418168275577785 -0.02680517762704748 0.8766233422105155 0.9583051925942452 0.6685868877326264 -0.04482579944694717 -0.4492105704762435 0.551799129670892 -1.0698562253433364 -0.4217115637045601 0.5026503387449747 -0.18527149943617896 -1.0665463846878627 0.685336824207701 -0.8681974328113835 0.7557670996116573 -0.022384966817315995 -0.9525862810945892 0.22982769284787238 -1.1854323560616995 0.4786322622929443 -0.011803758322310095 0.08362229944254473 0.7665308983583182 -0.139314386367867 -0.33721619040023504 1.153809320478543 0.5386671605871358 -0.6397123584802428 0.5294393519184798 0.6308050518041668 -0.32381949820808237 0.4730005203254347 0.17966467997682228 -0.7180799686556487 -0.0963337992070082 -0.3979271784853001 -1.5603207923764923 -0.9915063183257683 1.2452051993270605 0.8141615235881209 -0.3017084313068351 0.864020582598135 -1.089527146537609 0.4576386040956456 0.0537573216226281 0.934595678629234 0.1760302918817856 -1.1598257327295458 -0.2596235585469202 0.3612328861130155 -0.5693663386042208 -1.1316061270323252 0.4939269949330628 0.8661760753424305 0.3884510738431143 -1.1854136992683244 0.41931045906132225 0.5149089807627019 -0.5458757821170799 0.054997733074567616 0.8860214738943738 -0.6395484940675659 0.6002768467593704 1.072089664914525 0.3933370079541374 -0.31277028105828836 -0.9146870007768212 0.6324442090764857
0.7325569202496593 -0.2193283975529568 -0.6176589310216927 0.08880659211490027 -0.45910372863927984 0.5695289677654292 -0.19845518323514102 0.6346944556842834 -0.9603360049083834 0.33579280802266 0.5062840093070966 -0.1963069914764994 0.43915853033056407 0.7530869877881549 0.013220425444101977 0.299151496492657 0.6578473828277107 0.606127140489767 -0.6188922690473739 -0.6409168728216056 -0.5083947021798555 -0.9262941668641388 0.0632641047066334 -0.35258816264369786 0.6484150602284899 0.03501952390912826 0.8316748326676449 0.6856371044331011 0.6349706641419004 -0.721176519443837 -0.8701998617071304 -0.8686029294201172 -0.6638446670757135 -0.14810191155971208 0.7300173887607266 0.22362862238215475 -0.6247066511620087 -0.4438412006883467 0.7737750370830144 -0.33109413413522915 -0.024154789123319007 0.6169255722109808 0.6946934976656202 -0.8057820870972359 1.0969468504218136 -0.6866644900697766 -0.5140961430611429 0.5541608243360989 0.3588739047209193 0.24049026362946224 0.6473815855192614 0.9073581363758838 0.8935777823741731 -0.6013153902009856 -0.9956019691906467 0.7517891191755481 -0.2692030128755721 -0.5963291938228037 0.6981657654472427 0.14845054225657786 0.43486056676854845 0.07906421592786306 0.7195361568907113 0.8801605672785336 -0.8724995547185487 -1.0105350013659615 0.4850629366989167 -0.21763853502669633 0.15377012030944798 0.9919612065696568 0.31671111403518637 0.5207250798277566 0.5608095016229223 0.521311377661445 0.6150163175536217 0.2104632155630768 -0.04438629560873742 0.03610328081796777 0.18876892849612079 0.1646638902143191 0.6418441152485101 -0.7145802886901214 0.34229230350273854 0.38796215020126235 0.24291443919063238 -0.9954848222957619 -0.5869463555928685 0.676955539394813 0.06034684156837804 -0.005308372190753111
-0.6566885403192222 -0.7535778451863654 0.22298222873021972 -0.6127973777229232 -0.5711706224243566 -0.7244107399852301 -0.14873378044042232 0.30104048301158565 0.9969037663820176 -0.4762509177265354 -0.030567746908650214 1.0549187229183734 0.1534682412882231 -0.6062239085659311 -0.6171332014529141 -0.5734021152269365 0.8885204153139398 -0.7960345596952788 0.8411157072208035 -1.248344171032726 -0.129197185232924 -0.9319876446265083 0.661499389867476 -0.4146686136531452 1.0344777539201564 1.1298876121367551 -0.25187065808505643 -0.4010039511808059 -0.7945088956740495 0.4341842828056707 -0.9696385777887692 0.5485785091832908 -0.2276540842880648 -0.6247136834067507 0.4288852312053322 -0.14549698478787768 0.014607129131406564 -0.26706906263133473 0.3560723753924534 0.5651780269761828 -0.08641365413867946 -0.9750667338081884 0.03428437970370909 0.3769496829176746 -0.5677022463635335 0.907145601772495 0.553852239629138 0.88197137250439 0.2271430279985975 -0.3027706795552599 0.1451445516459001 -0.475190553061964 -1.1298402479373302 1.2037292364987222 0.5776481749259439 -0.00012131187234415715 0.6255269883477216 1.14004789470753 -0.6197792117097092 0.8673660062403258 -0.8680409540526308 0.2606222351139257 0.3654708765544526 0.8156948423284659 -0.6610258724567344 -0.6036384763257411 0.5366409342664559 0.7057345881350089 0.25375278073564994 0.9526341091725842 -0.16227466389688597 -0.7941228128276789 1.3218040866500127 -0.6403600077369214 -0.592730338680398 0.04871589788380641 -0.4027164674679162 0.02574751836324254 -0.5754596058377575 0.2085639691313563 1.0534758825017982 0.6648392426974716 -0.9928043610644507 0.8688472556551666 0.92812510711695 1.0111937229566823 -0.12798019138412767 0.962121336123958 0.12264097990181116 -0.7878393325778968
0.9438416621440016 -0.7356604922366731 0.021457846283706963 0.01858646291566342 0.7986288069537284 -0.5420168831971329 0.19727451183248898 -0.17920282107716862 0.21443987655958982 -0.3112703142589298 -0.29906034362915324 -0.49994310691274885 -0.2084830153908002 0.6796535389135228 -0.6940412333523017 0.5286379806941905 0.9450789693468696 0.1489823286507021 -0.0871385678904383 0.18391305814514902 -0.6973623228828673 -0.8622776767171911 0.0463767949613683 0.637924455257938 -0.256513100436502 0.1464341770093097 0.9650209553936033 0.05980657945319322 0.655454753302978 0.7411931316963704 -0.37780780641557116 -0.28714695464006157 0.7142159334591075 0.02556383873236536 0.5108277060787426 -0.001757461977043559 0.8291674776879886 -0.31024435512433435 -0.016324693111112194 0.7699750312802958 -0.9137643016101034 -0.8772263282701847 0.4223641214240953 0.5595456827404409 0.1251230821264901 -0.732292082638998 -0.5458592348893415 0.9945757793665124 -0.2396495255708946 -0.6630223385139141 0.7853933195469647 0.06039555093927939 0.2752167352936766 -0.49269981541166646 -0.4524287252575185 -0.33372843092427135 0.9670482576980208 0.45680948221141 -0.5957895543901984 -0.9676645885608625 -0.9399647837963384 0.23001183162790365 -0.5551014127537136 -1.0927728585834502 -1.0078566116887646 0.6476587236684724 0.17887648154108815 0.07331870071169859 -0.7396348260839735 -0.5926047089329729 0.5941457445652705 0.47235773801990194 -0.9032590716953127 -0.5992681006828802 0.8914420823336615 -0.26451654019863796 -0.9210540113662353 -0.5369991829700281 0.7124095789399523 -0.8241746172125598 0.8849177952198295 0.947974731888091 0.6714413959339198 -0.8087757717936707 -0.8195653009575524 -0.7785667492938717 0.6986401229841362 0.443963995131117 -0.906129823709133 0.2630066311198659
0.4260806332935383 0.1252324326914807 0.31727605721732544 0.07473161036643224 -0.02414790220952043 0.3125155403075798 -0.8008860044220758 0.29409137643073485 0.7923855168727048 -0.08355464538233295 0.3262614565603587 -1.0752879571852783 -0.08213347554484696 -0.8189099534592086 0.9781509272622305 -0.2229671865486679 0.6621736045949184 0.6111726030048638 -0.7089953351373515 -0.4256502423333295 0.5956259480116115 0.3078010917741608 -0.45747816911371336 -0.3246417738896376 -0.6912438546341407 0.4860123794152065 -1.2842591083294006 -0.6877960884918727 -1.1757184255781836 0.61479692285991 -0.09749517568237136 0.5330540037706656 0.945418590147532 0.9471708052101534 -0.5614450571672367 0.8004796529185673 -0.6463524476752398 0.8428197173054839 0.02563205340689383 0.3251035438835651 0.14447195568353613 -0.8585460398988819 -1.043176068845241 0.7251662399266541 0.12179737515209844 0.6362960986804775 -0.10250890691562205 -0.38304670209530595 -0.2783747888241425 0.3070768631288927 -0.08173007795988281 0.5719103343665328 0.4358855836142975 -1.067438531469565 -0.23609595522918267 -0.6128622915701073 0.8696063974144234 -0.1360095611051508 0.8177162639713736 0.7902296420236632 -0.8651367427694223 -0.3419192606160744 0.6021672693427551 -0.3238150347357235 0.3719672044202938 -0.36131089680901207 0.49972935690012826 -0.44884190571547533 0.16611230334458235 -0.43935775313256004 -0.2443559293927441 -0.11618273951486417 -0.8941592523153878 -0.6055488523348661 0.9792293675795481 0.15443429067371478 1.112313047818099 0.9586864015181484 0.8292792552959628 0.42718801169916504 0.2554120231418824 -1.1162535540399416 0.6277187861476491 -0.4950922680948477 0.6600293851642657 -0.19785025630059444 -0.7030170880882188 0.6924334467002854 0.3780536838363427 1.0725250874729515
0.8986617458444632 0.30660095081684274 0.07563352595563473 0.25859360656586133 -1.0147721358648363 -0.5128465894561327 -1.0297565052897621 -0.5859294156020859 -0.4658686293575078 0.21378808083938655 -0.6342886517948214 0.6907207839893175 -0.8036410685513089 0.21485963863353766 -0.5536818980783098 -0.8465804621899564 -0.42638486527910985 0.4118169999214369 -0.23067191105652998 -0.4465529521430784 -0.7639025510832189 -0.9136014095046634 0.054678893134398755 0.9805493853510281 -0.012689855987798367 -0.5991459326888371 -0.31908240777852437 -0.9979666735025272 0.8128611114193542 -0.31115051141656375 -0.44751259514267827 -0.7254800322933874 0.7870011525706955 0.6376095673762285 -0.6469938837355482 0.27425647857901336 0.3470219558145584 0.8014468980302675 -0.34528028439638336 0.9172917697049812 0.7469878207904231 -0.6438172640437259 0.572906596722989 -0.13825601617738079 0.4649194696359976 0.8252838247864327 0.028808059220587656 -0.7714259490342819 0.9725707761747326 0.9155251315965368 -0.9221077229405814 0.3481359929873807 -0.5793287736362733 -0.3634040801762189 0.7019804051642284 -0.4697175216271432 -0.018000171478431796 0.6753779515827959 0.6207892986055099 0.4597602458653726 -0.651262308644522 -0.4821442064906337 -0.9515590827144416 0.43147852732881303 0.8101904365803629 0.14558862601669612 -0.3283695947883234 -0.12884772040725523 -0.5763206707659494 -0.8210665885568589 -0.31275529479827624 -0.7634975636426546 -0.7921404985715458 0.35021687029397686 0.08472367696142873 -0.43381338090704735 0.8905946620199373 0.16624660333505134 -0.3686687208313014 0.5798497696801556 0.8865351473634339 0.02557871317980901 0.44270336449629666 -0.46203125697258524 -0.5679277512289755 -0.626063861700157 -0.20627793257919955 -0.218526052324693 0.6256697179095276 0.4881962564719949
0.0294491870727156 -0.6812620531766347 -0.7972833321461821 -0.6208621929206387 0.9812635267590566 -0.016321157502301342 0.6484203740503234 -0.5615217086704049 0.596047345409997 0.7337527853991053 -0.588062407075979 0.6244793993022176 0.9820969574482091 -0.18334314812957567 -0.3433875742962279 0.9850411481437386 0.22842200701981075 1.040485456513863 0.6241480956144593 0.5349212803453433 -0.11547212649795308 -0.7003370171180969 0.5268926953685746 -0.17820927447710055 -0.9493062886643661 -0.2560885313226391 -0.9796870644624579 -0.25320649050721633 0.7034122916269333 0.5670295337889917 0.7399604935363834 0.8541079979368527 -0.3180444375265868 0.19284275795088637 0.04878533144534984 -0.826737175199376 -0.7299544848291912 -0.312391744062402 0.26963258537531554 0.7536218440147665 0.4184369712434972 0.5175706727984692 0.8015031118971803 -1.1344434296809858 0.8689418409260836 0.8583872200315639 0.5053427734806899 0.4612335633666767 0.6854588127341121 -0.016579509320951424 -0.852354452803881 -0.29810982165040445 0.6310619235794246 0.8054699350656263 1.0574671680994712 0.06211238517325713 -0.9574063402607732 -0.9243033632546501 0.7837745220296787 0.40843955961530637 0.9149468714913348 -0.7675167353307873 0.5051422200580549 0.5788692617941954 0.3498020735122534 -0.4104826262832317 -0.9913427994112252 0.7981885865126339 -0.8352657260249436 -0.6254360279326379 -0.15604311720226513 0.6964248020250086 -0.7015441115750926 -0.38700700256787496 -0.29427953311135263 -0.20088090684607815 0.25708647677939506 -0.04309383834596322 0.8468411001334339 0.4868142081028077 -0.8995874088790919 -0.3871170762716451 0.44163731906166276 -0.413609977645704 0.09995665875793053 0.8724311710782644 0.7206177191282593 0.46519778472072926 -0.7347122934557712 -0.3560047438554355
-0.14568228232346447 0.08443561053494734 -0.09752332580168933 0.20947205776456776 -0.06185041597255335 -0.7454705198235401 0.1615197415464489 0.9571592765378252 0.44369452307025287 -0.8010029528898249 0.03764473443038579 0.20646583967753118 -0.16231902594768122 -0.9471365671256894 -0.08067137146660963 0.8061144511745775 0.13176070293071912 0.23821693240097197 0.0748117716561097 -0.5496663920806011 0.10681370795375672 0.05963003221005998 -0.3188725340293853 -0.5528408199990213 0.4882646573445631 0.3893393717833555 0.858813480463517 -0.922889387995282 -0.6382269582199398 0.07627827380880627 -0.29594767563901847 0.12703027369703787 0.3547886438634202 -0.6386941965261825 0.2670762521366328 -0.048995815503139264 0.09015603760638427 -0.8300199015791577 0.16267055707741176 0.7203915463178304 0.671889618679849 0.7768595876884521 -0.6330102407356408 0.5136746991436778 0.697827246483723 0.6155762800438092 0.9568683513742342 -0.12819833067556421 -0.007479013942125718 -0.5413732984561755 -0.3021218084557622 0.3066330938219347 -0.9784114842937306 -0.965692306088926 0.9126490670495676 0.7943904506799391 0.17261493316911072 1.1203121524837045 1.0267076731083014 -0.6355171106140161 -0.1358149460783423 0.9401525155249152 -0.8232107964091673 0.8550803143298766 0.5433314209591981 -0.5815347252948507 -0.6553417054435162 -0.2241363804169601 -0.7323389286347685 0.08783853241288159 0.945771825653138 -0.34260958775573064 0.8455307513160889 -1.0498123351331727 0.654969597515949 0.9634752076536915 -0.4419467708331399 0.2882277505611939 0.8050336334738749 0.24733784696150105 -0.8028171538648353 -0.5788473093217844 -0.7480553082697925 -0.34109615196018384 -0.17258423470336853 -0.46327216247684133 -0.6982422989125402 0.816421463489727 -0.5034687411056178 -0.5477066419395744
0.49383224660119707 -0.15940552014737527 -0.1823226495630329 0.8247444685772984 0.028914958044741406 0.13675165577809467 0.2627481306413815 0.021552872524650993 0.8782195373152292 0.9515736996318639 -0.226167689167964 0.9089167798519256 1.2584974751370268 0.19124755157484338 0.626486377066238 -0.5848220723286625 0.42534802582466597 0.2767232114304939 0.002495686161362718 0.39558689357995125 0.05791938336811953 0.9082084354988522 0.49309228534269184 0.4019609532474383 -0.20719587078580087 -0.37197355472814164 0.4123051053215794 -1.1080108226228913 0.6491624686856307 0.2767482251330187 0.8105144931004049 -1.645031939574911 0.7041043071135344 -0.8569187691220056 0.19958526689598313 -1.1093161969153458 0.873425370481295 -0.035423293716979214 -0.7078300448716235 -0.8783727357498119 0.27793381471558926 0.6136558367653373 0.5428871959834679 -0.12169511542431398 -0.7668937146468566 0.034220932789021725 1.000976100916931 0.6332946249871572 -0.566675613034885 -0.9892403885173736 -0.12642919625452526 -0.14075127517241695 -0.3357763071096934 0.6206740032137916 0.2527424750138646 0.8183571749650802 0.24714594724952585 0.34122904718981284 1.4094425138767077 0.13460191355508352 -0.3378276788770625 0.2574064630562562 0.07975378776350953 0.12136505333385623 0.7967085526221106 0.30146531856419473 -0.7434202113768891 -0.3874146046503771 0.8997226212401722 -0.33892651328745793 0.43788110863311425 0.6445260181754509 0.5593373165001881 -0.7915322104417963 -0.38179892295301315 -0.300725924903502 -1.0329937394305757 0.4125224269332731 0.9002483405258922 0.7197377578739759 -0.22719840809981584 1.0289434324632472 -0.528404851532328 -0.27064898603893495 -0.025141388252347806 -0.5081908204846975 0.4192494577394734 -0.4124738608187414 0.021249277155260416 -1.1763421009880188
-0.48865210349618327 -0.8727687791182656 -0.22911038771123945 -0.30303677131897316 -0.20939411715755793 -1.047978070567378 -0.4332476790706165 -0.7236656510070972 0.6336645697080002 -0.3962983692012043 -0.21626448114722877 0.8737592988564293 0.6202209120271921 -0.358119890117004 -0.01876552174595596 0.3189186174904433 0.7769497546814385 0.1879476178437989 -0.10558597777177141 0.04148372603937082 -0.5431386474629492 -0.3960343501343732 -0.7860675452353261 0.26249396868564834 -0.6158070993548111 0.8758936081250206 0.5680102935344755 0.13462353529447738 -0.7788723123518111 -0.9041974687658042 -0.9252965127802096 0.6241221927816111 -0.49970318320175466 -1.0533914668506723 0.8305976850450164 0.7602336041203228 0.3397693056180905 -0.4628082890325842 0.7169318267429169 0.6394847635605297 0.24202244806638196 -0.9920207432972183 -0.7170023264818477 0.6539342729995841 -0.47736141931404397 1.0659284609757673 0.953903317916543 -0.10541357449177953 -0.5647061662806399 0.7387980970150652 -0.9116834991522678 -0.06282147148538673 0.1622904887017321 -0.33442190853150555 -0.5475451675938949 0.7529553201478583 -0.5012610654133273 0.8476716582175836 0.8103370882956854 -0.07216941474281656 -0.34636976229626837 -0.9817489757561886 0.19116275154271 0.05252103479330851 -0.29834828362265897 -0.0037170374867336866 -0.07568880336386788 -0.13990996769942585 0.9459912384868842 -0.8813158951538753 -0.6890801247651612 0.9704838312852344 1.2860700236290135 -0.768592134853219 0.8299377037665254 -1.045944877439039 0.9137775007681221 0.8810848045404214 -0.8145407067984357 0.9760628673592747 0.5250269288083776 -0.6924803153946923 -0.8687099474683028 -0.09744544750998173 0.732701927504806 0.8874628237324703 0.7472237992207865 0.13257771028562926 -0.5594874073842074 -1.2842275895077555
-0.057905482557261356 0.2972836056390345 -0.4356738373083623 0.3806043492538733 0.28990816610693315 0.9107821088115837 0.014351511182167678 0.9465567094778989 0.5968971494747626 0.5129147375928365 0.06197260959003954 0.6315430632937455 -0.8626596978632202 -0.188929393764079 -1.2001698446539404 0.881685965230278 -0.09175381591297543 -1.060695369727735 0.2836964792579166 0.13002150865226356 -0.701418707727898 -0.12018978923518252 -0.6674150982270576 -0.5587221969884574 0.5371705357493106 -0.2973096896452827 -0.4071693721107502 0.7299881914774571 -0.004914831279938748 -0.2709027764833876 -0.4942038207541549 0.17838802692796074 -0.6094401087574028 0.8881718095450245 -0.09789634180736438 0.8777379074134422 0.6533722942431196 -1.321321364100874 0.22422018330569615 -0.9244701255823684 0.366807510428951 -0.7947139767274399 -0.8813149941759147 0.8439079346822159 -1.0903103890139365 0.42519747469246105 -0.09163323985213641 0.7770025804527995 -0.5662657696138226 -0.41974129336681354 0.1202335792800709 -0.35478773302104943 -0.858923085859626 0.5317780654961013 -0.05328446186495552 -0.39636498966458406 -0.002801335599893002 0.5935588865654052 -0.7879930392528932 0.1674685617863181 -0.75088295674193 -0.13953918547126956 0.09335028343321543 -0.30583920869315157 -0.03731958430742142 0.9569126858874297 0.2286366942169232 -0.7382771943317888 -0.43610935549337854 0.35728505197160587 -0.5978795615563935 -0.2759696776575296 0.49749645245143287 0.32926029241858323 0.683578832207389 0.9730028989758961 -0.6064238629139421 -0.5877413328496782 0.40704081095756195 -0.0668604855255398 -1.1867710063387302 -0.2738273266813593 0.8555056253261912 1.016715641147654 0.07592754057655014 -0.13420890338832916 -0.2663147906510315 -0.47589386041626563 -0.07949201563190236 0.6626996361952651
0.031013923992856407 0.9769805631791467 -0.8908085677717728 1.0514802115733213 0.7057616327709374 -0.7907599514557833 -0.8792887719464266 0.7304728921928203 -0.8964057934528157 -0.2671569887304744 -0.8887630546665539 0.24036733460591067 0.22533308573881713 0.6550397504859274 0.7964307847158274 0.6296749267724739 -0.3004766267025561 0.6667828109576519 0.8818388077478895 -0.9576094697721357 0.1814963117060272 -0.3577694677130887 0.8102164268907542 -0.5589656500115822 -0.09464782069175735 0.5569172064119755 -0.4091996935471724 -0.000533874850776984 -0.5896064407009435 -0.5031002957957266 -0.4080396128550225 0.8595251470052038 0.4863244674077338 0.2622269190508038 -0.15777473256296987 0.7613329021847384 -0.11786553206436204 -0.6167164045578266 0.6201320438193895 -0.6377234598995407 -0.6361363519947703 0.32897487571916373 -0.014375199952930441 0.2934655091287537 0.5509382482151398 -0.04985657729558365 0.103302633439139 1.0398335552332694 -0.2798875019604339 -0.17546063648084687 0.9823049669383113 0.9340059431627329 0.33338057432843665 0.46920974969569307 0.4728349710007821 -0.04480167936665063 0.14743687627898047 -0.43715170917031226 -0.4066824282472211 -0.7458761959802339 -0.25097971509460154 -0.23712497476298983 0.19954304038895984 -0.6139107307049456 0.826348449050768 -1.1428251578802497 0.43625693846640407 0.9694250542343932 0.3616339935135602 -0.921893263219863 -0.7737849442357354 -0.4838580236741301 0.5113885453188685 -0.8910211199169792 -0.20536923606002086 0.8480403185602966 0.15126204160109688 0.9758179415868755 0.28043646302470665 -0.7921936787231497 0.22130040859196476 -0.36703938493467686 -0.14979052601861095 0.7798312221530813 0.6843546152461485 0.022680546681171906 -0.08936926408570182 -0.8553270248290872 0.04937698259702033 0.6154979562360873
0.780313778130092 0.7559058558790879 -0.12353950164646982 -0.8106021098551954 0.39518088913500626 -0.47549064565921123 -0.6026452927422988 -0.024581855053310266 -0.26211132837046075 0.2573301679670168 0.7634799020550376 0.7598087334403607 -0.8876782212032565 -0.15998844105029755 -0.9047278992458205 0.34401149428835065 -0.07902968916442882 0.9701536438544713 -0.0025153181014078417 0.15153637641151788 -0.08887237109988601 0.8422548343179855 -0.413489253615218 0.8380831683911891 0.440634874138297 0.7320715698211395 -0.08544535324648264 0.9854282313956592 0.23452525784909398 0.707082036378676 0.2093841632428024 0.02495704093409481 -0.2746336069830676 0.030287484968485354 -0.44907186965851476 -0.9268293104723714 -0.7973606618183103 -1.107077075442566 -0.22531154857906496 -0.5164809578626351 -0.9210301218723714 -0.749433316286728 -0.08573184699120734 0.07326751511123823 -0.4026483854687863 -0.6120929768746587 -0.05466706131539006 -0.04397985192611542 0.21691459729562312 0.26226475618945727 -0.20111244884345464 0.30982316847921976 -0.6531401710238114 -0.544661541639621 0.6272535507232557 -0.9058514020552584 -0.5186078652589443 -0.1758771548331974 0.8715945307146025 -0.9040538748556933 -0.49248711314411797 -0.9239930007262894 -0.549205862990618 0.525858197912961 0.5651959788962567 -0.38877734393731633 0.8690685594690046 0.4004633974785287 0.48008667224948437 0.940811260855685 0.012337764979878995 0.412822285875727 0.39801835945715736 -0.2074934964945676 0.9803799769070392 -0.8583167349817774 0.3992084728917221 0.9516757036792517 0.013977584005618177 0.7348087969227899 -0.12023708727392891 -0.6476130027492504 0.8061926213670058 0.17152839824732866 -0.7418133142443146 -0.6179194288914737 0.9395604167578121 0.5068679030815532 0.8738027621565315 -0.7588784313378877
0.08358661343915164 -0.7161422790250436 -0.09120615829824563 0.17470781531047125 -0.057496695766819234 -0.7220296698383186 0.45295735749767174 -0.17067743636560354 -0.2097191234343171 -0.06067045944781337 -0.6321884562685903 -0.8171801319483385 -0.4906243398112536 0.5910939939212617 -0.5100813971689527 0.7755570391338901 0.27104658600318376 -0.7234010987872774 -0.5967393018938364 -0.606294295152145 1.0435219201400874 0.43015790458518394 -1.0645649716115022 -0.44404460451035943 -0.7532665376877204 0.5600767498587524 0.07544834636737419 -0.47041970018783097 -0.7312735659708449 -0.9011401122949794 -0.8416831874472961 0.9118553665407586 -0.4418627933112921 0.517402075653695 0.9181986032770997 -0.09371078834691453 -0.5163979732687752 0.47528837988002737 -0.8543782180855409 0.5461964212697686 1.0455428845259482 -0.9259442585750945 -0.9371684925990605 -0.6153285676960538 0.18678368851836008 -0.7010391524282111 0.6858814220563656 0.4233128879939144 0.27881201513341575 0.5940931152188074 0.7195689058619167 -0.5427910601503787 -0.8887198827227694 0.3301814234455743 -0.8684354127540835 -0.47735741553100464 -0.48918139898034374 -0.9056023579558954 -0.16986229966669897 0.33306378806870834 1.2584812030939776 0.7546441038398439 -0.606158049790536 0.5585833931497434 0.6582903353955746 0.6502856658487621 -0.6170769495536259 0.9403799856895004 1.1627366074501804 0.06569026551294548 -0.05777513657492956 -1.0310123527691708 -0.5745188229899589 -0.6018893906775251 -0.480456043995622 -0.4117544383184259 0.18892743150308094 -0.027422206865009253 0.7172677262845404 0.3839413060647727 -0.5303145204114651 -0.6597472362449267 1.0835059055188123 -0.4489974839245813 -0.22002869445670992 -0.11394630806320864 0.1456478171114832 -0.3244054545159079 -0.22184125942047384 0.1806214335531418
0.4163036462857457 0.09078085474513731 -0.20122436645967834 -1.0957334966302559 0.5821066485428855 -0.03784499723080771 -0.7071543908644511 0.6238443162634232 -0.27432949375169313 -0.9572512305313726 -0.30550700222987404 0.09493672093753669 -0.6751441607083817 0.698485363878462 -0.772326009229746 -1.0050930785152858 -0.3243661620799167 -0.950704252229061 -0.3908769982841737 -0.1636206148569463 0.3643943819464236 0.16191468596193537 -1.0596661849081748 -0.9427274701456159 0.6727633013983786 -0.11839488867788887 -0.5666692081262744 0.30238830175902637 0.37411032976870234 -0.010409328634819548 -0.9792927444244434 1.2405966274708122 -0.45661781880438146 1.0122110763216567 -1.0372052247587422 -0.8342955158442892 -0.9427773019544596 -0.02801070966392771 -0.1038645287039187 -0.9100873299437335 0.7345399292129857 -0.35625957373645206 1.262898294923575 -0.4186023381798787 -0.5914117173346115 0.024264516613567762 -0.8724211046939861 -0.3265276624485722 -0.04121926543804965 -0.21137967581196457 0.2604005444792201 0.5665164484461893 -0.8617352297897221 -0.1216417014067536 -0.5659924323589083 0.8183651074775642 0.32421635037173013 -0.33388394332617166 0.06817188151697764 -0.16197306873439804 0.8674421536091156 0.8778094218277356 -0.6402054545983287 -0.22406346984862952 -0.9342882224259409 1.0962803878370018 -0.15319846047862395 -0.33590206471973405 0.24868886351839536 0.2711694546102313 0.7243354288878276 0.9217365919867507 -0.6614343692900166 -1.2557355057153077 -1.0854440138909 0.5272015481551031 0.3560692783095546 -0.36679173552781014 -0.38231837241463373 -0.2844878642901385 0.6971330705599478 -1.1440226842683467 0.4732324743003287 -0.3423975310001501 -0.488942241840809 -0.950714964683615 0.06846020504261001 0.7317311650438347 -0.6371891220390434 0.9927593955873276
-0.20626248663367153 -0.7488162260978299 -0.5915131099293921 -0.47385908088551415 -1.071586638879795 0.7605300951860342 0.46639292991335973 1.1255775110575723 -1.0461612513660739 -1.0800650684818511 -0.5068380879112708 0.26001837693888546 -0.5571391155450305 0.4772679244103591 0.24990561520269824 0.28420074428255765 -0.695494793395671 0.635844145965386 0.635875267057225 0.8717071449360227 0.9677202170565257 0.9380847378311722 0.2907160819880711 -0.5852670663275624 0.8111906806887527 0.09543942947167702 -0.6320347350136992 -0.7520413060694953 -0.173405090334166 -0.33497338373628976 -0.14841983378548998 1.040917586778134 0.9812989194471079 0.9390552602263655 0.14365692599637522 0.8578891096011239 -0.8539975578981497 -0.2733297054215995 0.36588540308384815 -0.581418342390185 -0.41182795695127344 -0.12707204179810316 0.8086185194955069 -0.9008032870747823 1.1509100843296027 0.7851848592233355 -0.03138064958049654 -0.39869454531964865 -0.28505650318029446 0.7050972875512161 0.7089445966898207 -0.9496209713386593 0.7919391242159074 -0.2836791470968464 -0.5792655703837609 -0.2061172075544134 0.5942319727688797 -0.8289188406285755 0.10881961132879524 1.128548988310885 0.07950238795369509 0.09589831796344211 0.5141307629778977 -0.35352188991022065 0.781135130320343 0.38539346368452826 -0.5021824283438112 0.7862354497229093 -0.94081639501581 -0.33539347118587104 0.5305772528344568 -0.6276543371665358 0.06759702341741533 0.5262090005300449 -0.8634030614671698 -0.6464371443395349 1.1769769751760357 0.5679045378100778 -0.021676654254093413 -0.3109018000327431 -0.9586825252076339 0.6927667248787783 -0.2972221924493846 -0.24716978970157788 0.8711926698477273 0.6686838529779966 -0.07277237756827236 -0.5788111892554704 0.016753619567157943 -1.0384696995898046
0.8685840450045448 -0.49479959001606577 -0.40410684839437216 -0.9463690126331543 -0.1384532304195711 -1.1756551665536696 -1.0693342280611624 0.210975236463281 0.9339153287556483 0.8660591437451058 0.45502562290581994 0.6251191760328391 -0.140049436668586 -0.46419327738672334 0.43389566033205756 0.23637989127035908 -0.04357816840444357 0.8158686147154924 0.21351058538479534 -0.03153804619850846 -0.2453357227855343 0.6298122052555074 0.017654508847543344 0.8842053982894655 -0.003769961950327396 -1.02007166878475 0.7577023589605354 0.010889296989990369 0.7849133836411422 -0.2537361219965736 -0.431737514377396 -0.7124052231086963 -0.4561769626874929 -0.03956924984695731 -0.09101755233623461 0.24466383172324943 0.5308318954153408 -0.36705754234511806 -0.6184762964290719 -0.4179386559129813 -0.610775746394398 -0.5139708948424482 -0.10767473026951115 -0.6016417387685322 -0.4777457145206429 0.9358658922372508 -0.1621288872204676 -0.15419016542612948 -0.2072813558764497 0.8240655543911141 0.09269679018435727 -0.8840441865928437 -0.59105538369168 -0.06130779233253871 0.3950202246231067 -0.8908996833538425 0.8815716224961756 0.11472408093426399 0.5608744180609412 0.21261234913898158 1.2262136270618218 0.6891760889119033 -0.4678528081576571 -0.9885343923408664 0.6542342523161055 0.45283275625364033 0.19419437665851966 0.16666898962378007 -0.687117371510709 -0.06655639050234362 -0.2577012407556784 0.8956246819557897 1.0371924290113907 1.0143375836180009 -1.1775560569931602 -0.6714012185658109 -1.0035838524691891 0.6473697812088791 0.5902058568379525 0.693849742003989 1.1824309445677215 1.0840772657779618 -0.9825932179591053 0.43702033907154497 -0.28097966995079215 0.6404535130756226 0.44367469589818925 0.49284809748706493 -0.12737579979816444 0.8154694329293563
0.006158641083349181 -0.40321756998667585 -0.08718791368601372 -0.42004498123053136 0.28535163254419305 0.6527113407375428 0.5405327612111837 -0.03283951366793691 0.7665465942580963 0.48650544476739577 -0.06333498380501774 -0.13142671515026466 -0.7588994800760234 -0.32012418928398556 0.1860287283215775 0.606472418414665 -0.20576803134187469 -0.52304658253164 -0.052380588880687085 -0.5206191397327598 -0.5919963235008595 0.9712614861860115 0.5843037286595488 -0.14243386267520297 -0.87721627291763 -0.20333943051989747 0.7140464891071422 -0.44500983310723097 -1.0979726386334205 0.8327180010990343 0.32591781177919105 -0.026909140376946694 0.346153388472502 0.7616686914035806 -0.6960126111463449 -0.39693047082057903 0.9344579394666885 0.7154007473732991 -0.9952643932461184 0.8030189445963997 -0.860079760516656 0.6161394759903003 0.8318544025927748 -0.8355059323985405 0.5804722982474015 0.0017465677618256927 0.7666011716576931 0.7878996889189626 0.1605739048928942 -0.08147138782759229 0.7099437700074094 0.18544539005468572 -0.2461846139318756 -0.8209826037124117 -0.8574290253663622 -0.3208297121101177 0.90235297113854 -0.11440596385059167 -0.34630932677366155 0.550111359112958 -0.7654403533691132 0.5317565501115165 0.10218047418570284 -0.9613535439151327 0.7984850080143033 -0.7002240169704048 0.35390492011452085 -0.7824107808601868 -0.24436597451834766 0.8393165970491627 -0.9687922679148014 0.20228137628389195 0.9245217006711943 0.8308649161085669 -0.48644515830802426 0.015611600823383214 0.49170480049084625 0.9113953958077922 0.3334127402125147 -0.1533879851575302 -0.2139150581234163 -0.08362046406781758 -0.6343640827953524 0.48828438735598795 -0.17882643181365676 0.4334818987195404 0.4749044541778113 0.7554618211617768 -0.36887572105311706 0.32400686781657306
0.6876556347224074 0.5422552281949167 0.8705226177132721 -0.4501286233387252 0.696389005279092 -0.6324018723275953 0.1483101227994786 -0.37456152436812745 0.2556797759700841 -0.16968174230369862 -0.09408323959440448 -0.8105845783143949 0.9688158094862513 -0.3184257330476722 -0.7108876733999828 -1.0440657240916402 0.0030549917316789045 0.7365212073555142 0.8143933389816601 -0.7322933503947123 0.9486023027862854 0.05041677090052537 -0.3179583069002794 0.9239618805061417 -0.18829470876149854 0.2964722501796249 -0.9440919591068074 -0.050655888074044975 -0.06411993572096202 -0.4506024349425387 0.7683022438949096 0.22633625742652472 -1.1200501573286445 0.026010254331824283 0.5748107582566377 0.5161080213597781 -0.04236517423113426 -0.9100106615268144 0.5349083811046007 0.6074511184557364 0.3377109432140542 -0.12966247017465196 -0.23377926800593665 0.6640690144544108 -0.43595609711795724 0.020635779902143755 0.8592333568047291 -0.8279771281914048 -0.46344403233364145 0.1901539501733923 0.3945634249945252 -1.0680774259511372 -0.5657743596895041 0.8088226821956175 0.9523588295440171 -0.7822046534967417 -0.22021874858953192 0.3834077894768058 0.47957459781229034 0.2979751678768823 0.708436448527353 -0.10272180072367604 0.3238118735092973 -0.6632054089992274 0.765561576115079 0.314207669315 -0.7341068431820407 0.14112580326394372 -0.2897997155115463 0.25194672018922953 -0.859526839245283 -0.41341027523655843 0.7068253535360226 0.43620392522926077 -0.5864189044805831 0.9204856735521258 0.15203216699820418 -0.23232014443361915 0.7046744707443946 0.7086327506340523 0.7099146857091125 -0.44964424246004714 0.48257295022854446 0.12033545757842216 0.8474484652780566 0.6954268093937827 -0.8427962269780666 -1.0201168363835293 -0.7543921176526063 -0.24355186355937758
-0.08435236094103771 0.24388569671369895 -1.159897560601821 0.5439809879682227 -0.5640579088190663 0.22267566890767873 -0.3074948672350844 -0.20996374581465496 -0.5740871968028195 0.5490377179112158 -0.09666417312857864 0.2681660827656185 -0.6637406296236351 -0.4322812998786527 0.7401067494536305 0.3891051494845089 -0.8249363129075399 -0.12013430116507191 -0.17752573849408285 -0.20459444342755967 0.23025570758390057 0.8029917262546951 -0.43348757982051583 -0.560774420549655 -0.23981647362186662 -0.5325541485625689 0.4142888060885809 0.49081076662277234 0.9381964759121066 0.9555738743223459 -0.004075572980989722 0.9495276488932046 0.8322970154886997 0.13773340187785874 -0.721965658720601 0.8391961044076147 -0.1758815116082382 0.1314249170726743 0.31409589700451096 0.9129211632978967 0.1580421467202597 0.8957037511174352 -0.10373057993760432 0.4503896688072889 -0.6324402525421352 -1.0970891877864166 -1.1456160112347624 -0.8921984511866796 -0.6061190248138789 0.3471009689538478 -0.8698768638984066 -0.30715771127462627 -0.01449553599894087 0.8518338898199884 0.0892823603358046 0.2611209971874303 0.4852430276113279 0.4973696172298851 0.23479706563972644 0.8266683010375501 0.09938292691661965 0.4110928841285901 -0.10068885669550412 -0.805951262360329 -0.8323039525115237 -0.6500032757223612 -0.5770032202571369 0.18018107094013452 -0.3787560468207797 0.3841940710869336 -0.903285910102906 -0.778869460223964 -0.3101940716110061 0.8805233155062212 -0.9165315321385824 -0.3939241355159545 -0.7174319124485119 0.8645846952600322 -0.5172755956681235 0.48937579754789307 -1.0142398288918137 -0.8648374706117544 -0.7599775037392534 0.20968571262323507 -0.4521022389678886 -0.5896682000149149 0.4612367705791266 0.058667882395263965 -0.16552340555642545 -0.9069803058606135
-0.9992531019527477 -0.439598215748275 0.6331286515956183 0.28383889774982207 0.8884142244228418 -0.2550821147206372 -1.0838464881405536 -0.1086364811320203 0.7959597958741681 1.1801869071115285 -1.01328212975697 -0.8733399732699536 -0.5796371418573956 -0.6479133558711113 0.204943784829262 0.34734445354356264 -0.8902791128792622 0.0748259715749074 -0.5455091218960708 0.015238517341261972 -0.8403441957274902 0.1465331777443773 -0.9790520767397237 -0.0628013143596595 -0.7296897976631255 0.38000962604657534 -0.4171266986718872 0.46359930411260997 0.6448234907531686 0.4481492404641774 0.5100968666112582 0.6357972466465546 -0.7371937013570219 0.6182684981953264 0.3058929415182753 0.12369180876787439 -0.947966963554697 -0.7988932608982772 0.0827427651090604 0.5983536328053425 -0.5718859200556278 0.657119022186763 0.7306998903264965 -0.5522638840569147 -1.3650231399562234 0.8669958187828841 0.7400467082397669 -1.0247021003133765 -0.9942519072260689 -0.668269892979464 -0.2944890216485249 -0.6445046065653648 0.5430009379926565 -0.27922606161999863 0.33671338999416267 -0.10834079524677531 0.8506003575820824 -0.9585099730703868 0.948212179271862 0.11308326643583463 0.7907943977721255 -0.9462572130633152 0.6334757457563619 -0.9149907385536052 -0.9636466983197296 -0.014454679117947442 0.45464266651251595 -0.8126198045509341 0.529154285706936 -0.3970486645601071 -0.13134434883404625 -0.2472714202837086 -0.8467471380041321 0.22108508714913097 0.8063129843774031 1.298348223040804 -0.9198834238566053 -0.4456844854361777 -0.10757169849158281 -0.3100524992810239 0.7711822603242188 -0.7536261117030525 -0.5213889201193637 -0.15711037249818843 -0.08004657135755597 0.9326626059657747 -0.7316676172227117 0.8680918644713274 -0.2193958779267874 1.0829240547111303
0.9867042171406959 0.8008511497202588 -0.1373440271821072 -0.6787690890021836 -0.2047231767382022 0.36045588547325597 -0.7157842811879277 0.3139816071832899 0.8211453021192672 0.5544456417827528 0.8845693587652764 -0.8225213253793927 0.6304094635196711 0.5685989193867506 -0.7839372926545876 0.4805157158820506 0.7320967791572749 0.5753973451070113 0.15852852856904356 0.8572128825961592 0.7817261581068184 0.3092182324843603 0.8737180613102359 -0.6000304023858009 -0.932278030703065 -0.5955391690022539 -0.11597876416092763 -0.015330931192273542 0.8198908276601151 0.12483345849445417 -0.2765146764914912 0.9482711731463578 -0.9227535527139438 -0.5861750500120402 0.9481954016918979 0.8607316422927659 1.0793678138986906 -0.648431341583931 0.32324903992482035 0.2815599657346366 -0.5743856905576779 -0.3473341297099866 -0.45938078368258933 -0.9669105745487802 0.7543190945648849 0.6568491484100253 -0.4212456428940516 -0.7723319876765233 -0.2827949749147372 -0.5993884745044143 -0.4633529066369944 0.18221836668385524 0.7333599386489968 -0.419951412076996 -0.37550354522670687 0.7757617438208492 0.9572734635479517 0.4502769373830058 0.21476095524146968 -0.7645005940002585 0.23208821092227802 -0.8801228899253346 -1.0406265161066373 0.6307453657570388 0.022785060476686367 0.6591415896146378 0.2371057851509843 0.3797705647412661 0.4164296872004014 0.5705438597175038 -1.0086373086996125 -0.24653566677537764 0.417815719893714 0.8348557577165976 -0.010032566524133564 -0.3602787546735439 1.1822779866041913 -0.6069431076635854 0.2066785810996215 -0.5459188103187687 -0.3775424723847698 -1.2030901157354104 0.1967917340107419 -0.14305280391319627 0.471610321183124 -0.49709483422295764 -0.16198941425757388 0.42001608523983686 -0.5686933258087575 -0.2525801579542751
0.3151761859066564 1.0030328268571986 1.0157671198698095 0.19463524369669652 0.6992611373447775 -0.4382765157807694 -0.3855031489884683 0.44678881304442064 1.1184317937970072 0.06817948209531807 -0.6915614970497077 0.15899972934110185 -0.40852102369436266 -0.7950171310135739 0.34183175360929613 -0.5924119783132102 1.1401382213969415 -0.624643908748736 -0.02879819015258026 -0.06354045175407763 0.5670923528953267 -0.5904340728381506 -0.8045346008281115 0.00258537047457849 -0.46312290450954047 1.121606101085232 0.14761854230340885 -0.3902494010319953 0.776964100563434 -0.22026572951675935 0.693472390103065 0.8175274561407058 -0.41195221172816315 0.9009094537924013 -0.6629213088890754 -0.4102827333683643 0.34547248174097134 0.012890557247009625 -1.2331451619845188 -0.9671625903635165 -0.024185035957019877 -0.47037274076562985 -0.8130128987323539 -1.0376245560113617 -0.8865957224532028 -0.08594211945612691 0.6648725378050114 0.9394166199987307 0.8647979200367818 -0.20542022233110582 -0.7606908886721272 0.026800051127998867 0.8361830086340656 -0.3456318634366805 -0.6639213921814394 1.0339917552530589 -0.32943935140392616 -0.5668470834265477 0.6646810862898526 -0.7212915310740334 -0.42294106335833775 -0.25393643486842304 0.7182885987933291 -0.35841605177396973 -0.5325733493234136 0.19207379899707502 0.8439180863031397 -0.4359293666188735 -0.25859123897846353 -0.30355322606826035 0.19668628800331642 -0.637336496357325 -0.7980016891201781 -0.39022204276949396 0.1537431268540551 -0.20744327820405004 -0.0838397915294574 0.7947611685810774 -0.9017442345820844 0.26432030315863075 -1.048339790938997 -1.1137105869003052 0.45781689746854404 -0.8820421404571444 -0.31290517198714196 0.7073428798228182 0.6984355676591222 0.37059814954768266 -0.6467225476991747 0.8661505586533329
0.21232806268240134 -0.976380112319595 0.48957752263234244 1.3009030041310325 0.7387875186547849 0.8795335171575922 -0.8222840716547192 -0.31900576759338395 0.7243837836204186 0.9876907240232581 -0.5577362559667788 -0.896570700539868 -0.3262515965994876 0.07338029745025992 0.5119917126179608 0.9063027193559834 0.9710121898395121 -0.19248036811704994 0.5714950778845127 1.2626985247214724 0.08952339798853912 0.1471811796930921 -0.06958523551905502 -0.5236735838240162 0.5321202485893383 0.4383668823033537 -0.33206429129305953 -0.7625607998652426 -0.5167479063012346 -0.4932525543105912 0.8191124260756518 -0.7652671074980026 -0.9481095042220862 0.5899444845747635 0.6449385722830681 -0.17338832007508984 1.0836817271674315 -0.7621365168936132 -0.5240424190162595 0.10733876084961515 1.0568210211061944 -0.8677264287307089 0.5837764799686358 -0.8121771792126812 0.33930772782405916 -0.5495967335746977 -1.1649212881593642 0.1700968608243783 -0.09593591000544006 0.4921699597102441 0.5798452806077274 -0.10144301611731778 -0.5144815658247759 0.7256514697208519 1.049322983128224 0.35567450184190846 -0.6290892953616205 -0.7403765645320444 0.9042027686665408 0.9553889671108258 -0.5676701924394015 0.6924193509789787 0.05066655598215493 0.09194652784179416 0.16298716224330492 -0.20803588734163317 -0.6633482512237585 -0.5486840585409448 0.09410153495480415 -0.6039400092750562 0.6151693954165196 0.6240834376981587 -0.4746236425841517 1.2429708449123589 -0.19555078104709678 0.28675287295172547 0.2700409572807868 0.6684036826521385 -0.6467306080168371 0.29488268851699595 0.4977997261799461 -1.3350271350817333 -0.13508393246008635 0.43978109531831944 -0.7636680452672743 -0.9926526740243736 -0.3151974035458539 -0.3665131716413171 -0.46257653251962905 -1.1738075710470588
-0.9951636609792187 -0.13003345281252543 -0.6135819993246022 0.3361188648146804 0.18171784849879893 0.43451946001673625 -0.03409925457931616 -0.4676405904052926 -0.560680430067703 0.8509812064202597 0.959408801919965 0.4130499050987154 0.17332243537527298 -0.9165698088023227 -0.6181355131119692 0.31686807562641345 0.2819525706618063 -0.6028361798523163 0.8473068996703573 0.20572763269262848 0.3399092670195054 -0.3482016166822639 0.2848586984113893 0.06265715141478567 0.25500441672962665 -0.4794074732203233 -0.2579898246737509 0.268916476870365 0.5568551518000022 0.7958401143597132 -0.4888291578134505 -0.08927418662121218 0.772186105336886 0.839328567852551 -0.6003232326341345 -0.6903206756740097 0.2212612190306174 0.18212593708746438 0.877416432790085 -0.6938975688626449 -0.6787460249281093 0.37094130676857623 0.2050283354600047 -0.05540202882226602 -0.005880796833416919 -0.16649521934664 -0.06685146458985794 -0.5049172376675642 -0.01874465024863006 -0.9082168916068512 0.017346504635119733 -0.3945768944805448 0.34472117235877403 -0.007771223891958432 -0.1349084752809487 0.15539876788842047 0.2217473867208694 0.8418079099835949 -0.6405242048077172 -0.3635529524729702 0.37462200978911475 -0.9626018430388478 -0.15005102893308564 -0.7073005877431205 0.007121009192301706 0.7860716079655158 0.3011132655731736 0.23174680760564725 0.6410141785682633 0.28163245116132746 0.1480540501945924 0.6444049723094049 -0.05880022625373398 -0.29451301591157625 0.583473052476674 -0.3887892831653533 -1.0307709363743423 0.7934481802766246 -0.7015027010914736 0.6185903823321549 0.5605970130233471 -0.6806022955233865 -0.22752052360291333 0.6112387639122336 0.45770100476993714 -0.2811793090680702 0.608821717759125 -1.12411293637429 0.5118347740558973 0.25513048672027566
-0.7969785314736297 0.5433503759341441 -0.4092745240107689 -0.4423923601503743 0.7894238150166654 0.8184017610414148 0.9965664475536361 0.8694365384447273 -0.21314802347890713 0.7890885583289702 0.20385560619662177 0.8870558791415819 -0.20947128516325533 -0.184535151281247 0.08490939004003167 -0.7012475542731863 0.7680325923098548 0.1482039892171714 0.312134955496599 0.43581981242973944 0.8855869137219753 -0.5006211616386455 -0.415316458329905 0.991839893257855 0.9872801289081256 0.31115846655291457 0.3215241629797523 0.07718938209441505 1.0313648310610077 -0.9254537611663504 0.6564304702168243 -0.3102352747218971 -0.26150689704605146 -0.8434193075824572 -0.4501386511523716 0.7470172261967186 -0.30754551543318254 -0.25605041033008863 -0.4815348162245232 -0.47421838041544184 -0.02638862928412977 -0.49483173721055873 -0.25034747973563914 -0.7828204776298585 -0.3272843788264293 -0.6794172220583211 0.9551085580313522 -0.31465995531022956 -0.9683095208616823 -0.45875153112256867 0.6984574235673122 0.9123059226966566 0.9662431264411336 -0.42193884809100923 0.9759630644976389 0.9070650582348381 -0.9003954862247167 -0.7278070498671819 -0.772471604699869 0.5665722717767279 0.5173818718901715 -0.5843710124642548 0.504856134310799 0.7431157685987264 0.6205772001483133 -0.6290514047170304 -0.9407021297686045 0.4575853204773638 0.7587918131606907 -0.43346208256616636 0.30175785899338303 -0.15204421280080327 0.6025081764754291 -0.7379189568196773 -0.6333907178250873 0.8111555679138974 -0.2247469284074415 -0.6182481017403508 0.7924025984232231 -0.09492997597729398 0.6679567906318304 -0.9450824768437511 -0.2529265872260187 -0.72950617759222 -0.6142295343322225 -0.6041200167439238 -0.15131819803819777 -0.5879578460043263 0.462092628368039 -0.6792647785805651
0.4433511892824191 0.105094290794043 -0.5725712806801447 0.6734873598192244 0.2951694089363766 1.150113640861562 0.6304531025692096 -0.11133106807806271 -0.6083641790354134 -1.096631586719587 -1.0499639854014238 0.4248552211746383 -0.8460363321674869 0.7059625789732572 0.5696614037908602 1.4424325466385546 -0.35585708214828576 0.8796304414328419 -0.17341376292561972 -1.3065815880988507 -0.7702761401902339 0.639214628270065 -0.1296321943544054 0.9283477881405431 -0.538429768157227 -0.09170478672361729 -0.5313569251743085 0.7812046853801953 0.9553466267822488 0.44508160435464317 -0.33309807504724476 1.0105807597329928 0.03885706054763346 -0.7427185849024163 0.18559298899422982 0.047291493978696156 -0.8960772743517349 -0.27354375361277705 0.3384570732721298 -0.08049698860594953 0.5711669878753439 -0.5333769441424278 0.4920948901483011 -1.1826280047049287 0.08266024195902962 -0.8179697827531959 -0.7541019150755842 1.0316474927339516 0.5496878951614923 -0.31092476509762973 -0.8517490574087994 -0.5347081277821549 -0.5858064321540064 -1.0760077466780484 -0.4157811461732272 -0.36007898864004023 0.5415181725463764 0.46246507056650876 -0.5096076240807813 0.06491018839755926 0.04854755771357832 0.24034496493319535 0.42335956259628876 -0.7121647513072721 0.09626858958591719 0.7591822157479136 -0.17511153598122284 -0.813668854800707 1.4405282969241884 -0.08219882019581559 0.5870568524458782 0.42105650786423005 0.7510746355455038 0.048620428043526495 0.04868337852740198 0.4044566497557147 -0.5588348453046081 0.8144420995075788 0.7898867478286675 1.1229591773310839 0.7532378196780937 0.9017925310308885 0.6458259569066136 0.01036852580514439 0.5627617705172762 -0.808265510336011 0.0728048110381101 -0.7673229564619841 0.711624613639419 -0.23149465538772043
-0.21120202501090346 0.9037533950609622 0.3034049926516492 0.010839674062057159 -0.04780113707024757 -1.1297612644164454 0.809792931459536 0.3574560310879904 0.04069766781589306 -0.5148399176623002 1.0970939424051793 0.017471969534721504 0.8069337152363497 0.17956756448084352 0.14673068022872784 0.3943568273343678 -0.12359399093908707 -0.8965845815953778 0.49815147224463885 0.5613681757720803 -0.4027969897580972 0.5996122046139449 0.5661697655734285 0.9674413857149934 0.42648008168347734 0.6722312703474941 -1.0042936402142628 0.8649904956180401 0.008694301486094609 -0.002434327345522079 -0.8295933126398695 -0.41922010184661934 -0.18740270406877602 -0.5219140082287326 0.09359657969700476 0.2981505606768235 0.37624621329952596 -0.40417269606990214 -0.7458072405793291 0.8174856446088773 0.15106768766005518 -0.4140675837463758 0.9941784611618405 0.5259117844336476 0.5959747962876555 1.036746261318633 0.4016291819765671 -1.1903785166067269 1.038985845813769 -0.6683670068723109 -0.04089261246364256 -0.13382416028527488 0.8607230545364772 -0.39534028208322447 -0.8298164914633949 0.013103143006234079 -1.004576443326254 -0.5509791458925406 -0.6653581174305324 0.49061819342053453 -0.7388108573989625 -0.7568954655464497 0.37894147913462045 0.387746098983129 0.4753189867077142 0.5317244580658622 0.7001123277784795 -0.16721881192721244 -0.5790928740766798 0.465554983800586 0.4302889636557046 0.14394502228169292 -0.8418231784841622 0.8725771972240137 0.04460575698075186 -1.0052528688472877 -0.9885150921115721 0.15029603770867214 0.07855828211046473 0.7331439537948516 -0.6604756717509664 1.0699852327911727 0.6695370238950736 0.7574833591001032 -0.26593954127810404 0.14337967217987016 -0.9689533405911692 -0.2679300757159996 0.8320748508835699 0.6948833066950965
-0.8365578864803491 0.6396734978942444 0.68720177148029 -0.03207883066269007 0.2306546973345011 -0.006023450188475273 0.6786720593422315 -0.5879048010219783 0.6895723080980345 -0.44250961000226086 0.5077582542382628 -0.1808619218348446 -0.5439822996392479 0.807375818304681 -0.2555052863594266 -0.5237008583970564 0.033745811705148905 -0.4904009597140292 -0.13705232621522512 -0.7134078598201133 -0.9282897673607755 0.9209702597493242 0.2737604696127735 0.6639874884917047 -0.18315586976572518 -0.642377246115306 1.2172519013810366 -0.5446678700928173 0.1969802735445755 -0.836350266241818 0.29637514679470395 -0.9130193021039713 0.15086859585647117 0.6901173955894173 1.2920343889179982 0.6879784749384312 -0.6669286316497076 0.4333036371376213 -0.2883260808137467 0.6923852746059376 0.8519071757460807 -0.4186006533363427 0.8223586821381728 0.8846888600688501 0.8582852378171312 0.23549451848330166 -0.2809799295961103 0.39412949055130175 0.1534304838778363 -0.44643768677541334 -0.7516092207988592 0.5265138115217222 -0.5186242324981896 0.0014297429886307813 -0.4737374205256628 0.6448061193721234 0.1411992458678507 -0.08743865606322132 -1.0837939348180858 -0.6452637871806394 0.5692108455640579 0.5313943778615973 -0.47934894285959223 -0.3002971396646152 0.3797603551404536 -0.4863866474649671 -0.8213015683565152 0.8425472128840222 -0.5989602599638845 0.7703582532693293 0.8647248946477338 0.4390632370581515 0.2656783916382847 0.06242970138721807 0.9622849852108261 0.24101399078994232 -0.07320237499143939 -0.7692136848863136 -0.24434540092065948 -0.6477303763540508 0.1656216709443719 -1.023344927804972 0.024515334316816458 0.4658244577946225 -0.41764910562048585 0.3570039116506895 0.4545303178631431 0.23534061045623186 0.37797063844150797 -0.6766317273225984
0.9842003534557244 0.846355394499817 -0.31494998180437894 0.23548156589719654 0.7287424991052804 0.25270215305103444 0.28211710221732617 -0.07877048798889502 0.2274406215081117 -0.6946393164521196 0.3316587875600954 -0.04019194309904271 0.9674823029116758 -0.2864502512431053 -0.006902499769620261 -0.2527918043514797 0.28189945334520894 0.2180773781423376 0.9258306663307636 -0.11763378136427448 0.14746815072851063 -0.8113519570047373 -0.7922797718752435 -0.9323849446872849 0.5341265159359175 0.7415608370111345 0.28209773846364755 0.41319843879344387 -0.8941732715263759 0.6044129726536149 -0.5826327015873851 -0.4514578670428192 -0.624269299310612 0.459556635308413 0.6102987507653262 1.2001723052928275 -0.8557950815181358 -0.7770195305920938 -0.0274305392341661 0.42421613841155026 0.3173136907199015 -0.6044055673233001 0.020444735578884543 -1.1280874379354413 0.5630213051290084 -0.012377196716359697 0.19934561466882 -0.5776016832935097 -0.9539277092016885 0.8408197068204228 0.8009724842432278 0.6129514451964544 -0.0496407034187753 0.9104947107410483 -0.7765009353964848 -0.9339497195618738 -0.09166243033921177 0.4750516213688833 -0.24107827516408978 -0.6320517614696243 -0.23630987168931566 0.7836950313019915 0.09336490391536553 -0.4212831976451209 0.0756394869624759 0.8234771217292038 -0.08948023943787844 -0.6205073592047915 -0.0035386057835408405 0.8032561366790829 0.4979774095787278 -0.3800773755962228 -0.3595351010212174 0.9776536780966681 0.8703185597202858 0.3893171683155134 0.059369160963149044 0.7225947206309958 -0.919926261678296 0.7497835456977869 0.852385796372477 0.6684312771073329 -0.6490849928995844 0.6350176064074451 0.07353462521091184 -0.391956560810131 -0.4687422850480435 0.5682228283114769 0.415518355346594 -0.2902323548203864
