-0.3958521786290594 0.43460117287298206 0.23189930465916853 -0.3924317328742195 -0.09059404594213125 -0.9039209213852996 -0.5738565545488699 -0.020656987777130313 -0.5831082262315055 0.8526579093802358 0.0036828791368917722 0.38066868033189255 -0.6760297334784996 -0.9759377379646549 -0.9468781390594188 0.6903995171160248 0.5410308858304744 0.3026871752256526 0.5671415846541404 0.09916529010186889 0.047852717971378946 0.7288854207727564 0.4742815989019649 -0.35900159402684867 -0.3886978313233384 0.4254465294907136 0.6938329615663662 -0.8372097160372186 -0.39600327113374645 -1.0527858943955064 0.11276573650408057 0.4553388016891422 -0.5582898814431028 0.3174817112461306 -0.6891146495359688 -0.6576934296712431 -0.1484189193005435 0.4051915180850639 0.08085808826548747 -0.1293751021745213 0.28224275386223374 -0.7228049502893871 -0.4280006393855413 -0.6700628626866535 0.9264735067840976 -0.4424961165508928 0.5508266843462133 -0.019798556689238897 -0.03414971002041882 -0.08114147953163618 0.022608343556981804 0.2035349671556584 -0.546092278735946 0.93203190404306 0.2916924352537461 -0.5639020399916692 0.1447671876001102 -0.8326734120801944 -0.7318831058610228 -0.025026413497868553 -0.24953909938552377 0.20486867265607023 -0.33977598844600054 0.8706078580002028 -0.4810726653531344 -0.09007479272933377 0.15096640384893567 0.38501441238594847 0.6589334465163755 -0.42158396241599494 0.7327494727285018 -0.6541702408822573 -0.49849738766395174 -0.9502441914261756 -0.8057979242580963 -0.3183892302383099 0.5144548406344476 -0.7363409365673297 -0.23862091472450767 -0.7936929884248184 0.7039323341849777 -0.03264943399705511 -0.8942774757964477 0.4340582071910594 -0.5062534896886239 -0.2585766965741909 0.3888450364296725 0.7357611907764565 0.905574186362222 0.34449254110921856 -0.30985687052180205 0.9069414325789651 -0.5852392799780536 -0.7998646238498536 0.1650168846510766 -0.27206377264988657 0.23738832767205728 -0.16920906648856118 0.8266091798476716 -0.14963809617423118
-0.7197278982391526 0.5011069047922343 0.012208385302980565 0.643430873419225 0.5478476456591634 -0.4182212534523048 0.34651242278373195 -1.0165094368093661 -0.4492718005932351 -0.014942459026704075 0.5776141161461453 -0.11263478263654247 -0.910825142903877 0.749508967317599 0.24947010012798987 -0.6411737837307863 0.9815052095937019 0.6859662200291543 -0.10983106780323532 0.7725754641376498 0.19604662367308645 0.30436756616634264 -0.25929029166617124 0.09491740716325972 -0.044071554584274475 0.6532472228098233 0.7902500941814534 -0.8775405676193536 -0.54869437614103 -0.5505597445007725 1.0568125527768228 -0.9687817853550531 -0.9427886673490878 0.03357271456265002 -0.11497544376957826 -0.754209181063702 -0.1912268347974303 -0.62800325385963 -0.015473907335279405 -0.20175290575209387 -0.1464821095302114 -0.8558422852442579 0.4040969396595839 0.013752256088189148 0.6051317090750111 0.4231130339722981 0.9245165330437328 -0.9688051003205304 -0.38709884159245056 -0.4070770137916984 0.20599194400795343 0.08466016459070029 0.7371453258623982 0.6540542456072135 -0.29448776797798654 -0.13082391778123476 -0.5381048302213518 0.16804565628203344 0.24521186488816546 0.5731414185756885 -0.28123406047900046 0.43396955340971105 -0.893145014457468 0.5405089083619365 -0.6628014921360927 0.24192485324163648 -0.720215225196708 -0.9397083928997242 0.06921812490974819 0.8924701372372451 0.715379815954658 0.29532708811438885 0.01569189629735445 0.6798681794670808 0.25249027166084476 0.49193763163883547 -0.7591131494036801 0.7923683938859695 -0.7573722853692387 -0.6795442983884283 -0.07883048630584875 0.2658703278475585 -0.6273669274063229 -0.2753740269717794 0.6805866410345177 0.8388699113488124 -0.10658386998593207 0.34305628388477494 -0.04499532883333483 -0.520703346853714 0.5776192428776936 0.5916803244259912 -0.7482827943151872 0.17859331997753622 0.47772842573022456 0.09844705524252849 0.3570065888785642 -0.38784004131944594 -0.4959444131129481 -0.7892252031743529
-0.8908646301844931 -0.2036188400556287 -0.3013329013487943 -0.7581628169493153 0.2723686050684662 1.022884189424212 0.7212962215351234 -0.9596114020676427 0.9078986871162901 0.35772231809940547 -0.07081885352330079 -1.0233352259718034 0.3815342408606711 -0.06494453236462977 -0.2740320734207398 -0.6000958231304054 -0.5089729734608738 0.5030125211533332 -0.883148749338052 -0.1084862592854528 -0.6814592862948572 0.7102110904638411 -0.5740478443615942 -0.20519822457951645 0.35964933131525434 -1.059710141560961 -0.5643173777428577 -0.036490740955113614 0.7873910206861303 -0.9093811478639708 -0.27837223407951345 0.7170930299929547 -0.5607170844627644 -0.5034923911763873 -0.8207819799774517 -0.9399515836845972 0.12559083479451696 0.1625947661816188 -0.21502812574042884 -1.0446851364774166 -0.36997314283818666 1.2537209366831825 -0.6737999014660389 0.7221716177951157 -0.9495220260579392 0.16247834396204236 -0.2694504757166435 1.0273665044456806 -0.10951810265858226 -0.06165323880320513 0.620762324875018 -0.64162835673256 0.5578267723371242 -0.2822095650615196 -0.7415893873162347 -0.020491941697083876 0.5467302539069642 -0.6083066693761916 0.5273252367637489 0.7841112489771088 -0.18941639619127784 -0.1880495901293484 -0.03926729096170205 0.5051762605672909 0.3687538709736734 -0.7451746642507542 0.5164556055063527 -0.03900728599862799 0.5018433482206803 -0.07990217272234107 0.45999479467405346 -0.5320785309008257 -0.665931038220622 1.055075068716089 0.32692074317743697 -0.7379876019110797 1.025470668855442 0.23123146328128674 -0.5297335637687622 0.18820899653800485 -0.5849390980104943 0.21024038901308337 -0.9419141684912464 -0.6965452090084153 0.32583575341601684 1.088778291857095 -0.7070143061131695 -0.3942859102216769 0.12026610740242691 -0.3545701756653665 0.04540316809682382 0.7181759108330906 -0.4000275792167113 0.4498599088899891 0.2075402418160391 -0.5768321933617327 0.35015918061635243 0.40123184670957524 -0.12245221979200775 0.6825490055504719
0.8528686430124881 -0.9802201791639092 0.2201512350107743 -0.3334154049655182 -0.8309678482198037 -0.7452791729689437 -0.8989280972888669 0.9415834396922725 -0.7480040385611784 0.18310874191231874 -0.44928247342604966 1.0053589689906397 -0.016000929104994115 -0.7835933210213302 0.2036944644205156 -0.16265975968321 0.894701313974214 -0.07870796110440989 -1.065019984987544 0.09399071168570101 -0.6520402776385237 0.4516307213107456 0.4845787272160866 0.12840091096781384 -0.14113689053699774 -0.6388418544123386 0.23152614223795756 0.9937909467501258 -0.9747928460412711 0.04947294340205754 -0.7279228258078518 -0.6006495320917524 -0.678676560591825 -0.44067135990906564 0.12463116491831598 0.8296143826820414 0.5511127419317693 0.4772314692403073 0.6913120803861778 -0.49979018526575875 0.057945542317398874 -0.46961486335913344 -0.0014286149398162772 -0.7600482450275553 0.21143146765826565 0.654380759350627 -0.26234381403156193 -0.11836322130723707 -0.14690188134831106 -0.27179509216762676 -0.29548833642846717 0.36920237220115215 -0.16633174393807107 -0.28020482608029623 0.5670283904661452 -0.7933948008772237 -0.08919758909121732 -0.2935116930788916 -0.3480956588860828 0.2245660450826962 0.8033144846636548 -0.271224158401344 -0.8785484830929798 -0.5749199193729562 -0.21932636828371505 -0.6343869743204974 -0.8204265991340429 -0.3964522229515676 -0.12597321402015912 -0.8506579167242834 -0.38243972032042506 0.6534329754440072 -0.4350426411531852 0.8085872874937489 -0.48222474651698805 -0.01699914464436608 -1.1922522446785548 -0.8928620158022298 0.5884469757198392 -0.39296948101940216 -0.8525921683098715 0.6938005109809506 0.5040251125536116 -0.6941453194672572 -0.9625571430332652 0.8320742881916168 -0.14507059851853318 -0.3730344936635023 -0.10447644406780558 0.8078109530411397 0.7397366040641694 0.33741620448675697 -0.5029984638301246 -0.10918562544635337 0.22684629447394988 -0.3532591030834505 0.5849246512498713 0.3434984721545571 -0.8403298192169962 1.0712024135503748
0.33851694803504073 -0.9903041062891141 0.27902947581933135 0.2384977542894956 -1.0690486481754067 0.19071612589136155 0.3697931850860339 -0.3009229255968397 0.36684934826360993 0.2547674721727383 0.054706674491964875 -0.9502192757142779 0.0509337218574143 -1.1738715225232574 -0.11100677080404614 -0.8326131073336371 -0.8363059331699834 0.3994878826410939 -0.9796881869917365 0.7130551886394689 0.30140525903647336 -0.4272957351024989 -0.36894352694374444 -0.39232477032563967 0.05547259125557071 0.5097458369443953 0.6300801279860343 -0.933716387123773 0.6037914815204748 0.541942060653297 0.23063482048624664 -0.4050534718547343 -0.31759538199951565 -0.01934299768114738 -0.1457930932290747 0.9813076036275942 0.0750302263713888 0.447823789111555 -0.6153614610685066 -0.4939484933715993 0.20739824542072227 -0.3391838729370943 0.6097352112128891 0.25860811955767166 -0.17584278560838096 -0.5321541885285115 -0.551741964069559 -0.8599343021877568 -0.36174921991439724 0.24847876598538907 -0.35043188377719614 0.18642686676134065 0.6164801654153224 -0.12265589333321272 -1.1330168900122843 -0.8755046538706501 0.6195309878896836 -0.3909347485645939 -0.5018919249742646 -0.4200630226041742 -0.017293349416845898 -0.9284411524936018 0.06899933830904753 -0.961012668122139 -0.29966147771829027 0.3588758585520061 -0.25640394905810193 -0.5747992313115449 -0.5846863944343127 0.6047939773106091 -0.7738224888074169 0.5488480429605672 -0.27732763350048284 0.043070855388957795 0.20300608030147876 -0.331460689110703 0.4852560957019371 0.0812708660311049 -0.6985896277185598 0.13480995863527145 0.8049606754335273 -0.04002622959677265 -0.4419120217662619 -0.17931326784999213 0.5899006083627013 0.772481922808552 0.7755670190337888 1.0458248714701104 -0.8429906494629922 0.37961264066137024 -0.5704051907918992 0.5595498534197555 0.7985166024869484 -0.024924713896739708 -0.1395412609690753 1.0003890561053193 -0.06809108543589379 0.26652735597223537 0.049644812893637424 -0.4568673758551434
0.008108377209268491 -0.8428787712675561 0.2665023594268198 -0.3376031799109757 0.8366236079193395 0.905498805211162 0.8331443953027673 0.02672180366499767 -0.27989368763877964 -0.7337921203975706 -1.0144866225306262 0.6968130961336164 0.22512288653593143 0.5012934136476739 -0.1076728360310506 -0.3997739271267072 -0.23683990676509512 0.13222106212147444 0.29720589379861595 0.2938231093735509 -0.4857302590657008 -0.3962495960345053 0.9888304178516963 -0.47990841843479476 0.9534102950624391 -0.47163826194852543 -0.7980612971480966 -0.07836522872007559 0.6239845810995182 -0.7196870675828295 -0.3369313160882209 0.24851462157867207 -1.0227703433720774 -0.389473376612638 -0.4292615156473615 0.5419374486583862 -0.27488297849350846 -0.3461474744069076 0.5817031064537446 -0.14801788241554548 -0.8576903034545377 -0.502070549903903 0.5754013523046658 0.5464103289786665 0.00936358100359025 -0.2277913140854653 0.05554807125640193 -0.09067673641675467 -0.4027359373774135 -0.1126919736108123 -0.4148805827607523 -0.6690801065614945 0.49966609301578413 0.5320828939581668 -0.3564388837346109 -0.061063170746703 0.9644189180509378 0.20882761456938034 0.7948115086749048 -0.9971236062122236 0.8772398810345106 0.8848779091433902 -0.7825684758193971 0.23405852996553447 -0.2566167375657091 0.0534719531019015 0.1784636667528765 -0.30639211958040724 0.48370848791981036 0.8283095981949352 -0.09971318957480065 0.9704849508429721 0.9137865854373552 -0.3301346837823299 -0.9447001615979205 -0.2261913761786113 -0.21053588246145422 -0.5772024372194356 -0.03990521854258278 0.8979288959666419 0.5502402430136375 0.7353805997058648 -0.5681732768367298 0.9386186993073383 -0.5960858839938629 0.928248375207049 0.21215465787941917 0.06989570279928256 -0.6096320319347243 0.8453219694514126 -0.07585190254171802 -0.7096004171168787 -0.8629285288739956 -0.1632390315649808 0.2746282563479247 0.3276265563905448 0.971569451121136 -0.3376157378872088 1.0020135745007164 0.8578872876573631
-0.08267757614841487 0.6727897510775899 0.4668746151696758 0.2682183667986893 -0.03155921325413334 -0.07314320885674654 -0.07188839117771849 -0.8718587958427159 -0.07071101634550875 -0.6567256096635625 -0.6337566256774164 -0.5181120211289556 -0.9102940951140738 0.4994183092363041 -0.2702645399768928 0.44231526158012185 -0.584183416932431 0.410737488759756 -0.41127773681184693 0.039816111061057806 -0.9520160672127181 0.7065524478043298 0.6777329235727173 0.3576792253526377 -0.428913477543117 1.0659027958245213 0.38546023785926165 -0.1604735891034349 0.30301147984462556 0.8343392407302885 0.08175808392405236 -0.05841427990485834 0.12583690203885167 -0.3824740342536939 0.28854645771015064 -0.22837274102833757 -0.18477990448180914 -0.015034723345823793 0.3400462133197586 -0.5284519236469675 -0.0774646548544633 0.9554146867817067 -0.35515902196341903 -0.4135701857185485 0.3532937435312547 0.11350146407397955 -0.8985330726274978 0.19863255575263644 -0.7687548380283228 0.6834144753964158 -0.09782577161510897 0.8502747008039864 1.0073673044136506 -0.6689307169267562 -0.6757081537796347 0.20731794561030203 -0.7439273550252868 -0.5050931402680486 -0.8922820538148597 0.5766667008419933 -0.25562165937805764 0.86498778078445 0.20374726754257882 0.7161234252397992 0.40514631443649424 0.12274643804819377 -0.3610097601655884 -0.17275545639705608 -0.25897441666180293 0.6351045081423021 0.0876820480612682 -0.7419826080061498 -0.5450812862655654 1.0419301449571878 -0.12338732087977752 -0.020186243491847018 -0.520585272198521 -0.9414096304389583 -0.6695519028646045 -0.5352966127595669 0.703148403348351 0.3336571363114528 0.3479152278403605 -0.21968976937517434 0.07562937809267746 0.7694337594543902 -0.06797854080375934 0.3683449684035438 0.45622563072218625 0.885483952917354 0.5374255140108593 -0.47514565364650946 -0.6991851406255524 -0.4978885808629247 0.551364346597806 -0.5078589101125591 0.13951714194281484 -0.19461655530292224 -0.4734170155143023 -0.7441532011667745
0.7527691031517714 0.631653778194954 0.49476394718395506 0.35542749713057575 -0.9864427503616323 0.14961212998660722 -0.4995613907948709 -0.5182021703267481 -0.6080070947159656 -0.8642795453697143 -0.9688517843123343 -0.3419651897892962 0.7992760788255786 0.20595496466831803 -0.15857055112131793 0.1006150397689761 -0.9943354668532233 0.935237533997372 0.8947615659188619 0.6473597093643764 -0.8144015794324007 -0.637640934482104 -0.29855755103174036 -0.6914823375450799 -0.3953384222607943 -0.6377757148359067 -0.7713039240381168 -0.7951407862292236 -0.07711717092473216 0.2977455918324351 -0.6074771697206359 -0.1801527787486764 -0.4519850905712008 1.100506866654792 -0.040855396645678096 0.6484466939876075 -0.6562931193167363 -0.4861659681743714 -0.13472852128974505 0.8394349897801968 -0.6201368586201887 0.29887904277434035 0.3055619984630977 0.4251659822795274 -0.5475485905571225 -0.6671393211688839 -0.6008075897387047 0.4549359527896793 0.930521226392849 -0.3587321982664207 0.3187017940190999 0.11905966200019752 -0.05414585240683189 0.3364185171521271 0.8399775774278838 0.334744139910942 -0.5337148034915299 -0.3319102597095128 0.9039068696568191 0.44384627355774 -0.22068789466896307 -0.739970665579206 0.20794005013634492 0.5493021192507099 0.8076767365211942 0.9285448099898065 -0.47004505368160215 -0.7182932440727848 -0.4529684832738721 0.05063452570935096 -1.0169853851224058 0.15775965637691128 -0.5813371222852555 0.917959695360524 -0.7493045610384993 0.3811732617591392 -0.909552115399172 0.6427489181231916 -0.3907879563272729 -0.759168573913395 0.3598039260258556 0.14349222327506236 0.04178797207362971 -0.11204846675608524 -0.0007888486659901709 0.06962270437393937 0.13511679747261918 -0.4558916213284952 0.7969252027657102 0.3621489586483681 -0.3998457259257931 0.6313733535339844 -0.6887413410980642 -0.01336026108952907 0.27179573555220427 -0.5086291989516712 0.3434757117700245 -0.8810609804216831 0.7117722370444487 0.6816666325376576
-0.5661917153768032 0.9326439218691872 -0.3513377010685866 -0.12377830660381273 -0.8849740930802587 0.59171178383511 -0.05195508070266568 0.5435263006128186 0.6465034514391913 -0.46964190742275386 -0.780060565151645 -0.5406296908557614 0.11386987048082131 -0.2595553362784432 -0.8266995307183107 0.6053582787235363 -0.2002513227602062 -1.000367227551741 -0.33836550126301923 0.45852664481820377 -0.2320921059439039 0.411060082042693 0.9211987079401662 0.6628978670299819 -0.529453984399956 0.5247090399167932 0.3327476992206226 -0.3569660596216117 -0.8316687750316142 0.584315795330511 -0.3234971006801208 0.4910468760187564 -0.2926175923414263 -0.21954459573803198 -0.15848036099141236 0.16043616204434152 0.9791813219013824 -0.8937056789875416 -0.7898538930752158 0.5826632192262087 -0.10926035910265487 0.8183096862881036 -0.5901561537564858 0.658580994873376 0.14092772114006508 0.368387412457722 -0.6516422775388443 0.31400467820938865 0.7173745978348274 -0.21920281478259845 0.768658221253882 0.5941052629113424 0.35892194343310585 0.751897739852377 0.6944148349867545 0.5237205875422895 0.10443503856680025 -0.21013378773110397 -0.7989268168413907 1.077004449806886 -0.027029386442896822 -0.6268831841779509 0.7458355549778092 -0.9934393048043892 0.6851073627249759 -0.56249652250458 0.4319260323989168 -0.7586689515694591 0.06164590191372569 0.41579776684606434 -0.36651158518954174 -0.6657905499950624 -0.21994674687476962 0.8006580264725337 0.8783507026673432 -0.1862550801174585 0.1297517774991287 -0.7385322033805266 0.005218855710612582 -0.2244571479113246 -0.9005978502368831 -0.17762027850680084 0.6779294691934274 0.2758686498779815 -0.8622463294856434 0.7456887391495537 -0.1434202876651645 0.08227012154970388 -0.6201771184202093 0.20344166678060754 0.13944830756994 0.9612784202784921 0.7758523686045359 0.701921212934053 0.2890882859502946 -0.5257637880295368 0.5173042431578667 0.043280949670874085 -0.04169552112303385 0.21477632155714843
-0.8608551313011488 0.6172590661587425 -0.10737153922769818 0.6043823909079764 -0.028731160223217863 0.16314738006789453 -0.4934921074571274 0.03176570121938502 -0.9941329852296248 0.1808462837803343 -0.7134851767982759 0.17035890445091834 -0.9240519190646321 0.6391836586027339 -0.23312683881047716 -0.5652344443591392 -0.605770969418091 -0.9778472678650334 0.8535455745299088 0.3150177100767656 -0.7118258091841503 -0.07423258036651165 0.9291488318119634 0.043192966591236774 -0.2924465259241256 -0.3943624370557405 -0.9384909059132351 -0.09319039961211771 0.5546973290159258 0.20067243138632637 0.32019021375133255 -0.5810258780412418 -0.7843139704744017 0.5170947601413086 0.5996613889577642 -0.6450456333004184 -0.6922756155080989 -0.055092197262187184 0.6300039994602955 0.5092762407617887 0.6894976408380806 0.44472781014732166 0.2790153566444429 0.03147854838556198 0.8158259522269451 0.7953593240212153 0.06376742231829471 0.6684139638183794 0.5913718418760784 -0.3262175267995232 -0.24631840696291088 0.7331223043220374 0.6745394503681147 0.24884529737950611 -0.42000130178932416 -0.5744501856891534 -0.6088198284398003 0.49229661669990976 -0.2882225211638438 0.7103538615835878 0.5284994300889106 0.0630598281787563 0.4798084189818866 -0.13120637805794805 -0.8409356446047284 -0.3943374399664019 -0.7265665401127444 0.20554408718659117 0.3327605309878665 0.25380296654731016 -0.6150818823567558 -0.7534758450641472 -0.718645662784085 -0.41461032909709894 -0.616158629073573 -0.8968844610742432 -1.0217961202908445 0.0716425787442369 -0.7353103996139442 -0.31108292791687386 0.48730095018982605 -0.9301721674710758 0.7917611963884084 0.5837498543638089 0.8234061642312651 -0.41050155125457405 0.17548148063689084 0.5966059450863219 0.3748034670713763 -0.46237271250103384 -0.3885191041656402 0.45198040812586343 0.4059428048434655 -0.48702566035910305 -0.15132744743285365 -0.4278806412605508 0.08955362674137027 0.07089727763665081 0.13381705281684858 0.5691071576572857
-0.37212522864593356 0.08770580129640312 0.4970082176039254 -0.2403106743698495 -0.7679891513914773 0.4636919867813992 0.5870790537650322 -0.40439143822985874 0.4588551683206025 -0.09270381075101412 -0.965957300236852 1.0530049241745731 -0.435700651050906 -0.21374236116437242 -0.49690073640300103 -0.06906889252672346 -0.28091835452373476 -0.45470081690652586 0.6232662478007339 0.014723059738969084 -0.6250349545597227 -0.2457101551725302 0.3879217644814251 0.6805486190252925 -0.24730340332828457 -0.08004498209801165 -0.7503603064684383 0.7248428003791483 0.2639200390431472 0.39512365357886997 -0.5341400451479912 0.5498975428499744 -0.8097674004980812 -0.02731535163528217 -0.32063771406924246 -0.5779217163646102 -0.34150270231252927 0.24395163805669184 -0.47492512455278924 -0.8080256410711186 0.43881507604831493 -0.9271052162500181 0.020102761194901626 -0.7527591286288513 -0.20389935970481107 0.6461104830027266 0.7446764255920748 -0.37317978402696045 0.31517487394616356 0.9771394177757383 0.09705151508950519 0.8733520477459648 -0.07615651976708282 -0.4725011953034986 0.21223526823913388 1.0188183677497238 0.9179347191570689 -0.7738856770139021 -0.8788488432666964 0.9600556390572318 -0.9608538529466417 0.460067614664552 0.15749887469160156 0.4933613912552146 -1.0778455902611135 -0.19408246754332048 -0.07344685552679411 0.5405667805799316 1.0375990640102892 0.21675244676963182 -0.7962583022802892 0.07379011067881967 -0.6736947256628603 0.7862669785452726 0.026865299811907228 -0.8284919041972882 0.41698815768560615 0.3309342737402732 0.29840418156923115 0.6088664109641025 0.9476214873990144 -0.4605028256814644 0.6547537919076003 0.031244398564911565 -0.3094551462634471 -0.8374503729053114 -0.6453181021852148 -1.1063769905162166 -0.3387130241583567 0.6111970031059443 0.19062153282908506 -0.5089863962353791 -0.728783016503618 0.5197386069054054 -0.6344678300551329 -0.5208797492593181 -0.3739574130900892 -0.5011726392518342 0.9158486320635635 0.6420283588144657
0.2874393135451967 0.14816390688376557 0.4628472323526113 0.7870400465365612 -0.13106483480070866 -0.6983298817484828 -0.1500525435973251 -0.18098265345431566 0.6336149302987093 -0.24585223837607456 0.22372725105952454 0.9130582307059439 -0.4875497452592463 -0.2779845584874319 -0.5537417924848124 -0.8704349004389746 0.797220788235738 0.3992833370606586 -0.471719187194021 0.5520731055301107 -0.8604129628557049 -0.7631131227099109 -0.046903482355160966 -0.07584587416549352 -0.6060861700785686 -0.10153331383915583 -0.9675648701111205 -0.11317795485812673 0.21466770439304106 0.5619825127562722 -0.725793781775045 0.697741057302919 -0.6137191264434355 -0.6901825322479844 -0.6314019908309322 -0.13784602628309808 0.24680307522665326 -0.5673624574025437 -0.7114872603264291 -0.11242620820130995 -0.8175748059546102 0.6508464241045602 -0.7347567329336385 -0.42207394820491256 -0.6592420079544795 -0.015842312581235383 -0.7588792847362406 -0.7608203821194699 0.572162872698444 0.2930051486027619 0.720999707199174 -0.8654613910181624 -0.120789300937764 0.3334685708058599 0.13095431378089958 -0.28109880340783927 -0.7761538640509655 0.7151133714863717 0.578856302375475 -0.24905952896508948 -0.8726905045694239 -0.9272047877125194 0.5635470232248251 -0.12454103831139667 0.33437857533211846 1.0010631100858323 -0.8757616791748976 0.22334094720729292 -0.05787343270998122 -0.7730348339642018 -0.003665215086627946 0.8888552305933134 0.7152463619357379 0.6380966404823953 0.558688481506307 -0.4361850397093229 -0.34487188735834823 -0.9220155905391351 -0.9009727876976974 -0.43561671276441777 0.3323921994895415 0.26026606011727993 0.38866554528199865 0.8991370687426713 -0.9286310670766968 0.9220883994464637 0.8337382463832581 0.5776957605620907 0.30805965201523483 0.039016228545730884 0.03049794090651089 -0.16217517023739567 -0.3129809754724092 -0.7123844029239564 0.6122353875714701 0.21936271557776035 -0.8794598025290977 -0.37085367346472314 -0.30575736777600104 0.9137723474667748
0.8534869949880957 -0.9448272470677263 0.6719597000082823 0.3793608984855684 -0.4765425537838578 0.7634019379906236 -0.5570197678695141 0.023202664183840555 0.3181725931584432 0.848963652071206 -0.26454737436177594 1.0002679486558317 0.87240390632814 -0.12642326635777654 -0.1898574557558387 0.8303895523421622 0.19167203879873573 0.4184646206977304 -0.4796779901291819 0.5187938789943969 0.7801742284206519 -0.5523556284168705 0.5042339966480855 -0.689960628747865 0.8648302399876069 -0.04089145418824252 0.9821402537440163 0.9074334380981444 0.416039452250921 -0.6797563692567092 -0.8353480904956783 0.398123453803553 -0.12246332305112793 -0.3119269004684672 -0.32856107210926977 0.2630490786333623 -0.2694145169814356 0.6461208325559126 0.6011227759444863 -0.9094734477939409 0.15594033052325773 -0.49683504511101506 -0.5950739345522474 -0.3794586879571845 0.7070137823017795 -0.26741310917981975 0.3129158173272116 -0.08772061170739277 -0.5884379420272267 0.00868561638807865 0.44012886656117056 0.2848529729826441 -0.773886997693341 -0.25710274636360936 0.3145895949518122 -0.20046226701829986 0.8959519006790977 0.7013381947633855 -0.4582601548850501 -0.39154801939584954 -0.4120323348039027 0.7082354202559138 -0.6857821278971824 0.7403241811285952 -0.6705211641592271 0.9145254131382412 0.9256109923427737 0.10870436770848117 0.6970743584408851 0.2729436197194408 0.0017484696937744848 -0.6710968297771691 0.011957051646037239 0.1278319794955218 -0.5106182197254076 0.03495417114413705 -0.3595795111259581 0.17338038450630067 0.43425649383658477 -0.325756998418486 0.7012396766138237 0.2854045948331298 0.35728391752400696 0.935781082553766 -0.9487713697623295 -0.8898050472310204 -0.6393292376905183 0.7270307533351258 -0.3495338659725438 -0.3905267231908867 0.7229726491785046 0.6875193683752409 0.1045803577702898 0.523268566133082 -0.12170241987647448 0.638469241916147 -0.20645486306118205 0.8518681285677981 0.232964526338299 -0.46185734913553933
0.34865041009680664 0.5425117171163935 -0.20060959207992266 0.3595342651584917 0.5532368302974419 -0.6327183661139247 -0.01883950099408331 -0.336988426766835 -0.9366108667297618 0.3892290531202553 0.3948789436825689 -0.6686907480567004 -0.939339315915806 0.04019248312886801 -0.7666846279171284 0.5544633010735666 -0.867119076254092 -0.3622541646474662 -0.29014141140170585 -0.44823157404171765 0.14450084280664835 0.5711719973562054 0.6123081725985972 -0.6556401811263669 0.025472636471993673 -0.1804256868900247 0.42337659967316466 0.8007163607011218 -0.1643010875765084 0.860512195496879 -0.6462578351386079 -0.7774410025829708 -0.6134245824960954 0.6355404354176375 0.7002946005688206 -0.44264688810298436 0.7648577297771665 -0.6633276004217072 -0.7331700160091907 0.5643602196197275 -0.12383583018289089 0.7614192868711226 0.6254467079144579 0.7196082869468461 -0.7793506187707991 0.31221734960776276 0.9310404430173012 0.5367693995148057 0.5866288210041812 0.5584785784951342 -0.19731576151890198 -0.5607441424145087 -0.8461112912129627 0.25977126997963995 -0.36775260699364004 -0.8619890807157807 -0.6151772541053648 0.36822223448943286 0.7584164609634096 -0.8741418770569548 -0.915176029952189 0.0020063633894543483 -0.6031233223415092 -0.33198790430290437 0.6520900579795005 -0.5971846339209278 0.28733504995449033 0.7237606715000927 -0.07138817708765799 0.09317144293126453 0.6012562740576836 -0.9170174821055025 -0.7147734732626986 -0.21891306522214216 -0.8944329990332007 -0.8838595422004386 0.9976228217188489 -0.6229556252512436 -0.19044132349338522 -0.10667325010615882 -0.48740706035326614 -0.11104993212601132 -0.09590132441979528 0.4718084553603128 -0.03333844395993731 0.23860146796095316 -0.7380904692156571 -0.5616497452784353 0.055557779797014456 -0.7155075249632269 0.5400990853135231 0.0772543883893295 -0.9630508998680899 0.5211071706175454 -0.2705326963359662 -0.11578888702400138 -0.6290388654338871 -0.01051096250302321 0.5297736607682635 0.8025859184138495
-0.14496712577665183 -0.4091082412841553 0.6763398593424371 0.7130646380584955 -0.21905989190196254 -0.08760537674640238 0.37594936608624113 0.2577572447556806 -0.8469315459172948 -0.7421043124987862 -0.29567172706836364 0.1987840147017414 -0.10931067873318658 -0.6140317381757274 0.4833339042671645 0.4158484131401719 -0.16456918697114742 -0.4919299139168996 -0.8186417026404708 0.5739902214116158 0.4586538850399157 -0.17308532577205357 0.11882867025577029 0.5936135259100672 -0.3655419862651894 0.5133849444054748 -0.5405975790084425 0.6613813646922233 0.39694184133606486 0.31963905198660736 0.6891300188029581 0.5060929084274225 -0.3455019100943279 -0.7101689968125161 -0.6923907878060808 0.6907375784106443 0.49430980928995644 -0.6541980057532634 -0.05755862307443571 0.6297730909783431 0.3290766471628225 -0.02656742242089717 -0.03169871214518432 0.5940096162372215 -0.39446483999413834 0.3110798586209786 -0.30961426467696274 -0.4704288909804974 0.22317440313585116 0.7148099437212821 -0.9142116988000198 0.8101624829971436 -0.15548056494407123 -0.18306901710245455 -0.7356504196538561 0.3215233790435646 -0.8768442211846124 -0.7376457136574465 -0.3094046047257318 0.6593483114697132 -0.5687382325060586 -0.6167657650041966 -0.027369246707049114 0.02710976241710275 0.7411728317460387 0.9126916423757666 0.8141087115372664 -0.31092380221045246 -0.36697387484623256 0.6263990272597666 -0.7174716989339095 0.11481159081107958 0.6447048273897868 -0.9976745700212989 -0.03768974398152591 -0.5734773454481185 -0.8190239396640646 0.7842067051645675 0.8548283010807164 0.5202634665358985 0.3593354693420334 -0.23258041309056435 -0.9369395840955546 -0.30137594368278414 0.5648416964546175 -0.6061663400414715 0.8686839855208047 -0.12658293465133513 0.4632054718269203 -0.45091887353398874 0.40506123933271176 0.5228364907518042 0.7118951249378025 0.5597557827643838 -0.20932729599883249 0.23016749067616094 -0.4395662305151113 0.42291229720511514 -0.35541631513677724 -0.4402208526493889
-0.465491106153451 -0.600570526114461 -0.2926334364130138 0.8268070055854168 0.47328178826943096 0.2374014202056676 -0.7195320143033023 -0.8185314530621384 0.7355369113503258 0.12637270180889207 0.11798718406314561 0.6425775125763724 0.0820465197130468 -0.6281105782077265 -0.9136580330986778 -0.06885901698070437 0.24333593471678314 0.04594153770895958 -0.06839603655591442 -0.07295760552415359 -0.09480304787773891 -0.8413558388688477 -0.0016865032970921198 -0.5064744870490243 -0.9611596533183575 -0.3050072806892639 0.17374038993251095 -0.9696594954236917 -0.5583135547200404 0.18743787271141707 -0.13859770481418665 0.5958404304356811 0.3463492152226052 0.8821656246472892 -0.6658912826363613 -0.8256624654947989 0.6923118563520588 0.445479128861126 0.6476790405910806 -0.2880514893224287 -0.5622931609550234 0.5907108914401854 0.20841323905245102 0.6735406407604233 0.832172227121343 0.09004524695432108 -0.9837569055691422 0.37364437482235263 0.849303118092964 0.17905656545595358 -0.5642910505558807 0.4987316900619418 0.44627235177580127 -0.318221187763045 -0.9341942568525273 -0.9525862749879545 -0.11033910314499269 -0.9726564243132539 -0.8283105280729075 0.49205818369643994 0.34143635045120957 0.9302505173533816 0.5864392304450907 -0.656126644110598 -0.7448780722427446 -0.3418692114671627 0.17975088794522381 -0.3020923273223308 0.5203022932302392 0.2847173776428146 0.35517163667722645 0.2492640319544438 -0.9519983698082164 0.18862083092471352 -0.6243176302437474 -0.9735205749935885 0.004446990618257277 -0.9589159682438809 0.9783539977384482 -0.9185377109136752 -0.028048727769140153 0.9092153530383748 -0.9236812377983044 0.7349757073546397 -0.610209787630196 -0.7640380639755338 0.3962873980823305 0.6931329331449038 0.42805001811987314 0.23287666060443904 0.5782426355402003 0.17021835407032654 -0.7475263735637222 0.3452778580516194 -0.6727873654371546 -0.6881500943107115 -0.7462567144679593 -0.7098676957330751 0.6406745094504527 0.8619530291691788
0.13678217815492544 0.8281969836944422 -0.6299604377305478 -0.19731696602384186 -0.5681135211806776 0.5157835799453949 0.3662778783389936 -0.7269173019629496 0.9573157707902347 -0.7025879052821447 0.013558877971263759 -0.5490614490397776 0.6840444577837959 0.5927506160657605 0.9165422605634129 -0.18114649503792216 0.936289870652482 -0.36503512365349683 -0.6670640809293708 -0.43605573163397177 -0.4878442741405294 -0.9614186508930492 0.7074107434488096 0.7988154595814415 -0.02659805600105872 0.16817847319635337 0.8714795106022561 0.00100886608679589 0.5203076291102818 -0.8281733636421784 -0.1833961000657507 -0.5041036520000846 -0.8925332546767277 0.38892424646981755 -0.3163679848905163 -0.31066633881097 0.3061753227361358 -0.24375981910243694 0.7658742019628981 0.2164656421700266 -0.7785485978337398 0.9047513918900162 -0.27465040190481627 0.7380345077052869 -0.7895600619960814 -0.4262739055085115 -0.14099769980128604 -0.6616435796691537 -0.764724355049557 0.9459313021996102 0.719274719835479 -0.9390119765413114 -0.5979708212312006 -0.8225517035207675 0.08018583339923019 0.3198698653596205 -0.2221531063128458 -0.3482738208346823 -0.06843166436531596 0.1263374136518096 0.31465376299243475 -0.7701813891214034 -0.31507647333833483 -0.10699131883070524 0.7678748500172954 -0.8105144279622185 0.9476651232187471 0.7716008713271664 -0.15924388397014466 0.45026320110783924 0.903503373599573 -0.9896412799080939 0.9370467942722804 0.5434325610496492 0.8080596607255865 0.7536932636956872 -0.1143604517538975 0.8969540251289146 0.1658451408868956 -0.843112899820637 -0.5023994987137599 -0.5772069738956408 0.1106075972352685 0.9811178794816386 0.8837498866205411 -0.469165818368399 -0.041067614194578765 -0.9224051888494395 0.11308971561977572 -0.07868416455667374 -0.7459796451008557 0.3766032516057837 -0.036779500434999286 1.0747508635423262 0.39883081085727584 0.7984423044124063 -0.39432100939390285 -0.5315285486949067 0.11242912088843485 0.14767051734164555
0.09099415092205887 -0.7721945488741534 -0.8852502054063546 0.36063133228139843 -0.061244859297954216 -0.19590803570920978 -0.35485820876743085 0.03319726679559922 0.13145186185173863 0.34540953565970994 0.8943112105383948 -0.25265847618701115 -0.14881528032242403 0.5650262034484745 0.6789512627383135 0.546089792505068 -0.7312273868429747 0.9636058617583342 -0.20752025115860107 0.15358528006134917 -0.6581531115406931 -1.0453004784143292 0.7484585412509287 -0.8445803890795007 -0.9498137556858121 0.9608840595072936 0.543824597289964 -0.2972659600606666 -0.8555338785206725 0.9435026592043265 -0.2525307245126025 -0.26696205364498055 0.02363768344408223 0.46272981701632593 0.9514421405705903 0.9514237014222203 0.7863899815613411 0.8143235496538249 0.7438707467693372 0.08998502157620959 0.6379258616372697 0.9028618250363007 -0.17883768560460198 0.18875759796833802 -0.7283468216136946 -0.18342645795728554 0.4516606741631376 0.6679921235227921 0.8160170298223534 0.9224685755791112 0.5799117979462877 -0.5697575120008463 -0.6137995178301566 0.9192605921968856 -0.8710413875204143 -0.6404159478164984 -0.2799588144156738 -0.24596765799386633 0.9802233042286952 -0.9380059601253159 -0.11149974762721981 0.12719709513539174 0.2363076331657473 0.8548361563197975 0.012080135409055932 0.07176779846068623 -0.28259458538228033 -0.3097570779670463 0.822811380333946 0.09322642685740447 0.48381977312788393 0.21430803273532256 0.05738990833560125 0.8302986041142478 -0.0013259751652382507 0.5280277281021494 0.3687517101733536 -0.34528477124309004 0.3801515798049852 -0.783884994675317 -0.7125882007159954 -0.23024617771164393 -0.9568666993453439 0.2738919070910656 0.7209004828178445 0.4424948400397162 0.3654100126261174 -0.9099676766311902 0.9133332025110757 0.472316742331488 0.22678786518388833 -0.21959912982054372 -0.518295195533249 -0.3696635380297233 0.13727398209696517 0.7500526528671199 -0.4662408260410095 0.9836495132849046 0.7887758764369376 -0.02668089426839061
-0.4851917077803538 0.008156584553421936 0.8161547063058509 0.2602059495790166 0.6829132221242553 -0.5283448382796933 -0.2563911461109045 0.6003671062259225 0.3020165281777288 0.560311109126014 0.461271418141926 -0.4701463186379453 -0.0008466433075647496 0.210611836161932 0.6905075630606681 -0.79841078611124 0.4366814309394574 -0.4279736652688142 0.35559026619132056 0.5536766049454329 0.20417423188556097 0.4928218360820985 -0.512886009278283 -0.8956521358214372 0.07983450210438277 0.7211755087123571 -0.8031589596627027 -0.4205114119977372 0.7238782216667418 0.08717404412715087 -0.8554519841373898 -0.7341146884049055 -0.9809317762247548 0.19034505413932484 0.38274602750875564 0.6182895419002246 -0.24514785642362194 -0.3314516567322791 -0.057078786847521726 0.3874472219323969 -0.17162082716685517 -0.24676947140203603 -0.9584225766565165 -0.6516838328377861 -0.7743976830636677 0.42275458660537585 0.6292308204222448 0.33626528669519723 0.6623866548783789 0.305526321200976 -0.5640981682041694 0.24381670647657688 0.5451251677029959 -0.8036168538214638 0.7448864722342993 0.8959982234111122 -0.5142459954686941 0.9966328634240998 0.2777393760242272 0.8813426497796877 -0.5828729480314838 -0.10332310515766252 -0.536093907786629 -0.13406887204814705 -0.36004368941833054 -0.17576185823377194 0.6466109054131342 0.9693888609527395 -0.29323183851916224 -0.4989806597249311 -0.18646910245272227 0.2116629508497665 0.6577228612619721 -0.2720449386708351 0.15329578652766435 -0.15076483618819167 -0.7134464347001311 -0.21316892534827206 -0.25281324198734595 -0.29844141093226795 0.6153129202415876 0.34065572719581005 0.6210022862406065 -0.0508344878193939 -1.0353451392015234 0.5349225627670299 -0.43000123257976214 -0.8865106197650234 0.09385502626046693 0.3288374862186644 -0.849862285327724 -0.7066606837752205 1.1730297565944625 0.5137106990060336 -1.0835175004102109 -0.4641209633536566 -0.2474643482793888 -0.03993751663066321 -0.7449565824770237 0.676185905268385
0.8807735474278733 0.3709659653251762 0.3884056489093908 -0.2060798212289 0.20860968719274664 0.4565716172102179 0.19962098835956826 -0.9735659014615673 0.18873878405917505 0.13960724156613682 -0.5522613669830333 0.5804864695405266 -0.01105018291928735 -0.18402499057024893 -0.7308462388611172 0.7291147909266608 0.7227082777297066 0.27137278946924015 0.0760776335578617 -0.3165337975037814 0.42768981026251246 -0.931384882302588 0.6656022393251483 0.7513382881886962 -0.0027466411376656135 0.48219638105265433 -0.5192464442335658 -0.7127322780464665 -0.6545645306908489 0.5305272956133226 -0.6080452969462056 0.7030633191215339 -0.18917050904187727 -0.9049607204484329 -0.03240998475878474 -0.9829081554019281 0.3783572322604238 0.7868359154722863 0.7655065603406502 -0.2514408885836103 0.6084118314354513 0.5587127886809072 -0.14012077862210903 0.706239463141963 -0.9046310022032348 0.9804315289556365 -0.014222938199817993 -0.15343046158321932 -0.13098766588448735 0.9159367930636103 1.0140790038497562 0.387724924703404 0.3498193177567893 -0.9620801031070589 -0.4453079496520097 -0.922486494554991 -0.9646212385699342 -0.908027359167244 -0.14504825806433025 -0.11664545314594313 0.26801639082631057 0.40907078542571723 0.5071894578259879 0.14720144227402782 -0.6284179985855161 0.12649070926194456 -0.28267173486205466 0.4132875100890964 0.5839627073477747 -0.9501111576392205 0.9322627391597681 0.7511566210112615 -0.2514814316088715 -0.47635068010398945 -0.5369362199090093 0.4452153038830484 0.7962808268677296 0.30826561494643745 -0.09393991377189403 -0.04847523046513612 0.898930645618268 0.02001524139162633 0.9096181197940817 -0.948637570100858 0.7871675677084304 -0.24170131243535806 -0.8443125080505912 -0.6353050327750842 -0.7167972904028591 0.4942909920066487 0.7368546361254962 -0.7682025555924422 -0.752945266823415 -0.4690393025343814 -0.4081507704593493 0.7492652015544159 0.5067223960280018 0.8720695620718791 0.49509312324610927 -0.7262163807021749
-0.48547179181635003 0.45393000120416477 -0.7184008149281955 0.046999097186601786 -0.39891928334712495 0.1782769272188508 -0.826567719687813 0.5090692870679963 0.3386272366268791 0.30356447445261797 0.8306348447323664 0.20301118352777986 -0.7487992754078852 -0.02479512705728515 -0.7511999821080535 -0.23369035792537196 0.9164914171271805 0.6542713247895496 -0.1586075191092101 0.8430343165697983 -0.6951083645358548 -0.07113680638418766 0.15969761774160615 0.7280262139077461 0.2581252187831448 0.10384826269166517 -0.36393247697278636 0.5290250342371914 0.8991382249744525 -0.6528492219171712 -0.2284068871984002 -0.24486594430291997 0.9516152817068412 0.17229517608114217 -0.8274088848996417 0.25199044831526934 -0.39303081619721536 -0.8851420253652261 -0.14303837456840285 -0.029977418676947143 -0.6612783471658101 -0.6513614804875805 0.19063444240122981 0.05690514849033871 1.082144133283686 0.16610519406651783 0.4859890246909594 0.41991195622045285 0.06477950230058277 -0.5218268317346794 0.6410038146181066 0.3763373341606464 0.6116888429668869 0.4373686205628867 -0.5408696386800266 0.7728993885103342 0.8920312654281226 -0.1793917497523594 0.7181718083775844 -0.5678475903918313 -0.22601418268499407 -1.1168706044367323 0.9787246903625529 0.17388476292247934 0.7011163736260204 0.12555163775362724 -0.48719546834603267 0.9501195314190986 -0.3411979625293298 -0.4915884301735143 0.2789449466069057 0.5617099380597047 0.6799218890330639 0.4829542050750778 -0.3084945458807231 0.4811456446834444 0.1264470077602449 -1.026214161306826 0.30213937808128183 -0.5635039230783198 -0.703385608945699 0.5235242061551276 0.8432747177053177 -0.8330638730606618 0.8059295629864852 -0.5252657085920996 0.14440299106279927 -0.0683151299203088 0.3617379604231511 -0.02666104552110513 -0.030581068496371485 -0.07452773884002371 0.6631284864549355 -0.36195246167996287 0.013899394664058403 -0.15204552450821787 -0.26402099866290496 0.7679068473025827 -0.9589850098818564 -0.6180848453339258
-0.05275625272101392 -0.5886809731806296 1.102942538219934 -0.07422536107244586 0.5138065635989877 -0.5866285241470269 0.47956763417534654 -0.5215438739877875 0.5705498830318784 -1.0511061940519264 -1.2900796242563135 -0.6518125260290185 -1.0596086568533698 -0.5127275879861498 -0.2556463701380184 -0.9069813039149464 0.4367783254410054 0.2838769316756734 0.1898348738973855 0.7788614162206233 -0.11806371048503439 -0.662236393939824 -0.7051347301933584 -0.12571160548104865 -0.30648267776103105 -0.11195928983387955 0.8107262942740385 -0.9953163964697482 1.0090807688684438 -0.39515081048166917 -0.502941937389982 -0.7417012012752133 0.5313043314103117 0.6961809610218727 -0.8896044878315478 0.8057094655132767 0.6551091922994722 0.7268269258086626 0.9593987359674582 -0.12241589552832624 0.4075989283019871 0.45685506412750626 0.02223032147075403 0.5464848995722675 -0.617958672244456 0.5170796987970232 -0.7340327543817493 -0.6226024675453213 0.3038393059603077 -0.6309026165581393 -0.39217050302424056 0.13924109124118794 -0.97658220841545 0.15000964315434412 0.07156198820041819 -1.1440536682658344 0.07490594787709517 -0.5806452679274912 -0.3322801610238132 0.27355343610901733 -0.6894086102828902 0.17074541809842791 0.7374506736847715 0.24917878674224997 -0.9706716817593334 -0.46162375620965634 1.0138001925078552 -0.6803616131769583 -0.7413175429608522 0.02018380113241925 0.9817236546908216 0.27380587026648995 0.42456182937478776 0.8008604399135983 0.45910223784283427 -0.3506940759832637 -0.8359241541127627 0.7775207889127921 1.2726043476843178 0.6276623039506648 -1.0682444186149218 0.5656396989244518 -0.41825454736753803 -0.7177516194121564 0.6802617652115236 0.3739155202185975 -0.024803922181020472 0.9170256344481229 0.13785309557351808 0.5990895269255488 0.8247527273405352 0.05709276393100487 -0.7587807962865055 0.11001914539475778 0.963331705444141 -0.7607116397850586 -0.6866081294923725 -0.7897746016974675 -0.9352027843196059 0.07737565129395653
0.22419124919256705 0.07814921886868655 0.4661762053445616 -0.7228891320534052 0.55999549741402 1.0482971158147123 0.5330861327441073 0.6617688890587224 0.35123229129278555 -0.8167895920147697 0.1290340385000333 -0.35562143611802377 -0.022656499411035886 0.08822145776108324 0.12709138651405674 0.4000852797323385 -0.22583312428127206 -0.6369065396956738 -0.6090819121764327 0.8417612692945137 0.022989748232968087 -1.136402911738863 -0.6310717524749003 -1.003006636278965 -0.5315830675834375 0.2617832494755989 -0.8506632402649278 -0.8996033708607247 -0.7752051199271301 -0.18746179161877813 -0.07001213356743997 -0.1617854049827908 0.49377679023433924 0.39604938397912065 -0.3229495349917958 -0.34770595126197584 1.0768912350887678 -0.06768092876647738 -0.3640273936893325 -0.6000896011934289 -0.4653179479555967 0.4001422837128697 0.8606911553229912 -0.44312178338788955 -0.0459697842350416 -0.357349996506258 -0.13768866542206568 -0.714137348304813 0.5231391476864098 -0.43146062096248944 0.9103488795663125 -0.1435763325742552 -0.2552170507858601 0.13708091505159106 -0.5630808246308878 -1.0356224006913881 0.825077588355248 0.6369894135935104 0.6729596439469709 0.5382417514952832 1.142008009206828 0.8141194250339193 0.8152774678330773 0.976635962371556 -0.7264803183593601 -1.2760665284278085 -0.9619622819394605 0.34587165686278515 -0.4395081308557454 -0.6295600555665262 0.13969741176475767 0.27124586267780393 -0.6718330511881231 -1.0970243326793208 -0.5307608948212583 -0.598540240193823 -0.36231519614569613 -0.6561445352282664 0.595365719653489 -0.4899521662691705 0.7909505319820167 -0.5948641995740223 -1.0613448721326713 0.03916834858906468 -0.8253682008482043 -0.9101478524664162 0.4700982776180008 0.3887939365047054 0.8000885326300237 0.06215423876535715 -0.30598910469245183 -1.1182029010490477 0.755156145209708 -0.3785018515355637 -0.4574151359944556 0.6763328467951699 0.7863086648479549 -0.9720048674589097 0.3648938240557352 -1.1071384273513378
-0.541899342628072 -0.20055571317373003 -0.47776540238934884 0.44912452858389074 -0.7134970829786764 -0.29110205120214233 -0.6369375721058916 0.5571968148854026 0.26250573311858644 0.3357464374692156 0.6692309302117831 0.4676117423345959 0.05676985962243896 0.7297702939786318 -0.09902515242530693 0.13581521259645404 0.8575679458424669 -0.23404049929025428 0.41732542032238923 0.1664231690160386 0.9528002036991958 -0.28021013010423224 0.9295025071340323 -0.35219359079234097 -0.5086112347687907 -0.4197720951861206 -0.06742878430904235 0.3224832798403793 0.22570407723331776 -1.0351911932380164 0.11422878163068836 -0.5767596069433832 -0.988080117928889 -0.3177046685324367 -0.36314475694421117 -0.16207106057624437 0.11718744073472356 -0.4295944412556429 -0.11463874861526546 -0.14481106251750075 -1.056528733172777 0.8741861506949025 -0.8342433071957636 0.6646300613838847 -0.4111444826655168 -0.41383753354622993 0.0695310437741256 0.7395223674099267 0.6713915449994766 0.007530570856589809 0.5924478622182577 -0.5570523934902725 -0.8958643636515413 0.36023840633175236 0.43479461475905307 0.732857177040273 -0.26948601410980066 -0.8200617278157486 -0.47439567630175045 -0.9127114949964787 -0.03462231765916987 0.6178640654008206 -0.21514550461860238 -0.6669636327925837 -0.7566459147358661 -0.9038024059225722 -0.4408400297922936 0.16616604150101413 0.17367078075885958 0.32674870510335996 -0.6005319305757612 -0.6537645223502832 0.08708330872337529 -0.8789946406522527 0.09022216639398611 -0.4507456622545766 -0.6373878300572642 -0.05472959140773172 -0.18416756065627135 0.74468675654915 0.8829278922098481 1.0853895902866277 -0.6602269507094557 -1.0454109285489932 -0.6106270792253551 -0.1404156804322352 -0.8003666408801341 0.49265346384219594 0.8297085069025706 0.16247932086687059 -0.5731917613678991 0.023575588064758447 -0.63248710716162 0.6016646507512147 0.1744005740476649 -0.32686631100121905 0.041323018967050415 -1.1268011956979609 0.6040816200275456 -0.2583310684199043
0.9140288242512726 -0.659389141283616 -0.13654153940349456 -0.6835168631190375 -0.5128602422172452 -0.9779850298363847 -0.6943642976369899 -0.12991415189376232 -0.5766785025928696 0.7850270359152393 0.3505685086159132 -0.9373997172302937 0.7944539420322995 -0.5342886786159197 -0.07544606710366668 0.8218996032346304 0.78971867003227 0.6242172812724656 -0.25787318274770654 -0.4516375507837551 0.05356811364849718 -0.050408877823584206 0.9251628492843017 0.5152521367250299 0.5758441555764803 -0.09760063033005435 -0.34197079178711276 -0.878153606127723 0.7281827396803388 -0.24248562589516354 -0.7967324383411089 -0.8344438048413835 0.6191165300988587 0.7599372446830462 -0.9405388493968521 -0.7790477596664956 -0.03130951672584499 -0.48431041752149545 0.8602002717770143 -0.11650304170034508 0.24257687484143084 -0.13238277659767592 -0.0971252862306176 0.132311627689078 0.207315575494281 -0.3234013870609029 -0.5102004259653339 0.4205747476044096 0.7107700529651814 -0.5012473132294505 -0.6017648445809203 0.33772799004083714 -0.27242379027932456 -0.959844869977314 0.7098039426039758 -0.8832378411879194 0.731664811718436 -0.04015064110745488 0.6242080903519734 0.3018342170806911 0.2995589506575819 0.6725116181956509 -0.38460686802927435 0.3053917711132085 0.9309202309454521 0.8642783368074672 0.6823282142215124 0.8455355836963535 0.3743606843883236 -0.35529034280531135 0.7842376811748891 -0.2588629840234186 -0.5924988248410187 0.770609735966098 0.34796371981260177 -0.3253157485913421 0.162395388855362 0.41874228295030574 -0.35080288726380254 -0.744376698429582 0.42637831555879097 -0.420562620731665 0.14031860405006258 -0.01186584724671512 0.5497077708777328 -0.33922693404335724 -0.6819140663726633 -0.17637253099050723 -0.6963976881338003 0.8334221965851775 -0.7134646381982741 0.33996968904387365 -0.3016658460910266 -0.8768176778065976 0.7154786683899453 -0.9719033384181113 0.09356530024120042 0.35717063498599017 -0.9519749136973402 0.4049904300676091
-0.7503633694287501 0.8285950733237663 -0.6128085098627345 -0.44054020523470827 0.4165585479107203 0.9958556108945318 -0.5040533642802396 0.44938232788719895 0.47843107820742986 -0.3611679774081872 0.2647227315785322 -0.3197809972853693 -0.8311208209665687 -0.6368255938284461 0.9954096687634146 -0.6286758449959658 0.2583658747212379 0.25816277075155036 -0.2766310504449601 0.9293596986429099 -0.8472170520019818 -0.2684933459213619 -0.4568015233694762 0.414553774845091 -0.9209235637350273 -0.3838085618058082 -0.5023471341265568 -0.303499673602714 0.8128040975050058 0.003977549343103844 -0.8624423759632276 -0.9614123128836489 -0.2630501921374299 0.17579336473236154 0.018503195077177837 0.13554809046760224 0.921760571725069 0.7543634112867247 -0.7021310868283334 0.3948139419774824 -0.1079228465946146 0.668527831074548 0.1057112882791907 0.4722098108899008 -0.20908343760005177 0.1867986710382811 -0.2727318021400766 -0.307969585614392 0.33908226334065117 -0.9240521472766877 -0.6442647158943126 0.6729077473022302 0.7678912316304434 -0.18389158069672953 -0.06603754776794162 0.15445575849327106 -0.944275599752068 -0.3567777151976318 -0.5706577950660804 0.17549636299208812 -0.542111339724458 -0.9910020926391323 -0.6790219943323565 -0.9659642289534476 0.0979378042083048 0.6252910352036932 0.20998714148522166 -0.6833720489922162 0.5231704747689812 0.3561382618948821 0.7742548429189778 0.9267814596091848 0.18005303077956414 0.0063651538994309404 -0.40847786593925683 0.3714105734555173 -0.29676265702075344 -0.7886937472114623 0.5089510919585605 0.7564247031373412 -0.8000451156177513 0.6032608137399057 -0.012752973548181397 0.05050188012366297 0.18281023143815314 0.6140643337870696 0.5780947657715175 0.4569533049196535 0.4532233790561024 0.2493281794638382 -0.024996276644117247 0.7254560750788904 0.6039790562961841 -0.6361964808878371 0.552508926689512 0.36899154412221363 -0.4142991778046323 0.4908353447865445 -0.7893619213744736 0.2640498050048431
-0.03242635570245933 0.490239152640084 -0.24506326494882033 -0.2899536379222853 0.8875895853120607 0.6586813986908243 -0.27833004106658854 -0.9556055903244788 0.1012699722737184 0.7322538758129754 -0.8516748694530037 0.49882530070321157 -0.15434461718895692 -0.96784201997328 -0.8912238898746453 0.13022572515036832 -0.32837123834531534 0.2361019566365956 -0.20657991413602586 0.9802556539378664 -0.44190390474640434 0.633883250092031 -0.5100306416150828 0.5450736519400651 0.774730313755125 0.2519060508267203 -0.6474681161809165 -0.31579904992968927 -0.7809750169856453 0.2704177148857426 0.3388773531756486 0.9486474530722262 -0.9895481408168737 0.9347344633484065 -0.2799333278293864 0.7758119111873154 -0.6037740042869681 0.08853228952257981 -0.8857639040124605 -0.7471659301032875 -0.6386590890623967 -0.8236395937773009 0.18929848150572703 -0.25416275918299985 -0.12006719143609276 -0.2385027974775428 0.14826175015808793 -0.07778383617130649 -0.2945909362966829 0.4025786859824481 0.37522527484543294 -0.9022622417931832 0.7857885200763143 -0.0830577691883314 -0.7097271366632296 0.8329045884300742 0.7148882494797788 -0.407045549108458 0.6553836818256841 -0.7394075733173395 0.8716851708622017 -1.0672741383155218 0.9642487017251384 0.48267786118840716 -0.6909463194873279 0.49788848466509467 0.6427036744074793 -0.6562205556609678 0.4292493592504569 -0.9452369647673811 0.5726583482478995 0.8587431336663666 -0.5532615104963986 -0.6531162534117357 0.29231684309644845 0.13155149120651405 -0.0971131664293022 -0.5009556082188834 -0.6069936831652547 0.8813339140138983 -0.48902348857319494 0.7784048094887284 -0.2915117907315859 0.261625891027714 -0.5302248073630722 0.7267855862920418 -0.9065993955605751 -0.020139269620282268 0.5017393451311186 0.8188026491447898 0.1849365231720955 0.3411530065820155 0.22996522151617443 -0.06228239322850155 0.7783590405163943 0.5576018772921865 -0.9430701003244846 0.8130192918692829 0.46382446490534945 -0.9758143408113789
0.33039103711887763 -0.27535203292103977 -0.1483743916358237 0.819407311520479 -0.43048727446557566 0.44500605227975 0.1161901379932343 -0.38168063973016503 -0.44907964961061364 -0.18376490218511096 0.442162203331358 -0.8864622888821541 -0.6263070998240836 0.39704362184608255 -0.93876481957761 0.7400656498161499 0.9751140344847823 0.9623780317268693 -0.46095103826021855 -0.3205464513538712 0.48102633642097 0.28494851398897525 -0.19478200349796349 0.16047792446723427 -0.8649091900603467 0.4423286158535649 -0.5123432562035817 0.3680202055832694 0.504664294250177 0.8703328052853448 -0.8681745635361098 -0.5863664342693721 -0.9245344716976281 -0.9292973453456332 -0.8897823885994861 0.25084025377747077 -0.0309782537064235 -0.43746512390799314 -0.8129154817547741 -0.9897139951099219 -0.4305826646302849 -0.7272482562073959 -0.5374561670442415 -0.531145848092045 -0.9063876426185951 -0.8918594374655883 -0.3875592828838571 0.05975466606822454 -0.3699905553896414 0.6446813954282278 0.5101039095007882 -0.8873913775803692 0.33851725886833556 -0.5605194477045723 -0.03770169479366479 -0.15804770131991325 0.3192520499503068 -0.44266682320467826 -0.13338774716357862 -0.35654310943308337 -0.5538748479239973 0.5149069667938535 -0.22098880483715735 0.6890519887367071 -0.6740908548460384 -0.9440423537097472 0.8700827097709295 0.32433600261854156 -0.349903031745863 0.942294183268601 0.4072918665845229 -0.1443966027885501 -0.7784287608231053 -0.45690077358031067 0.38012827744948247 -0.10729783815709112 0.5669638779951902 -0.975760189311249 -0.6059132704315039 -0.7839963641367782 0.4366866595685579 -0.7244017251448871 0.1421636931670658 0.9332374781406263 0.26390310778455894 -0.07244464064413857 0.8129192228500778 -0.9441896676455825 -0.25714516670187987 -0.20547190509086466 0.49573360061192523 -0.0012938391459951036 -0.31105214101967577 0.25278320587562075 -0.9871634461230262 -0.7097654409744409 0.5263621331952991 -0.2247869703622345 1.048900787580466 0.0014416065145494855
-0.2285517905546759 0.9178656913594389 0.2672048878846979 0.653979533236343 0.4910814301953944 -0.10261336975256213 0.4170470736556519 -0.13391937699275433 -0.5764735985467002 -0.5873507513852793 -0.4873977353218642 -0.9777228543288539 0.2812079570535809 0.5266359392441831 -0.5996660469153096 1.0158236772335842 0.4406283783734292 0.5242505777056835 0.7007825527417068 0.2527420680707706 -0.7230434610936314 -0.16820440936640066 0.4663566916466653 0.6632758988650249 -0.30880280459704124 -0.4984274427328802 -0.47973320945472175 0.600608389879395 0.28221442930018936 0.4420685493435049 -0.12647815773577875 -0.3676693010859344 -0.6411896931477831 0.14880138166538193 0.24882246327183966 -0.10877166793148736 -0.6535342908345321 0.7749845442674551 0.09952778989637066 -0.3279531018470801 -0.2966985184710643 0.720378197913143 0.012006594066142318 -0.7950423963789879 -0.7832536796102247 -0.5790344663582772 0.22521174724036697 0.9207049569554906 -0.9701574556427902 -0.39903020754554674 0.27604262933060675 0.5153671763169042 0.4727267446002032 0.37267634760475143 -0.05793415996300992 0.05774139435900531 -0.4422406600554965 -0.21057903162478508 0.7322698562258149 -0.3484666632786345 0.11046662279264373 -0.046736632286934074 -0.6675189339357533 -0.5493218191606157 -0.8603227786166485 -0.9628016957265549 0.023447889780114164 -0.3693902157479564 -0.699853894722119 0.691739940000742 0.6590762899194799 -0.1932064357800159 0.5352003517501245 -0.6878164185686885 0.20641470622300379 0.5410789693475887 0.8153981954768772 0.7198036528865212 -0.8800078875264167 -0.5992959677977072 -0.8384688633262558 -0.19239894383210512 0.48141782951787265 0.0994543741044323 -0.13238378079851224 -0.16551324301192386 -0.3551658185687264 -0.8864444394284818 0.01926380827070574 -0.5800472950195072 0.10289945175411513 0.34258543065249564 0.3386407355664071 0.7358976162596977 0.20915793311605962 -0.527850664771464 0.062416160400008316 -0.4470283142008036 -0.8513991219436049 -0.24830132002070743
-0.7097202258440563 0.47398863806547975 -0.17280913288231584 0.2446948986438711 -0.32628959212674347 0.8850959969311465 -0.6708157394786086 0.6471755604162952 -0.8844345831429635 0.6774159999647102 0.6792944590454906 0.86231410814804 -0.048804091445453876 0.7753637929897058 0.7612014805410797 -0.9639952058633363 -0.3671900269726674 -0.4704593982892533 0.4276736220995523 -0.3744757373168182 0.20000672605736183 -0.11442714625512747 -0.22587159241928212 0.6696482767709094 0.667375400720178 -0.3743899719562861 1.0245070205756333 -0.15787172324897264 -0.030434037705778415 0.9643251915606287 0.931270139479352 -0.7516051660124721 -0.7624154401744578 0.3949699863815211 0.10092533085561535 0.6390575792387734 0.004643925182444388 -0.2975056748826737 -0.09347187716272942 0.8983133912890764 -0.7176333411428493 -0.545861743354806 0.4847115105290507 0.48152825943938365 0.21453250865692955 0.09613828906495689 0.6518192884704602 0.3414365091893507 -0.2643360409413436 -0.9301243884017267 0.6141707738481469 0.13920398917851523 0.490373310333853 -0.06342259273421572 0.7457128009350205 -0.13442665623582686 0.07872512377048829 -1.0230421704772688 0.13641165371139133 0.38691026541540613 -0.8641868967690948 -0.11312416537901664 -0.9373494885095908 -0.6137498871010902 0.24406520503921558 0.011169029463306343 1.0898344258668837 -0.35700574088180764 -0.3335132890153886 0.022781481618203526 -0.21047496250654513 0.5279997468619957 0.16121742365684666 -0.6086887174797504 0.346128484974201 0.0006507285574941977 -1.0066137790190166 -0.3205138481003456 0.3094269922561431 0.23116944560385538 0.5450648808200884 -0.48839112916796057 0.8745776594597959 -0.12160328979291654 0.7693360062672636 0.8941645962516109 -0.20415512344733802 0.9569879622518065 -0.2000566342830328 -0.11625101087918314 0.7829087067847436 -0.763987263523039 -0.15768626878067574 -0.9621316039135793 -0.6813271192454955 0.06427319941123866 0.7068966020839044 -0.4963161120801052 -0.47850858436803856 -0.9099607801549982
0.9299365710540555 0.5985780200127696 -0.8919486509952256 0.1150858962614371 0.7072932375319871 -0.6092730213000644 0.20855215133612093 0.01661171861398551 -0.7754236392292397 0.5075072278977865 -0.1887453644397216 0.6146952950177356 -0.03816541394003767 0.613511235936882 -0.08032666856754403 0.2639478319182258 0.26644228039589113 -0.8960190974133416 -0.5780856573003132 -0.3864716708840247 -0.6211859390129382 -0.6688301328065528 0.9276550695045278 0.2511222839735256 0.7596280813037022 -0.023719190836823008 0.5516063623799436 -0.13691155069146493 -0.6200031966287898 0.715683847356368 0.16001608345464266 -0.26712747060635267 0.8965293909819585 -0.7006961813190625 -0.5299307889295535 0.5672840771472653 -0.01554436051469365 -0.5233832253416042 -0.6486172102257924 0.684416829562385 -0.5675597557437186 0.040345307679246545 0.49920305736680115 0.591204673656445 -0.5098731486020903 0.9251806796477327 -0.8159493076220719 0.744808239299099 0.704806713835224 -0.967088432284855 -0.6320624999904678 0.9472824555267914 0.7679923206044594 0.5180502700134535 -0.6360531154720391 0.5430960105916726 0.4908469971161856 0.7290761992963909 0.16062228586238528 0.23274216748656676 -0.5485206794684989 -0.628712163591498 -0.05452609146881501 -0.8756387453191721 -0.7296928261878388 0.02249239847977025 1.0027937765207566 0.03640941977678743 -0.01886378122769226 -0.6603247771883229 -0.3186249246026447 -0.7160311420388771 0.9507425773356438 0.699789278227429 0.8493831525514227 0.19425961979628592 0.5632184130664123 -0.538376171012988 0.5922353923070842 -0.11553022616279354 0.8816780413761048 0.5877545461386033 0.04872972338878426 0.4229237235024183 0.6472680587553198 -0.5654332409825862 0.054132411999472586 0.5190646092108644 0.6536277274309088 -0.44948363344418124 -0.6586720067849868 -0.661566204312806 1.0566958225744068 0.2021903047385098 -0.661987499018279 0.5874727736419728 -0.47412818205574275 0.12437046709372886 -0.8822582466128454 -0.8613645883026327
0.12202372948159468 -0.8691318267277598 0.12049628387776869 0.14272442869844265 0.5548472136360207 0.31538469249006734 -0.2612539997340305 -0.607770151199655 -0.9302042924490714 0.34523378789798864 0.5580922989386368 -0.6141008940070771 1.1744942288657334 0.819543956593049 -0.6469166900686225 0.0515403020488824 0.48805743728766987 -0.7101296929066075 0.27605316770174554 -0.5601676672179297 -0.6936740057944009 -0.8214086433993544 -0.6237285849279007 0.2776578813512189 0.7706135759953348 0.23847799083999482 0.7183583399956958 -0.2541120032059297 0.08478477213310327 -0.9108139061852157 0.7262944486078193 0.17574418407464917 -0.6520483500935916 0.15870805660307108 0.4467511737622501 -0.884600112411478 -0.4243455482997958 0.6527838088230388 0.46003524656167627 0.5152435554044805 -0.6038727673177401 -0.5785595817354949 1.1027985122154285 0.4762634205092503 0.9083547899956955 -0.17995548466566896 -0.9393336587495907 0.5146583800092482 -0.39785324619551593 1.1480125418143423 0.7807050514099622 0.6743932445908156 0.19793140591107045 0.3011512402655326 0.34823646477581094 0.29256402098510276 0.952703556657505 0.34284747237191066 -0.4953671779512428 -0.35883408969151925 0.27474815739645186 -0.8088245267525507 0.6530713886359996 -0.5486735180846551 -0.7731634282035426 1.1452905677798642 -0.2837537699637519 0.24165534986041948 0.4171756317494408 -1.0899859570681312 0.19016828604920602 0.40231039405289987 -0.5016865414697428 0.14146258315773863 -0.6516319350889578 0.3771345043529016 0.39107085824739685 1.080662162473551 -0.28750100942375817 -0.11883618307106691 -0.5002205465190704 -1.1560879436325198 -0.43822407608103753 -0.6285719459951601 0.32636455613783627 -0.4014692313360091 -0.7283483861508362 -0.7815965705234655 0.39615907145427265 0.16330835698444526 0.11209732019934003 -0.05571069586987278 -0.6989517396789041 -0.1290689557858711 0.3752346002428128 -0.5533287613380282 -0.38419444737532255 -0.4048219768619469 -1.2039388555298223 0.4137915176788873
-0.02486286728546072 0.3211239793050436 -0.5121765480427964 -0.7944990324331188 -0.4131145639037882 -0.5195961239767558 0.08836119421285847 0.9342248712298126 -0.4347074599041296 -0.5079424852949184 -0.7951530006700334 0.5084087702141721 0.7865587837665848 0.7045510067631511 0.9166559504561123 0.7276489730461347 0.7350213205991409 0.23395521889929 0.39392700229257116 0.5160804463654707 -0.9975153135596724 -0.32575384337802665 0.8949456859199757 0.1302639384532444 0.6829873105330279 -0.8819847163705079 0.4547490841539349 -1.0067297123442214 -0.5349827258690611 0.7884152201149117 -0.20895974287360053 -0.9578383090067019 -0.9016135158322943 -0.16217074101812723 0.4981187328612985 -0.2107107815854116 -0.7407202272514054 0.038245320398636914 -0.02493066126854585 0.9661546752041414 0.749035820636322 -0.2919743853580017 -0.5247675474324361 0.7031667282245834 0.5731055181535962 0.43118860863913 0.7978523635931353 0.38786983166283295 -0.34058373802730463 0.46715838484330097 0.544597666488606 0.6455217195480619 0.9096848617810144 0.3859174909485629 0.12609543509046525 0.5776877312776316 -0.7378726045048926 -0.3995457827069244 -0.623152023294907 0.7028703075303321 -0.07205319762988358 0.33783083697792954 0.13978089578102051 -0.4881109658513214 0.34861661120247894 -0.14493311771052667 -0.24761578949203256 0.544373375344176 -0.7448223481031232 -0.9122136764869991 0.9952743958467424 0.5909232740053941 -0.17743615233211948 0.024792091390057017 0.5374520006520112 0.6995894062685626 0.06756954304604657 0.31601000874693197 0.8408610413073635 -0.2653457898667682 -0.49776276279823783 0.25083361919799924 0.34547106674337613 0.13888272830620293 0.16214056537749313 1.0339463726232783 -0.8500349561397522 -0.7789361416839043 0.40920419378502004 0.6279050505086966 -0.30629349034359027 0.9135896701299947 0.08092050428236731 0.3317069595360427 1.0027524617383927 -0.5868972991222299 0.9326453334142922 0.6322016448696386 0.028740938289161366 -0.8306369897772619
0.7897609499393605 0.7517309780882214 -0.7060177688218936 -0.23869101513060115 -0.6764796009461731 0.5686957969756641 -0.7176409377195911 0.565282973314195 0.21171730591038482 -0.20854122103308803 -0.38258927649839314 0.14807457750482758 0.8118963652976339 0.9004353871917465 0.09041657305566508 1.0222161853765417 -0.8055784362864352 -0.22506224506437802 0.08326994762764682 0.898863813090808 -0.42272598143274626 0.4085573870151917 0.5087324407211643 0.5318853227690484 -0.4267154488751063 -0.7571675096872966 -0.30394435551328547 0.7529816963480106 -0.19777095814584372 0.5982247186787181 -0.9644286279406632 -0.15493192626135951 0.11151713390032074 -0.21102045141414072 -0.6963127551751565 0.6457096001457451 -0.2258994605958946 0.31311894849091493 -0.7740522264682886 -0.9447164543450296 -0.6843376648046905 -0.7012981111125247 0.8787519942654441 -0.3831041446462794 0.6022856636946117 0.8657377741693194 -0.11481018246315441 -0.04554005276695157 0.39341188235157304 -0.4112769084347144 0.08390100948401913 0.14675156400135736 0.8615802266132361 -0.14805753188106216 0.7265557831577734 -0.2541950749070392 0.6780268535556752 0.18629826672499164 -0.1561432637936586 -0.4636807095842368 -0.2920191202107715 -0.6164461998969502 -0.7630969246508779 0.49176158071276405 -0.9489129237101768 -0.8285166293335098 0.7496013216424413 0.4005995096566612 -0.8633530762884075 0.8006232909390427 -0.9383501005843232 -0.871566195556983 0.016549368216772074 -0.15639935472845753 -0.08766565633553933 0.5097637456137085 0.48281383421291774 0.2464662532953618 0.20670994753498795 -0.5675786456384482 -0.26706300232849967 0.7100895260220339 0.7091684924056921 -0.006438318631270182 0.9780017563358034 -0.791963650542756 0.591635975074265 0.037830080275457124 -0.1236394596713207 -0.7097117618358292 0.7712951212770963 -0.18579235555292545 0.6717443911088431 0.3779119129282674 0.4036725945754645 0.1292270182951682 -0.8714298190592545 0.5358249112200044 -0.5610785930219317 0.4395206693278507
0.31136197956765943 0.20611621635157715 -0.48232244657370776 -0.9357371961730312 0.7428188180251541 0.24213012941782766 0.4628233361398429 -0.39399887819583945 -0.29607110340237014 0.6569818959223761 -0.1338106434113179 -0.8907924431818057 -1.027571596904742 0.8743104499814819 -0.6399653532941256 0.7640913993741716 -0.28721028718456365 0.8549945505635876 -0.30405448578597144 -0.7973127530372239 -0.839551822086618 -0.34364342883771676 -0.5591702158489296 0.942800647721731 -0.7736966868335435 -0.3371300773926295 -0.6395082729782611 -0.5205650157898185 -0.23779187268248084 -0.592479255615587 -0.07952215576998356 0.7651230858969817 0.4788949400018572 -0.3160311617039248 -0.7073249694301813 -0.3366905676650971 0.12339887693369388 -0.24965289500544208 0.6267954083040507 0.5365083165560619 0.8567921392205877 0.35528865956972255 -0.7933607713604671 -0.23644015358328985 0.2819267717940572 0.9493417809152227 -0.005019276184260446 0.02169010020370289 -0.5876115986056061 -0.13975005432424148 0.4558333550682877 -0.5103023755448793 -0.28347219471031365 0.4098591972709503 -0.02838491320781416 0.02022157057633504 -0.3638913042414106 0.6271460560614363 0.5726671067493307 0.37018595614500155 0.5841483986770021 0.2779659327038925 0.7538831034533925 -0.7627613480754247 0.1648846228412101 0.015578562783529095 0.48052430184437395 0.36848484784680374 0.7470420278142682 0.7925929694574154 -0.515102892502034 0.8694470335256602 0.032430106423825565 -0.5590502711415509 0.818915797120863 0.9891689363781606 -0.21189686625020923 -0.19830430624837028 -0.08498861817371445 -0.9344151241013684 0.5027981202087478 0.9155441463577665 -0.4103706657136139 0.32477565993523505 0.027213768222228377 0.6578141692340099 -0.2452510581324246 -0.6160248635414556 -0.262575532195402 -0.5322841329422824 0.3123572692605862 0.8888835156921856 -0.013797278459315663 -0.2705734944129948 0.43314480472518796 -0.5053320185821876 -0.146735794519161 0.10014642090962479 0.9956637778724612 0.5724778281147221
-0.19999352917235513 0.11845774632549103 -0.21338622167336133 0.06489277695679378 0.402907360419767 0.23641082322227316 -0.2804731947626306 0.5232417380328307 0.8988485463889146 -0.27707304259617255 -0.744751003797373 0.02350992586861469 0.6928745254934146 -0.3948542601694089 -0.8681435576253543 -0.7214755295691541 0.09578945776696668 -0.6485183839004715 -0.5780516431495955 -1.0108580872732371 0.54989743612554 0.9456545431435982 -0.8637539964395379 -0.43863817333602173 -0.5742898976146913 0.8684080892236024 -0.3137402362026243 0.27794874309941947 0.03834535183831918 0.9286792263316633 0.9676442215429115 0.5821506579198543 -0.41806116508417823 -0.028375120623235363 0.573303270364615 1.0255579837870799 -0.8127480372551337 -0.8610018868667892 0.35298681052878483 0.31136710759626945 -0.03349941611086048 0.7014713808847982 -0.8516355191531235 0.5600052985070649 -0.19836054911818501 -0.4772895825658513 0.004009436739143683 -0.7474529376459752 -0.14340626015007063 0.060746222223781746 0.7427202261702613 0.7353633016763773 0.7851090859747039 -0.21911480579196632 -0.8758285994083309 -0.9340206320750815 -0.9914368216021936 -0.7184298700253627 -0.49194056097391364 -0.8263295466853623 0.03927692235724923 0.7415944561702739 0.8961290955378147 0.17854165555871002 -0.005377697463607788 0.6432316680468396 -0.3337380712027107 0.7909635612197508 0.48680760929136335 0.8641931450111441 0.3997690370905345 0.584248053417237 -0.0551994267131323 0.35797152601640947 -0.40532700351737333 0.961171958321924 0.17534587780208227 0.8503523224989897 -0.8642646996356232 0.8593444337661068 -0.8233783948131367 -0.7713859105902975 0.4537757941785904 -0.17810138638617717 0.24583839125503648 -0.3941381699678649 -0.2402461174185097 0.5784815353838884 0.16982621740364204 0.04919960798588296 -0.4369780449585234 -0.3015188950738865 0.8708492668038793 -0.6250447829244486 -0.8093762695090722 -0.0655298622483902 -0.02180306526717084 -0.04128608967679239 0.2269654902132684 0.9067281991508523
-0.9836720338507974 -0.49335893439523465 -0.45126405949283904 0.6331508667948923 -0.7890001144935975 0.307354095406984 -0.10883788171814159 0.09583821387427238 0.9802173653132364 -0.3091775687231758 -0.9096799974517542 -0.04393283460011843 -0.3910086370593536 -0.8005724846487217 -0.7021581271347879 -0.008210248913471354 0.37851990818805104 -0.787302157346993 0.8359157732405423 0.6487129788326327 0.8535425558587372 -0.28717188699133406 -0.18062280674477965 0.40942065401395805 0.12419783501622564 -0.7724990967321972 -0.7449601564673848 0.30779806873717863 -0.6730550412607648 -0.9547685139406075 -0.6870398594954078 0.5860335959851334 -0.26942525000141265 -0.9632125404065017 -0.44921142946418213 0.8357381257767252 0.18105558187027898 -0.6336305076451269 0.7224680611561698 -0.8408169729822383 -1.0231004757971025 0.3122844129163096 -0.3053264011500176 0.6202705962994942 0.9513022042993329 0.09278412514442351 -0.8031794691806561 0.5205820487639827 0.32528735219534616 0.8193853648958777 -0.8578526746389411 -0.4543862347952191 -0.6719959508485706 0.7819001558778945 -1.0295426132415468 -0.27277071393778174 0.3808227034009802 0.10831343781290792 -0.025129313739135954 -0.11059046945526335 -0.4395660324127219 0.062069003471876126 0.13291463840223203 0.9232827048898177 0.8056729728795887 -0.0872444901031758 0.5588479420418264 -0.45364853406695593 -0.40649525395026687 -0.46024005284005015 0.5754636651773741 -0.2716858308373515 0.008218608478264604 -0.3949102385231691 0.5155802035626524 0.9513628873290874 -0.6065897006565274 0.07747833676979764 -0.4202414669660899 -0.30182912843662124 0.8117339885751269 -0.5612704415385762 -0.07400565561375748 -0.08565780829429141 0.8014355468444462 -0.5977946745246454 0.1171936853360495 -0.55223038459908 -0.5794436807213773 1.031607612376923 0.011898800319079498 -0.7058033537262921 0.04047417177958928 1.0681026815565946 0.24737356330005286 -0.8865599080110036 -0.6732126061776796 0.3823850793242277 -0.9455781306098587 0.574028103063402
0.7762622370011363 1.0856721820334478 0.5038636625577656 -0.6017914580922417 -0.6044722159149866 0.6776222417480021 0.10533612285807657 0.632641794246486 0.015955206479485628 0.36439621583892984 0.726092933881361 -0.5915028297618186 0.7813670564677034 0.8801829694698999 -0.7625932429180585 -0.33796888744379244 0.14263339047109683 0.48578177337883827 -0.5136406712556345 1.0295341284574984 1.0881268199633978 0.600884059029138 -0.23588413121490157 -0.7095931016575227 -0.06534789501692079 0.324192731107968 0.4322697624792678 -0.2833743535699144 0.15300262321803737 -0.5212418266583018 0.44065239908539966 -0.17463783944212014 -0.9545577234706271 -0.8272576514067222 -0.7024718166616469 0.18907377048286447 -0.8987118038319675 0.4393062430371276 -0.08580136740946434 -1.0767021056442854 0.5103016902876693 0.1847592913920399 0.34097056929801456 -0.7362458485868035 0.4913125080649678 0.7093029042321822 -0.5974465368421539 0.16267509118419674 -0.3010297159953086 0.0294058889414982 0.8037074466918521 0.8686411561119439 -1.008594517634035 -0.9103681882844472 -0.95043832606951 -0.927431321138832 0.8051205070634966 -0.9304026554892173 0.1831150650025042 1.212907955142045 -0.7971261471693504 -0.018779938946141904 -0.7560466077832588 0.7533467383227298 -0.9229159744031348 -0.2304791636792527 0.23950163693171966 -0.22845476998027964 -0.23489102195535574 -0.8168014020295304 -1.0486347029160399 0.7387587280708191 0.2344202448883699 -0.5140999602941791 -0.6580512083601456 0.10142940104609043 -0.1857713933822275 0.7292466706863782 -0.7236833876001396 -0.4181680772413292 -0.6758560569446186 -0.09934507755907866 0.7018933679927453 0.6445077963593835 -0.38591580253976726 -0.47164866495037344 0.6525907916074593 0.6804511742441528 -1.017924859084474 -0.7747786538376185 0.36770829674962047 0.670083470676146 0.9161972141732733 0.6348663038584031 -0.37897243623295734 0.8539146208645296 -0.2809896704165121 0.9463414026739412 0.5517178737689629 0.6275943669996263
-0.3672096420888431 0.7146028809187269 -0.9940663786465067 0.23451526029807812 -0.04534719488853764 0.8059342248628936 -1.01331143116626 -0.6071183650915365 -0.5924385878617976 -0.5480617648881005 0.7140595774919796 0.34609747073639974 0.9465934316080531 0.1700283998254951 -0.9341078070951345 0.7693156656486395 0.6350202503715195 -0.9249606854577428 0.9234517136356051 0.3260569409719093 -0.12731228903974204 -0.08331845137729099 0.018952228899624963 0.9479241049290758 0.49840596560683986 -0.9161377031512467 -0.23988571638390166 0.11965382597877175 0.5711474689367257 0.4711248472076062 0.5287473697220061 0.23781607388466847 -0.28186675515898735 0.4355080361175215 0.061094851004011796 -0.27350613595682954 0.546241540902879 -0.5393360227821126 0.9930177901736705 -0.554855001469127 0.4578923385279342 -0.9826640252658958 0.5409505738943123 -0.9549429035148259 -0.08339849459556811 0.2562384477396436 0.31390680037514446 0.8626411504148501 -0.3788133109125325 0.7712089173913377 -0.8908670455768789 0.5176267104888143 0.19896426378720525 0.7273458599835816 -0.2197278105331363 1.0170009005458913 -0.9588286607753925 0.8122633606292033 0.5705145915081425 0.2566240523488435 -1.0309016659696921 0.85831408381152 1.009966624115693 -0.6021073288534159 -0.0472216434861277 -0.3079359075959586 -0.09440869810702765 0.47683042580568585 -0.31722065231782315 -0.7587162873857789 0.08508817874599944 0.6503084644647609 0.9666301039712356 -0.8652598147104407 -0.04060894770164807 -0.13449782248530964 -0.04633150359043522 -0.6790616458337868 0.6965916540059535 -0.35221687376090927 -0.6792909676832861 0.7304413568274619 -0.13161617684440907 -0.21572511074119402 -0.0885693690487718 -0.5191707385604513 0.8331096038060712 -0.12350959192969249 0.2468458598510366 0.31705041879578905 -0.9960126049312411 -0.637432047029827 -0.6307409365261342 -0.587617006732025 0.39637302772280175 -0.687741723518671 0.8459932553852169 0.6630281615234364 -0.39736175249424 -0.2495364489862533
0.7561958391580368 0.8251763572439538 -0.939296236239951 -0.43663844161435245 0.22108012558580728 0.880762769289093 0.6623677080172712 -0.49007224010463735 -0.29927818987609145 -0.04153965643000725 -0.5541066922957074 -0.4271750182763015 -0.18362865596130262 -0.46690493271599587 0.27101439169357 0.13373887855740807 0.383454353306011 -0.15186358936150543 -0.4272693476004027 -0.7173967322376151 -0.893683842398947 -0.223149246918264 0.6562593854172333 0.7418467096212894 0.4376494186329038 0.44987682804129775 -0.2644462054865653 -0.26746376456532506 -0.6924498301043239 -0.9533094232905146 -0.5295712540484737 0.5043689442412126 0.7553389313642449 0.7230296090206871 0.7351359199019324 0.4451022712319741 0.31550185771223016 -0.27687547243270866 0.08653991419006907 0.9412650247546519 -0.6257380690265473 0.22567280210307641 0.4256707234925838 0.3942308975669432 0.020851835092520664 -0.011641978732775587 0.9203492013332581 0.7602439531529709 -0.6224107419291872 0.6885927200612304 -0.5222705565682279 0.2262321525791842 -0.5574243225512377 0.16327126926640237 -0.9780295302209144 0.1759141541817661 0.35191308516291 -0.9202055776453547 -0.06987858310272592 0.7269985444109632 0.1908989353075152 -0.2531449324505449 0.9142392288737633 -1.019655056503409 0.5312090174094611 -0.3694278183045801 0.4581428208163282 -0.5700909854767714 -0.8890477578486229 0.857929611986856 0.6565587997006171 -0.02243392569599525 -0.5905839862985343 -0.8263825597300669 0.7831151805603692 -0.9561241155679955 -0.994065740208797 0.22198433107221746 0.3039586488792607 0.3964496954827109 -0.9670111054884382 0.970424949576518 0.624053058091773 0.8347681259035009 0.034840711425576536 -0.4367292566435701 -0.7462944907523316 0.9406311955496849 -0.7574085973794666 -0.4392567670557244 -0.6921820775321167 0.13658931083513454 -0.009943606346423472 0.7830962570044983 0.3478211647541106 -0.472256613070688 0.3026880590826882 -0.41650017622960744 -0.7229126801322876 -0.4409390087516319
-0.08058912192685619 0.2028676959555807 -0.2053918177291134 0.2914091572599192 -0.7451347178893859 -0.011385244958047642 0.3459417578834481 0.4008356829203593 -1.0426183451219326 -0.7299911439142545 -0.3024731398152597 -0.12210742566177324 -1.034219382960315 -0.9507539598858507 -0.08879422979308842 0.6280752575648777 0.829843820829789 0.31214153573087033 -0.6067006910490423 -0.9935797805090928 -0.2813569974347496 0.26557398005011273 0.8351224825668667 -0.24664751957659717 -1.0747735254254527 0.5513704566055797 0.17112114095485229 0.5912704636323035 -0.868105124603045 -0.3226713539872941 0.10177067465015123 -0.18933793719398656 -1.0149127156679834 -0.3120759513267672 -0.3175400809464864 -0.23914338001858387 -0.4319215454480075 0.11905024123484796 0.690883862432418 -0.19491802547479048 -0.6855706486222096 -0.25889707050541416 -0.5419219587014357 0.4033557647068146 -1.0177171281393245 -0.30934910184385617 -0.14290602255096105 0.047519718749495156 0.8101809826114345 -0.8171101321935302 -0.34054200948857155 -0.3880007166886788 0.32076944888825165 0.364250244818425 0.7856547119575911 -0.598271123036087 -0.6487194310606212 -0.1508918153629765 0.6491535050381511 0.43624023481455276 -0.051765165353711534 -0.45707764827053937 0.9440442806633642 -0.16739820341296457 0.8641494723136449 -0.09857861464581144 0.8955039679213013 0.5363292438752527 -0.09253092259686059 -0.05831475056232014 -0.23071870132012523 -0.33225745147453706 -0.5401064019232558 0.12628271295640311 -0.1071316320328583 0.30144303003580175 0.44891586228942393 0.03215722837703789 -0.7861740190833235 -0.14062499385934638 -0.3489543019769725 0.9770190264659532 -0.8053077198879887 -0.3073666733985182 0.8946205539576688 -0.7896580188588284 -0.6148586317305261 0.932378673574195 0.46458399717250004 0.3331732161141039 0.561854536348313 0.5782180922201209 -0.4674112263858089 -0.0738471521606451 0.7715672585233546 0.23954858176338145 -0.2748299834892768 0.2297765717237293 -0.4883110685609304 -0.10872603954554849
-0.8838326988713321 -0.21851425746767839 -0.5473802583153966 -0.8875971256830054 0.5147654288650657 0.37354466494459815 -0.08680489643968133 -0.3858880244414866 0.9561666019444486 -0.22737665570378834 0.7721553683013982 -0.5905169863357722 -0.7256535351049872 0.017972812686581855 -0.23726629221506923 0.79016938468816 0.49121002427943905 -0.4988489863077102 -0.21866007526667128 -0.7189850678050344 -0.5635648472251749 0.13555631773716798 0.35461075264307684 0.18688185694264833 0.3517281860930833 0.9304125804360607 0.9113867661586064 -0.08972613857144529 -0.30091448856951036 0.4261491363131337 -1.030894833535659 -0.6444378144554351 -0.03494844744107496 0.08044641988280235 0.7560956923383656 -0.2657713812296701 0.04601995679328204 0.9254228569691372 0.3759716568665772 -1.0181119148778057 0.5408458711050622 0.7428766348731034 0.22522080773079167 0.26155617185931684 -0.04253897934882885 0.3807174654986256 0.01791443978499655 0.14124050881138345 0.9096612616796328 0.0866055407389725 -0.9363703783161212 0.3919066879390473 1.0358634924212793 0.09765301289130907 0.615343442938939 0.6984012568819048 -0.12626410753679299 -0.9686970275126947 0.10539444372376196 -0.03391508621950246 0.20396492467399038 -0.8071531655882845 -0.5158627419087018 0.8433089638136454 0.8259457272609668 -0.3747977591086412 0.5568217277652491 -0.756110142073908 0.5229456806058379 -0.775746866783766 -0.5171960429075418 -0.837951430444857 0.6324084027093756 0.7571504931855195 1.0363121748875217 0.391402823773322 -0.5703735730339692 0.4080295599478462 -0.7036204735030837 -0.2829941108313963 0.8180791685704041 -0.21408247600089356 -0.5177515472054488 0.13241040107270446 -0.8352724991130813 -0.5840434161303175 0.3416925772289701 0.5558069144867199 -0.6765093491428156 0.30740862916004896 -0.4690958825021166 0.800604614855162 -0.3046274712767104 0.630567551425785 0.4160402378317019 -0.02158798690016519 0.8588606726950606 0.5340758827057229 0.9071562183868663 0.1146568577026951
0.12083761581207453 0.051145332395768656 -0.7050006958230681 0.24910645174100096 0.11095441590107973 -0.33992227141009596 0.717884138405055 0.37388233857300845 0.5580939059846222 0.2245700372688665 -0.03666074475934994 -0.36070518102274934 0.5994523006658037 0.05425007578202581 0.3865981729977982 -0.9940487635096874 0.7694488694219783 -0.8642419419934247 0.9515912136357065 0.7007309953125078 0.5440753801369436 0.7337476659995991 -0.7450287288651564 0.866575575672293 -0.31800708897689395 0.3712530954719617 -0.17588180395455894 -0.14996517400163445 -0.5137988524820418 -0.3689182816690656 -1.0149133727643334 -0.48299545414580003 -0.1539885953833067 -0.5479224256996147 0.164495221148008 0.7022639305736262 -0.26300935936996067 0.8968266968959344 -0.5154002730666452 -0.7714211674329524 0.6173693918721839 0.8223316067950026 -0.12257736009618898 0.25249620451304083 0.5055537412895356 0.9871712751537485 -0.11812644423460252 0.724890478309365 0.34519177793220635 -0.08708338463007807 -0.06393860966824973 0.9044226273026689 0.726071766728241 0.8876386122869717 0.10459184792588293 -0.5889317648716885 0.23178167757250465 -0.7503031588095661 0.49479368422867787 -0.6514517117793761 0.7443121631114754 0.62173690321744 -1.0023785756553423 -0.6648704229112328 0.17796333136636264 0.8916845589714402 -0.0641660367723612 0.8916857701856282 0.968973739833798 0.4136029504869987 -0.05496041599885466 -0.4335700678769777 -0.910012801658723 0.908869018350024 -0.3762387506772116 0.4581017488669509 0.427399007396839 -0.37910675637476143 -0.01685720912175776 -0.22491465964350224 0.8563898577659859 -0.1971374878063065 0.6999766778139409 -0.5105678246174319 -0.19510457120578217 -0.04551106364745133 0.4884426807696152 0.9646840012461775 0.4270435741136619 -0.9317106188144911 0.28975335780085715 0.6040609522090924 -0.6754270083275864 0.8197037687074553 0.7529138423521116 -0.11620305524490353 0.5161802106500212 -0.5853153098659281 -0.4927430699031501 -0.4700251312540662
-0.9842922183911131 -0.337582755207649 0.5887613565081501 0.4540304497919748 0.06198140028471158 -0.32314878078488934 -0.006301700715629311 -0.5928095611927674 0.3886419332461639 -0.8695656419930803 0.38774419229036017 -0.9420788928320096 0.6287872114604591 -0.5613007580902456 0.9131862303687316 -0.48004124833117884 -0.9987543219544759 -0.1809627035405603 0.11548785021173595 0.7157099609301394 -0.5409879611335218 1.0247143819723228 -0.8660160597899832 -0.46312883344739264 -0.2759652159618165 0.6896642318092399 -0.19884062327917992 0.5832401909885622 -0.013266708429681712 0.06571192523135903 -0.7021268567833957 -0.6812549794800778 -0.09859861753300289 0.009111129061389368 0.018831509326810093 0.7985459942385217 -0.9455579680909098 -0.8370643935321045 0.8037113972614205 -0.7352768786883501 0.25037155949998924 -0.4588223746588089 -0.8024137634019736 0.2984663158423858 0.497852726022426 0.30875957563252443 -0.19851642694010513 0.06471036506640923 -0.19859635241477186 -0.8760565441819786 0.15257211378711677 1.0400669330440648 0.14079889366558987 0.9435459223945343 -0.5474452314299095 -0.04116136398923923 -0.36256784827249455 0.3702787038007335 0.9991618869100483 -0.18190036018154446 -1.0646694390368727 0.25132495064926047 0.4041420543761738 -0.9350442706862423 0.09667776325733203 0.5960379306611632 -0.12951149845070975 0.8683973711661902 0.01293598899829442 0.015046838447872713 -0.5827052908353046 -0.08550998236256371 0.8214139574676178 -0.5620154086948278 0.903011569676469 0.9516435233008828 0.843465341832385 -0.2014884084385026 0.17302894800678947 0.3316568872441784 -0.4497223455273238 0.3868901496710621 -0.1013626857015081 -0.29828926913547343 0.4044377295336342 -0.9033346004015503 -0.8437683902012406 0.06557953650946269 0.22757065019423406 0.01650733384471486 0.7478616125796053 0.7675435217461691 0.043913349799829055 0.17031934360992854 -0.31126958153317524 -0.07943202705770887 -0.22815291661537557 -0.8980865296766446 -0.496288422618066 0.33905329338456375
-0.1543713212003961 -0.721901472315542 -0.7770627290532784 -0.7643787225233809 -0.5142165368713955 -0.8164766542047927 -0.3408320622687392 0.29715335401048837 0.49091294554269627 0.44479153195543564 0.8582271964938529 0.4442079059423592 0.4635257490529822 0.7292988625204951 -0.5946047910413456 -0.14971390948636734 0.009164283290927363 0.9896227483546463 0.2050525869880788 0.8336685726601512 0.6043076508733463 -0.16177660906248723 -0.013289083122450038 0.8935032415361894 -0.7751440420721528 0.6514128203905676 0.014072346486076557 -0.5673039144196033 0.1262462362007678 -0.9113678084394293 -0.27193824130566474 0.8136043803046242 0.6612634674411241 0.14179228395403654 0.3293695770256299 -0.44096849961877127 0.6099891135208357 -0.5547098244264433 -0.27627707221802955 0.5861415772874284 -0.060802762774356 -0.3092257012710104 -0.17187691278163264 -0.6806670557726402 0.5678974017940094 -0.6712823257179675 -0.196022834509696 0.8494028922310137 -0.06704452468148171 -0.38242343543536567 0.6819360129059998 0.9467243111706224 1.0160288834762676 -0.7224477762729259 -0.34732118499168657 0.16384350052636235 -0.7445020534957485 -0.8747751351285887 -0.38883496978668936 0.419640311646474 0.7413695943461599 -0.9977068466527585 -0.3789608934058593 0.8165715581891556 -0.652763195031275 -0.20785245048976891 -0.6146009397745548 -0.09156888005474143 -0.32979993433918847 0.711134799809534 0.26300019339442343 -0.6719480074949208 0.9639615124242056 0.1520351035541854 0.6518011508712688 -0.006272712052984113 -0.4704230647429876 0.04593389062631057 -0.3215346819849607 0.2581713953994668 0.48435146097521703 0.5894979386155221 -0.40461432169660033 -0.11345827029793554 0.6490228367498176 0.5672991693126452 0.6993887059579216 -0.9740135924500313 0.1954642704579784 0.5445132881884892 -0.03503603293886901 -0.22942950968066644 0.14086896468886045 0.7387367178420939 -0.18041420068213024 0.5314013649742819 -0.2536706183312425 0.027523023025728087 0.9721864640256385 0.06780136719556246
0.976090817482804 0.9704546267808788 -0.4942738029375273 0.4165093460111945 -0.5844975627085014 0.9448716540261306 -0.4658821670906434 -0.5115865946651642 0.28971779640196504 0.2359295938169654 0.1406885995445239 -0.7698603814271704 0.8064136762831821 0.47892466840311376 0.755143827065528 -0.833105854517708 0.7574941759603476 0.7497134696177108 0.6331084389175681 0.4532601908659814 -0.5217948648366284 0.6173593225018253 -0.2158750185657526 -0.8178605296889966 0.3190957193444552 0.7013724737168774 -0.9668986464787401 -0.8527676899421551 0.7126379770722863 -0.5472085890713353 -0.33910360210403495 0.20612598438655394 -0.8390159720426928 0.8599955458848618 -0.21375221958100085 -0.2598342935078401 0.09678220403231541 0.05702781666757259 0.2989845894392547 -0.5280916614853586 0.7241571293473398 0.0582795127541293 -0.7083569793725616 1.027406691126888 0.42362205927349006 -0.7048883776813016 -0.7898070969086997 -0.9036675255776746 -0.7138216328484298 -0.320659900368632 0.8507636851522128 0.8670555626584451 0.6067412494541802 -0.2767922477382171 0.6945206624870907 0.23305102122212126 -0.10429165636854505 0.6039677150921191 0.6321240315268052 -0.3531121405717971 0.678801064591383 -1.0476272741848365 0.888749090395065 -0.32870238042474476 0.24470030858988542 -0.22382981352544035 0.3671122541945434 0.706803564139225 0.6315255826029884 0.7425923922854571 0.3136364037867188 0.5226600476513987 -0.941684561782176 0.9352548728000619 -0.9921547967740492 -0.36865496554750354 -0.40269102298261383 0.04381826548742924 0.7257679782762572 0.42458425419401796 0.8318861590889741 0.23180385413688742 0.2040614067160719 0.9137885162404442 0.9350248210318162 0.8099612683537697 -0.9405928728426062 -0.3676561507426305 -0.8222609420226868 -0.9718580350828289 -0.3724367989975916 -0.6769880196408716 0.06771838826718599 -0.08213692153223086 -0.9761175064931027 -0.8094515716598008 0.5157726947427401 0.007565921527865004 0.7636967298773145 -0.565022646445209
0.8965594936930943 0.3341518015377027 -0.23877198729127683 -0.5753830086900945 0.17922489660702182 0.6420116155944479 -0.39035571607490366 -0.09444926707682874 0.18887163189813422 -0.9092906390942834 -0.18387436434330376 -1.1151656814812319 0.8201801366722512 0.6718549372223772 1.0228839755428973 -0.06273974710764553 0.923423104793386 -0.10049757360512107 -0.3816932437426455 -0.47047132382503526 -1.110699869986874 -0.6118087951461088 -0.3865634422051888 0.08560195835553513 -0.19958466715774767 -0.7042148124969244 -0.5281998415228686 0.8285719361335311 -0.19046489101077346 0.12697529465327437 -0.16300041369260163 0.8750856221454603 -0.1295187007511838 -1.0363471639942907 -0.642072236402162 -0.6808774134150533 -0.14016505636157417 -0.5688835714370687 -0.2608548963163698 -0.10393414023181108 -0.8735884062900733 -0.14236825440412737 -0.007303693069903887 -0.8159481706085185 -0.19030308841197566 -0.30371526033246365 0.27992535930791307 -1.0208014384167856 -0.7236732398145135 -0.47377301077689793 0.6660897502504335 -0.6983011471103507 -1.062982559113626 0.28694867280779746 0.7969726458058708 -0.19321793154498887 0.3085595350173474 -0.6810748636977987 0.4341565885164277 -0.10346498218495692 -0.30354316400006665 -0.007610623736025783 -0.48553593278527224 0.041410751383146066 0.7855993180129723 -0.6122821816332285 -0.33977931018253893 -0.8217527345767212 0.3170956077913905 -0.10642102506635519 0.48793698096185206 -0.2753357036897205 -0.9955774391535791 -0.578423057088785 -0.6620050959290408 0.8976472350455894 -0.3769272124134376 0.05867762717170198 0.6285188973712371 -0.4615737077226555 -0.901993369243028 0.23863945657415112 -0.08080407500849726 -0.7279716706937909 -0.3536120655367591 0.0944937454688159 -0.83994944195633 0.6139337992246383 -0.4669559596299136 0.15383965450235432 0.08132249918227877 0.399315243643529 0.5883599276517646 -0.7289489801966673 0.39548156226930864 -0.30618685343577895 -0.7038485975962844 -0.29148795374001774 0.10750296870824584 -0.3757564200207546
0.913007388389159 0.6500150072638613 0.23130157201205895 0.6233332686763413 -0.2750925695628016 0.21844024505572293 -0.680976458198835 0.12078103990187859 0.8126734631841066 -0.4618637168243727 -0.9062483173454048 0.6012592253330167 -0.010700034071114964 0.151497556874455 0.26667305663390517 -0.863630456289008 -0.39857115328903053 0.451166277320113 -0.2728491457802052 0.6586580747668265 0.19916095564334588 -0.6946029263340341 0.6081404528303185 -0.7902575459099942 -0.3952677489312721 -0.22614820271933372 0.4568319251989894 -0.046092211031222116 0.7715147328762719 0.28195769893437944 -0.7030272701155148 -0.9959327241265461 -0.3813304918901646 -0.27071480153607647 -0.3421324245537282 -0.23575987254026104 -0.41488496099789296 -0.21728210632762904 0.5374441060106163 -0.07056828094613948 0.5373321080152187 0.8389936149025624 0.8449470286181221 -0.9266293288564758 -0.27548401790855154 -0.8145314540941799 -0.004312515503704945 0.09452649677145461 -0.5438746474807351 0.9198602032111566 -0.2519480389054767 -0.3951499433221968 -0.9268808742272966 1.008728674745723 0.22109951810128783 -0.44267478544881544 0.6184635737444024 -0.2565065168343317 0.46156143076322825 -0.4507263566724858 -0.6887366496512867 0.804747439393895 0.21308915743538623 0.710909356846985 -0.07092899444010832 -0.7773138021669636 -0.00027574786690985295 0.22767140189380985 0.6959060560754599 0.04271074130329489 -0.8919621250808848 -0.31051334958647814 0.03717043412609063 1.0153378132972444 0.2540517874778283 -0.9124631261199609 -1.032131850210687 -0.5415203223654572 -0.43290738555865993 0.6454647347246358 0.7052469849316381 -0.9015224561772109 0.48160138055826524 -0.30221679566141557 -0.6289557865950439 0.27991180015839756 -0.3396832616476696 -0.2187192900467225 -0.9630511439798972 0.4760719386527909 -0.6781139020098433 -0.8100725413256253 -0.05122539268951348 -0.6508660782985454 0.9977516818821359 0.17559324158392728 -0.5278831914293808 -1.0220903322787085 0.865387745223013 0.7220458501846772
0.30605659413242803 0.8181475603824027 -0.441530353658368 -0.35392144437749856 0.2940804028091538 -1.004118532996196 -0.45311416488431205 -0.1868465364874863 0.16166408401534316 0.49762816730897275 0.6594117017216625 0.4201552188823886 -0.8051660349118392 0.3550934097327704 -0.5856673000201034 -0.9071756576453271 0.5948645781212742 -0.8400861005151635 0.1353359368122856 0.9710514712364557 0.21903344899598132 -0.47064429826172055 -0.8445689794426877 -0.46175522571710914 0.07908175613683592 0.5716060036427221 0.06256789712049428 0.19061284094752892 0.025437799228264144 -0.5687066592424826 0.22545106009023655 0.747550217339585 -0.7299478555959085 0.8796603655543173 0.44244123373426736 0.49130263859170853 0.6980360853807204 -0.40220618122327045 -0.8474523099207736 -0.6863012010281314 -0.4325968314568652 0.13310423107138275 -0.8074972426471458 0.7502277116063916 0.3005218018287474 0.9174062442015387 -0.6812139904778911 0.379923073280245 -0.8209153532917941 -0.6991405789611208 -0.3641743642287081 0.6728523473955559 0.9805651469852315 0.6564427288180231 0.06784809799884944 -0.6548138028771199 -0.23769409741950842 -0.8906495360560711 0.5276859675878901 0.34822413150537607 0.6104796737547504 0.6251804933815672 -0.256643072155005 0.2139329959501291 -0.3180359484248041 -0.9708231491321778 -0.3959297465270656 -0.012355879454850798 0.02804067641503337 0.2759612704406561 -0.6263506508697647 -0.894989230225468 0.7655563207826911 -0.20640581122490126 -0.5242663943157271 0.0785917622512791 0.15146240584832021 0.46298676095081237 0.5292714272002482 0.269420440133561 -0.459604220965802 0.35647778362161114 -0.4926287247755644 0.42339841636924724 0.6663689134249816 -0.48675844576368393 -0.972711272389518 -0.36854456122136414 0.8927121819582163 0.4637978436710592 1.0267114865008709 -0.5429790704588716 0.1846483231223945 0.01976591298490406 -0.2084515348064012 0.5995453282664648 0.04800319983634676 0.5757746506734613 -0.5025299759931399 0.2187028118833437
0.3389126154410409 0.7831201115087887 0.40938774145487805 0.745828275974367 -0.17579229659058865 0.48792353983420367 -0.022987710695151837 0.5033558948908848 -0.3296738182171251 -0.5193218862608162 0.14793004582118946 -0.7702010179208602 0.371305873710929 -0.2808342427869958 0.0016272419640179826 -0.9893188905854384 0.8893541139411127 0.1382213524530721 0.7909326699136907 0.18536759237906553 -0.8420777605481425 0.9285652114246433 0.025083697199910937 -0.6258354966388965 0.47945961856978997 0.9089167455100198 0.570217144767402 -0.7765005264970595 -0.43644259228919047 -0.06461940254557318 -0.4940390890403262 -0.11127542790785257 -0.29508654661389083 -0.8951153315911813 -0.04651470229279918 0.5794409478439324 -0.06558815539948529 -0.11550551071163322 -0.34405954270039163 -0.6675875251791845 -0.17271537231661338 -0.2738426648619208 0.7552471021564734 0.7184845881998422 -0.4238863700616325 0.7774784389854875 -0.8132519783863139 0.16533922436750564 -0.07686346372884222 0.20596932886806227 -0.6000211484128587 0.14370895850066395 -0.32388491478982223 -0.22637763013914639 0.5544514446414992 -0.5648238907867265 0.7317320915247325 0.8046093414183727 -0.05801322443149613 -0.7531872296885308 -0.7152090783721816 0.7030141743118546 -0.05667268030044002 0.3806904355551497 -0.038079864974039375 0.16298518622228605 0.7642530801819731 -0.054852544217533376 -0.5565965645569184 -0.5505931141840888 0.9050921207818908 1.012745819639056 0.7723448981163299 0.3526399683175761 -0.047200703794368117 0.5848938731168218 0.025498132161184094 0.09909652985191707 -0.7879206474551208 0.3244840359553689 -0.8393012412660377 0.26512111997215704 -0.16883048958453303 0.8448672465568993 -0.914018947091618 -0.4249650901032835 0.3064096019445366 -0.7958135310881825 -0.8566765494221228 0.8409447582293855 0.1329857264819551 -0.8246013854645031 0.47036289477045434 -0.5567810488385991 -1.0287298173472872 0.8383013614745777 0.05211412802302346 0.79772902294667 -0.011920833585354198 0.8478776970526715
